FC Layer, 300 (Glorot Init.) Original_Weights[array([[ 0.06812921,  0.03127486,  0.02412889, ..., -0.00488689,
         0.00098122,  0.00379469],
       [ 0.03370968, -0.00439493, -0.01763973, ..., -0.04248241,
         0.01906567, -0.04065768],
       [ 0.05752833,  0.00116158, -0.03934428, ..., -0.00697951,
        -0.0079958 , -0.00369097],
       ...,
       [ 0.03569245,  0.02246359, -0.06137045, ...,  0.02152923,
         0.04515614,  0.02422436],
       [ 0.05301665, -0.04368319, -0.01177651, ...,  0.00050718,
         0.00916705, -0.01215804],
       [-0.04747194, -0.06624366, -0.0671228 , ..., -0.01155939,
        -0.03192266, -0.01754811]], dtype=float32)
 array([0., 0., 0., 0., 0., 0., 0., 0., 0., 0., 0., 0., 0., 0., 0., 0., 0.,
       0., 0., 0., 0., 0., 0., 0., 0., 0., 0., 0., 0., 0., 0., 0., 0., 0.,
       0., 0., 0., 0., 0., 0., 0., 0., 0., 0., 0., 0., 0., 0., 0., 0., 0.,
       0., 0., 0., 0., 0., 0., 0., 0., 0., 0., 0., 0., 0., 0., 0., 0., 0.,
       0., 0., 0., 0., 0., 0., 0., 0., 0., 0., 0., 0., 0., 0., 0., 0., 0.,
       0., 0., 0., 0., 0., 0., 0., 0., 0., 0., 0., 0., 0., 0., 0., 0., 0.,
       0., 0., 0., 0., 0., 0., 0., 0., 0., 0., 0., 0., 0., 0., 0., 0., 0.,
       0., 0., 0., 0., 0., 0., 0., 0., 0., 0., 0., 0., 0., 0., 0., 0., 0.,
       0., 0., 0., 0., 0., 0., 0., 0., 0., 0., 0., 0., 0., 0., 0., 0., 0.,
       0., 0., 0., 0., 0., 0., 0., 0., 0., 0., 0., 0., 0., 0., 0., 0., 0.,
       0., 0., 0., 0., 0., 0., 0., 0., 0., 0., 0., 0., 0., 0., 0., 0., 0.,
       0., 0., 0., 0., 0., 0., 0., 0., 0., 0., 0., 0., 0., 0., 0., 0., 0.,
       0., 0., 0., 0., 0., 0., 0., 0., 0., 0., 0., 0., 0., 0., 0., 0., 0.,
       0., 0., 0., 0., 0., 0., 0., 0., 0., 0., 0., 0., 0., 0., 0., 0., 0.,
       0., 0., 0., 0., 0., 0., 0., 0., 0., 0., 0., 0., 0., 0., 0., 0., 0.,
       0., 0., 0., 0., 0., 0., 0., 0., 0., 0., 0., 0., 0., 0., 0., 0., 0.,
       0., 0., 0., 0., 0., 0., 0., 0., 0., 0., 0., 0., 0., 0., 0., 0., 0.,
       0., 0., 0., 0., 0., 0., 0., 0., 0., 0., 0.], dtype=float32)]FC Layer, 100 (Glorot Init.) Original_Weights[array([[ 0.06426168, -0.0093101 ,  0.00663441, ..., -0.11629678,
        -0.06733687,  0.08238896],
       [ 0.04659212, -0.00642002, -0.06293681, ...,  0.08535274,
         0.02686208, -0.11014882],
       [-0.04045973,  0.10573769, -0.05711727, ..., -0.01102006,
         0.02384602, -0.07066336],
       ...,
       [ 0.11909714,  0.03258093, -0.05094403, ...,  0.11691669,
        -0.03169152, -0.09004463],
       [ 0.08893643,  0.0571188 , -0.09573598, ..., -0.08330981,
        -0.09870077, -0.11755051],
       [-0.00755   ,  0.0674017 ,  0.08016854, ...,  0.06240674,
         0.00580322, -0.01776356]], dtype=float32)
 array([0., 0., 0., 0., 0., 0., 0., 0., 0., 0., 0., 0., 0., 0., 0., 0., 0.,
       0., 0., 0., 0., 0., 0., 0., 0., 0., 0., 0., 0., 0., 0., 0., 0., 0.,
       0., 0., 0., 0., 0., 0., 0., 0., 0., 0., 0., 0., 0., 0., 0., 0., 0.,
       0., 0., 0., 0., 0., 0., 0., 0., 0., 0., 0., 0., 0., 0., 0., 0., 0.,
       0., 0., 0., 0., 0., 0., 0., 0., 0., 0., 0., 0., 0., 0., 0., 0., 0.,
       0., 0., 0., 0., 0., 0., 0., 0., 0., 0., 0., 0., 0., 0., 0.],
      dtype=float32)]FC Layer, 10 (Softmax) Original_Weights[array([[ 6.55615628e-02,  1.55034333e-01, -1.90926731e-01,
        -1.14230372e-01, -1.68781698e-01, -1.64220631e-01,
        -1.44114494e-01,  7.56608844e-02, -2.10537016e-02,
         1.76910698e-01],
       [ 6.26411140e-02,  9.56302583e-02, -1.47060707e-01,
        -7.87820518e-02,  1.09374404e-01,  2.29467601e-01,
         1.24777585e-01, -2.11505890e-01, -9.39642489e-02,
         1.36727303e-01],
       [ 6.16601110e-03,  3.33767533e-02, -2.72265077e-02,
         1.24611437e-01,  7.72011280e-02,  6.35027587e-02,
        -1.39874995e-01,  1.37723744e-01, -1.41497910e-01,
        -6.39348030e-02],
       [ 1.69630378e-01, -1.21144868e-01,  1.91318691e-01,
        -1.22368768e-01,  6.98513985e-02, -2.16103271e-01,
        -7.62618035e-02,  1.39697522e-01,  4.48237062e-02,
        -6.72642291e-02],
       [-1.14614300e-01, -6.16707504e-02, -1.57119662e-01,
        -1.87493443e-01, -2.11976305e-01, -7.10063130e-02,
         2.30656862e-02, -4.35449183e-03, -1.43815637e-01,
         1.69520289e-01],
       [ 1.15668923e-02,  1.72333866e-01,  7.45812058e-02,
        -3.02069634e-02,  1.34210020e-01,  2.10158825e-01,
        -2.26545766e-01, -8.96119326e-02, -1.80626392e-01,
         8.44431818e-02],
       [-3.13264132e-02,  1.86688393e-01, -1.80254385e-01,
        -1.24368943e-01, -5.20103127e-02,  1.03301674e-01,
         1.96914673e-02, -1.88906953e-01,  1.33037508e-01,
        -1.40022427e-01],
       [-1.97740719e-01,  1.48234546e-01,  1.10303909e-02,
         3.43940854e-02, -1.44392699e-02, -2.85213441e-02,
        -1.71163812e-01, -2.30025917e-01,  1.89621925e-01,
        -6.47143573e-02],
       [ 2.92901397e-02,  5.37953377e-02, -1.94532558e-01,
         1.78819388e-01, -3.44018638e-03,  9.29303765e-02,
         1.84003323e-01, -3.81593853e-02,  2.09602833e-01,
         2.47259140e-02],
       [ 9.05714631e-02,  2.06387401e-01, -1.16095513e-01,
         2.15681195e-01, -1.06714219e-01, -1.37078330e-01,
         1.99874908e-01, -8.41134489e-02,  5.48294783e-02,
         1.32260621e-02],
       [-5.32007068e-02,  1.17203772e-01,  3.28421593e-03,
        -8.47691596e-02, -9.10989940e-02, -1.99546561e-01,
        -2.17869967e-01,  1.42906010e-02,  6.44507110e-02,
         1.14023775e-01],
       [ 3.69088650e-02, -5.26589155e-02,  4.17650640e-02,
        -9.53525305e-03, -6.21238351e-02, -4.41376865e-02,
        -3.25167924e-02,  1.67997152e-01,  1.20203048e-02,
         6.18210435e-03],
       [-1.18166514e-01, -4.88945991e-02,  1.15485281e-01,
         7.83112645e-02,  7.46430457e-02,  1.53064311e-01,
        -4.29729819e-02, -2.70273834e-02, -1.74654499e-01,
         5.63635230e-02],
       [ 1.25106514e-01, -1.88016742e-02,  2.27066904e-01,
         2.00596124e-01,  5.86642325e-02,  8.51704180e-02,
        -1.50747508e-01,  6.13419414e-02, -2.20028564e-01,
         8.51038694e-02],
       [-1.80439085e-01, -7.82717317e-02,  1.96181059e-01,
         5.58084249e-02,  1.22319281e-01,  7.20538199e-03,
         5.66181540e-02, -7.59522766e-02, -9.38475877e-02,
        -1.31947130e-01],
       [ 7.59041011e-02, -5.08226007e-02,  9.05109346e-02,
        -4.49992716e-03, -2.49851048e-02, -1.74339280e-01,
        -1.88866407e-02, -1.34759933e-01,  4.98398542e-02,
        -7.30633438e-02],
       [ 2.26358473e-02,  9.87429917e-03,  1.78476334e-01,
        -2.18387038e-01, -8.37493390e-02, -1.54422283e-01,
         9.68182683e-02,  3.06935310e-02, -1.19144306e-01,
         1.34421200e-01],
       [-2.10041389e-01,  1.42637670e-01, -1.55360922e-01,
         1.36340380e-01, -1.97944120e-01, -2.15886667e-01,
        -7.80606866e-02, -1.20374389e-01, -7.15697110e-02,
         3.32670510e-02],
       [-2.01001436e-01,  6.57239854e-02, -1.46295741e-01,
        -1.40454695e-01, -6.68366998e-02, -2.04558372e-02,
         1.81923032e-01,  9.48380232e-02, -2.24690422e-01,
        -5.89792132e-02],
       [ 7.87219703e-02, -2.04064637e-01, -6.28172457e-02,
        -1.58454701e-01,  3.24206054e-03, -1.52115017e-01,
         1.03391379e-01,  6.79375827e-02, -3.12845409e-02,
        -1.21871024e-01],
       [-2.23746151e-01, -6.90676719e-02, -2.05650866e-01,
         1.59559548e-02, -1.52803302e-01, -1.65246040e-01,
        -8.33880603e-02, -3.55678797e-03, -1.70229346e-01,
        -1.86211362e-01],
       [-7.94653445e-02,  1.67585135e-01, -1.98533133e-01,
         4.26804125e-02,  2.81363130e-02,  9.30745006e-02,
         1.99351460e-01,  3.52699757e-02,  7.71424174e-02,
         1.15441352e-01],
       [-1.68792278e-01,  7.90777206e-02,  1.04722410e-01,
        -1.52145982e-01, -1.36438251e-01,  1.00675672e-01,
        -1.20784432e-01,  1.55698478e-01, -1.41939521e-01,
        -2.11574391e-01],
       [-5.27565181e-02, -1.55117646e-01,  4.37740982e-02,
        -1.25278801e-01,  1.25312388e-01, -1.80645049e-01,
         1.12660229e-01, -1.13008320e-02,  2.61451304e-03,
         1.15457833e-01],
       [-6.39411956e-02,  2.16989398e-01, -8.42375606e-02,
        -9.15971845e-02,  9.90633667e-02,  8.73008668e-02,
        -2.99933702e-02,  1.93617016e-01,  5.21314740e-02,
        -1.80422425e-01],
       [-2.30102092e-01,  4.08703387e-02,  8.46029520e-02,
        -8.51736367e-02,  3.77316773e-02,  9.77076292e-02,
        -1.36580527e-01, -3.85348052e-02, -1.59333050e-01,
         1.88588619e-01],
       [-4.76642400e-02, -8.83309543e-02, -6.86208159e-02,
        -1.94591314e-01,  1.22118205e-01,  7.68280327e-02,
        -1.12167001e-02, -2.24515125e-01, -8.79816562e-02,
        -3.07662785e-03],
       [ 6.40957057e-03, -1.75253525e-01, -1.04591608e-01,
         2.00728536e-01,  1.62899911e-01,  1.03125155e-01,
         1.06858432e-01,  1.43061697e-01,  2.18422800e-01,
        -7.13831782e-02],
       [ 7.36438930e-02, -1.97608978e-01, -1.85478687e-01,
        -1.65450990e-01,  1.75024956e-01,  9.32859778e-02,
        -1.70142367e-01, -1.43647194e-05,  1.15837604e-01,
         1.00885600e-01],
       [ 2.05530763e-01, -1.64004654e-01, -2.24187523e-02,
         1.26434982e-01, -7.28113800e-02, -2.00708315e-01,
        -8.82438123e-02,  1.10806346e-01,  1.78755522e-01,
        -7.61526227e-02],
       [-1.76176965e-01, -2.04293877e-02, -4.19819355e-03,
         3.62024307e-02, -3.44000757e-03, -1.09710671e-01,
         1.79638565e-02,  1.51355445e-01, -2.10821226e-01,
        -1.05106890e-01],
       [-2.00894132e-01, -4.56716418e-02, -2.23751783e-01,
        -1.60061598e-01,  2.00461864e-01,  2.06892163e-01,
        -1.25638276e-01, -1.72536716e-01, -2.12413415e-01,
         1.70823872e-01],
       [ 1.61235720e-01, -1.94100916e-01, -2.13628739e-01,
         1.43224895e-01, -1.88921213e-01, -7.72833079e-02,
        -1.74041420e-01,  8.73402059e-02,  1.16860420e-01,
         3.08443010e-02],
       [ 1.14241451e-01, -2.01273769e-01,  1.70802712e-01,
        -1.45707965e-01, -9.32282209e-03, -1.60491124e-01,
        -1.66490704e-01, -6.69856519e-02,  1.89589620e-01,
        -9.08357799e-02],
       [ 2.19608039e-01,  7.77512789e-03, -8.41360986e-02,
        -2.95793712e-02, -1.21837892e-01, -2.00243041e-01,
         3.63000333e-02,  5.38920462e-02, -9.33468342e-02,
        -1.95425719e-01],
       [ 3.40126455e-02,  3.35209072e-03,  8.88665617e-02,
        -6.28514439e-02, -2.29117692e-01, -2.29062229e-01,
         1.72817349e-01, -1.48985207e-01, -1.78509891e-01,
        -4.15157676e-02],
       [ 1.55790567e-01, -1.14389904e-01, -1.23250894e-01,
        -2.22539783e-01,  1.24039650e-02,  2.22965181e-02,
         8.44575763e-02, -1.39190197e-01,  1.45241559e-01,
        -1.91437110e-01],
       [ 1.02203041e-01, -2.18881056e-01,  9.43140388e-02,
         4.67351675e-02, -6.05635494e-02,  4.27542031e-02,
         1.77780688e-01, -1.76235884e-01, -1.14049517e-01,
        -7.36685544e-02],
       [-7.99228251e-03,  1.67273551e-01,  1.33751750e-01,
         5.64368069e-02,  4.89345789e-02,  2.32321620e-02,
         6.41639233e-02,  2.27514923e-01,  1.58482999e-01,
        -4.77475375e-02],
       [ 9.85842943e-03,  2.20387429e-01, -9.68964994e-02,
         9.74910855e-02,  2.03705728e-02,  1.07177794e-02,
         7.47235119e-02,  1.02026433e-01, -5.21197319e-02,
        -1.31027520e-01],
       [ 2.02266812e-01, -2.20064923e-01,  1.88426286e-01,
         1.75435990e-01,  1.49821073e-01, -1.53307796e-01,
        -2.10563183e-01,  4.90435362e-02,  8.33567083e-02,
         2.21334696e-01],
       [ 2.20166028e-01,  4.19561565e-02, -2.06439614e-01,
        -7.64582008e-02,  1.40796483e-01,  1.21157050e-01,
         1.19328320e-01, -3.17514390e-02,  1.68578744e-01,
        -1.01959214e-01],
       [ 4.45436835e-02, -1.06018975e-01,  2.21059978e-01,
        -8.52344930e-03,  1.27813518e-01, -1.92470193e-01,
         7.23861754e-02, -1.41810000e-01, -1.46937102e-01,
         6.38086796e-02],
       [-1.47937045e-01, -2.10276142e-01,  3.63234878e-02,
        -1.48389637e-01, -2.27480620e-01,  1.61494255e-01,
         1.49885207e-01, -1.50343984e-01, -1.84967518e-01,
         2.01394111e-01],
       [ 1.90571427e-01,  3.67879272e-02, -8.65589082e-02,
         5.31591475e-02, -1.86211139e-01,  9.41255689e-02,
         1.68179870e-02,  1.58340991e-01,  1.68926984e-01,
         2.30181158e-01],
       [-2.23300129e-01, -2.05277026e-01, -1.05335966e-01,
        -7.62356967e-02, -1.81786865e-02, -2.13132381e-01,
        -9.24617052e-02,  6.04784787e-02, -1.01635411e-01,
        -1.47475481e-01],
       [ 7.67837763e-02, -6.37710392e-02, -1.25806510e-01,
        -8.47675502e-02,  8.13978910e-03,  5.61502576e-03,
        -8.08423162e-02, -1.18104264e-01, -1.10984631e-01,
         3.86312902e-02],
       [ 1.24399751e-01, -6.42961264e-02,  1.21201217e-01,
        -2.30326280e-01, -1.09792359e-01, -2.19607547e-01,
        -1.75811917e-01,  1.30950361e-01, -2.00294152e-01,
        -8.26768279e-02],
       [-1.58552200e-01,  1.99921459e-01, -4.06026840e-02,
         1.35796577e-01, -6.18441999e-02, -4.86803949e-02,
        -8.79391730e-02,  8.46741199e-02,  2.14699507e-01,
        -1.75805181e-01],
       [-1.11677326e-01,  1.07950479e-01, -4.29453105e-02,
         1.48846120e-01, -1.88711286e-01,  8.17142427e-03,
         1.37923926e-01,  5.23966551e-02,  1.39642835e-01,
         3.55384648e-02],
       [ 3.29959393e-02, -9.89497900e-02, -1.58837631e-01,
        -1.86745524e-01, -1.52994469e-01, -3.00548971e-02,
         6.27039969e-02, -2.30056942e-01, -9.10699368e-03,
        -8.70524794e-02],
       [-1.52661651e-02, -8.02924484e-02,  2.02706099e-01,
         4.96930778e-02, -1.94596827e-01,  2.15958357e-02,
        -7.09512979e-02,  2.81620324e-02,  2.04656035e-01,
        -6.74395710e-02],
       [ 1.54091984e-01,  7.47753084e-02, -2.13215292e-01,
         1.62850052e-01,  6.19597435e-02,  9.71872807e-02,
         1.53421283e-01,  3.08201313e-02, -1.60110369e-01,
         1.05920583e-02],
       [-1.87116414e-01, -1.51039332e-01,  1.93079412e-01,
        -2.31748626e-01, -3.78365964e-02, -2.08326861e-01,
         3.62075865e-02, -2.12573826e-01,  9.07652378e-02,
         6.86869025e-02],
       [ 1.07712626e-01,  2.11079538e-01, -1.66879758e-01,
        -8.50535929e-02, -1.19372882e-01,  1.10114932e-01,
        -2.06928626e-01,  5.24200201e-02, -1.28754109e-01,
         1.23606861e-01],
       [ 1.11203730e-01, -8.67771357e-02, -7.26565868e-02,
         1.00167394e-02, -8.26886296e-02,  1.57669425e-01,
         1.98914886e-01,  9.00616348e-02,  3.25871706e-02,
        -2.16641426e-02],
       [-5.93553483e-02,  1.36845857e-01, -2.26665094e-01,
         4.77493107e-02,  1.83262736e-01, -1.77662522e-01,
         2.73191035e-02, -1.19272314e-01,  3.60980630e-02,
         3.08049917e-02],
       [-4.07399982e-02, -4.88066226e-02, -1.31380320e-01,
        -2.32052609e-01,  1.12166554e-01, -4.46245074e-04,
        -9.02845263e-02, -1.55549020e-01, -3.74572277e-02,
        -2.94131041e-02],
       [-7.77317584e-03,  8.95184278e-02,  1.46682918e-01,
        -7.13219792e-02,  1.21624678e-01,  1.59857750e-01,
        -1.50225312e-01, -2.07778662e-01,  1.15132153e-01,
        -6.60305768e-02],
       [-1.63075805e-01, -3.53290439e-02,  1.29060000e-02,
        -1.41637683e-01, -6.15077019e-02,  1.48811936e-03,
         1.18657082e-01,  6.46958649e-02,  7.14232624e-02,
        -1.45392463e-01],
       [ 1.82440579e-01,  4.22571898e-02,  1.77107245e-01,
        -2.03221440e-02, -1.40497461e-01,  2.00137407e-01,
         1.07512921e-01,  1.59311146e-02,  2.19651759e-02,
         7.52957165e-02],
       [ 8.72017741e-02,  1.37886405e-01, -1.19511783e-03,
        -7.52348602e-02,  9.96053815e-02,  1.59219682e-01,
         6.78785741e-02,  1.42449141e-01, -5.68225235e-02,
         1.46485865e-02],
       [-6.44142777e-02,  1.49281383e-01,  1.75515860e-01,
        -1.56371385e-01,  9.73832607e-03,  1.03454232e-01,
         6.19708300e-02, -1.76184312e-01,  1.55951440e-01,
        -1.50336355e-01],
       [ 1.96730196e-01, -2.00862840e-01,  2.17075557e-01,
         3.04313004e-02,  8.80393982e-02,  1.12741411e-01,
        -1.66547060e-01,  1.85263246e-01, -2.12093681e-01,
         2.33215988e-01],
       [ 1.02013350e-02, -2.12309837e-01,  1.47200584e-01,
        -1.77523822e-01,  8.11169446e-02,  9.94579494e-02,
         4.24640477e-02, -2.03238040e-01, -2.06056014e-01,
        -1.37921691e-01],
       [ 1.04047745e-01,  2.17545629e-01, -1.13708228e-02,
        -1.69010058e-01, -2.16562927e-01, -1.31868050e-01,
         2.18476087e-01,  5.71612418e-02,  9.80453789e-02,
        -9.88258421e-02],
       [-2.15218529e-01, -1.22829989e-01,  1.94039375e-01,
        -1.44202143e-01, -1.43088937e-01,  6.85532689e-02,
         1.11848831e-01, -4.13000435e-02,  6.51370287e-02,
         1.73977792e-01],
       [ 3.94714475e-02,  1.24366164e-01, -1.70407295e-01,
        -2.76606083e-02, -1.57053769e-02,  1.70075536e-01,
        -1.54264256e-01,  5.08957207e-02, -1.87965974e-01,
        -1.57442182e-01],
       [ 3.73387337e-02, -1.83858097e-01,  1.63390458e-01,
        -2.14332461e-01, -1.34509861e-01, -2.18892246e-01,
        -1.39133185e-01,  3.96359861e-02,  1.93526894e-01,
         1.01594836e-01],
       [ 1.30420089e-01,  9.08398330e-02, -2.16434866e-01,
         2.12312728e-01, -1.39872253e-01, -1.26031965e-01,
        -1.11236930e-01,  2.13360965e-01,  7.65380561e-02,
        -1.72478706e-01],
       [ 1.45220757e-02,  1.35222107e-01, -1.85422719e-01,
        -2.08242834e-01, -1.09681159e-01, -2.27702349e-01,
         2.00663775e-01, -1.89327136e-01, -1.89859122e-01,
        -1.33729637e-01],
       [ 1.42516524e-01,  3.12174261e-02, -1.62792385e-01,
         1.06204957e-01, -8.93506110e-02,  2.19402969e-01,
        -6.47562891e-02, -9.87623632e-02, -2.06080243e-01,
        -1.46286398e-01],
       [ 1.66501731e-01, -7.77561069e-02,  8.40702355e-02,
        -1.85428619e-01, -9.47484225e-02, -3.68538499e-02,
        -2.00347826e-01, -5.17536700e-02, -1.36908501e-01,
         7.68552721e-02],
       [ 2.06761003e-01, -1.05044186e-01,  1.07849747e-01,
         2.17509359e-01, -1.81052417e-01, -1.24682881e-01,
        -2.19146773e-01, -9.15886611e-02, -1.11444123e-01,
        -8.60174000e-02],
       [ 1.78911597e-01,  4.70844209e-02, -2.10430115e-01,
        -1.75469220e-02,  1.14927530e-01, -1.59232706e-01,
         1.16379172e-01, -6.06211871e-02,  1.41668230e-01,
         2.33473569e-01],
       [ 2.09087312e-01,  9.73630548e-02, -1.61524594e-01,
         1.35916412e-01,  1.98134124e-01, -1.02939725e-01,
         2.22656548e-01,  9.78503823e-02,  1.57393277e-01,
        -1.91950560e-01],
       [-2.85499096e-02, -7.62769580e-02, -2.31697410e-01,
        -1.92824006e-01,  1.51142925e-01, -1.16077475e-01,
         8.73041153e-03,  1.64188445e-01,  1.40397221e-01,
        -5.16790152e-03],
       [ 2.15984821e-01, -1.30073845e-01,  2.11804867e-01,
         9.73020792e-02,  9.97820199e-02,  4.15436029e-02,
        -2.02876270e-01,  3.55589092e-02, -9.32309031e-02,
         1.11151844e-01],
       [-2.04343885e-01, -1.98394880e-01, -1.46429107e-01,
         6.68264627e-02, -2.17972204e-01, -2.22005397e-01,
        -1.03045851e-01, -6.87143058e-02,  1.61615402e-01,
        -9.74453539e-02],
       [ 8.62195194e-02,  2.16231793e-01,  4.92571592e-02,
         3.78094912e-02,  2.30823368e-01, -2.01885164e-01,
         1.03099644e-02, -1.92194894e-01,  1.58254981e-01,
        -1.24973379e-01],
       [ 2.52279937e-02, -8.58886540e-02,  1.24432534e-01,
        -3.59377563e-02, -7.05155283e-02, -2.17540950e-01,
        -3.02837491e-02,  2.16573805e-01,  1.61912143e-02,
        -1.12658285e-01],
       [-7.96383619e-03,  2.29727238e-01, -6.26851618e-03,
        -1.20435417e-01, -1.71603978e-01, -1.65523216e-01,
         5.27404249e-02, -2.14187682e-01,  1.67052537e-01,
         1.28730506e-01],
       [-2.17137635e-01,  1.64588749e-01, -2.10278258e-01,
         2.16846645e-01,  1.29586279e-01,  8.51275325e-02,
         2.07922995e-01,  1.03261501e-01,  1.62368029e-01,
        -1.94017723e-01],
       [-1.64476931e-02,  7.46718347e-02, -1.09108299e-01,
        -1.86494887e-01,  4.14162576e-02,  2.25373685e-01,
        -1.54002711e-01,  1.80262566e-01, -4.32540029e-02,
         1.86855793e-02],
       [-4.20093387e-02, -3.58972251e-02, -9.90935117e-02,
         1.89716130e-01, -2.41766572e-02,  4.15962934e-02,
         1.95958972e-01,  6.39381409e-02, -1.23186633e-01,
        -2.69856155e-02],
       [-4.57768142e-02, -1.24815740e-01, -9.30254459e-02,
         1.05066299e-01,  1.57453299e-01, -2.12089509e-01,
         2.29787499e-01,  3.01326215e-02,  6.26147985e-02,
        -2.31065452e-02],
       [-2.25741982e-01,  1.25665724e-01, -8.19958746e-03,
         1.97455287e-01, -1.93862319e-02, -1.74393564e-01,
        -1.40692905e-01, -2.51923651e-02, -1.91640243e-01,
        -5.27192056e-02],
       [ 7.95425773e-02,  4.95834053e-02,  1.56234533e-01,
        -1.53087348e-01,  1.62400663e-01, -6.51896596e-02,
        -9.66068357e-02, -3.15750837e-02,  1.87260687e-01,
         5.53854108e-02],
       [-1.59228578e-01, -2.24672154e-01, -5.70539385e-02,
         1.40383363e-01,  2.08873749e-02,  6.31954372e-02,
        -1.94961429e-02,  1.30118608e-01,  1.01253390e-01,
         2.04574317e-01],
       [-2.30920687e-01,  1.13305926e-01, -2.19211027e-01,
         5.51408529e-03,  2.07809210e-02,  1.76072627e-01,
         8.74044001e-03, -1.63545430e-01, -7.98455328e-02,
         1.96540922e-01],
       [ 9.54754651e-02, -2.31327832e-01,  8.54272842e-02,
        -2.10177481e-01, -8.80494714e-02, -4.22388017e-02,
        -5.87616563e-02, -1.90209478e-01,  1.41596019e-01,
        -1.66089341e-01],
       [ 1.57999903e-01, -5.45455515e-02,  1.92804784e-01,
        -6.59477860e-02, -7.87903517e-02, -5.79448044e-02,
        -9.81095433e-02,  3.28453779e-02,  6.36155605e-02,
        -1.89641908e-01],
       [ 5.46192229e-02, -1.31090492e-01, -1.40525699e-01,
        -8.11877102e-02, -2.23284036e-01,  1.20476186e-01,
        -1.90440834e-01,  2.30499446e-01,  1.98904306e-01,
         1.04119807e-01],
       [-6.05941713e-02, -6.63962960e-02,  1.79542154e-01,
        -1.07975602e-01, -9.84593332e-02,  1.68473005e-01,
         5.53650260e-02, -2.41102874e-02, -1.25520229e-01,
         7.63230622e-02],
       [ 2.83630192e-03, -1.91727102e-01,  9.26193893e-02,
         1.19257331e-01, -1.33292079e-01, -1.05779141e-01,
        -2.12008268e-01, -2.23337054e-01, -2.30013564e-01,
         1.41696960e-01],
       [ 1.70343548e-01,  2.04658955e-01,  1.86258852e-02,
         1.53455019e-01, -5.61912507e-02, -1.16107211e-01,
         6.11583591e-02,  6.73333704e-02, -8.09798539e-02,
         2.19977677e-01],
       [-2.18438432e-01, -2.15412810e-01, -2.08356157e-01,
         1.14819109e-01, -8.69212300e-02, -7.12047219e-02,
        -1.40788734e-01,  1.55806094e-01, -8.12395513e-02,
        -1.88460439e-01],
       [ 9.38662589e-02,  2.15289742e-01, -4.85166758e-02,
         1.46749675e-01,  1.74981683e-01, -1.08814962e-01,
         2.00051367e-02, -1.72302961e-01, -3.82701904e-02,
         1.03204727e-01],
       [ 3.70162129e-02, -1.99934721e-01,  2.21775502e-01,
        -7.96996504e-02,  5.73986173e-02, -1.16556898e-01,
         1.05759263e-01, -1.89768583e-01, -9.02638137e-02,
        -1.99855089e-01],
       [-7.80914724e-03,  7.22943246e-03,  1.32613033e-02,
         1.37641013e-01,  1.66054368e-02,  3.74773443e-02,
        -2.94569731e-02, -3.45155150e-02,  1.48986280e-01,
        -6.56489283e-02]], dtype=float32)
 array([0., 0., 0., 0., 0., 0., 0., 0., 0., 0.], dtype=float32)]