FC Layer, 300 (Glorot Init.) Original_Weights[array([[ 0.06812921,  0.        ,  0.        , ..., -0.        ,
         0.        ,  0.        ],
       [ 0.        , -0.        , -0.        , ..., -0.        ,
         0.        , -0.        ],
       [ 0.        ,  0.        , -0.        , ..., -0.        ,
        -0.        , -0.        ],
       ...,
       [ 0.        ,  0.        , -0.        , ...,  0.        ,
         0.        ,  0.        ],
       [ 0.        , -0.        , -0.        , ...,  0.        ,
         0.        , -0.        ],
       [-0.        , -0.        , -0.        , ..., -0.        ,
        -0.        , -0.        ]], dtype=float32)
 array([0., 0., 0., 0., 0., 0., 0., 0., 0., 0., 0., 0., 0., 0., 0., 0., 0.,
       0., 0., 0., 0., 0., 0., 0., 0., 0., 0., 0., 0., 0., 0., 0., 0., 0.,
       0., 0., 0., 0., 0., 0., 0., 0., 0., 0., 0., 0., 0., 0., 0., 0., 0.,
       0., 0., 0., 0., 0., 0., 0., 0., 0., 0., 0., 0., 0., 0., 0., 0., 0.,
       0., 0., 0., 0., 0., 0., 0., 0., 0., 0., 0., 0., 0., 0., 0., 0., 0.,
       0., 0., 0., 0., 0., 0., 0., 0., 0., 0., 0., 0., 0., 0., 0., 0., 0.,
       0., 0., 0., 0., 0., 0., 0., 0., 0., 0., 0., 0., 0., 0., 0., 0., 0.,
       0., 0., 0., 0., 0., 0., 0., 0., 0., 0., 0., 0., 0., 0., 0., 0., 0.,
       0., 0., 0., 0., 0., 0., 0., 0., 0., 0., 0., 0., 0., 0., 0., 0., 0.,
       0., 0., 0., 0., 0., 0., 0., 0., 0., 0., 0., 0., 0., 0., 0., 0., 0.,
       0., 0., 0., 0., 0., 0., 0., 0., 0., 0., 0., 0., 0., 0., 0., 0., 0.,
       0., 0., 0., 0., 0., 0., 0., 0., 0., 0., 0., 0., 0., 0., 0., 0., 0.,
       0., 0., 0., 0., 0., 0., 0., 0., 0., 0., 0., 0., 0., 0., 0., 0., 0.,
       0., 0., 0., 0., 0., 0., 0., 0., 0., 0., 0., 0., 0., 0., 0., 0., 0.,
       0., 0., 0., 0., 0., 0., 0., 0., 0., 0., 0., 0., 0., 0., 0., 0., 0.,
       0., 0., 0., 0., 0., 0., 0., 0., 0., 0., 0., 0., 0., 0., 0., 0., 0.,
       0., 0., 0., 0., 0., 0., 0., 0., 0., 0., 0., 0., 0., 0., 0., 0., 0.,
       0., 0., 0., 0., 0., 0., 0., 0., 0., 0., 0.], dtype=float32)]FC Layer, 100 (Glorot Init.) Original_Weights[array([[ 0.06426168, -0.0093101 ,  0.        , ...,  0.        ,
        -0.        ,  0.        ],
       [ 0.        , -0.00642002, -0.06293681, ...,  0.        ,
         0.02686208, -0.11014882],
       [ 0.        ,  0.10573769, -0.        , ..., -0.        ,
         0.        , -0.        ],
       ...,
       [ 0.11909714, -0.        , -0.        , ...,  0.11691669,
        -0.        ,  0.        ],
       [ 0.08893643,  0.0571188 , -0.09573598, ..., -0.        ,
         0.        , -0.        ],
       [ 0.        ,  0.        ,  0.08016854, ...,  0.        ,
        -0.        ,  0.        ]], dtype=float32)
 array([0., 0., 0., 0., 0., 0., 0., 0., 0., 0., 0., 0., 0., 0., 0., 0., 0.,
       0., 0., 0., 0., 0., 0., 0., 0., 0., 0., 0., 0., 0., 0., 0., 0., 0.,
       0., 0., 0., 0., 0., 0., 0., 0., 0., 0., 0., 0., 0., 0., 0., 0., 0.,
       0., 0., 0., 0., 0., 0., 0., 0., 0., 0., 0., 0., 0., 0., 0., 0., 0.,
       0., 0., 0., 0., 0., 0., 0., 0., 0., 0., 0., 0., 0., 0., 0., 0., 0.,
       0., 0., 0., 0., 0., 0., 0., 0., 0., 0., 0., 0., 0., 0., 0.],
      dtype=float32)]FC Layer, 10 (Softmax) Original_Weights[array([[ 0.06556156, -0.        , -0.19092673, -0.        , -0.1687817 ,
        -0.        , -0.1441145 ,  0.        ,  0.        ,  0.1769107 ],
       [ 0.        , -0.        , -0.1470607 , -0.07878205,  0.1093744 ,
         0.2294676 ,  0.12477759,  0.        , -0.09396425,  0.1367273 ],
       [-0.        ,  0.        ,  0.        ,  0.        ,  0.07720113,
        -0.        , -0.139875  ,  0.13772374, -0.14149791,  0.        ],
       [ 0.        , -0.12114487,  0.19131869, -0.12236877, -0.        ,
        -0.21610327,  0.        ,  0.13969752,  0.        , -0.        ],
       [ 0.        , -0.        , -0.15711966, -0.18749344, -0.        ,
        -0.        ,  0.        , -0.00435449, -0.14381564,  0.16952029],
       [ 0.        ,  0.17233387, -0.        , -0.        ,  0.13421002,
         0.21015882, -0.22654577, -0.        , -0.18062639, -0.        ],
       [-0.        ,  0.1866884 , -0.18025438, -0.12436894, -0.        ,
         0.10330167,  0.01969147, -0.18890695, -0.        ,  0.        ],
       [-0.19774072,  0.14823455,  0.01103039, -0.        ,  0.        ,
         0.        , -0.17116381, -0.23002592, -0.        ,  0.        ],
       [ 0.        ,  0.05379534, -0.19453256,  0.17881939, -0.        ,
         0.        ,  0.18400332, -0.03815939,  0.20960283, -0.        ],
       [ 0.09057146,  0.2063874 , -0.        ,  0.        ,  0.        ,
        -0.13707833,  0.19987491,  0.        ,  0.        ,  0.        ],
       [ 0.        ,  0.11720377, -0.        , -0.        ,  0.        ,
        -0.19954656, -0.21786997, -0.        , -0.        , -0.        ],
       [ 0.        , -0.05265892, -0.        , -0.        , -0.06212384,
        -0.        ,  0.        ,  0.        ,  0.0120203 , -0.        ],
       [-0.11816651,  0.        , -0.        ,  0.07831126, -0.        ,
         0.15306431, -0.        , -0.        , -0.1746545 , -0.        ],
       [-0.        , -0.01880167,  0.2270669 ,  0.20059612,  0.        ,
        -0.        , -0.15074751,  0.06134194, -0.22002856,  0.        ],
       [-0.18043908, -0.07827173,  0.19618106,  0.        ,  0.12231928,
        -0.        ,  0.        ,  0.        ,  0.        , -0.13194713],
       [ 0.        , -0.0508226 ,  0.09051093, -0.        , -0.        ,
        -0.17433928,  0.        ,  0.        , -0.        , -0.        ],
       [ 0.        ,  0.        , -0.        , -0.21838704, -0.        ,
        -0.15442228,  0.        , -0.        , -0.        ,  0.1344212 ],
       [-0.        ,  0.14263767, -0.        ,  0.13634038, -0.19794412,
        -0.21588667, -0.        , -0.12037439, -0.        ,  0.03326705],
       [-0.20100144, -0.        , -0.14629574,  0.        , -0.0668367 ,
        -0.        ,  0.18192303,  0.09483802, -0.22469042,  0.        ],
       [ 0.07872197, -0.20406464,  0.        ,  0.        , -0.        ,
        -0.15211502,  0.10339138,  0.06793758, -0.03128454, -0.        ],
       [-0.22374615,  0.        , -0.20565087,  0.01595595,  0.        ,
        -0.        , -0.        , -0.00355679, -0.        , -0.18621136],
       [ 0.        ,  0.16758513, -0.19853313, -0.        , -0.        ,
         0.        ,  0.19935146, -0.        , -0.        ,  0.11544135],
       [-0.16879228,  0.07907772,  0.10472241, -0.15214598,  0.        ,
         0.10067567, -0.        ,  0.15569848, -0.14193952, -0.21157439],
       [-0.        , -0.15511765,  0.        ,  0.        ,  0.12531239,
         0.        ,  0.        ,  0.        ,  0.        ,  0.11545783],
       [-0.        ,  0.2169894 , -0.08423756, -0.        ,  0.        ,
         0.08730087, -0.02999337,  0.19361702, -0.        , -0.18042243],
       [-0.23010209,  0.04087034,  0.        , -0.        ,  0.        ,
         0.09770763, -0.13658053, -0.        , -0.15933305,  0.18858862],
       [ 0.        ,  0.        , -0.        , -0.19459131,  0.1221182 ,
         0.        , -0.        , -0.22451513, -0.        , -0.        ],
       [ 0.        , -0.17525353, -0.10459161,  0.20072854, -0.        ,
         0.        , -0.        ,  0.1430617 ,  0.2184228 , -0.        ],
       [ 0.07364389, -0.19760898, -0.18547869, -0.16545099,  0.17502496,
         0.        , -0.17014237,  0.        ,  0.1158376 ,  0.1008856 ],
       [ 0.        , -0.16400465, -0.        ,  0.12643498, -0.        ,
        -0.20070831,  0.        ,  0.        ,  0.17875552, -0.        ],
       [ 0.        , -0.        ,  0.        , -0.        , -0.        ,
        -0.        ,  0.        ,  0.15135545, -0.21082123, -0.10510689],
       [-0.20089413, -0.        ,  0.        , -0.1600616 ,  0.20046186,
        -0.        , -0.12563828, -0.17253672, -0.21241342,  0.17082387],
       [ 0.16123572, -0.19410092, -0.21362874,  0.1432249 , -0.        ,
        -0.        , -0.17404142,  0.08734021,  0.11686042, -0.        ],
       [ 0.        , -0.20127377,  0.17080271, -0.        ,  0.        ,
        -0.16049112, -0.1664907 , -0.06698565,  0.18958962, -0.        ],
       [ 0.21960804,  0.00777513, -0.        ,  0.        , -0.        ,
        -0.20024304,  0.03630003,  0.05389205, -0.09334683, -0.19542572],
       [ 0.03401265, -0.        ,  0.        ,  0.        , -0.        ,
        -0.22906223,  0.17281735, -0.1489852 , -0.17850989, -0.        ],
       [ 0.15579057, -0.1143899 , -0.12325089, -0.22253978, -0.        ,
         0.        ,  0.08445758,  0.        ,  0.14524156, -0.19143711],
       [ 0.10220304, -0.21888106, -0.        ,  0.04673517,  0.        ,
        -0.        ,  0.17778069, -0.17623588, -0.11404952, -0.        ],
       [-0.        ,  0.16727355,  0.13375175, -0.        ,  0.        ,
        -0.        , -0.        ,  0.22751492,  0.158483  , -0.04774754],
       [-0.        ,  0.22038743, -0.0968965 ,  0.09749109,  0.        ,
        -0.        , -0.        , -0.        , -0.        ,  0.        ],
       [ 0.20226681, -0.22006492,  0.18842629,  0.17543599,  0.14982107,
        -0.1533078 , -0.21056318, -0.        , -0.        , -0.        ],
       [ 0.22016603, -0.        , -0.20643961,  0.        ,  0.14079648,
         0.12115705,  0.11932832,  0.        ,  0.        , -0.10195921],
       [ 0.        , -0.10601898,  0.22105998,  0.        ,  0.12781352,
        -0.1924702 , -0.        , -0.14181   ,  0.        ,  0.        ],
       [-0.        , -0.        ,  0.        , -0.14838964, -0.22748062,
         0.16149426,  0.1498852 , -0.        , -0.18496752,  0.20139411],
       [ 0.19057143,  0.        , -0.08655891, -0.        , -0.18621114,
         0.09412557,  0.        ,  0.        , -0.        ,  0.23018116],
       [-0.22330013, -0.20527703,  0.        ,  0.        , -0.        ,
        -0.21313238,  0.        ,  0.06047848,  0.        ,  0.        ],
       [ 0.07678378, -0.        , -0.12580651, -0.08476755, -0.        ,
         0.        ,  0.        ,  0.        , -0.11098463,  0.03863129],
       [ 0.        , -0.        ,  0.12120122, -0.23032628, -0.        ,
        -0.21960755, -0.17581192,  0.13095036, -0.20029415, -0.        ],
       [-0.1585522 ,  0.19992146, -0.        , -0.        ,  0.        ,
        -0.        , -0.        , -0.        ,  0.2146995 , -0.17580518],
       [-0.11167733,  0.10795048, -0.        ,  0.        , -0.18871129,
         0.        ,  0.13792393, -0.        ,  0.13964283, -0.        ],
       [ 0.        , -0.        , -0.        , -0.18674552,  0.        ,
         0.        ,  0.062704  , -0.23005694, -0.        ,  0.        ],
       [-0.        , -0.        ,  0.2027061 ,  0.04969308, -0.19459683,
        -0.        , -0.0709513 ,  0.        ,  0.20465603, -0.06743957],
       [-0.        ,  0.07477531, -0.21321529,  0.        ,  0.        ,
         0.09718728,  0.15342128,  0.        , -0.16011037,  0.        ],
       [ 0.        ,  0.        ,  0.19307941, -0.23174863, -0.0378366 ,
        -0.20832686,  0.        , -0.21257383, -0.        ,  0.        ],
       [ 0.10771263,  0.21107954,  0.        ,  0.        , -0.11937288,
         0.11011493, -0.20692863, -0.        , -0.        ,  0.12360686],
       [ 0.        , -0.08677714,  0.        ,  0.        ,  0.        ,
         0.15766943,  0.19891489,  0.        ,  0.        , -0.        ],
       [-0.        ,  0.13684586, -0.2266651 , -0.        ,  0.18326274,
        -0.17766252, -0.        , -0.11927231, -0.        ,  0.03080499],
       [-0.04074   , -0.04880662, -0.13138032, -0.23205261, -0.        ,
         0.        ,  0.        , -0.15554902, -0.03745723, -0.        ],
       [ 0.        , -0.        ,  0.14668292,  0.        ,  0.12162468,
         0.15985775, -0.15022531, -0.20777866, -0.        , -0.        ],
       [-0.1630758 , -0.03532904,  0.        , -0.        , -0.0615077 ,
        -0.        ,  0.11865708,  0.06469586,  0.07142326, -0.14539246],
       [ 0.18244058, -0.        ,  0.        , -0.        , -0.14049746,
         0.2001374 ,  0.10751292,  0.        ,  0.        ,  0.        ],
       [-0.        ,  0.        , -0.00119512, -0.        ,  0.09960538,
         0.15921968,  0.        ,  0.14244914, -0.        , -0.        ],
       [ 0.        , -0.        ,  0.17551586, -0.15637138,  0.00973833,
         0.10345423,  0.        , -0.17618431,  0.15595144, -0.15033635],
       [ 0.1967302 , -0.20086284,  0.        , -0.        ,  0.0880394 ,
        -0.        , -0.16654706,  0.        , -0.21209368,  0.23321599],
       [ 0.        , -0.21230984,  0.14720058, -0.        , -0.        ,
         0.        ,  0.04246405, -0.20323804, -0.20605601, -0.        ],
       [ 0.10404775,  0.21754563,  0.        , -0.16901006, -0.21656293,
        -0.13186805,  0.21847609, -0.        ,  0.09804538, -0.09882584],
       [-0.21521853, -0.12282999,  0.19403937, -0.        , -0.14308894,
         0.06855327,  0.        , -0.04130004, -0.        ,  0.17397779],
       [-0.        ,  0.12436616,  0.        ,  0.        ,  0.        ,
         0.17007554, -0.        ,  0.05089572, -0.18796597, -0.15744218],
       [ 0.        ,  0.        , -0.        , -0.21433246, -0.13450986,
        -0.21889225, -0.13913319, -0.        ,  0.1935269 ,  0.10159484],
       [ 0.13042009,  0.09083983, -0.21643487,  0.21231273, -0.13987225,
        -0.        , -0.        ,  0.21336097, -0.        , -0.1724787 ],
       [ 0.        ,  0.1352221 , -0.18542272, -0.20824283, -0.        ,
        -0.22770235,  0.20066378, -0.18932714, -0.        ,  0.        ],
       [ 0.14251652,  0.        , -0.16279238,  0.10620496, -0.08935061,
         0.21940297, -0.        , -0.09876236, -0.20608024,  0.        ],
       [ 0.16650173, -0.        ,  0.08407024, -0.18542862,  0.        ,
        -0.        , -0.20034783,  0.        , -0.1369085 ,  0.        ],
       [ 0.206761  ,  0.        ,  0.10784975,  0.21750936,  0.        ,
        -0.12468288, -0.21914677, -0.        , -0.11144412, -0.0860174 ],
       [ 0.1789116 ,  0.        , -0.21043012, -0.        ,  0.11492753,
        -0.1592327 ,  0.        , -0.06062119,  0.14166823,  0.23347357],
       [ 0.20908731, -0.        , -0.1615246 ,  0.        , -0.        ,
        -0.10293972,  0.22265655,  0.09785038,  0.        , -0.19195056],
       [ 0.        ,  0.        , -0.23169741, -0.192824  ,  0.15114293,
        -0.11607748,  0.00873041,  0.16418844,  0.14039722, -0.        ],
       [ 0.21598482, -0.        ,  0.21180487,  0.        ,  0.        ,
        -0.        , -0.20287627,  0.        , -0.0932309 ,  0.        ],
       [ 0.        , -0.19839488, -0.        , -0.        , -0.2179722 ,
        -0.        , -0.10304585, -0.        ,  0.1616154 , -0.09744535],
       [ 0.        ,  0.2162318 , -0.        , -0.        ,  0.23082337,
        -0.20188516,  0.        , -0.        , -0.        , -0.12497338],
       [-0.        ,  0.        ,  0.12443253, -0.        , -0.        ,
        -0.21754095,  0.        ,  0.2165738 , -0.        ,  0.        ],
       [ 0.        ,  0.22972724, -0.        , -0.        , -0.17160398,
        -0.16552322,  0.        , -0.21418768,  0.16705254,  0.        ],
       [-0.21713763,  0.16458875, -0.21027826,  0.21684664, -0.        ,
         0.08512753,  0.207923  , -0.        , -0.        , -0.19401772],
       [-0.        ,  0.07467183,  0.        , -0.18649489,  0.        ,
         0.22537369, -0.15400271,  0.18026257, -0.        ,  0.        ],
       [ 0.        , -0.03589723, -0.09909351,  0.18971613, -0.        ,
         0.04159629,  0.19595897,  0.        ,  0.        , -0.        ],
       [ 0.        , -0.12481574, -0.09302545, -0.        ,  0.1574533 ,
        -0.21208951,  0.        ,  0.03013262,  0.0626148 , -0.        ],
       [-0.        ,  0.12566572, -0.        ,  0.19745529,  0.        ,
        -0.17439356, -0.1406929 , -0.        , -0.19164024,  0.        ],
       [ 0.        ,  0.        ,  0.15623453, -0.15308735,  0.16240066,
        -0.06518966, -0.09660684, -0.        ,  0.18726069, -0.        ],
       [-0.15922858, -0.22467215, -0.        ,  0.14038336,  0.        ,
         0.06319544, -0.01949614,  0.13011861,  0.        ,  0.20457432],
       [-0.23092069,  0.        , -0.21921103,  0.00551409,  0.        ,
         0.17607263, -0.        , -0.16354543, -0.        ,  0.19654092],
       [ 0.09547547, -0.        ,  0.08542728, -0.21017748, -0.08804947,
         0.        ,  0.        , -0.19020948,  0.14159602, -0.16608934],
       [ 0.1579999 ,  0.        ,  0.19280478, -0.06594779,  0.        ,
        -0.        , -0.        , -0.        , -0.        , -0.18964191],
       [ 0.        , -0.13109049, -0.1405257 , -0.        , -0.22328404,
        -0.        , -0.19044083,  0.23049945,  0.1989043 ,  0.10411981],
       [ 0.        , -0.        ,  0.17954215,  0.        ,  0.        ,
         0.168473  , -0.        , -0.02411029,  0.        , -0.        ],
       [ 0.        , -0.        ,  0.09261939,  0.11925733, -0.13329208,
         0.        , -0.21200827, -0.22333705, -0.23001356,  0.14169696],
       [ 0.17034355, -0.        , -0.        ,  0.15345502, -0.05619125,
        -0.11610721,  0.        , -0.        ,  0.        ,  0.21997768],
       [-0.21843843,  0.        , -0.20835616,  0.11481911,  0.        ,
        -0.        , -0.14078873,  0.1558061 , -0.        , -0.        ],
       [-0.        ,  0.21528974,  0.        ,  0.        ,  0.17498168,
        -0.10881496, -0.        , -0.17230296,  0.        , -0.        ],
       [ 0.        , -0.        ,  0.2217755 ,  0.        , -0.        ,
        -0.1165569 ,  0.10575926, -0.18976858,  0.        , -0.19985509],
       [ 0.        , -0.        , -0.        ,  0.13764101,  0.        ,
         0.        , -0.        , -0.03451551,  0.        ,  0.        ]],
      dtype=float32)
 array([0., 0., 0., 0., 0., 0., 0., 0., 0., 0.], dtype=float32)]