FC Layer, 300 (Glorot Init.) Original_Weights[array([[ 0.08195949,  0.04591062, -0.07646887, ..., -0.08011047,
         0.04012669,  0.00082132],
       [ 0.02664657,  0.05971653,  0.03366332, ..., -0.00965186,
        -0.05338082, -0.08251983],
       [-0.00856205,  0.02485574, -0.04337752, ..., -0.01517442,
         0.06579916, -0.0109336 ],
       ...,
       [ 0.09068842,  0.0535301 , -0.00625137, ..., -0.00683267,
         0.00838425,  0.02966855],
       [-0.03479074, -0.01823054,  0.0124309 , ...,  0.02311011,
        -0.04364211,  0.0218978 ],
       [-0.00812658, -0.03784919,  0.03483534, ..., -0.01276514,
         0.03473857,  0.02201856]], dtype=float32)
 array([0., 0., 0., 0., 0., 0., 0., 0., 0., 0., 0., 0., 0., 0., 0., 0., 0.,
       0., 0., 0., 0., 0., 0., 0., 0., 0., 0., 0., 0., 0., 0., 0., 0., 0.,
       0., 0., 0., 0., 0., 0., 0., 0., 0., 0., 0., 0., 0., 0., 0., 0., 0.,
       0., 0., 0., 0., 0., 0., 0., 0., 0., 0., 0., 0., 0., 0., 0., 0., 0.,
       0., 0., 0., 0., 0., 0., 0., 0., 0., 0., 0., 0., 0., 0., 0., 0., 0.,
       0., 0., 0., 0., 0., 0., 0., 0., 0., 0., 0., 0., 0., 0., 0., 0., 0.,
       0., 0., 0., 0., 0., 0., 0., 0., 0., 0., 0., 0., 0., 0., 0., 0., 0.,
       0., 0., 0., 0., 0., 0., 0., 0., 0., 0., 0., 0., 0., 0., 0., 0., 0.,
       0., 0., 0., 0., 0., 0., 0., 0., 0., 0., 0., 0., 0., 0., 0., 0., 0.,
       0., 0., 0., 0., 0., 0., 0., 0., 0., 0., 0., 0., 0., 0., 0., 0., 0.,
       0., 0., 0., 0., 0., 0., 0., 0., 0., 0., 0., 0., 0., 0., 0., 0., 0.,
       0., 0., 0., 0., 0., 0., 0., 0., 0., 0., 0., 0., 0., 0., 0., 0., 0.,
       0., 0., 0., 0., 0., 0., 0., 0., 0., 0., 0., 0., 0., 0., 0., 0., 0.,
       0., 0., 0., 0., 0., 0., 0., 0., 0., 0., 0., 0., 0., 0., 0., 0., 0.,
       0., 0., 0., 0., 0., 0., 0., 0., 0., 0., 0., 0., 0., 0., 0., 0., 0.,
       0., 0., 0., 0., 0., 0., 0., 0., 0., 0., 0., 0., 0., 0., 0., 0., 0.,
       0., 0., 0., 0., 0., 0., 0., 0., 0., 0., 0., 0., 0., 0., 0., 0., 0.,
       0., 0., 0., 0., 0., 0., 0., 0., 0., 0., 0.], dtype=float32)]FC Layer, 100 (Glorot Init.) Original_Weights[array([[-0.07015064, -0.04752428,  0.04882029, ...,  0.10093378,
         0.01470807, -0.11747139],
       [-0.0286409 ,  0.02480787,  0.03313318, ...,  0.02916624,
        -0.02865724, -0.08495395],
       [ 0.01327744, -0.01055755,  0.0592091 , ...,  0.00350234,
         0.05865321, -0.0327602 ],
       ...,
       [-0.04630997,  0.05759962,  0.05769077, ..., -0.08810769,
         0.01955833, -0.12681969],
       [-0.01468419, -0.00532141, -0.04329778, ..., -0.00686298,
         0.08096712,  0.00338152],
       [-0.01289108, -0.03884545,  0.0417281 , ..., -0.03350677,
        -0.03950822, -0.07243586]], dtype=float32)
 array([0., 0., 0., 0., 0., 0., 0., 0., 0., 0., 0., 0., 0., 0., 0., 0., 0.,
       0., 0., 0., 0., 0., 0., 0., 0., 0., 0., 0., 0., 0., 0., 0., 0., 0.,
       0., 0., 0., 0., 0., 0., 0., 0., 0., 0., 0., 0., 0., 0., 0., 0., 0.,
       0., 0., 0., 0., 0., 0., 0., 0., 0., 0., 0., 0., 0., 0., 0., 0., 0.,
       0., 0., 0., 0., 0., 0., 0., 0., 0., 0., 0., 0., 0., 0., 0., 0., 0.,
       0., 0., 0., 0., 0., 0., 0., 0., 0., 0., 0., 0., 0., 0., 0.],
      dtype=float32)]FC Layer, 10 (Softmax) Original_Weights[array([[-0.1199561 ,  0.02207226, -0.13976128,  0.04803297,  0.04265487,
        -0.15594015, -0.02448726, -0.11274476, -0.03555889,  0.10791147],
       [ 0.20469391,  0.01744676, -0.05126756, -0.05040459, -0.1480076 ,
        -0.06321393,  0.12451205,  0.2183789 , -0.07776235, -0.19770926],
       [-0.1046038 ,  0.06495422,  0.0720478 , -0.20145474,  0.06907803,
        -0.01170838, -0.16882887,  0.06092465,  0.04223347,  0.15946808],
       [-0.08493693,  0.22324875,  0.13881373, -0.02984893, -0.13249588,
         0.03870279, -0.15335819, -0.05413483,  0.1437805 ,  0.08333039],
       [-0.17303208,  0.05156526,  0.09542051,  0.08137137, -0.04030317,
         0.11917877, -0.12044816,  0.09479675,  0.0891608 , -0.20310012],
       [ 0.1110211 , -0.16927746,  0.08960217, -0.13618201,  0.02875108,
        -0.09764393,  0.01664609,  0.15494013,  0.02735168, -0.14117044],
       [-0.05545957, -0.0172058 , -0.03648736, -0.12784398, -0.09864967,
        -0.15484375, -0.07137856, -0.10864947, -0.02190904, -0.07829902],
       [-0.2002207 ,  0.03392261,  0.03257498,  0.03764644,  0.04990202,
        -0.08885799,  0.06243047,  0.20929429,  0.2271981 , -0.12247273],
       [ 0.17505652,  0.07897428, -0.12422701, -0.15684599,  0.19052586,
        -0.14779031,  0.21025553, -0.16443852,  0.14744675,  0.21040651],
       [-0.12839612, -0.17655922, -0.10911287, -0.18630713,  0.10823047,
         0.20045736, -0.06070115, -0.12943333, -0.06696071, -0.08672011],
       [-0.09714635,  0.14320308, -0.14364976,  0.14085278, -0.08137853,
         0.1589891 , -0.04562113,  0.12649846,  0.07321024,  0.05931303],
       [-0.12757736, -0.15284625, -0.04091762, -0.10512933, -0.2061857 ,
        -0.04254501, -0.21192858, -0.2303932 ,  0.08444279, -0.14719898],
       [ 0.11273608,  0.22618595,  0.22898164, -0.04424855, -0.19405626,
        -0.14810331, -0.01844825,  0.20370248,  0.08953515, -0.20987573],
       [-0.12643337,  0.16700622,  0.12446913, -0.15633704, -0.2076438 ,
         0.05270681,  0.08983555,  0.16260925,  0.03056529,  0.16733423],
       [ 0.22358468, -0.22937839, -0.12089591,  0.06597134, -0.1078497 ,
         0.17814913,  0.15156332, -0.16986233, -0.21407314, -0.00223349],
       [-0.01823115, -0.11546814,  0.01715463, -0.10516547, -0.17014036,
         0.00671014,  0.2231704 ,  0.21847591, -0.21132348,  0.02139783],
       [ 0.06669548, -0.20010862, -0.17852578,  0.06373867, -0.2286166 ,
        -0.20967872, -0.06531255, -0.01363394,  0.02682346, -0.01908582],
       [-0.23203912, -0.0303655 , -0.10465603, -0.08563431, -0.1691711 ,
        -0.06585267, -0.199712  ,  0.20736563,  0.17206866,  0.13033128],
       [ 0.16018638, -0.025793  , -0.0233192 , -0.02603829,  0.19458932,
        -0.01592226,  0.11841014,  0.20444533, -0.20916562, -0.18700756],
       [-0.1755295 ,  0.07811743, -0.1313751 , -0.03653914,  0.1190173 ,
         0.00805761, -0.16687602,  0.06544006,  0.1949116 , -0.07364495],
       [-0.10109256,  0.12890741,  0.06327891,  0.01617484,  0.14580801,
        -0.17346756, -0.05178113, -0.19823161, -0.04574658, -0.05710132],
       [ 0.12357464, -0.00907944, -0.15468672, -0.09504905, -0.00070077,
         0.03203019,  0.08279726,  0.09022078,  0.08040208, -0.00506957],
       [ 0.17479753,  0.00971076,  0.06235597, -0.03552866, -0.23250063,
        -0.07771724, -0.17008686,  0.20583317,  0.03760535,  0.18683368],
       [-0.15537485, -0.1290156 ,  0.14400017, -0.08093402,  0.04469568,
        -0.10381606, -0.19838068,  0.03897497,  0.08413917,  0.05854145],
       [-0.04110923, -0.1946588 , -0.19925657, -0.19648391, -0.15545948,
         0.15374362, -0.15763478,  0.1926544 ,  0.04220217, -0.0630852 ],
       [-0.20666118,  0.18961892, -0.22838736, -0.00587445, -0.05727355,
        -0.04008171, -0.12754013,  0.17540842, -0.07470481,  0.1533744 ],
       [-0.07687633,  0.04848567, -0.19304757, -0.15992221,  0.19916353,
        -0.13791774, -0.20658651,  0.22546846,  0.23194057,  0.01459569],
       [-0.23271444,  0.19703874, -0.19751498, -0.09124443, -0.10027359,
        -0.05805148, -0.09660806, -0.02229474, -0.1584703 ,  0.23175803],
       [-0.21427216, -0.20867266,  0.03447777,  0.06505167, -0.04724377,
         0.02869385, -0.04829094, -0.10448697,  0.2279982 ,  0.11700225],
       [ 0.22283012, -0.03677946, -0.00701834, -0.09421054, -0.1937867 ,
        -0.07521397,  0.17456323,  0.05545583,  0.02081487,  0.17064953],
       [ 0.17774403,  0.02557886, -0.14328581, -0.0748056 , -0.14604567,
        -0.1166176 ,  0.11967218,  0.07546389,  0.20589867, -0.10299692],
       [-0.21390241, -0.14118877, -0.07464524, -0.06028096,  0.10485321,
         0.03845033,  0.21835119,  0.02277234, -0.03948329,  0.01820031],
       [-0.1339953 , -0.03443232,  0.01490684, -0.01716153,  0.10454857,
        -0.19515587,  0.12560287, -0.03219901, -0.00969322, -0.03864232],
       [-0.0783876 , -0.10692732, -0.19424073, -0.14261474,  0.17024186,
        -0.0666275 , -0.00333211,  0.20114616, -0.06312072, -0.01010706],
       [-0.18199128,  0.18348292, -0.22398198,  0.20573607, -0.2229314 ,
         0.16123015, -0.21130595, -0.10080864,  0.16872609, -0.1241568 ],
       [-0.04242122, -0.06043097, -0.12264451, -0.08682267,  0.03458884,
         0.12846118,  0.14538589,  0.07703245, -0.07050094, -0.07546037],
       [ 0.00208621,  0.01471925,  0.109175  ,  0.04669341, -0.17302038,
        -0.09970662, -0.15088266, -0.11271875, -0.06236471, -0.21564813],
       [-0.0976177 , -0.0347534 , -0.11764082, -0.13454756, -0.17303151,
         0.04639322, -0.00659148, -0.01296018, -0.10624215, -0.07416603],
       [ 0.0364123 ,  0.10971835, -0.07078698, -0.06883782,  0.08483982,
         0.0782451 , -0.11180089, -0.17364691, -0.01577789,  0.15013734],
       [ 0.13985851,  0.23252162,  0.16741243, -0.11864366, -0.1772983 ,
        -0.06127857,  0.16009045, -0.0184702 ,  0.02195463, -0.15711743],
       [ 0.17074853,  0.1578184 ,  0.12021855, -0.21015209,  0.00172873,
        -0.22881354, -0.18102291, -0.18021618,  0.12612635,  0.11818701],
       [ 0.01424395, -0.18312454,  0.22556481,  0.03827631, -0.04118317,
        -0.07184084,  0.07768911,  0.00356892,  0.17111754, -0.23306403],
       [-0.20244685, -0.23117672, -0.13063318,  0.12151328,  0.17308807,
        -0.06567611,  0.01309454,  0.21543992, -0.20706047, -0.15185298],
       [ 0.15148202,  0.07326457, -0.01887846, -0.16734353, -0.00786778,
        -0.05644271, -0.15938811, -0.00402324,  0.03736067,  0.11624011],
       [ 0.15867686, -0.02097307,  0.17186278,  0.13221914,  0.15964001,
        -0.1432654 ,  0.20233893, -0.15167385, -0.06814541,  0.0059498 ],
       [ 0.197577  , -0.10231887, -0.12154728, -0.14159012, -0.01318046,
         0.07243609, -0.02801023, -0.01089229,  0.03991082,  0.17232418],
       [-0.0526951 , -0.00530566,  0.12810117,  0.07733688, -0.00971778,
        -0.23338476, -0.18346904, -0.09097332, -0.00600977, -0.16734649],
       [-0.20101897, -0.05642822, -0.08266659, -0.07893173,  0.08577093,
        -0.08982302,  0.09990147, -0.12828894,  0.17258844, -0.13960075],
       [ 0.22194943, -0.22267805,  0.09444767,  0.07342094,  0.09791577,
        -0.23038407, -0.02763683, -0.03959762, -0.05824025,  0.00716402],
       [-0.07522611, -0.0652567 ,  0.12461382, -0.03728339,  0.05135965,
        -0.16499045,  0.0301998 , -0.05894163, -0.00988427, -0.16137888],
       [-0.22309862,  0.05632499, -0.05700533, -0.1507493 , -0.19245945,
         0.21504018, -0.0005022 , -0.19040003, -0.13611296,  0.0769521 ],
       [ 0.03209066, -0.15855761,  0.1392706 , -0.16806224,  0.0003155 ,
         0.09875378, -0.15044248, -0.17219672,  0.21320075, -0.05520248],
       [ 0.15085566,  0.21694726, -0.1645872 ,  0.04892451,  0.15901971,
        -0.09757666,  0.195921  ,  0.13734621, -0.19608088,  0.01165894],
       [-0.2145695 , -0.15544105, -0.08309595, -0.03858531, -0.09545437,
         0.05367151, -0.08348539,  0.04399988, -0.16727276,  0.22199109],
       [ 0.22819802, -0.1912973 ,  0.09523037,  0.19210932, -0.14364597,
        -0.13633919, -0.09068927, -0.03032418, -0.13970163, -0.17149049],
       [-0.15482354, -0.13220376, -0.15656424, -0.2099186 , -0.20565677,
         0.1591852 , -0.17524083,  0.16770554, -0.18613824,  0.18197754],
       [ 0.17406186,  0.10483962, -0.13017602,  0.07121369,  0.14061177,
         0.20232478,  0.11910343,  0.17485884, -0.11780174,  0.1033667 ],
       [ 0.11228055, -0.00270273,  0.14489678, -0.03744704, -0.18067774,
         0.13178197, -0.21963215,  0.17297226, -0.1445854 , -0.16602543],
       [-0.02122135,  0.19266832,  0.20105934,  0.09701154, -0.17135012,
        -0.10119046,  0.08894679, -0.01433615, -0.08914292,  0.13729271],
       [-0.05112976, -0.15333685, -0.02610789,  0.10245061,  0.04970622,
         0.15763271,  0.0495466 ,  0.10072619,  0.07617694, -0.00936748],
       [-0.05930479,  0.1721896 ,  0.22126994,  0.03712776, -0.21816376,
        -0.23077697,  0.19696322, -0.1584585 ,  0.12951183, -0.04975545],
       [ 0.21009645,  0.1059075 , -0.05081604, -0.14497183,  0.14156517,
        -0.08163758,  0.07448632, -0.03689918, -0.05845512, -0.2256927 ],
       [ 0.20339817,  0.1352633 ,  0.00621936,  0.18931812, -0.22155164,
         0.09878546, -0.04913798,  0.0610764 ,  0.14116892,  0.13864043],
       [-0.06295596,  0.20979893,  0.16325894, -0.22896852,  0.17851618,
         0.19820705, -0.02985221, -0.06582189, -0.10568838,  0.06457698],
       [-0.09145257,  0.11947641,  0.02792197, -0.06306119, -0.2081821 ,
         0.15578774,  0.04290649,  0.12311336,  0.17119488,  0.08893082],
       [ 0.19695199,  0.12544277, -0.05329809,  0.06080872,  0.10714722,
         0.11186197, -0.12898965,  0.08491081,  0.04625079, -0.09455159],
       [ 0.19129556,  0.03174552, -0.14499645, -0.00415882,  0.16293588,
        -0.2321398 ,  0.15400544,  0.17971921,  0.16760576, -0.04937358],
       [-0.09028937, -0.17958191, -0.1518023 ,  0.12291017, -0.08384979,
        -0.13776918,  0.09591052,  0.02380052,  0.21067733,  0.05164397],
       [-0.11345404, -0.08995678,  0.11442491, -0.01766981,  0.20582783,
         0.07616085, -0.11049785,  0.08753625,  0.059001  ,  0.09116799],
       [ 0.12702167, -0.1569261 , -0.09728071, -0.01604566, -0.19871677,
         0.10519943,  0.11861882, -0.01805948,  0.21248609,  0.04781163],
       [-0.0189607 ,  0.05023873,  0.1550065 ,  0.13256419, -0.16202663,
        -0.15405217,  0.11917564, -0.01006274,  0.11886239,  0.12815464],
       [-0.10314587,  0.18670493,  0.12484124, -0.19267131, -0.0832679 ,
        -0.11357532, -0.19069955,  0.20258471, -0.01066589, -0.05612075],
       [ 0.10471532,  0.11494717, -0.04358743, -0.1585208 , -0.0492592 ,
         0.16046831, -0.01264484,  0.08021471, -0.23165514,  0.1635494 ],
       [ 0.10148713, -0.15756825,  0.14265645,  0.19055688,  0.02255613,
        -0.08709346, -0.21881424,  0.01103306, -0.06182376, -0.1520096 ],
       [-0.09375621,  0.03339568,  0.12636551, -0.01223123,  0.18894142,
        -0.08995794,  0.15590084, -0.08240883,  0.02863315, -0.16975787],
       [-0.0573221 ,  0.13755465,  0.07435238,  0.14678943, -0.1039591 ,
        -0.21889046, -0.03629731,  0.17802116,  0.05624196, -0.1893734 ],
       [ 0.10086843, -0.04829545, -0.04700328,  0.14517584,  0.20114681,
        -0.18615228, -0.12099364,  0.16438535,  0.18040422,  0.09272224],
       [ 0.12168559, -0.0789862 ,  0.18145579,  0.03936803,  0.15869254,
         0.09893993, -0.06122918, -0.0950696 , -0.20184752, -0.18944769],
       [-0.16708434, -0.1115698 , -0.05090646,  0.06473759, -0.02057627,
         0.06100133, -0.07243486,  0.13316178,  0.11260983, -0.09521098],
       [-0.00332375, -0.18510573, -0.18628469, -0.06766771,  0.14897174,
        -0.04842164,  0.2026698 ,  0.05289221,  0.0386897 ,  0.05547735],
       [-0.17296904,  0.21738732, -0.04643276,  0.2020315 , -0.03283551,
         0.06008291, -0.23230028, -0.07848164, -0.01665126, -0.20089208],
       [ 0.07444373, -0.0005914 , -0.22878382,  0.15907016, -0.10209285,
        -0.10433792,  0.12983441, -0.13376671, -0.12016858, -0.1275501 ],
       [ 0.07566255,  0.04127315,  0.10154605,  0.2163206 , -0.15156248,
        -0.2066726 , -0.15989515, -0.21304601,  0.17738783, -0.11628444],
       [-0.06230107,  0.15360588, -0.11952634,  0.18660581, -0.22574493,
         0.02228463, -0.16071975,  0.14802384, -0.07989676,  0.07262185],
       [-0.20946625,  0.2099716 , -0.07136792,  0.1392029 ,  0.17262569,
         0.1252392 , -0.0687691 ,  0.10909215,  0.20370793, -0.00135003],
       [-0.19745606, -0.01905258,  0.10600662, -0.10064265, -0.01067357,
         0.06333169, -0.15985167, -0.21412838,  0.17341784, -0.21381411],
       [ 0.05667606, -0.12385187,  0.07140663,  0.16950247, -0.03480463,
        -0.14058422,  0.08183536,  0.2134501 , -0.15953684, -0.12896648],
       [-0.03539301,  0.1907343 ,  0.01763824, -0.0945199 ,  0.00933652,
         0.13402653, -0.07245925,  0.01608519,  0.12213424,  0.02842078],
       [-0.18979882,  0.18032503, -0.00753185, -0.06167582, -0.21750897,
         0.01325864, -0.19857049,  0.05972508, -0.0574941 ,  0.19328466],
       [-0.14514919, -0.12086779,  0.1827116 ,  0.20778167, -0.19774495,
        -0.11563402, -0.04647852, -0.10613914,  0.22968054,  0.18563464],
       [ 0.1660111 ,  0.182937  ,  0.18762854, -0.02434087, -0.07682392,
         0.10736659,  0.09602061,  0.09149104, -0.17394882, -0.13887984],
       [ 0.20259279, -0.17421806, -0.03183329, -0.08290847,  0.19664493,
         0.06878465,  0.10742831,  0.20205924, -0.12884828, -0.21590282],
       [-0.11935779, -0.20330179, -0.11759304, -0.23175214,  0.20090249,
        -0.09827313, -0.10393444, -0.13999146, -0.11086976, -0.21998964],
       [-0.16699731,  0.0679808 , -0.03374432, -0.1016127 , -0.16197167,
         0.02321312,  0.13253662, -0.09523147, -0.12518468, -0.15274017],
       [-0.10291684,  0.23093888,  0.06671387, -0.1867134 ,  0.02186036,
         0.13488182, -0.06627074, -0.01314181, -0.00900732, -0.14902085],
       [-0.16653107, -0.13644567,  0.2247665 ,  0.07061803,  0.04152513,
        -0.08110692, -0.2206542 , -0.02849634, -0.00514992,  0.05365011],
       [ 0.15384167,  0.1331115 , -0.04175793,  0.15797466, -0.07526186,
         0.0890139 ,  0.207147  ,  0.03046957, -0.04145829,  0.13513494],
       [ 0.07591474, -0.03708827,  0.09242016,  0.05928347,  0.17479765,
        -0.07029152,  0.15025902,  0.12253976,  0.15279317,  0.19305223],
       [-0.11803316, -0.15899533, -0.22502808,  0.10394618, -0.06540488,
         0.10116997, -0.17802647, -0.0803131 ,  0.11745045, -0.17885825],
       [-0.04097113, -0.15844718, -0.01340513,  0.06800362, -0.14448139,
         0.0061488 ,  0.02903762,  0.02202034, -0.23108712, -0.13966906]],
      dtype=float32)
 array([0., 0., 0., 0., 0., 0., 0., 0., 0., 0.], dtype=float32)]