FC Layer, 300 (Glorot Init.) Original_Weights[array([[ 0.06812921,  0.        ,  0.        , ..., -0.        ,
         0.        ,  0.        ],
       [ 0.        , -0.        , -0.        , ..., -0.04248241,
         0.        , -0.04065768],
       [ 0.05752833,  0.        , -0.        , ..., -0.        ,
        -0.        , -0.        ],
       ...,
       [ 0.        ,  0.        , -0.06137045, ...,  0.        ,
         0.04515614,  0.        ],
       [ 0.05301665, -0.04368319, -0.        , ...,  0.        ,
         0.        , -0.        ],
       [-0.04747194, -0.06624366, -0.0671228 , ..., -0.        ,
        -0.        , -0.        ]], dtype=float32)
 array([ 6.52843481e-03, -3.78313684e-03,  7.99265206e-02,  5.53265959e-02,
       -5.97221330e-02, -3.77012640e-02,  1.49343133e-01,  7.27656111e-02,
        3.16623598e-02,  5.01418225e-02,  2.55188029e-02, -5.75250834e-02,
        9.70481336e-02,  5.82047459e-03, -8.31021890e-02,  1.05163395e-01,
        1.13063820e-01, -2.51790196e-01, -2.02866569e-02,  1.88259855e-01,
       -4.96068113e-02, -1.05456039e-01, -1.97372418e-02, -1.26965279e-02,
        1.81980863e-01, -6.03230596e-02,  3.83059531e-02,  3.32473852e-02,
       -4.36759032e-02,  7.67587423e-02,  7.81596377e-02,  7.88415596e-02,
        1.18436716e-01, -2.69540753e-02, -2.87726168e-02,  8.22922960e-02,
        1.84867933e-01,  5.53893819e-02,  7.27279633e-02, -1.63548023e-01,
       -3.43374163e-02, -9.70759988e-02, -4.88678962e-02,  3.42899747e-02,
       -4.19823676e-02,  1.04349107e-04,  1.55191854e-01, -1.24802984e-01,
       -1.02083422e-01,  2.69135665e-02, -1.47003457e-01, -3.34513467e-03,
        9.96744931e-02,  2.71297526e-02, -6.05881028e-02, -4.52319831e-02,
       -9.69639979e-03,  9.18881446e-02,  1.23995694e-03,  1.42569661e-01,
        3.86052467e-02, -3.88159044e-02,  1.69397071e-02,  7.61214048e-02,
        1.69787616e-01, -1.18893646e-01,  1.73326373e-01,  2.68376395e-02,
        3.32487822e-02,  6.56043887e-02, -1.65266573e-01, -1.55674845e-01,
        1.44117460e-01, -2.77532800e-03,  3.72942388e-02,  9.28418338e-03,
       -5.35953864e-02, -3.37953642e-02, -1.65517367e-02,  6.59125894e-02,
        7.98938423e-02, -4.63573411e-02,  7.99821094e-02,  3.11590768e-02,
        1.55103987e-03,  1.60548791e-01,  1.01368412e-01, -2.46585887e-02,
       -1.17469169e-01, -1.72200918e-01,  9.71591398e-02,  5.08149490e-02,
       -2.28786115e-02,  1.19766794e-01,  7.30210617e-02, -6.92051649e-02,
       -9.93623585e-03,  7.46051446e-02,  1.69517808e-02,  1.53494805e-01,
       -8.56670514e-02, -4.96320091e-02,  7.75088817e-02, -9.14024338e-02,
       -2.29567066e-02,  2.90005822e-02, -2.74492130e-02, -5.22401072e-02,
        8.03248584e-03,  2.76953354e-02, -9.91972256e-03,  1.34151056e-01,
       -1.37312263e-02, -3.24244723e-02,  3.52440439e-02,  4.27293666e-02,
       -3.58520150e-02, -9.30376127e-02,  8.49843398e-02, -5.59961423e-02,
        5.60886003e-02, -1.76255211e-01, -2.40379814e-02,  1.39803886e-01,
       -2.69469209e-02,  3.63390334e-03, -7.44469240e-02,  9.17584002e-02,
       -1.24009542e-01, -5.42369559e-02, -2.36195941e-02,  8.83348808e-02,
       -3.58101912e-02,  7.00547472e-02,  1.09355159e-01,  2.33315825e-02,
       -8.22398216e-02,  8.35724026e-02,  3.89231108e-02,  2.59724222e-02,
       -3.38537954e-02, -3.90088931e-02, -7.77188241e-02,  1.04517177e-01,
        1.23761453e-01,  9.38866735e-02, -2.52620615e-02, -8.58114585e-02,
       -5.32697476e-02,  2.20121015e-02, -5.18748425e-02, -1.05360178e-02,
       -4.44175526e-02,  6.03313223e-02, -4.96881679e-02,  6.74838424e-02,
       -6.46444634e-02,  7.21884444e-02, -1.39573286e-03,  1.14094630e-01,
       -1.02591209e-01, -8.53826329e-02, -5.71043342e-02,  9.43879262e-02,
       -1.61018759e-01, -1.30703911e-01,  1.26969423e-02,  6.16456270e-02,
       -1.08629309e-01, -5.95110580e-02, -1.16753384e-01,  8.03673789e-02,
        2.67277472e-02, -3.79568487e-02,  1.01965517e-01,  1.71965882e-01,
       -2.56071030e-03,  1.80379057e-03, -7.10231310e-04, -4.28351313e-02,
        1.18893862e-01,  4.42338400e-02, -1.77508139e-03,  5.72011098e-02,
       -1.22332670e-01,  1.17302828e-01,  2.93071605e-02, -5.49481511e-02,
        6.45405352e-02,  1.02330700e-01, -6.41820207e-02,  4.81218435e-02,
        1.45784110e-01,  9.35225636e-02, -1.18473567e-01, -2.92007048e-02,
       -5.30567616e-02,  7.63857514e-02,  6.98863044e-02,  4.97621950e-03,
        6.19469360e-02,  2.94077676e-02,  2.64242403e-02, -5.06870151e-02,
       -2.82335673e-02,  7.59522021e-02,  1.03016697e-01,  9.89731625e-02,
       -1.02004625e-01,  5.26737012e-02, -6.60344064e-02,  9.61419716e-02,
        1.41146472e-02, -2.06702668e-02, -8.07674229e-03, -1.15969054e-01,
       -6.20411746e-02, -6.95434138e-02, -3.81725817e-03, -3.25236954e-02,
       -8.43435153e-02,  2.31821641e-01, -5.92870004e-02,  6.41014939e-03,
       -4.05842662e-02, -4.49731983e-02, -8.67987871e-02, -3.13382782e-02,
       -8.29234421e-02,  5.24945520e-02, -1.09713472e-01,  2.99879536e-02,
        7.07975328e-02,  3.20887156e-02,  6.61027506e-02,  7.29055330e-02,
        8.76816809e-02, -9.50252414e-02, -9.81706753e-02, -7.67655149e-02,
        1.19663849e-02,  1.09443009e-01, -7.24757165e-02, -8.92912522e-02,
       -1.49376970e-02,  1.00585900e-01,  1.85830921e-01, -3.16588394e-02,
       -1.50155760e-02, -4.44276296e-02,  5.27700409e-02,  5.21370582e-02,
       -1.94775820e-01,  1.02775954e-01, -7.35752936e-03,  5.25076091e-02,
        6.84468672e-02,  1.83994919e-01,  1.27364427e-01, -7.34881219e-03,
       -9.10333470e-02, -8.87632091e-03,  8.53589922e-03, -8.94415751e-02,
        3.64025533e-02, -1.32254392e-01,  5.49466126e-02, -8.95660091e-03,
       -1.18252710e-01,  1.80757076e-01, -7.92257115e-02,  1.86441664e-03,
        7.02088773e-02, -1.03005163e-01,  1.50349375e-03,  2.74288235e-03,
        9.48365852e-02,  2.04623342e-02,  1.00417182e-01, -1.04286231e-01,
       -7.23821297e-02, -1.39662698e-01,  1.10141233e-01, -9.03820544e-02,
       -8.48381408e-03,  3.53059657e-02, -1.95327178e-02, -1.86868906e-02,
        1.72383524e-02,  3.07237059e-02, -2.22896095e-02,  3.31498310e-02,
        7.05558434e-02, -1.59180015e-01, -3.16140335e-03,  3.61006558e-02,
       -9.63637382e-02, -1.88345406e-02, -5.26190810e-02, -7.68257724e-03],
      dtype=float32)]FC Layer, 100 (Glorot Init.) Original_Weights[array([[ 0.3183028 , -0.18371573, -0.        , ...,  0.01094261,
         0.        , -0.        ],
       [ 0.00107599, -0.15874325, -0.22228278, ...,  0.        ,
         0.05961262, -0.2538839 ],
       [-0.23015119,  0.20873624, -0.00491182, ...,  0.03533795,
        -0.        ,  0.        ],
       ...,
       [ 0.1966183 , -0.        ,  0.        , ...,  0.37491626,
         0.0258665 , -0.04114902],
       [ 0.21913502,  0.13901345, -0.23315239, ..., -0.        ,
        -0.01563723,  0.        ],
       [-0.        ,  0.07606549,  0.10600888, ...,  0.140041  ,
        -0.04668134,  0.02047369]], dtype=float32)
 array([-0.0207397 ,  0.03881007,  0.07534318, -0.01920302,  0.00251882,
        0.09474617, -0.00444865,  0.08542632, -0.11497984, -0.10380153,
        0.05771314, -0.11628626,  0.1621571 ,  0.07027671,  0.04334137,
       -0.05668023,  0.03336984, -0.05945506,  0.1781008 ,  0.02522668,
        0.04094867,  0.05155675,  0.11678779, -0.11135727,  0.10689708,
        0.14360039, -0.09095316, -0.1224765 , -0.15224546, -0.14403163,
        0.1036873 ,  0.09704123, -0.07153904, -0.11566327,  0.10360541,
       -0.04442612, -0.07587338, -0.07718866, -0.04085374,  0.04042724,
       -0.07225119, -0.07383217, -0.0714596 ,  0.02071607, -0.03697663,
        0.03479561, -0.02152726,  0.13025531, -0.11141451,  0.01344554,
       -0.0718236 , -0.04865235,  0.05411022, -0.1386217 ,  0.07043198,
       -0.02520694, -0.09464123, -0.03119864,  0.01370317,  0.00300832,
        0.08030473,  0.00736493,  0.01469293,  0.0241728 , -0.02139799,
       -0.01654327,  0.0036601 ,  0.1128242 , -0.11978263, -0.02069167,
       -0.05179332,  0.05551493, -0.01700983,  0.0657887 , -0.05864367,
       -0.13544314, -0.07501627, -0.05161612, -0.09342846, -0.06102769,
       -0.04595234, -0.07928855,  0.04340692,  0.08539665,  0.09434167,
       -0.10678345, -0.01850937, -0.06127463,  0.01913413,  0.09777562,
       -0.06825615,  0.01000806, -0.06972492,  0.10614318,  0.0609412 ,
       -0.12500525,  0.07396293,  0.03064662, -0.00279597, -0.10033463],
      dtype=float32)]FC Layer, 10 (Softmax) Original_Weights[array([[ 0.28047895,  0.48439026, -0.40770137, -0.04124487, -0.44753927,
        -0.30947697, -0.41803238,  0.11025945,  0.        ,  0.62690425],
       [ 0.        , -0.        , -0.43279776, -0.36226848,  0.24502529,
         0.61788493,  0.42747983, -0.07526701, -0.34614596,  0.23399313],
       [-0.07340283,  0.09361115, -0.35524714,  0.        ,  0.32647818,
         0.        , -0.25562006,  0.43411076, -0.5294069 ,  0.21997517],
       [ 0.19829391, -0.3041405 ,  0.57892066, -0.1419038 ,  0.05561155,
        -0.265688  , -0.10542858,  0.51726633, -0.15752445, -0.30450866],
       [-0.04471613,  0.        , -0.29939792, -0.44439483, -0.20733951,
        -0.21712379,  0.06458136,  0.29462764, -0.18294825,  0.4241761 ],
       [-0.02415799,  0.4371715 , -0.12421949, -0.        ,  0.46182212,
         0.3002916 , -0.38770765, -0.29323995, -0.33085987,  0.23863618],
       [ 0.        ,  0.19926105, -0.19907466, -0.5867837 , -0.05904809,
         0.56166714,  0.3248037 , -0.42704493,  0.15649845, -0.06220344],
       [-0.43991885,  0.34876546,  0.25534153,  0.12853758, -0.30660912,
         0.3843752 , -0.31264475, -0.57207227, -0.        , -0.        ],
       [ 0.        , -0.10183707, -0.41930258,  0.49206984, -0.09867656,
         0.10529246,  0.3186822 , -0.32963496,  0.5827412 , -0.22912978],
       [ 0.46811607,  0.53745145, -0.        ,  0.16427739, -0.02726237,
        -0.25607085,  0.2826689 , -0.24684434,  0.03629914, -0.12124113],
       [-0.27622074,  0.38932952,  0.17074601, -0.12209679,  0.        ,
        -0.4637532 , -0.56102693,  0.23471193,  0.00859034,  0.05190986],
       [ 0.03329018, -0.31486607, -0.04805299, -0.17355363, -0.17961243,
         0.        ,  0.22513174, -0.        ,  0.47973594,  0.        ],
       [-0.8079786 , -0.        ,  0.        ,  0.4055849 ,  0.2010809 ,
         0.54204893, -0.08058933,  0.        , -0.7187205 ,  0.05555457],
       [ 0.277699  , -0.18268827,  0.43464303,  0.57875574,  0.2015874 ,
        -0.07973202, -0.2999364 ,  0.29091808, -0.45748693, -0.17586431],
       [-0.52244836, -0.33062178,  0.5223159 ,  0.10607974,  0.46690163,
        -0.05992979,  0.31994027, -0.10124052, -0.08172193, -0.42915726],
       [ 0.23330805, -0.3906043 ,  0.37330362,  0.        ,  0.        ,
        -0.40957266, -0.        ,  0.        , -0.0497188 , -0.12325091],
       [ 0.03616951,  0.18520667, -0.        , -0.526609  ,  0.        ,
        -0.4032749 ,  0.18819533,  0.42977044, -0.06331938,  0.12786941],
       [-0.02112682,  0.3399137 , -0.        ,  0.26729053, -0.5804567 ,
        -0.69355613,  0.        , -0.36250755, -0.        ,  0.52764505],
       [-0.43484223,  0.        , -0.33067977,  0.        ,  0.14250068,
         0.        ,  0.26935148,  0.4113416 , -0.64847684, -0.        ],
       [ 0.34881377, -0.22860739, -0.18431959, -0.25017497, -0.        ,
        -0.3476861 ,  0.5259455 ,  0.3893224 , -0.20568682, -0.17272823],
       [-0.34104133,  0.05195212, -0.43219504,  0.37538624, -0.16496545,
        -0.33369735, -0.21574   ,  0.2987681 , -0.18483013, -0.24281877],
       [-0.24485889,  0.34413344, -0.60528976,  0.        ,  0.        ,
        -0.07888889,  0.54210377,  0.        ,  0.04377732,  0.25426507],
       [-0.6655576 ,  0.29492223,  0.64254797, -0.27530006, -0.        ,
         0.26140264, -0.15913746,  0.260375  , -0.20569144, -0.37477803],
       [ 0.        , -0.5645114 ,  0.2262642 , -0.10161135,  0.43926272,
        -0.25747934,  0.11115837, -0.21463893, -0.18648347,  0.3661832 ],
       [-0.3160629 ,  0.20140894, -0.36837545,  0.10867847,  0.        ,
         0.3993899 , -0.27681226,  0.42246237,  0.15622848, -0.45920578],
       [-0.5937259 ,  0.29892734,  0.02808391, -0.14821988,  0.01975479,
         0.3680628 , -0.41368315,  0.        , -0.34917894,  0.5261991 ],
       [ 0.07994076,  0.        , -0.30815542, -0.31867707,  0.4686759 ,
         0.10207282,  0.        , -0.59458345, -0.        , -0.        ],
       [ 0.        , -0.45862472, -0.27161193,  0.40713847,  0.147759  ,
        -0.        ,  0.        ,  0.2930023 ,  0.48977473, -0.        ],
       [ 0.29845992, -0.37001523, -0.38385174, -0.37720397,  0.33641616,
        -0.        , -0.33378902, -0.31536686,  0.20916995,  0.37448946],
       [-0.        , -0.5531372 ,  0.        ,  0.27737626, -0.2658689 ,
        -0.32157266,  0.        , -0.        ,  0.50948596,  0.        ],
       [-0.26783577,  0.18871294,  0.23711333,  0.        , -0.        ,
        -0.2416305 , -0.        ,  0.6070318 , -0.45622754, -0.2991253 ],
       [-0.57324183, -0.05967004, -0.12778616, -0.41252893,  0.42631257,
         0.18610372, -0.28599903, -0.33586994, -0.29070944,  0.65591675],
       [ 0.16473427, -0.54045844, -0.45102766,  0.28483573, -0.10294838,
        -0.        , -0.19652349,  0.22761057,  0.33149123, -0.05065063],
       [ 0.12323735, -0.4847393 ,  0.61695486, -0.22206007,  0.        ,
        -0.4294976 , -0.45535502, -0.31653813,  0.41424116,  0.1505195 ],
       [ 0.29333234,  0.25564474,  0.09881834, -0.10460063, -0.3546952 ,
        -0.5166495 ,  0.40830538,  0.4064674 , -0.2200373 , -0.4128261 ],
       [ 0.4714565 ,  0.05940754,  0.        , -0.3888051 , -0.        ,
        -0.40902123,  0.49979925, -0.5229987 , -0.4025287 ,  0.        ],
       [ 0.33462164, -0.33662218, -0.26362875, -0.39860895, -0.        ,
         0.        ,  0.52195823, -0.30297595,  0.18143022, -0.34361017],
       [ 0.3107292 , -0.482455  ,  0.        ,  0.26861975, -0.15304217,
         0.07657558,  0.51760614, -0.5161203 , -0.20118068,  0.        ],
       [-0.18338482,  0.58841485,  0.4574706 ,  0.11799566, -0.        ,
        -0.18896508, -0.        ,  0.47828013,  0.17691325, -0.3952658 ],
       [ 0.        ,  0.74583304, -0.3589785 ,  0.38020232, -0.        ,
         0.        ,  0.22011279, -0.        , -0.13796861, -0.19977704],
       [ 0.3265379 , -0.39138573,  0.3325948 ,  0.22224347,  0.24088702,
        -0.2838943 , -0.5705941 ,  0.        ,  0.04553335,  0.15884146],
       [ 0.19742075, -0.        , -0.5766477 , -0.1588467 ,  0.41594106,
         0.37074268,  0.31261644, -0.        ,  0.22171593, -0.37281758],
       [ 0.04212768, -0.21103883,  0.48293138, -0.24343137,  0.5393391 ,
        -0.4436165 ,  0.35020775, -0.30006427, -0.14357226,  0.04192773],
       [-0.2143443 , -0.18939292, -0.02085218, -0.41825977, -0.7728102 ,
         0.7819805 ,  0.4401213 , -0.        , -0.21835181,  0.37389085],
       [ 0.33478212, -0.13428271, -0.28414324, -0.        , -0.5904517 ,
         0.34772384,  0.03127182,  0.        ,  0.1801595 ,  0.5721947 ],
       [-0.40890744, -0.35598406, -0.        , -0.07830631,  0.05662154,
        -0.5919891 , -0.18090466,  0.24692687,  0.08524951, -0.        ],
       [ 0.23147966, -0.11098666, -0.40953925, -0.22295651,  0.        ,
         0.        ,  0.        ,  0.        , -0.38205564,  0.40790302],
       [ 0.27761212,  0.02347763,  0.44908866, -0.31325737, -0.        ,
        -0.23906378, -0.2891353 ,  0.60398436, -0.57034314, -0.30207568],
       [-0.5604033 ,  0.40388405,  0.        ,  0.29520676, -0.        ,
        -0.        , -0.08042945, -0.        ,  0.4800806 , -0.5032857 ],
       [-0.12872496,  0.28003332,  0.        ,  0.19848713, -0.59994996,
        -0.        ,  0.22074492,  0.19836056,  0.21261333, -0.20558767],
       [ 0.23787968,  0.0035493 , -0.        , -0.462819  , -0.30735677,
        -0.11207959,  0.41644347, -0.50746083,  0.25347567,  0.        ],
       [ 0.15810424,  0.        ,  0.55369365,  0.37346876, -0.50162524,
        -0.        , -0.3526295 ,  0.        ,  0.51180154, -0.472625  ],
       [ 0.2673061 ,  0.4934727 , -0.42907324,  0.        , -0.        ,
         0.44970578,  0.3623828 ,  0.13098279, -0.42563263, -0.09760477],
       [-0.        , -0.16591005,  0.28893954, -0.4865418 ,  0.17392048,
        -0.5337904 ,  0.15329826, -0.4163708 ,  0.36785546,  0.13357922],
       [ 0.29490882,  0.2879763 , -0.        , -0.14250517, -0.53283906,
         0.34042877, -0.47704738,  0.09390373,  0.        ,  0.28603962],
       [ 0.29048523, -0.34924012,  0.        , -0.07440793, -0.        ,
         0.61746097,  0.6334283 , -0.        ,  0.02201253,  0.00396095],
       [ 0.        ,  0.40394557, -0.4454283 ,  0.11757022,  0.364795  ,
        -0.4177572 , -0.        , -0.35328633, -0.        ,  0.1988585 ],
       [-0.25946218, -0.24220873, -0.35609895, -0.6112668 ,  0.17738329,
        -0.        ,  0.        , -0.24971251,  0.32769996,  0.11800612],
       [-0.        ,  0.09857802,  0.23867401, -0.        ,  0.42586067,
         0.4042988 , -0.5426889 , -0.34949207,  0.2120307 , -0.08035728],
       [-0.42423576,  0.24083246,  0.25770772, -0.17035891, -0.2882932 ,
        -0.07953528,  0.37418374,  0.21724544,  0.32126024, -0.5776749 ],
       [ 0.32078138, -0.        ,  0.11396331, -0.        , -0.48982024,
         0.7285583 ,  0.3680117 , -0.18416418, -0.        , -0.        ],
       [ 0.07890558,  0.06099706, -0.35752547, -0.22987938,  0.19762541,
         0.36463282, -0.        ,  0.3362732 , -0.10555869, -0.        ],
       [-0.0885741 ,  0.16116801,  0.50530213, -0.27268314, -0.20023194,
         0.2781585 ,  0.        , -0.35514504,  0.4496063 , -0.5062781 ],
       [ 0.54906213, -0.35508165,  0.14710243, -0.        ,  0.15268195,
         0.        , -0.44590914,  0.        , -0.3703687 ,  0.42549214],
       [-0.        , -0.5524708 ,  0.4323586 , -0.29969424, -0.        ,
         0.17236105,  0.29737827, -0.4707417 , -0.25071523,  0.        ],
       [ 0.3692854 ,  0.45352072,  0.24144296, -0.6104313 , -0.20921738,
        -0.38592085,  0.5602866 , -0.        ,  0.14238766, -0.12768649],
       [-0.19015719, -0.51118743,  0.65584123, -0.        , -0.49862462,
         0.30113524,  0.        , -0.36988452, -0.        ,  0.43107927],
       [ 0.02977301,  0.3207387 , -0.15610543,  0.        , -0.01433787,
         0.42779735, -0.28083205,  0.11907297, -0.41168678, -0.23145388],
       [ 0.12854627, -0.1333976 ,  0.08382359, -0.3465084 , -0.4141525 ,
        -0.36188105, -0.3727777 ,  0.00464765,  0.3198669 ,  0.6120164 ],
       [ 0.17360355,  0.20199212, -0.22591704,  0.35373846, -0.22662152,
        -0.13971815, -0.2303113 ,  0.5524591 ,  0.        , -0.4177716 ],
       [ 0.        ,  0.31927693, -0.15221238, -0.31456184, -0.        ,
        -0.46440357,  0.38461718, -0.3798061 , -0.1816165 , -0.17200294],
       [ 0.3836668 , -0.06677115, -0.3290679 ,  0.38748226, -0.4480913 ,
         0.6739684 , -0.2178758 , -0.5839374 , -0.5743154 ,  0.        ],
       [ 0.8265001 , -0.1503173 ,  0.17779851, -0.45196304, -0.26587808,
        -0.05342862, -0.20912303,  0.        , -0.30449212,  0.23786175],
       [ 0.36053467,  0.16159692,  0.34413496,  0.44969222, -0.28921995,
        -0.2495184 , -0.47977522,  0.        , -0.41489607, -0.18686737],
       [ 0.44265196, -0.21858238, -0.5369398 , -0.01633579,  0.3463596 ,
        -0.48769805,  0.28913346, -0.4046995 ,  0.27228805,  0.5390365 ],
       [ 0.6568023 , -0.        , -0.38833648,  0.29962516, -0.        ,
        -0.27166137,  0.6460747 ,  0.19873527,  0.1234502 , -0.21639284],
       [-0.        , -0.1476227 , -0.40539292, -0.5330329 ,  0.25263265,
        -0.39220774,  0.2429572 ,  0.46811864,  0.4189069 , -0.        ],
       [ 0.61709315, -0.16994376,  0.44507027,  0.09688203,  0.08466356,
        -0.        , -0.3004164 , -0.        , -0.3029571 ,  0.17828898],
       [-0.13594441, -0.46018964,  0.        , -0.        , -0.67847145,
        -0.27626017, -0.27748826,  0.        ,  0.5110519 ,  0.27972198],
       [ 0.        ,  0.5639513 ,  0.17689104, -0.07652953,  0.5329132 ,
        -0.4992612 ,  0.00753693, -0.        ,  0.13580982, -0.19352996],
       [-0.        ,  0.        ,  0.19573368, -0.0906251 , -0.22968614,
        -0.43398842,  0.        ,  0.6787552 ,  0.19761878, -0.25722918],
       [ 0.        ,  0.31546512,  0.10896667, -0.        , -0.44786546,
        -0.4186985 ,  0.18507488, -0.5194557 ,  0.35181692,  0.        ],
       [-0.3932829 ,  0.20910162, -0.43173924,  0.72525877, -0.01793869,
         0.26717153,  0.41445586,  0.        , -0.00765867, -0.42626446],
       [-0.11780744,  0.22184333, -0.22203277, -0.4659406 ,  0.        ,
         0.5240324 , -0.38072884,  0.33323124, -0.15587248, -0.        ],
       [-0.03088592, -0.2672674 , -0.17767985,  0.42623192, -0.23151335,
         0.41290873,  0.43443468, -0.21382111, -0.11773511, -0.21108903],
       [-0.        , -0.44696367, -0.4023667 ,  0.10829248,  0.33857363,
        -0.2857505 ,  0.02011358,  0.28555468,  0.1885286 ,  0.03285578],
       [-0.39819902,  0.4930942 , -0.        ,  0.494068  ,  0.        ,
        -0.577573  , -0.34556222,  0.08495542, -0.37490228,  0.10519935],
       [ 0.06162423,  0.        ,  0.3702008 , -0.35784206,  0.5449708 ,
        -0.29884756, -0.4554687 ,  0.        ,  0.2980386 , -0.        ],
       [-0.19763398, -0.48355135, -0.38214728,  0.2209731 ,  0.05690026,
         0.39937043, -0.30272248,  0.22341223,  0.        ,  0.2255782 ],
       [-0.42361885,  0.12808113, -0.52011013,  0.16175026,  0.        ,
         0.42076528,  0.03414027, -0.47563675,  0.        ,  0.40445396],
       [ 0.27242267,  0.        ,  0.19417883, -0.23002456, -0.33545306,
        -0.        ,  0.        , -0.6415648 ,  0.4828279 , -0.2997234 ],
       [ 0.47698793, -0.        ,  0.67775214, -0.33470562, -0.05633634,
         0.        , -0.        , -0.        , -0.27137756, -0.28133464],
       [-0.        , -0.38057497, -0.4474862 , -0.        , -0.74361223,
         0.012587  , -0.22659737,  0.29110903,  0.3696957 ,  0.65184337],
       [-0.        , -0.        ,  0.49457434, -0.17908482, -0.        ,
         0.36650464,  0.28593433, -0.34890404, -0.16398896,  0.        ],
       [-0.1342522 , -0.04282016,  0.12996753,  0.39119288, -0.399597  ,
        -0.21068199, -0.6022261 , -0.22901388, -0.2643615 ,  0.40169042],
       [ 0.3908582 ,  0.16046545, -0.        ,  0.63465106, -0.2832614 ,
        -0.3342066 , -0.        ,  0.        ,  0.        ,  0.56493634],
       [-0.33734757, -0.20627277, -0.44487298,  0.39552352, -0.14670421,
         0.12738442, -0.38193154,  0.35000613, -0.21495742, -0.        ],
       [ 0.        ,  0.78123605, -0.        ,  0.25129205,  0.35371676,
        -0.3719592 , -0.        , -0.36452317,  0.01548718,  0.        ],
       [ 0.27552843,  0.        ,  0.5174375 , -0.27334565,  0.12369367,
        -0.41787124,  0.35380968, -0.22854164, -0.17088713, -0.45386735],
       [-0.12864417, -0.01517034, -0.        ,  0.43767163, -0.        ,
         0.05175637,  0.22724155, -0.6491153 ,  0.        , -0.19390394]],
      dtype=float32)
 array([-0.07516287,  0.17863779,  0.07121145, -0.04613973, -0.01170672,
        0.1582889 , -0.04099471,  0.18170027, -0.2565795 , -0.05702329],
      dtype=float32)]