FC Layer, 300 (Glorot Init.) Original_Weights[array([[ 0.,  0.,  0., ..., -0.,  0.,  0.],
       [ 0., -0., -0., ..., -0.,  0., -0.],
       [ 0.,  0., -0., ..., -0., -0., -0.],
       ...,
       [ 0.,  0., -0., ...,  0.,  0.,  0.],
       [ 0., -0., -0., ...,  0.,  0., -0.],
       [-0., -0., -0., ..., -0., -0., -0.]], dtype=float32)
 array([ 3.32098105e-03,  7.29707703e-02,  1.03746772e-01,  1.39332205e-01,
       -3.23514231e-02, -7.25027397e-02,  1.05574869e-01,  9.18120071e-02,
       -3.52372490e-02,  1.57882929e-01, -7.34019000e-03, -4.87713404e-02,
        7.21643120e-02,  2.45474949e-02,  5.71058430e-02,  5.15062064e-02,
        1.36616275e-01, -1.38552919e-01, -6.25147447e-02,  2.16570377e-01,
       -1.58270989e-02, -8.20390433e-02, -4.28552032e-02, -4.66008708e-02,
        2.12626711e-01, -2.88734827e-02, -1.12325571e-01,  1.33611436e-04,
        1.78951863e-02,  1.21492878e-01,  8.70066136e-03, -3.17036510e-02,
        3.01646795e-02, -4.36171219e-02, -4.99624871e-02,  6.40361533e-02,
        4.72762808e-02, -4.59779017e-02,  8.17413926e-02, -1.44484922e-01,
        3.13960873e-02, -4.49243635e-02, -6.21400550e-02, -1.38787171e-02,
        1.10201417e-02,  7.07946904e-03,  3.70331220e-02, -8.60956386e-02,
       -1.11227714e-01,  3.17550972e-02, -1.75870225e-01, -1.24800108e-01,
        3.79543453e-02, -2.70933658e-02, -7.22969398e-02,  8.48931149e-02,
        1.10361926e-01, -4.76922505e-02,  9.10043865e-02,  7.58286789e-02,
       -1.90879162e-02, -6.04131892e-02, -1.06228933e-01,  8.08362141e-02,
        6.68887571e-02, -4.91494648e-02,  2.33625233e-01,  1.47465384e-02,
        4.76563461e-02,  9.68357846e-02, -1.71919599e-01, -2.31703743e-02,
        9.74140167e-02, -3.64900008e-02,  6.43845126e-02,  4.55890633e-02,
       -4.15305644e-02, -1.01772949e-01,  1.89946312e-02,  9.22859386e-02,
       -1.59333739e-02, -2.73201964e-03,  1.81323230e-01,  3.51815782e-02,
       -9.09481291e-03,  1.64871469e-01,  2.04043940e-01, -1.52654588e-01,
       -5.34058027e-02, -1.24126077e-01,  9.21478495e-02, -1.34544307e-02,
       -2.25445908e-03,  1.02168716e-01,  8.50541294e-02, -1.18748575e-01,
       -1.04041390e-01,  1.42382860e-01, -4.23560152e-03,  7.10797384e-02,
       -1.22619137e-01, -3.24373273e-03,  2.04672776e-02, -1.53803870e-01,
        6.96549714e-02,  1.76534075e-02, -6.12816438e-02, -2.14050338e-02,
       -9.49464515e-02,  6.00611828e-02, -4.42734584e-02,  4.28550318e-03,
        6.82283984e-03,  9.83768702e-03,  1.00496568e-01,  4.20620739e-02,
       -8.01194236e-02,  1.73723623e-02,  1.63732155e-03,  4.06215116e-02,
        4.14427407e-02, -9.97808948e-02, -2.69531272e-02,  1.13368660e-01,
       -1.85749936e-03,  1.18438557e-01, -8.04723278e-02,  9.36828777e-02,
       -1.89787835e-01,  3.07761412e-03,  3.10611539e-02, -1.26893707e-02,
        3.55493240e-02,  3.27965021e-02,  7.10976720e-02,  1.65563282e-02,
       -3.38476114e-02,  5.27373664e-02, -1.99105069e-02,  3.36760283e-02,
       -6.95656240e-02,  2.95626819e-02, -8.49485844e-02,  7.04811737e-02,
        1.12701766e-01,  4.21450399e-02, -1.19879559e-01, -8.71170163e-02,
       -4.09038998e-02,  7.28835389e-02, -3.88133563e-02,  3.78336348e-02,
        3.29193808e-02,  1.97341993e-01, -1.80908084e-01,  1.22141972e-01,
        7.07905600e-03,  5.79666160e-02, -2.40159556e-02,  6.44308403e-02,
       -8.98871720e-02, -1.24510504e-01, -2.44327243e-02,  3.17515209e-02,
       -7.86652565e-02, -1.79102898e-01, -3.20887975e-02, -1.29062077e-02,
       -1.85793526e-02, -5.32139000e-03, -1.23846583e-01,  7.03286976e-02,
       -2.61650477e-02, -9.14763287e-02,  9.72717106e-02,  7.02458620e-02,
       -3.76972109e-02, -1.87225007e-02, -4.48658913e-02, -7.00654229e-03,
        1.94526643e-01,  6.77759945e-02, -1.26432173e-03,  4.98435497e-02,
        3.42614613e-02,  8.98601562e-02,  8.54214430e-02, -8.71578008e-02,
        1.05240956e-01, -3.83237265e-02, -3.42404172e-02, -2.98016053e-02,
        1.83596730e-01,  2.77252067e-02, -1.86188221e-02,  5.01036197e-02,
       -3.37596238e-02,  3.74124460e-02,  2.19930410e-01,  6.37484491e-02,
        3.50821926e-03, -3.32982726e-02, -4.12618555e-02,  1.44015560e-02,
       -8.42675567e-02,  9.45527628e-02,  9.44713727e-02,  1.59819514e-01,
       -9.23101902e-02, -1.57046951e-02,  2.80404720e-03,  1.37912884e-01,
        4.30415161e-02, -4.44822796e-02, -8.22914615e-02,  1.96685810e-02,
        1.09559923e-01,  2.72580273e-02,  8.39321781e-03, -8.71318951e-02,
       -1.60077098e-03,  2.19060808e-01, -4.83076721e-02,  8.34559947e-02,
       -5.22840507e-02, -4.49320115e-02,  6.22367440e-03, -1.69400256e-02,
       -9.95716453e-02,  5.92212342e-02, -1.20098211e-01,  2.08260734e-02,
       -9.82113928e-03,  1.32059995e-02,  7.64786750e-02, -7.63352066e-02,
        9.27010328e-02, -5.45149408e-02, -2.37245560e-02,  1.19872898e-01,
       -6.85942248e-02,  6.60083666e-02, -4.63483389e-03, -1.72988579e-01,
       -1.76616125e-02,  5.93657903e-02,  2.25295693e-01, -4.10410725e-02,
       -2.78315209e-02,  8.06073286e-03,  1.44645378e-01,  9.30512324e-02,
       -1.93117261e-01,  2.67586429e-02, -8.48219357e-03,  2.32358351e-02,
        1.72634423e-01,  1.52226895e-01,  3.50774378e-02, -7.85626918e-02,
       -9.92129594e-02, -9.60735697e-03, -1.97861101e-02, -9.19945240e-02,
        1.73415411e-02, -8.44006389e-02, -4.91468748e-03, -5.80390804e-02,
       -1.00887962e-01,  1.38901561e-01, -1.32322326e-01, -9.24084112e-02,
        1.37944400e-01, -1.30624250e-01,  1.10928146e-02, -1.60590354e-02,
       -3.46170627e-02,  3.50630060e-02,  1.74599048e-02, -6.05420806e-02,
       -6.13274015e-02, -4.72410992e-02,  1.42762184e-01, -7.79875964e-02,
        1.30436391e-01, -6.34487495e-02, -4.68546990e-03, -8.81499145e-03,
        1.89104959e-01,  2.95751616e-02, -1.23236522e-01,  1.10942163e-01,
        5.47066070e-02, -6.72901571e-02,  1.67972594e-01,  8.03953186e-02,
       -8.35640132e-02, -8.23362768e-02, -3.83660942e-02,  5.56827709e-02],
      dtype=float32)]FC Layer, 100 (Glorot Init.) Original_Weights[array([[ 0.30206728, -0.2568598 ,  0.        , ...,  0.        ,
        -0.        , -0.        ],
       [ 0.        , -0.22680554, -0.12280336, ...,  0.        ,
        -0.        , -0.44959465],
       [ 0.        ,  0.24710435,  0.        , ...,  0.        ,
         0.        ,  0.        ],
       ...,
       [ 0.189378  , -0.        , -0.        , ...,  0.39524546,
         0.        ,  0.        ],
       [ 0.20190008,  0.16721933, -0.26179928, ..., -0.        ,
        -0.        , -0.        ],
       [ 0.        ,  0.        ,  0.25167358, ..., -0.        ,
         0.        , -0.        ]], dtype=float32)
 array([-0.04251569,  0.04200678,  0.17376773, -0.03297085,  0.10017234,
        0.15391298,  0.0197619 ,  0.04095362, -0.23316552, -0.0553549 ,
        0.01588831, -0.08336975,  0.20199516,  0.08001944, -0.00983016,
       -0.02090444,  0.00590437, -0.05265623,  0.21783374,  0.05418583,
        0.03657047,  0.10377458,  0.1450624 , -0.12154274,  0.13066636,
        0.15402609, -0.111893  , -0.11987849, -0.17090766, -0.14481874,
        0.19920899,  0.01027483, -0.14451903, -0.17493813,  0.09421689,
       -0.103803  , -0.06955788, -0.12798116, -0.0310553 ,  0.04760596,
       -0.06901529, -0.01946419, -0.10245886,  0.01973442, -0.01426826,
       -0.13262936,  0.04449755,  0.15242442,  0.00201122,  0.05094505,
       -0.02115731, -0.03068589,  0.12330661, -0.08512365,  0.1520978 ,
        0.09834956, -0.08114266, -0.07693101,  0.05184332,  0.05142858,
        0.06447674,  0.05860294,  0.0035283 , -0.08210771, -0.06328356,
       -0.02355663, -0.01330399,  0.23236062, -0.08912805,  0.08727812,
       -0.04479055,  0.00936399,  0.02742544, -0.01801635, -0.07758854,
       -0.11985164, -0.07800194,  0.00588941, -0.14353074, -0.01424259,
        0.10348641, -0.1450758 ,  0.06914743,  0.06374732,  0.00263327,
       -0.16051523,  0.02955391, -0.00600815, -0.0220012 ,  0.03279648,
       -0.05750468, -0.07205145, -0.11950195,  0.13405913,  0.06646581,
       -0.08480606,  0.06214408,  0.0576258 , -0.04018148, -0.13890786],
      dtype=float32)]FC Layer, 10 (Softmax) Original_Weights[array([[ 0.57892   , -0.        , -0.53880155, -0.        , -0.82157457,
         0.        , -0.5196555 ,  0.        ,  0.        ,  0.6370051 ],
       [ 0.        , -0.        , -0.6442702 , -0.50731045,  0.41363955,
         0.7777357 ,  0.47931   ,  0.        , -0.3876965 ,  0.43936518],
       [ 0.        ,  0.        , -0.        , -0.        ,  0.44543436,
         0.        ,  0.        ,  0.690683  , -0.6639305 ,  0.        ],
       [-0.        , -0.38972637,  0.8713762 , -0.50037754,  0.        ,
        -0.72066754, -0.        ,  0.5348212 ,  0.        ,  0.        ],
       [ 0.        ,  0.        , -0.        , -0.80518764,  0.        ,
         0.        , -0.        ,  0.48107082, -0.37836   ,  0.7054529 ],
       [-0.        ,  0.68071586,  0.        , -0.        , -0.        ,
         0.66520935, -0.8331204 ,  0.        , -0.        ,  0.        ],
       [ 0.        ,  0.        , -0.48803   , -0.9806896 , -0.        ,
         0.63408047,  0.40026066, -0.5768773 , -0.        , -0.        ],
       [-0.62643117,  0.4436074 ,  0.        , -0.        , -0.        ,
        -0.        , -0.47533655, -0.71560013, -0.        ,  0.        ],
       [-0.        , -0.4489375 , -0.80240107,  0.7900515 ,  0.        ,
        -0.        ,  0.46174   , -0.64755636,  0.7557629 ,  0.        ],
       [ 0.7845788 ,  0.6216684 ,  0.        ,  0.        , -0.        ,
        -0.45445248,  0.7902405 , -0.        ,  0.        , -0.        ],
       [-0.        ,  0.5446138 , -0.        , -0.        , -0.        ,
        -0.6587281 , -0.82700545,  0.        , -0.        ,  0.        ],
       [-0.        , -0.5487016 ,  0.        ,  0.        , -0.37574264,
         0.        ,  0.        , -0.        ,  0.8205242 , -0.        ],
       [-0.71979547,  0.        , -0.        ,  0.52003497,  0.        ,
         0.82955545,  0.        ,  0.        , -0.97328943,  0.        ],
       [-0.        , -0.        ,  0.65350884,  0.846946  , -0.        ,
         0.        , -0.5261431 ,  0.50741327, -0.7218139 , -0.        ],
       [-0.48582914, -0.59744203,  0.7413569 , -0.        ,  0.8217637 ,
        -0.        ,  0.        ,  0.        ,  0.        , -0.54479617],
       [-0.        , -0.6005007 ,  0.5457473 , -0.        , -0.        ,
        -0.8167862 , -0.        ,  0.        , -0.        ,  0.        ],
       [ 0.        ,  0.        , -0.        , -0.73724097,  0.        ,
        -0.6741683 , -0.        ,  0.        , -0.        ,  0.53091675],
       [-0.        ,  0.32772693,  0.        ,  0.4581805 , -0.8913557 ,
        -0.67466474, -0.        , -0.37940505, -0.        ,  0.66594946],
       [-0.5450079 ,  0.        , -0.        , -0.        ,  0.3854171 ,
         0.        ,  0.36284322,  0.5516882 , -0.821831  , -0.        ],
       [ 0.6076307 , -0.        ,  0.        , -0.        , -0.        ,
        -0.41560772,  0.6644959 ,  0.57495934, -0.56135947,  0.        ],
       [-0.5537935 ,  0.        , -0.55533797,  0.51224464,  0.        ,
        -0.        ,  0.        ,  0.45767283, -0.        ,  0.        ],
       [ 0.        ,  0.59956944, -0.6841583 ,  0.        , -0.        ,
        -0.        ,  0.83462924, -0.        , -0.        ,  0.        ],
       [-0.8903847 ,  0.4521132 ,  0.7116395 , -0.47318247, -0.        ,
         0.39603516,  0.        ,  0.56281847, -0.        , -0.5341075 ],
       [ 0.        , -0.8381681 , -0.        , -0.        ,  0.64642036,
        -0.        , -0.        ,  0.        ,  0.        ,  0.5042302 ],
       [ 0.        ,  0.5396054 , -0.43630898, -0.        ,  0.        ,
         0.        , -0.        ,  0.7447505 , -0.        , -0.5762782 ],
       [-0.99391556,  0.        , -0.        , -0.        ,  0.        ,
         0.43148553, -0.7796169 ,  0.        , -0.5416672 ,  0.681259  ],
       [-0.        ,  0.        ,  0.        , -0.49739683,  0.8076765 ,
        -0.        ,  0.        , -0.8953644 , -0.        ,  0.        ],
       [ 0.        , -0.68705153, -0.43774188,  0.5859717 ,  0.        ,
        -0.        ,  0.        ,  0.        ,  0.70591897,  0.        ],
       [ 0.4628585 , -0.52735686, -0.523427  , -0.6978685 ,  0.61907274,
        -0.        , -0.41839963, -0.        ,  0.42584175,  0.54210675],
       [-0.        , -0.7603918 ,  0.        ,  0.44308364,  0.        ,
        -0.33539554,  0.        ,  0.        ,  0.6440142 ,  0.        ],
       [ 0.        ,  0.        , -0.        , -0.        , -0.        ,
         0.        , -0.        ,  0.9819208 , -0.6411136 , -0.53571427],
       [-0.51731   , -0.        , -0.        , -0.5762087 ,  0.79429024,
        -0.        ,  0.        , -0.4597394 , -0.46933404,  0.8929109 ],
       [-0.        , -0.74293894, -0.80637234,  0.6019967 ,  0.        ,
         0.        , -0.4650648 ,  0.        ,  0.37927958, -0.        ],
       [-0.        , -0.66713035,  0.4573085 , -0.        , -0.        ,
        -0.7300232 , -0.3670293 , -0.38016438,  0.574259  , -0.        ],
       [ 0.5093773 ,  0.34156916,  0.        , -0.        , -0.        ,
        -0.6999199 ,  0.39646128,  0.        , -0.4491639 , -0.5121344 ],
       [ 0.5126642 , -0.        ,  0.        ,  0.        ,  0.        ,
        -0.63483477,  0.711297  , -0.47629392, -0.45029184, -0.        ],
       [ 0.5469023 , -0.        , -0.5758175 , -0.61724496,  0.        ,
        -0.        ,  0.61143595, -0.        ,  0.        , -0.48001713],
       [ 0.5710123 , -0.54802555,  0.        ,  0.49419785,  0.        ,
         0.        ,  0.7763267 , -0.5365552 ,  0.        , -0.        ],
       [ 0.        ,  0.68828636,  0.5792423 , -0.        , -0.        ,
         0.        ,  0.        ,  0.6030651 ,  0.39777365, -0.62531245],
       [ 0.        ,  0.8628807 , -0.6641589 ,  0.5018715 ,  0.        ,
         0.        ,  0.        , -0.        ,  0.        , -0.        ],
       [ 0.3488219 , -0.5400121 ,  0.56856567,  0.42242077,  0.44216055,
        -0.64951354, -0.9466438 ,  0.        , -0.        ,  0.        ],
       [ 0.3653492 , -0.        , -0.60367167,  0.        ,  0.4661514 ,
         0.5104784 ,  0.        , -0.        ,  0.        , -0.49833238],
       [ 0.        , -0.4599644 ,  0.60880786,  0.        ,  0.7354326 ,
        -0.45205587,  0.        , -0.4316574 ,  0.        ,  0.        ],
       [ 0.        , -0.        , -0.        , -0.        , -0.8020396 ,
         0.5252925 ,  0.34050164,  0.        , -0.4507967 ,  0.8829431 ],
       [ 0.58178395, -0.        , -0.35129726,  0.        , -1.033405  ,
        -0.        ,  0.        , -0.        , -0.        ,  0.7980723 ],
       [-0.6190189 , -0.62370574, -0.        , -0.        ,  0.        ,
        -0.6209456 , -0.        ,  0.48542067, -0.        ,  0.        ],
       [ 0.5626356 , -0.        , -0.47912288, -0.5349775 ,  0.        ,
        -0.        , -0.        , -0.        , -0.36962226,  0.670746  ],
       [-0.        , -0.        ,  0.89485556, -0.62260336, -0.        ,
        -0.47751155, -0.        ,  0.8775581 , -0.631377  , -0.        ],
       [-0.7812991 ,  0.4807571 , -0.        , -0.        , -0.        ,
         0.        ,  0.        ,  0.        ,  0.5874564 , -0.70305294],
       [ 0.        ,  0.3502507 ,  0.        , -0.        , -0.74632263,
         0.        ,  0.        ,  0.        ,  0.49329564, -0.        ],
       [-0.        , -0.        ,  0.        , -0.54520094,  0.        ,
         0.        ,  0.52251357, -0.69944173, -0.        , -0.        ],
       [-0.        ,  0.        ,  0.84402204,  0.4770015 , -0.62010473,
         0.        , -0.48826084, -0.        ,  0.5709288 , -0.4535446 ],
       [ 0.        ,  0.49256924, -0.71472937,  0.        , -0.        ,
         0.69615203,  0.38206187, -0.        , -0.5064306 ,  0.        ],
       [-0.        ,  0.        ,  0.58852565, -0.5741692 , -0.        ,
        -0.66642815, -0.        , -0.70896935, -0.        ,  0.        ],
       [ 0.35654774,  0.        ,  0.        ,  0.        , -0.73290294,
         0.39571708, -0.5717845 , -0.        ,  0.        ,  0.34442174],
       [ 0.        , -0.37869048,  0.        ,  0.        ,  0.        ,
         1.1719352 ,  0.533463  , -0.        ,  0.        ,  0.        ],
       [ 0.        ,  0.592096  , -0.4748975 , -0.        ,  0.54653335,
        -0.44090006,  0.        , -0.499695  ,  0.        ,  0.37162483],
       [-0.38319612, -0.6264274 , -0.44107613, -0.8632583 ,  0.        ,
        -0.        ,  0.        , -0.6807066 ,  0.5238601 ,  0.        ],
       [-0.        ,  0.        ,  0.        ,  0.        ,  0.53202844,
         0.59117824, -0.6807564 , -0.63218075, -0.        ,  0.        ],
       [-0.40096515,  0.46669677, -0.        , -0.        , -0.39551684,
         0.        ,  0.42590198,  0.        , -0.        , -0.7077524 ],
       [ 0.32780853, -0.        ,  0.        ,  0.        , -0.7069742 ,
         1.1684971 ,  0.60625595, -0.        ,  0.        , -0.        ],
       [-0.        ,  0.        , -0.4354068 ,  0.        ,  0.60237867,
         0.54316616,  0.        ,  0.4868916 , -0.        , -0.        ],
       [-0.        , -0.        ,  0.7506286 , -0.39273816, -0.        ,
         0.39656886, -0.        , -0.37682748,  0.65115994, -0.8136377 ],
       [ 0.71681875, -0.41301957, -0.        , -0.        ,  0.4055405 ,
        -0.        , -0.6716272 ,  0.        , -0.42252946,  0.54103285],
       [-0.        , -0.575597  ,  0.9536365 ,  0.        , -0.        ,
        -0.        ,  0.45126292, -0.67348146, -0.53189   ,  0.        ],
       [ 0.52216756,  0.43165874, -0.        , -0.69238126, -0.44008657,
        -0.4955168 ,  0.82541007, -0.        ,  0.5001841 , -0.        ],
       [-0.42269048, -0.4938898 ,  0.8040672 , -0.        , -0.5317521 ,
        -0.        , -0.        , -0.5643726 , -0.        ,  0.6839151 ],
       [ 0.        ,  0.4379433 , -0.        ,  0.        ,  0.        ,
         0.6059716 ,  0.        ,  0.635667  , -0.3520317 , -0.5256125 ],
       [-0.        ,  0.        , -0.        , -0.59110945, -0.64087945,
        -0.4884241 , -0.5256065 ,  0.        ,  0.53379273,  0.94696194],
       [ 0.38017908,  0.41943884, -0.386353  ,  0.33127457,  0.        ,
         0.        ,  0.        ,  0.85634387, -0.        , -0.5207622 ],
       [ 0.        ,  0.44288692, -0.45345673, -0.4616455 , -0.        ,
        -0.5659494 ,  0.9346436 , -0.35619384,  0.        , -0.        ],
       [ 0.40253094,  0.        , -0.40919954,  0.35375577, -0.5704316 ,
         0.8632949 ,  0.        , -0.5555403 , -0.7237117 , -0.        ],
       [ 1.0000255 , -0.        ,  0.        , -0.58298105,  0.        ,
         0.        , -0.55613315, -0.        , -0.35954317,  0.        ],
       [ 0.6673792 ,  0.        ,  0.44221196,  0.7766217 , -0.        ,
        -0.6111907 , -0.77451456,  0.        , -0.6543059 , -0.        ],
       [ 0.48869884, -0.        , -0.5864684 ,  0.        ,  0.5475862 ,
        -0.5265417 , -0.        , -0.59929067,  0.5928391 ,  0.5926542 ],
       [ 0.82126904, -0.        , -0.6270128 ,  0.        ,  0.        ,
        -0.43217334,  0.95141643, -0.        ,  0.        , -0.40342504],
       [-0.        ,  0.        , -0.6925127 , -0.73453015, -0.        ,
        -0.48441935,  0.39581147,  0.51595765,  0.62628317, -0.        ],
       [ 0.7895614 , -0.        ,  0.6995127 ,  0.        ,  0.        ,
         0.        , -0.44210422, -0.        , -0.5157211 , -0.        ],
       [ 0.        , -0.8737668 , -0.        , -0.        , -0.859875  ,
        -0.        , -0.42235804,  0.        ,  0.6357076 ,  0.58589935],
       [ 0.        ,  0.7266767 , -0.        , -0.        ,  0.999996  ,
        -0.7837115 ,  0.        ,  0.        , -0.        , -0.36202297],
       [ 0.        , -0.        , -0.        , -0.        ,  0.        ,
        -0.67883015, -0.        ,  0.7637347 ,  0.        , -0.        ],
       [ 0.        ,  0.3877188 ,  0.        ,  0.        , -0.591284  ,
        -0.73302007,  0.        , -0.5672868 ,  0.7113781 , -0.        ],
       [-0.97657925,  0.        , -0.42116472,  0.93379265, -0.        ,
         0.40597242,  0.6358668 , -0.        , -0.        , -0.7880309 ],
       [-0.        ,  0.4822038 ,  0.        , -0.5374374 ,  0.        ,
         0.6947384 , -0.58117056,  0.4321216 , -0.        , -0.        ],
       [-0.        , -0.37349722,  0.        ,  0.8213526 ,  0.        ,
         0.5889124 ,  0.62121445,  0.        , -0.        ,  0.        ],
       [-0.        , -0.5590619 , -0.65312165, -0.        ,  0.48586595,
        -0.6622549 , -0.        ,  0.38876235,  0.36375988, -0.        ],
       [ 0.        ,  0.43641746, -0.        ,  0.7367878 , -0.        ,
        -0.8516178 ,  0.        ,  0.        , -0.51949966, -0.        ],
       [-0.        ,  0.        ,  0.5022599 , -0.73248035,  0.5181293 ,
        -0.37971008, -0.42060652, -0.        ,  0.47650364, -0.        ],
       [-0.55572534, -0.78663564, -0.        ,  0.5037988 ,  0.        ,
        -0.        , -0.5267566 ,  0.49193093, -0.        ,  0.35734823],
       [-0.602922  ,  0.        , -0.62449515,  0.        ,  0.        ,
         0.54905826, -0.        , -0.9950021 , -0.        ,  0.63234204],
       [ 0.48232964, -0.        ,  0.        , -0.5076518 , -0.40925092,
         0.        , -0.        , -0.75174594,  0.6773996 , -0.50626355],
       [ 0.55897003, -0.        ,  0.8218155 ,  0.        ,  0.        ,
         0.        ,  0.        , -0.        ,  0.        , -0.58362806],
       [ 0.        , -0.6283121 , -0.46525764, -0.        , -0.8407057 ,
        -0.        , -0.3665513 ,  0.43818015,  0.37937877,  0.83510846],
       [-0.        , -0.        ,  0.85856724,  0.        ,  0.        ,
         0.58760506,  0.        , -0.56261873,  0.        ,  0.        ],
       [-0.        ,  0.        ,  0.3883879 ,  0.5354493 , -0.5105464 ,
        -0.        , -0.8491748 ,  0.        , -0.        ,  0.5840065 ],
       [ 0.80016506,  0.        , -0.        ,  0.5722197 , -0.7330719 ,
        -0.48559585, -0.        ,  0.        , -0.        ,  0.6685959 ],
       [-0.62608755,  0.        , -0.7478456 ,  0.5108446 ,  0.        ,
         0.        , -0.65973943,  0.47236264, -0.        , -0.        ],
       [ 0.        ,  0.94477534,  0.        ,  0.        ,  0.5067276 ,
        -0.5147991 ,  0.        , -0.5010053 ,  0.        , -0.        ],
       [-0.        , -0.        ,  0.8141132 ,  0.        , -0.        ,
        -0.        ,  0.50370073, -0.48974857,  0.        , -0.47512   ],
       [ 0.        , -0.        , -0.        ,  0.973168  , -0.        ,
        -0.        ,  0.        , -0.7324365 , -0.        ,  0.        ]],
      dtype=float32)
 array([-0.09726269,  0.27445364,  0.10401041, -0.08009054,  0.02136231,
        0.1561133 , -0.0476825 ,  0.17001955, -0.3879887 , -0.07978647],
      dtype=float32)]