FC Layer, 300 (Glorot Init.) Original_Weights[array([[ 0.,  0.,  0., ..., -0.,  0.,  0.],
       [ 0., -0., -0., ..., -0.,  0., -0.],
       [ 0.,  0., -0., ..., -0., -0., -0.],
       ...,
       [ 0.,  0., -0., ...,  0.,  0.,  0.],
       [ 0., -0., -0., ...,  0.,  0., -0.],
       [-0., -0., -0., ..., -0., -0., -0.]], dtype=float32)
 array([ 3.93660069e-02,  6.03529029e-02,  1.18199266e-01,  1.62519395e-01,
       -3.63772810e-02, -5.71133904e-02,  9.55621302e-02,  8.04989338e-02,
       -1.45920850e-02,  1.06147975e-01,  2.96407426e-03, -7.67598525e-02,
        7.71164000e-02, -3.12578343e-02, -6.02423139e-02,  5.41884415e-02,
        1.04310833e-01, -4.23561893e-02, -1.94720905e-02,  1.15703754e-01,
       -2.87700109e-02, -9.64937136e-02, -3.07436008e-02, -6.91051036e-02,
        1.63067937e-01,  3.52979936e-02, -9.65308845e-02, -1.61940511e-02,
        2.81347777e-03,  8.90023634e-02,  4.74088378e-02,  3.77647057e-02,
        1.14563452e-02, -3.13179083e-02, -9.58045796e-02,  5.19456305e-02,
        0.00000000e+00, -8.37599859e-02,  8.09265394e-03, -1.77825361e-01,
        9.56255719e-02, -1.74175426e-02, -4.58816141e-02, -8.91234074e-03,
        5.38489083e-03,  4.00741249e-02,  2.54035629e-02, -1.40203424e-02,
       -6.90499395e-02,  2.66085323e-02, -1.85825557e-01, -9.58664343e-02,
        2.06830781e-02, -2.55126189e-02, -6.10458702e-02,  9.39129442e-02,
        7.51929432e-02, -4.78429683e-02,  1.88603289e-02,  9.74272043e-02,
       -9.44589153e-02, -3.89514193e-02, -9.32953209e-02, -8.17650277e-03,
        2.48119067e-02, -9.12442878e-02,  1.29015639e-01,  8.55559669e-03,
        8.23335648e-02,  5.51579669e-02, -1.34589568e-01, -6.48293272e-02,
        4.64294329e-02, -3.00529990e-02,  5.10855718e-03,  9.28869173e-02,
       -6.52783811e-02, -3.33239287e-02,  6.79707229e-02,  7.72996768e-02,
        2.68028001e-04,  5.89588247e-02,  1.64917663e-01,  8.24252591e-02,
       -8.62544030e-02,  1.81879446e-01,  1.59395128e-01, -8.92719030e-02,
        2.42761429e-02, -1.30819499e-01,  8.07940140e-02, -5.91640249e-02,
       -6.32922649e-02,  1.13944829e-01,  1.01139396e-01, -2.13393480e-01,
       -4.28144038e-02,  1.39185786e-01,  1.93250012e-02,  7.94805512e-02,
       -7.28015974e-02,  3.85588384e-03, -4.00271900e-02, -1.17869020e-01,
        3.89869511e-02, -7.69780949e-03, -4.71322946e-02, -3.65074128e-02,
       -7.39668533e-02,  2.15395708e-02, -5.27298301e-02,  2.90980767e-02,
       -1.73844863e-04,  3.55179235e-02,  1.02046408e-01,  2.84670144e-02,
       -1.12550542e-01, -8.56063366e-02,  2.05770358e-02,  2.43351143e-02,
        8.75390172e-02, -1.05677821e-01, -4.56946844e-04,  1.80910364e-01,
       -9.24064871e-03,  9.73300785e-02, -6.74855858e-02,  1.49710312e-01,
       -1.41746059e-01,  6.37354776e-02,  2.29719076e-02,  2.28985888e-03,
       -4.30583507e-02,  4.86231707e-02,  7.89673701e-02, -1.98030807e-02,
        4.95483465e-02,  7.58724585e-02, -4.86984290e-02, -1.06028005e-01,
       -3.67480107e-02, -6.66124630e-04, -3.26625742e-02,  1.36834949e-01,
        5.26616983e-02,  3.62648964e-02, -4.32297774e-02, -4.55439985e-02,
       -1.02362251e-02,  2.62565841e-03,  1.51652783e-01,  6.04534410e-02,
        1.32277429e-01,  1.51032373e-01, -6.57167956e-02,  1.05264433e-01,
       -7.24842027e-02,  4.94638756e-02, -2.28625368e-02,  4.58935127e-02,
       -1.18979074e-01, -1.18793458e-01, -7.04536960e-02,  3.93837728e-02,
       -1.57557309e-01, -1.33825198e-01, -5.99535694e-03,  4.79553305e-02,
       -4.33982685e-02, -2.10779961e-02, -7.46960193e-02,  5.08534722e-02,
       -5.56271225e-02, -7.64514580e-02,  1.49018064e-01,  4.76269275e-02,
        1.23021109e-02, -7.66938478e-02, -4.82723154e-02, -2.61276420e-02,
        1.18182115e-01,  7.58488625e-02,  1.83927175e-03,  3.54473181e-02,
       -1.94606334e-02, -7.49829262e-02,  7.51181645e-03, -1.02764465e-01,
        1.11956172e-01, -1.78809986e-01, -3.37918065e-02, -6.42207488e-02,
        1.56489536e-01,  2.18353830e-02, -7.64814913e-02, -3.71854454e-02,
       -9.66936275e-02, -5.57373911e-02,  1.92908823e-01,  6.65405691e-02,
        5.79201952e-02, -1.69862676e-02, -4.32581529e-02,  3.91255915e-02,
       -1.04705870e-01,  7.81520084e-02,  6.63192049e-02,  5.53313866e-02,
        9.15791467e-02,  2.25431975e-02, -4.37982269e-02,  1.43167064e-01,
        6.08776882e-02, -5.69397509e-02, -1.23350598e-01,  4.37973998e-02,
       -4.12545493e-03,  3.49224359e-02,  4.26429957e-02, -2.67458949e-02,
       -1.05045186e-02,  1.25327960e-01, -7.04361126e-02,  4.17144410e-02,
       -6.78453268e-03, -5.32618649e-02,  3.88560891e-02, -1.05167022e-02,
       -4.27845456e-02,  5.00215665e-02, -5.24225608e-02, -2.85595283e-02,
        2.36767735e-02,  3.44939530e-02,  8.56250748e-02, -7.74673373e-02,
        1.16988368e-01, -1.68771088e-01, -9.25042108e-02,  1.56078458e-01,
       -1.21816127e-02,  9.43116248e-02,  3.79041210e-02, -1.20527305e-01,
       -1.69490948e-02,  4.44323570e-02,  1.76817074e-01, -1.28422171e-01,
       -8.94818269e-03,  6.43322244e-02,  1.37719303e-01,  8.54279026e-02,
       -1.10004313e-01,  1.77635457e-02,  3.30845490e-02, -6.98010102e-02,
        6.72541931e-02,  6.26187548e-02, -3.69658880e-02, -8.15243945e-02,
       -1.79847591e-02, -6.04970194e-02,  4.46576588e-02, -6.62652925e-02,
       -2.42602034e-03, -1.02593586e-01, -1.53053156e-03,  1.67150255e-02,
       -8.89074802e-02,  7.83735588e-02, -1.09904625e-01, -9.83202364e-03,
        4.94431145e-02, -1.64736822e-01, -4.07959409e-02,  1.07549815e-04,
        5.58814816e-02,  4.30332683e-02,  2.81262565e-02, -2.88971905e-02,
       -1.42454337e-02, -7.70073384e-02,  1.41326010e-01, -7.42509887e-02,
        7.63443708e-02, -6.42431751e-02,  3.15408930e-02, -8.09130818e-02,
        1.78797096e-01,  1.30004138e-01, -6.15083352e-02,  6.78849295e-02,
        1.35772359e-02, -2.37951055e-02,  1.48506254e-01,  1.06770657e-01,
       -2.29845680e-02, -4.86879535e-02, -2.86172777e-02,  5.64073399e-02],
      dtype=float32)]FC Layer, 100 (Glorot Init.) Original_Weights[array([[ 0.        , -0.20271094,  0.        , ...,  0.        ,
         0.        , -0.        ],
       [ 0.        , -0.2554712 , -0.13144195, ...,  0.        ,
         0.        , -0.38708615],
       [ 0.        ,  0.24944738, -0.        , ..., -0.        ,
         0.        ,  0.        ],
       ...,
       [ 0.27164048, -0.        , -0.        , ...,  0.2368793 ,
         0.        ,  0.        ],
       [ 0.21686077,  0.19236717, -0.        , ...,  0.        ,
         0.        ,  0.        ],
       [-0.        ,  0.        ,  0.31915334, ..., -0.        ,
         0.        ,  0.        ]], dtype=float32)
 array([-0.00787909,  0.03461502,  0.12668502,  0.04564301,  0.10441418,
        0.17571113,  0.03525706,  0.05057365, -0.24166915,  0.0023216 ,
        0.00624876, -0.10977092,  0.15096666,  0.13550779, -0.03413599,
       -0.05178137, -0.03270628, -0.05623795,  0.21667275,  0.14328472,
        0.02449967,  0.1050815 ,  0.0960419 , -0.13181303,  0.08812459,
        0.14627509, -0.05210839, -0.1209552 , -0.1179821 , -0.1619936 ,
        0.1673268 ,  0.03120432, -0.10040073, -0.12076378,  0.02194115,
       -0.063054  ,  0.03578739, -0.17918988, -0.05373343,  0.07737427,
       -0.09008216,  0.01527772, -0.08515756,  0.04615462, -0.02013274,
       -0.09819597,  0.04204294,  0.13324971, -0.03730114, -0.03719889,
       -0.04920461, -0.00916373,  0.13565485, -0.05920032,  0.04895425,
        0.09292176, -0.01799489, -0.07503643, -0.00545242,  0.02567621,
        0.15774392, -0.01486797,  0.02949928, -0.11805111, -0.12270837,
        0.00626143, -0.01577284,  0.14323962, -0.03140574,  0.03663108,
       -0.06025066,  0.04374383,  0.05935218,  0.02784836, -0.07849481,
       -0.15781043, -0.04148858,  0.06248479, -0.13096435,  0.0273707 ,
        0.0501733 , -0.14309601,  0.03260916,  0.10006136,  0.07114637,
       -0.13809611, -0.05009795, -0.05366575, -0.08963337,  0.00874204,
       -0.03938402, -0.08256587, -0.09152994,  0.16261432,  0.01054102,
       -0.0766068 ,  0.08391615,  0.03076158,  0.00720286, -0.09579334],
      dtype=float32)]FC Layer, 10 (Softmax) Original_Weights[array([[ 0.49661803,  0.        , -0.6526869 , -0.        , -0.7027636 ,
        -0.        , -0.3890945 ,  0.        ,  0.        ,  0.5678128 ],
       [ 0.        , -0.        , -0.6051489 , -0.38912576,  0.51140565,
         0.6918557 ,  0.4055969 ,  0.        , -0.        ,  0.37934583],
       [ 0.        , -0.        ,  0.        ,  0.        ,  0.44009182,
        -0.        , -0.        ,  0.69298387, -0.5177138 , -0.        ],
       [ 0.        , -0.        ,  0.79220915, -0.537211  , -0.        ,
        -0.58091325, -0.        ,  0.56377274,  0.        , -0.        ],
       [ 0.        , -0.        , -0.        , -0.6599921 , -0.        ,
         0.        , -0.        ,  0.42180693, -0.4380969 ,  0.6350332 ],
       [-0.        ,  0.6072388 ,  0.        , -0.        , -0.        ,
         0.8033135 , -0.86683166,  0.        , -0.        , -0.        ],
       [-0.        ,  0.        ,  0.        , -0.7207329 , -0.        ,
         0.657515  ,  0.        , -0.5958651 , -0.        ,  0.        ],
       [-0.5844829 ,  0.        , -0.        , -0.        , -0.        ,
        -0.        , -0.42637786, -0.8297737 , -0.        ,  0.        ],
       [-0.        , -0.4605652 , -0.7959825 ,  0.7247127 ,  0.        ,
        -0.        ,  0.50081277, -0.524226  ,  0.63672864,  0.        ],
       [ 0.64881593,  0.6744191 ,  0.        ,  0.        , -0.        ,
        -0.37763876,  0.72412705, -0.        , -0.        ,  0.        ],
       [-0.        ,  0.5152298 ,  0.        ,  0.        ,  0.        ,
        -0.67193776, -0.598265  ,  0.        , -0.        , -0.        ],
       [-0.        , -0.52000904, -0.        , -0.        , -0.        ,
        -0.        ,  0.        ,  0.        ,  0.6883309 , -0.        ],
       [-0.5684665 ,  0.        ,  0.        ,  0.5377589 , -0.        ,
         0.68107176,  0.        ,  0.        , -0.897291  , -0.        ],
       [ 0.        , -0.        ,  0.73848015,  0.84858984,  0.        ,
        -0.        , -0.5451663 ,  0.39263746, -0.7267555 ,  0.        ],
       [-0.36463332, -0.49567   ,  0.75706124,  0.        ,  0.68121684,
         0.        , -0.        , -0.        , -0.        , -0.4155208 ],
       [-0.        , -0.45093042,  0.52439916,  0.        , -0.        ,
        -0.726675  ,  0.        ,  0.        , -0.        , -0.        ],
       [-0.        ,  0.        ,  0.        , -0.6760795 , -0.        ,
        -0.62336445,  0.        ,  0.        , -0.        ,  0.45980003],
       [ 0.        ,  0.        , -0.        ,  0.43323073, -0.86849004,
        -0.6379629 , -0.        , -0.        ,  0.        ,  0.62528116],
       [-0.4205846 , -0.        ,  0.        , -0.        ,  0.42429596,
         0.        , -0.        ,  0.5028025 , -0.8039876 , -0.        ],
       [ 0.47682112, -0.        ,  0.        ,  0.        ,  0.        ,
         0.        ,  0.6241714 ,  0.56613666, -0.47291097, -0.        ],
       [-0.72086436, -0.        , -0.71953195,  0.406792  , -0.        ,
        -0.        ,  0.        , -0.        ,  0.        ,  0.        ],
       [-0.        ,  0.43661427, -0.68474907,  0.        , -0.        ,
         0.        ,  0.7284757 ,  0.        , -0.        , -0.        ],
       [-0.79101384,  0.46706793,  0.6286711 , -0.41563383, -0.        ,
         0.3695914 ,  0.        ,  0.40796036,  0.        , -0.43901998],
       [ 0.        , -0.6291905 , -0.        ,  0.        ,  0.49624184,
         0.        , -0.        , -0.        ,  0.        ,  0.52874976],
       [-0.        ,  0.5571841 , -0.        , -0.        , -0.        ,
        -0.        , -0.        ,  0.7202521 ,  0.        , -0.5467071 ],
       [-0.8336886 ,  0.        ,  0.        , -0.        , -0.        ,
         0.37519202, -0.66739035,  0.        , -0.72760886,  0.6135886 ],
       [-0.        , -0.        , -0.        , -0.53103083,  0.6579762 ,
         0.        ,  0.        , -0.8000151 , -0.        ,  0.        ],
       [-0.        , -0.6854462 , -0.5305024 ,  0.5281345 , -0.        ,
         0.        , -0.        ,  0.        ,  0.6710838 , -0.        ],
       [ 0.5421183 , -0.5730025 , -0.41776115, -0.62942433,  0.5098004 ,
         0.        , -0.42842206,  0.        ,  0.48569703,  0.43339163],
       [-0.        , -0.61945176, -0.        ,  0.39949122, -0.        ,
        -0.        , -0.        ,  0.        ,  0.7769132 , -0.        ],
       [ 0.        , -0.        ,  0.        ,  0.        , -0.        ,
         0.        , -0.        ,  0.9696573 , -0.5111742 , -0.49002662],
       [-0.45313576, -0.        ,  0.        , -0.55227846,  0.6771318 ,
         0.        , -0.        , -0.31125763, -0.40042725,  0.8149935 ],
       [-0.        , -0.75508285, -0.7057774 ,  0.5933626 , -0.        ,
         0.        , -0.3675576 ,  0.        ,  0.        , -0.        ],
       [-0.        , -0.49011344,  0.45688215,  0.        , -0.        ,
        -0.6677164 ,  0.        , -0.        ,  0.5384851 ,  0.        ],
       [ 0.5530192 ,  0.        , -0.        , -0.        ,  0.        ,
        -0.61325395,  0.4565005 ,  0.        , -0.47683078, -0.5084912 ],
       [ 0.46869862,  0.        ,  0.        , -0.        ,  0.        ,
        -0.5161062 ,  0.5854246 , -0.49698684, -0.43875027, -0.        ],
       [ 0.5456377 , -0.        , -0.47093463, -0.5686759 , -0.        ,
         0.        ,  0.6631392 ,  0.        , -0.        , -0.36773577],
       [ 0.5736248 , -0.5303348 , -0.        ,  0.38796023,  0.        ,
         0.        ,  0.6057901 , -0.47444588,  0.        ,  0.        ],
       [-0.        ,  0.7328192 ,  0.4254775 ,  0.        ,  0.        ,
        -0.        ,  0.        ,  0.5870634 ,  0.38955182, -0.60593677],
       [ 0.        ,  0.76900154, -0.7077433 ,  0.437201  , -0.        ,
        -0.        , -0.        , -0.        , -0.        ,  0.        ],
       [ 0.36347124, -0.37839258,  0.46481112,  0.33783635, -0.        ,
        -0.61367524, -0.82154244,  0.        ,  0.        , -0.        ],
       [ 0.        , -0.        , -0.43598312,  0.        ,  0.5227437 ,
         0.44994903, -0.        ,  0.        ,  0.        , -0.43948838],
       [ 0.        , -0.4093629 ,  0.64531296,  0.        ,  0.6326866 ,
        -0.4005088 , -0.        , -0.        , -0.        ,  0.        ],
       [ 0.        , -0.        ,  0.        , -0.        , -0.7769335 ,
         0.45748612, -0.        ,  0.        , -0.4783965 ,  0.90946686],
       [ 0.6647359 ,  0.        , -0.        , -0.        , -0.77487373,
        -0.        ,  0.        ,  0.        , -0.        ,  0.8255588 ],
       [-0.52503765, -0.59718686, -0.        ,  0.        ,  0.        ,
        -0.6083106 , -0.        ,  0.4184194 ,  0.        , -0.        ],
       [ 0.5148622 , -0.        , -0.39975458, -0.60028535, -0.        ,
        -0.        , -0.        ,  0.        , -0.37891966,  0.6369941 ],
       [ 0.        , -0.        ,  0.67706007, -0.5918877 ,  0.        ,
        -0.46469823,  0.        ,  0.7447805 , -0.46256053, -0.        ],
       [-0.74617505,  0.5234977 , -0.        ,  0.        ,  0.        ,
        -0.        ,  0.        , -0.        ,  0.632883  , -0.6295713 ],
       [-0.        ,  0.50465053, -0.        ,  0.        , -0.6869029 ,
        -0.        ,  0.        , -0.        ,  0.4751332 ,  0.        ],
       [-0.        ,  0.        , -0.        , -0.5361733 , -0.        ,
        -0.        ,  0.4698537 , -0.5780459 , -0.        ,  0.        ],
       [-0.        ,  0.        ,  0.6381186 ,  0.4150243 , -0.61527073,
         0.        , -0.34377414, -0.        ,  0.57291865, -0.43901652],
       [ 0.        ,  0.30567756, -0.63276744,  0.        ,  0.        ,
         0.616127  ,  0.47825986, -0.        , -0.5046937 ,  0.        ],
       [-0.        ,  0.        ,  0.6125649 , -0.48536873,  0.        ,
        -0.44865793,  0.        , -0.6128849 ,  0.        , -0.        ],
       [ 0.        , -0.        , -0.        ,  0.        , -0.63221765,
         0.31564006, -0.4964114 , -0.        ,  0.        ,  0.3616578 ],
       [ 0.        , -0.46714073,  0.        , -0.        ,  0.        ,
         0.95309037,  0.67208713,  0.        ,  0.        , -0.        ],
       [ 0.        ,  0.6332028 , -0.47687715,  0.        ,  0.5231186 ,
        -0.40387538, -0.        , -0.44401053,  0.        ,  0.        ],
       [-0.44775692, -0.53565866, -0.364551  , -0.78194505, -0.        ,
         0.        ,  0.        , -0.4860093 ,  0.44957745,  0.        ],
       [-0.        , -0.        ,  0.        ,  0.        ,  0.6341856 ,
         0.5038738 , -0.6821394 , -0.654761  , -0.        ,  0.        ],
       [-0.36697194,  0.        , -0.        ,  0.        , -0.38648987,
        -0.        ,  0.4428571 , -0.        ,  0.        , -0.6468863 ],
       [ 0.        , -0.        ,  0.        ,  0.        , -0.6874724 ,
         0.9462201 ,  0.582591  , -0.        , -0.        ,  0.        ],
       [ 0.        , -0.        , -0.44399872,  0.        ,  0.5634251 ,
         0.4508557 ,  0.        ,  0.44272295,  0.        , -0.        ],
       [-0.        ,  0.        ,  0.75130075, -0.36836922,  0.        ,
        -0.        ,  0.        ,  0.        ,  0.6410559 , -0.74104106],
       [ 0.7217253 , -0.5491752 ,  0.        ,  0.        ,  0.4457855 ,
        -0.        , -0.6148679 ,  0.        , -0.29097718,  0.47694543],
       [-0.        , -0.57068187,  0.8385016 , -0.        ,  0.        ,
         0.        ,  0.2839281 , -0.6335848 , -0.41256326, -0.        ],
       [ 0.46410426,  0.42707884, -0.        , -0.5993906 , -0.35897174,
        -0.45444936,  0.74288976, -0.        ,  0.4326639 ,  0.        ],
       [-0.46079695, -0.27287987,  0.61448336, -0.        , -0.52724886,
        -0.        ,  0.        , -0.54880846, -0.        ,  0.5902095 ],
       [ 0.        ,  0.4400464 ,  0.        ,  0.        , -0.        ,
         0.51192003, -0.        ,  0.38641948,  0.        , -0.37422538],
       [-0.        ,  0.        , -0.        , -0.46868667, -0.51601136,
        -0.        , -0.34172156,  0.        ,  0.6441327 ,  0.8676993 ],
       [ 0.40431407,  0.4169928 , -0.        , -0.        ,  0.        ,
        -0.        , -0.        ,  0.7777128 ,  0.        , -0.6105854 ],
       [ 0.        ,  0.43423924, -0.3860311 , -0.4872116 ,  0.        ,
        -0.54602677,  1.0514694 , -0.5186768 , -0.        ,  0.        ],
       [ 0.30327517,  0.        , -0.42710793, -0.        , -0.54501575,
         0.63480175,  0.        , -0.51850474, -0.47733098,  0.        ],
       [ 0.98148364,  0.        ,  0.        , -0.5307603 , -0.        ,
        -0.        , -0.5437245 ,  0.        , -0.30843037, -0.        ],
       [ 0.60474354, -0.        ,  0.44307163,  0.8186788 ,  0.        ,
        -0.64353734, -0.83564746,  0.        , -0.53067815, -0.        ],
       [ 0.4489438 ,  0.        , -0.6163072 ,  0.        ,  0.49859414,
        -0.5487774 ,  0.        , -0.41739917,  0.4740385 ,  0.54551744],
       [ 0.9845329 , -0.        , -0.60321414,  0.        ,  0.        ,
         0.        ,  0.9841341 , -0.        , -0.        , -0.        ],
       [-0.        ,  0.        , -0.62172806, -0.6703552 , -0.        ,
        -0.5007041 ,  0.48251256,  0.4302733 ,  0.6660373 , -0.        ],
       [ 0.7247585 , -0.        ,  0.6113415 ,  0.        ,  0.        ,
         0.        , -0.        , -0.        , -0.5569543 ,  0.        ],
       [-0.        , -0.8096013 , -0.        , -0.        , -0.73523486,
        -0.        , -0.        ,  0.        ,  0.7018419 ,  0.35169595],
       [-0.        ,  0.7576011 , -0.        ,  0.        ,  0.87458867,
        -0.755171  ,  0.        ,  0.        ,  0.        , -0.        ],
       [ 0.        , -0.        ,  0.        ,  0.        , -0.        ,
        -0.6902065 , -0.        ,  0.81096107,  0.        , -0.        ],
       [-0.        ,  0.        , -0.        ,  0.        , -0.497885  ,
        -0.6334468 ,  0.        , -0.60335445,  0.4926933 ,  0.        ],
       [-0.8169012 ,  0.        , -0.4050638 ,  0.7928477 , -0.        ,
        -0.        ,  0.5276335 , -0.        , -0.        , -0.7035605 ],
       [ 0.        ,  0.45121714,  0.        , -0.5232602 , -0.        ,
         0.5525971 , -0.5538902 ,  0.35387313, -0.        ,  0.        ],
       [-0.        , -0.        ,  0.        ,  0.6618258 ,  0.        ,
         0.41612017,  0.5177868 ,  0.        ,  0.        , -0.        ],
       [-0.        , -0.50957644, -0.54340214,  0.        ,  0.43141687,
        -0.61528647,  0.        ,  0.4044038 ,  0.        , -0.        ],
       [ 0.        ,  0.57122153, -0.        ,  0.5988315 , -0.        ,
        -0.7615707 , -0.        , -0.        ,  0.        ,  0.        ],
       [ 0.        , -0.        ,  0.46311694, -0.5695537 ,  0.43114188,
        -0.2679316 , -0.263596  ,  0.        ,  0.5549013 , -0.        ],
       [-0.5862113 , -0.7531429 ,  0.        ,  0.39155242, -0.        ,
         0.        , -0.33740574,  0.35715944, -0.        , -0.        ],
       [-0.58439004,  0.        , -0.67249393, -0.        , -0.        ,
         0.5141265 ,  0.        , -0.8147964 , -0.        ,  0.5778919 ],
       [ 0.418191  ,  0.        , -0.        , -0.41184285, -0.45286587,
         0.        ,  0.        , -0.7706134 ,  0.5953932 , -0.42268   ],
       [ 0.5387364 , -0.        ,  0.6807253 ,  0.        ,  0.        ,
         0.        ,  0.        , -0.        , -0.        , -0.51739436],
       [-0.        , -0.52650046,  0.        , -0.        , -0.7547533 ,
        -0.        , -0.        ,  0.4325012 ,  0.        ,  0.75262827],
       [-0.        ,  0.        ,  0.75064707, -0.        ,  0.        ,
         0.5682267 , -0.        , -0.54853845, -0.        , -0.        ],
       [ 0.        , -0.        , -0.        ,  0.44100982, -0.51563656,
        -0.        , -0.70289165,  0.        ,  0.        ,  0.6131067 ],
       [ 0.7044262 , -0.        , -0.        ,  0.40501675, -0.5305918 ,
        -0.438879  , -0.        , -0.        ,  0.        ,  0.6062847 ],
       [-0.59896046,  0.        , -0.69203085,  0.53384984, -0.        ,
        -0.        , -0.5220268 ,  0.46377888, -0.        ,  0.        ],
       [ 0.        ,  0.8815347 ,  0.        ,  0.        ,  0.58530533,
        -0.43680313, -0.        , -0.43312946, -0.        ,  0.        ],
       [-0.        ,  0.        ,  0.7891633 , -0.        ,  0.        ,
         0.        ,  0.43743703, -0.4691059 ,  0.        , -0.43828532],
       [-0.        , -0.        ,  0.        ,  0.90384185,  0.        ,
         0.        , -0.        , -0.67886794,  0.        ,  0.        ]],
      dtype=float32)
 array([-0.11454   ,  0.26772037,  0.05508272, -0.03502693, -0.02627309,
        0.14720924, -0.05135052,  0.09694498, -0.3174587 , -0.05394674],
      dtype=float32)]