FC Layer, 300 (Glorot Init.) Original_Weights[array([[ 0.06812921,  0.        ,  0.        , ..., -0.        ,
         0.        ,  0.        ],
       [ 0.        , -0.        , -0.        , ..., -0.        ,
         0.        , -0.        ],
       [ 0.        ,  0.        , -0.        , ..., -0.        ,
        -0.        , -0.        ],
       ...,
       [ 0.        ,  0.        , -0.        , ...,  0.        ,
         0.        ,  0.        ],
       [ 0.        , -0.        , -0.        , ...,  0.        ,
         0.        , -0.        ],
       [-0.        , -0.        , -0.        , ..., -0.        ,
        -0.        , -0.        ]], dtype=float32)
 array([ 0.02262737,  0.0288292 ,  0.11908589,  0.11291059, -0.10931495,
       -0.10862226,  0.12500681,  0.09488058,  0.01416789,  0.15181215,
        0.03229569, -0.07910401,  0.0743451 ,  0.0799179 ,  0.06615712,
        0.11229018,  0.10727309, -0.16280271, -0.1593049 ,  0.1605296 ,
       -0.08698968, -0.13119695,  0.0017692 , -0.01494833,  0.26411822,
       -0.06069708, -0.00827047,  0.0292988 , -0.07441686,  0.0916319 ,
        0.03402995, -0.01198122,  0.11313813, -0.03190933, -0.04655249,
        0.02152535,  0.11891827, -0.00134852,  0.14298308, -0.18456629,
        0.05542374,  0.03949004, -0.07311694, -0.01497306, -0.03142615,
        0.062365  ,  0.04123242, -0.0741116 , -0.08119632, -0.07645053,
       -0.21493135, -0.09281401,  0.03472677, -0.01170648, -0.16979764,
        0.12687166,  0.09363894, -0.04942527,  0.08899266,  0.09704424,
        0.01993275, -0.00822375, -0.15186289,  0.03004403,  0.02993549,
       -0.02910903,  0.19710645,  0.00167457,  0.06222424,  0.13377084,
       -0.23780316, -0.05362103,  0.05626235, -0.04891974,  0.13129286,
        0.0296117 , -0.00757375, -0.05469143,  0.03186904,  0.11235569,
        0.04849644, -0.00851541,  0.18059117, -0.0108576 ,  0.10725775,
        0.19791584,  0.15566659, -0.12309451, -0.10117864, -0.18539846,
        0.0716076 ,  0.05424509, -0.05390098,  0.08823905,  0.11493107,
       -0.10330763, -0.16886869,  0.1361989 ,  0.03553096,  0.12222773,
       -0.10546779,  0.08245517, -0.00942876, -0.14194264,  0.03203021,
        0.002384  , -0.06849048, -0.02454419, -0.04431942,  0.02891782,
       -0.02782582,  0.15696986,  0.00735684, -0.02998241,  0.1013814 ,
       -0.01154708, -0.09836853, -0.10649553,  0.06925586,  0.02577101,
        0.07201181, -0.08246285, -0.03488664,  0.06627219,  0.00463874,
        0.08580405, -0.05675453,  0.03195256, -0.22872762,  0.02344957,
       -0.01413547,  0.08873154, -0.01042978,  0.01187325,  0.12468544,
       -0.01249594, -0.08050348,  0.06906967,  0.04866945,  0.01834966,
       -0.07136264,  0.00766844, -0.05679106,  0.00314792,  0.1577878 ,
        0.06117649, -0.12401086, -0.07345539, -0.00216266,  0.07878637,
       -0.00752828, -0.01319463,  0.07093817,  0.12490252, -0.16914688,
        0.11213086, -0.0565639 ,  0.18955147, -0.05555949,  0.03287613,
       -0.01956865, -0.14387998, -0.04624873,  0.01519926, -0.10614081,
       -0.10240114, -0.01994463,  0.0085285 , -0.03148404, -0.06509164,
       -0.10104798,  0.03180319, -0.018155  , -0.0750077 ,  0.06208754,
        0.11539524, -0.00760044, -0.01632227, -0.05832526, -0.04641435,
        0.16086768,  0.10184949,  0.01688986,  0.05981004, -0.02752895,
        0.10052829,  0.09186836, -0.06747074,  0.07524579, -0.01065869,
       -0.06995375,  0.04232488,  0.23779275,  0.05174999, -0.08643679,
        0.10721561, -0.06411199,  0.08357178,  0.20375733,  0.08322553,
       -0.00265795,  0.05309268, -0.02577165,  0.00877536, -0.05993132,
        0.05207388,  0.02655465,  0.13931338, -0.09749059, -0.01784784,
       -0.00958886,  0.0971158 ,  0.05789841, -0.09463479, -0.02692969,
        0.04690791,  0.04205785, -0.00695602, -0.05831872, -0.13622223,
       -0.02047573,  0.25545514, -0.07747175,  0.08409611, -0.09321109,
       -0.04546606,  0.01744479, -0.04708141, -0.08667103,  0.08722523,
       -0.09348167,  0.00205987,  0.03111755,  0.04461355,  0.01028952,
       -0.0071182 ,  0.1339501 , -0.03630775, -0.08871691,  0.08559033,
       -0.04711965,  0.08321042, -0.05062477, -0.23690566,  0.02116538,
        0.1063722 ,  0.121465  , -0.00659963, -0.00763538,  0.03455141,
        0.14053933,  0.05752869, -0.22181079,  0.09418175,  0.03349439,
        0.04085584,  0.21910162,  0.12140737, -0.02788122, -0.08720511,
       -0.04325606, -0.03444363, -0.06477763, -0.0389647 ,  0.00540372,
       -0.11775956,  0.02193732, -0.07463153, -0.13339907,  0.13105595,
       -0.12643953, -0.06914984,  0.15327454, -0.16636026,  0.02782969,
       -0.06488272,  0.02648886,  0.06687402,  0.09721589, -0.0008823 ,
       -0.0594347 , -0.05452504,  0.14472742, -0.1149804 ,  0.08100124,
       -0.06625669, -0.01405134, -0.03042078,  0.16536832,  0.07311202,
       -0.11409768,  0.103011  ,  0.07664308, -0.04628743,  0.10646433,
        0.06314427, -0.04348868, -0.06778906, -0.01733467,  0.08183769],
      dtype=float32)]FC Layer, 100 (Glorot Init.) Original_Weights[array([[ 0.20715067, -0.15031898,  0.        , ...,  0.        ,
        -0.        ,  0.        ],
       [ 0.        , -0.11168195, -0.09673832, ...,  0.        ,
         0.15995015, -0.41449806],
       [ 0.        ,  0.21472618, -0.        , ..., -0.        ,
         0.        , -0.        ],
       ...,
       [ 0.1917613 , -0.        , -0.        , ...,  0.346801  ,
        -0.        ,  0.        ],
       [ 0.18700692,  0.21382171, -0.11178223, ..., -0.        ,
         0.        , -0.        ],
       [ 0.        ,  0.        ,  0.12693337, ...,  0.        ,
        -0.        ,  0.        ]], dtype=float32)
 array([-0.16453671,  0.06369971,  0.17965284, -0.00749996,  0.06519566,
        0.11751944,  0.01732518,  0.03493037, -0.27034906, -0.08251829,
       -0.02889161, -0.09569895,  0.25694364,  0.054678  ,  0.003649  ,
       -0.02675701, -0.01916434, -0.0650594 ,  0.1602611 ,  0.07933508,
        0.00678862,  0.08003822,  0.17280614, -0.15454553,  0.10302682,
        0.1901057 , -0.07760115, -0.07959971, -0.13502184, -0.14420393,
        0.15705338,  0.05506886, -0.08352234, -0.12810436,  0.09518322,
       -0.0577217 , -0.0826958 , -0.0562315 , -0.05730634, -0.02144052,
       -0.10432106, -0.05354208, -0.0966915 ,  0.03633183,  0.0077301 ,
       -0.06616143, -0.04578573,  0.14956373, -0.06058234,  0.03158825,
       -0.03234699, -0.0217117 ,  0.11500013, -0.08305418,  0.038392  ,
        0.14233966, -0.1083076 , -0.14151415,  0.05323524,  0.07561623,
        0.06717435,  0.14577292,  0.01084369, -0.01947649, -0.0327449 ,
       -0.06022079,  0.02065161,  0.2122655 , -0.10917462,  0.07593423,
       -0.13899857,  0.07143152,  0.04109643,  0.06042636, -0.11328816,
       -0.09426128, -0.08765124, -0.0376719 , -0.15501045, -0.05274802,
        0.0526557 , -0.14215356,  0.08710371,  0.0080304 ,  0.02302425,
       -0.17364535, -0.00814721, -0.01127668, -0.03161883,  0.04529141,
       -0.05360153, -0.09049603, -0.12323648,  0.20531002,  0.04637564,
       -0.0625285 ,  0.01754494,  0.02462044, -0.05126546, -0.06804822],
      dtype=float32)]FC Layer, 10 (Softmax) Original_Weights[array([[ 0.5129832 , -0.        , -0.45329398, -0.        , -0.7420232 ,
        -0.        , -0.47815216,  0.        ,  0.        ,  0.62768185],
       [ 0.        , -0.        , -0.6141547 , -0.33665866,  0.40091595,
         0.7640832 ,  0.49140897,  0.        , -0.43103904,  0.3669899 ],
       [-0.        ,  0.        ,  0.        ,  0.        ,  0.473506  ,
        -0.        , -0.30139107,  0.7159396 , -0.6928419 ,  0.        ],
       [ 0.        , -0.32832733,  0.89578885, -0.5116419 , -0.        ,
        -0.6679391 ,  0.        ,  0.665819  ,  0.        , -0.        ],
       [ 0.        , -0.        , -0.33196256, -0.8971472 , -0.        ,
        -0.        ,  0.        ,  0.61203104, -0.39898178,  0.7652471 ],
       [ 0.        ,  0.67224926, -0.        , -0.        ,  0.5694726 ,
         0.5094277 , -0.73314196, -0.        , -0.3681734 , -0.        ],
       [-0.        ,  0.39545545, -0.47682598, -1.0078226 , -0.        ,
         0.69549394,  0.30953774, -0.50174445, -0.        ,  0.        ],
       [-0.5866254 ,  0.4293173 ,  0.32807386, -0.        ,  0.        ,
         0.        , -0.45987615, -0.69695413, -0.        ,  0.        ],
       [ 0.        , -0.36722508, -0.8664218 ,  0.84399587, -0.        ,
         0.        ,  0.51811725, -0.64538455,  0.712947  , -0.        ],
       [ 0.76567924,  0.77841574, -0.        ,  0.        ,  0.        ,
        -0.4013443 ,  0.7514135 ,  0.        ,  0.        ,  0.        ],
       [ 0.        ,  0.5903193 , -0.        , -0.        ,  0.        ,
        -0.6256946 , -0.6642402 , -0.        , -0.        , -0.        ],
       [ 0.        , -0.46364358, -0.        , -0.        , -0.35400122,
        -0.        ,  0.        ,  0.        ,  0.8376492 , -0.        ],
       [-0.67801225,  0.        , -0.        ,  0.5298411 , -0.        ,
         0.76075953, -0.        , -0.        , -0.99154764, -0.        ],
       [-0.        , -0.3390198 ,  0.6725728 ,  0.806579  ,  0.        ,
        -0.        , -0.5345943 ,  0.3859954 , -0.7719151 ,  0.        ],
       [-0.516659  , -0.50303227,  0.76231295,  0.        ,  0.77276224,
        -0.        ,  0.        ,  0.        ,  0.        , -0.5791863 ],
       [ 0.        , -0.6720082 ,  0.45698762, -0.        , -0.        ,
        -0.7690131 ,  0.        ,  0.        , -0.        , -0.        ],
       [ 0.        ,  0.        , -0.        , -0.59489834, -0.        ,
        -0.7737016 ,  0.        , -0.        , -0.        ,  0.43348384],
       [-0.        ,  0.32209912, -0.        ,  0.406221  , -0.9114389 ,
        -0.6459266 , -0.        , -0.410428  , -0.        ,  0.66700596],
       [-0.57813996, -0.        , -0.39186686,  0.        ,  0.4107536 ,
        -0.        ,  0.27354074,  0.5443665 , -0.7682418 ,  0.        ],
       [ 0.6428995 , -0.25019693,  0.        ,  0.        , -0.        ,
        -0.37865162,  0.60584044,  0.5759342 , -0.6052822 , -0.        ],
       [-0.50198126,  0.        , -0.58453935,  0.6515745 ,  0.        ,
        -0.        , -0.        ,  0.48352224, -0.        , -0.38596538],
       [ 0.        ,  0.5563058 , -0.7581534 , -0.        , -0.        ,
         0.        ,  0.79816496, -0.        , -0.        ,  0.3744071 ],
       [-0.8952056 ,  0.43972293,  0.82680935, -0.47814977,  0.        ,
         0.4080416 , -0.        ,  0.48485562, -0.32231623, -0.46836495],
       [-0.        , -0.8829251 ,  0.        ,  0.        ,  0.61548156,
         0.        ,  0.        ,  0.        ,  0.        ,  0.39403382],
       [-0.        ,  0.55962557, -0.5378277 , -0.        ,  0.        ,
         0.4119302 , -0.3401456 ,  0.79467857, -0.        , -0.59819144],
       [-1.025162  ,  0.37587124,  0.        , -0.        ,  0.        ,
         0.3646122 , -0.7393852 , -0.        , -0.46057913,  0.6883494 ],
       [ 0.        ,  0.        , -0.        , -0.45260102,  0.75366247,
         0.        , -0.        , -0.81131876, -0.        , -0.        ],
       [ 0.        , -0.66427135, -0.43143877,  0.6341021 , -0.        ,
         0.        , -0.        ,  0.3082063 ,  0.68128717, -0.        ],
       [ 0.5232915 , -0.45652634, -0.52595973, -0.6771437 ,  0.547838  ,
         0.        , -0.4089955 ,  0.        ,  0.48942965,  0.4252759 ],
       [ 0.        , -0.7510533 , -0.        ,  0.44002748, -0.        ,
        -0.3764576 ,  0.        ,  0.        ,  0.67144954, -0.        ],
       [ 0.        , -0.        ,  0.        , -0.        , -0.        ,
        -0.        ,  0.        ,  0.9500784 , -0.66367126, -0.54362154],
       [-0.61133736, -0.        ,  0.        , -0.5842504 ,  0.6476602 ,
        -0.        , -0.33086303, -0.25087282, -0.5023657 ,  0.95721525],
       [ 0.3343352 , -0.7308347 , -0.7484021 ,  0.5773052 , -0.        ,
        -0.        , -0.42209277,  0.30383614,  0.36036977, -0.        ],
       [ 0.        , -0.76838773,  0.45386764, -0.        ,  0.        ,
        -0.6508451 , -0.38407642, -0.38079205,  0.6183566 , -0.        ],
       [ 0.48221266,  0.43010718, -0.        ,  0.        , -0.        ,
        -0.7273579 ,  0.4876185 ,  0.52579665, -0.4823936 , -0.51482886],
       [ 0.5946967 , -0.        ,  0.        ,  0.        , -0.        ,
        -0.62626076,  0.64903736, -0.5723273 , -0.5594646 , -0.        ],
       [ 0.53168124, -0.34752303, -0.62985927, -0.53850484, -0.        ,
         0.        ,  0.59007144,  0.        ,  0.42220977, -0.5518086 ],
       [ 0.62605965, -0.5468301 , -0.        ,  0.5294071 ,  0.        ,
        -0.        ,  0.73871696, -0.5900381 , -0.35221717, -0.        ],
       [-0.        ,  0.8030759 ,  0.5697115 , -0.        ,  0.        ,
        -0.        , -0.        ,  0.6510425 ,  0.29624733, -0.6770199 ],
       [-0.        ,  0.83894545, -0.720126  ,  0.4141905 ,  0.        ,
        -0.        , -0.        , -0.        , -0.        ,  0.        ],
       [ 0.36958462, -0.6450681 ,  0.48616868,  0.35317034,  0.42657402,
        -0.6821491 , -0.8560871 , -0.        , -0.        , -0.        ],
       [ 0.3789522 , -0.        , -0.68498725,  0.        ,  0.52786523,
         0.5657725 ,  0.28111959,  0.        ,  0.        , -0.5416616 ],
       [ 0.        , -0.50811183,  0.5894132 ,  0.        ,  0.6778981 ,
        -0.29982847, -0.        , -0.4453213 ,  0.        ,  0.        ],
       [-0.        , -0.        ,  0.        , -0.30413836, -0.7683308 ,
         0.5432729 ,  0.38428366, -0.        , -0.44025174,  0.7781058 ],
       [ 0.5748506 ,  0.        , -0.32516178, -0.        , -0.9640172 ,
         0.3470652 ,  0.        ,  0.        , -0.        ,  0.796315  ],
       [-0.5424174 , -0.5790912 ,  0.        ,  0.        , -0.        ,
        -0.6202467 ,  0.        ,  0.4040089 ,  0.        ,  0.        ],
       [ 0.5001993 , -0.        , -0.5203333 , -0.38787434, -0.        ,
         0.        ,  0.        ,  0.        , -0.37611416,  0.65664333],
       [ 0.        , -0.        ,  0.8809414 , -0.60956097, -0.        ,
        -0.48919684, -0.38051614,  0.8589278 , -0.61202943, -0.        ],
       [-0.74199945,  0.48132128, -0.        , -0.        ,  0.        ,
        -0.        , -0.        , -0.        ,  0.6046113 , -0.71690285],
       [-0.47325996,  0.3387579 , -0.        ,  0.        , -0.74629724,
         0.        ,  0.4181218 , -0.        ,  0.54367876, -0.        ],
       [ 0.        , -0.        , -0.        , -0.57061195,  0.        ,
         0.        ,  0.37549362, -0.71487886, -0.        ,  0.        ],
       [-0.        , -0.        ,  0.8909519 ,  0.4746699 , -0.6284325 ,
        -0.        , -0.40631586,  0.        ,  0.62018526, -0.5815059 ],
       [-0.        ,  0.5631243 , -0.69811237,  0.        ,  0.        ,
         0.69384295,  0.45396188,  0.        , -0.49678853,  0.        ],
       [ 0.        ,  0.        ,  0.615733  , -0.7009658 ,  0.45783862,
        -0.75619256,  0.        , -0.6696186 , -0.        ,  0.        ],
       [ 0.50973594,  0.27548444,  0.        ,  0.        , -0.7420976 ,
         0.42157716, -0.5563824 , -0.        , -0.        ,  0.39357102],
       [ 0.        , -0.36426243,  0.        ,  0.        ,  0.        ,
         1.1043509 ,  0.6308381 ,  0.        ,  0.        , -0.        ],
       [-0.        ,  0.5558158 , -0.45742583, -0.        ,  0.49600646,
        -0.47483072, -0.        , -0.58723354, -0.        ,  0.42653862],
       [-0.4464905 , -0.48628804, -0.4043376 , -0.7935644 , -0.        ,
         0.        ,  0.        , -0.52708644,  0.5724124 , -0.        ],
       [ 0.        , -0.        ,  0.40864134,  0.        ,  0.50305647,
         0.58070374, -0.62844396, -0.58759826, -0.        , -0.        ],
       [-0.40107998,  0.42439097,  0.        , -0.        , -0.37661335,
        -0.        ,  0.37038717,  0.32465622,  0.46573246, -0.7005644 ],
       [ 0.3795412 , -0.        ,  0.        , -0.        , -0.7715156 ,
         0.9327261 ,  0.5791244 ,  0.        ,  0.        ,  0.        ],
       [-0.        ,  0.        , -0.40937272, -0.        ,  0.51383203,
         0.5491009 ,  0.        ,  0.5255055 , -0.        , -0.        ],
       [ 0.        , -0.        ,  0.69322795, -0.46105084, -0.30266917,
         0.38410166,  0.        , -0.3606206 ,  0.6791485 , -0.88153183],
       [ 0.8315712 , -0.4373748 ,  0.        , -0.        ,  0.37066236,
        -0.        , -0.69964397,  0.        , -0.43501452,  0.62329257],
       [ 0.        , -0.6128631 ,  0.931977  , -0.        , -0.        ,
         0.        ,  0.3460081 , -0.6343613 , -0.52891624, -0.        ],
       [ 0.5524572 ,  0.52321875,  0.        , -0.6624011 , -0.37064567,
        -0.53334594,  0.7271956 , -0.        ,  0.38114062, -0.34192854],
       [-0.51346946, -0.51950514,  0.7746519 , -0.        , -0.5757905 ,
         0.31400523,  0.        , -0.4775823 , -0.        ,  0.6815187 ],
       [-0.        ,  0.46769717,  0.        ,  0.        ,  0.        ,
         0.5713341 , -0.        ,  0.571478  , -0.48846573, -0.45184454],
       [ 0.        ,  0.        , -0.        , -0.6549572 , -0.5664466 ,
        -0.41402173, -0.55592173, -0.        ,  0.5404837 ,  0.9256549 ],
       [ 0.40145674,  0.42499083, -0.37479785,  0.4236656 , -0.3425897 ,
        -0.        , -0.        ,  0.6891102 , -0.        , -0.5079412 ],
       [ 0.        ,  0.52300656, -0.29412013, -0.46965382, -0.        ,
        -0.5511239 ,  0.81712687, -0.31230873, -0.        ,  0.        ],
       [ 0.42860115,  0.        , -0.4524371 ,  0.37335932, -0.46990514,
         0.79225755, -0.        , -0.6123916 , -0.74274623,  0.        ],
       [ 0.99434644, -0.        ,  0.3166463 , -0.5365622 ,  0.        ,
        -0.        , -0.49762857,  0.        , -0.37699562,  0.        ],
       [ 0.62647784,  0.        ,  0.43802634,  0.77660775,  0.        ,
        -0.65358156, -0.7970953 , -0.        , -0.6069138 , -0.32816917],
       [ 0.5153493 ,  0.        , -0.55246663, -0.        ,  0.53410447,
        -0.62004364,  0.        , -0.56458634,  0.56723315,  0.6145211 ],
       [ 0.956956  , -0.        , -0.6400251 ,  0.        , -0.        ,
        -0.44511148,  0.9304766 ,  0.33079234,  0.        , -0.46076053],
       [ 0.        ,  0.        , -0.7252741 , -0.7194198 ,  0.3116983 ,
        -0.45196614,  0.38000253,  0.5360844 ,  0.7286895 , -0.        ],
       [ 0.6607563 , -0.        ,  0.5916868 ,  0.        ,  0.        ,
        -0.        , -0.3996703 ,  0.        , -0.46511143,  0.        ],
       [ 0.        , -0.8658788 , -0.        , -0.        , -0.98199195,
        -0.        , -0.38731557, -0.        ,  0.7034106 ,  0.584172  ],
       [ 0.        ,  0.68863577, -0.        , -0.        ,  0.8889757 ,
        -0.73716825,  0.        , -0.        , -0.        , -0.31183124],
       [-0.        ,  0.        ,  0.43891558, -0.        , -0.        ,
        -0.6715382 ,  0.        ,  0.73821944, -0.        ,  0.        ],
       [ 0.        ,  0.26055378, -0.        , -0.        , -0.67652416,
        -0.66992974,  0.        , -0.6541996 ,  0.6502577 ,  0.        ],
       [-0.9351653 ,  0.35705602, -0.49903166,  0.92487955, -0.        ,
         0.41936192,  0.6317765 , -0.        , -0.        , -0.7534916 ],
       [-0.        ,  0.44966924,  0.        , -0.56547767,  0.        ,
         0.72532886, -0.55277085,  0.47045243, -0.        ,  0.        ],
       [ 0.        , -0.3182244 , -0.40694195,  0.7201284 , -0.        ,
         0.4932429 ,  0.6453444 ,  0.        ,  0.        , -0.        ],
       [ 0.        , -0.5991421 , -0.624618  , -0.        ,  0.46457985,
        -0.64244074,  0.        ,  0.36618373,  0.3659494 , -0.        ],
       [-0.        ,  0.34439167, -0.        ,  0.66651636,  0.        ,
        -0.85602933, -0.2906402 , -0.        , -0.31874776,  0.        ],
       [ 0.        ,  0.        ,  0.58408916, -0.6615997 ,  0.5579196 ,
        -0.36215702, -0.496892  , -0.        ,  0.44807866, -0.        ],
       [-0.40624917, -0.8524773 , -0.        ,  0.53806967,  0.        ,
         0.30924264, -0.3729617 ,  0.5835143 ,  0.        ,  0.36324206],
       [-0.62467074,  0.        , -0.56299216,  0.34658986,  0.        ,
         0.5769225 , -0.        , -0.9107021 , -0.        ,  0.5820235 ],
       [ 0.50222087, -0.        ,  0.34712842, -0.57207906, -0.39076906,
         0.        ,  0.        , -0.82832354,  0.66848   , -0.47785738],
       [ 0.48977408,  0.        ,  0.82362497, -0.39139992,  0.        ,
        -0.        , -0.        , -0.        , -0.        , -0.5583675 ],
       [ 0.        , -0.64491886, -0.4291627 , -0.        , -0.8478989 ,
        -0.        , -0.36943623,  0.4913816 ,  0.4811546 ,  0.8313562 ],
       [ 0.        , -0.        ,  0.7767252 ,  0.        ,  0.        ,
         0.51073974, -0.        , -0.5153925 ,  0.        , -0.        ],
       [ 0.        , -0.        ,  0.29827136,  0.5392586 , -0.43656468,
         0.        , -0.85495543, -0.33143258, -0.3765359 ,  0.5444803 ],
       [ 0.69841796, -0.        , -0.        ,  0.6741366 , -0.6346634 ,
        -0.5780743 ,  0.        , -0.        ,  0.        ,  0.71331555],
       [-0.59705454,  0.        , -0.6847805 ,  0.6033246 ,  0.        ,
        -0.        , -0.53507584,  0.49284068, -0.        , -0.        ],
       [-0.        ,  0.96305865,  0.        ,  0.        ,  0.6412503 ,
        -0.5753976 , -0.        , -0.50649285,  0.        , -0.        ],
       [ 0.        , -0.        ,  0.8346542 ,  0.        , -0.        ,
        -0.45432577,  0.3894812 , -0.48587042,  0.        , -0.44291997],
       [ 0.        , -0.        , -0.        ,  0.96202695,  0.        ,
         0.        , -0.        , -0.85741895,  0.        ,  0.        ]],
      dtype=float32)
 array([-0.14770433,  0.2551964 ,  0.10036811, -0.04120375,  0.01877653,
        0.1728569 , -0.07318545,  0.20319554, -0.36929396, -0.12390982],
      dtype=float32)]