FC Layer, 300 (Glorot Init.) Original_Weights[array([[ 0.,  0.,  0., ..., -0.,  0.,  0.],
       [ 0., -0., -0., ..., -0.,  0., -0.],
       [ 0.,  0., -0., ..., -0., -0., -0.],
       ...,
       [ 0.,  0., -0., ...,  0.,  0.,  0.],
       [ 0., -0., -0., ...,  0.,  0., -0.],
       [-0., -0., -0., ..., -0., -0., -0.]], dtype=float32)
 array([-3.00664250e-02,  6.65581003e-02,  1.20594166e-01,  1.71247780e-01,
       -3.50516178e-02, -8.53269994e-02,  1.46123454e-01,  9.68029648e-02,
       -2.39601918e-02,  1.34053156e-01, -8.03599507e-03, -6.61625117e-02,
        9.54001024e-02, -2.26334035e-02, -1.76304840e-02,  3.46312299e-02,
        1.39046013e-01, -7.04647005e-02, -4.55839485e-02,  1.80839911e-01,
       -1.96543895e-02, -5.43733425e-02, -4.02005017e-02, -3.39558460e-02,
        1.66637078e-01, -1.98093317e-02, -7.74569064e-02, -1.52919842e-02,
       -2.11232714e-02,  1.24007829e-01,  2.80219708e-02,  2.48313043e-02,
        1.59229767e-02, -5.21710776e-02, -6.68873414e-02,  5.02081774e-02,
       -8.05667341e-02, -3.41752246e-02,  6.14571273e-02, -1.54672191e-01,
        5.83651625e-02, -4.99598728e-03, -8.26039687e-02, -2.59768814e-02,
        2.08717417e-02,  3.70078757e-02,  1.64741231e-03, -3.58371846e-02,
       -9.77585539e-02,  6.85205450e-03, -1.96555972e-01, -1.36506811e-01,
        7.02936389e-03,  3.83914821e-02, -6.21585101e-02,  4.99532223e-02,
        7.44715184e-02, -3.16974781e-02,  7.73947164e-02,  9.07384381e-02,
       -6.09861091e-02, -3.61417234e-02, -1.04460992e-01,  3.74307833e-03,
        5.82842752e-02, -4.50564958e-02,  1.67195857e-01,  1.08971370e-04,
        6.75331727e-02,  7.63274878e-02, -1.59030959e-01, -2.40600705e-02,
        5.26825078e-02, -1.34686213e-02,  1.96696278e-02,  4.30340022e-02,
       -3.07150744e-02, -3.91637497e-02,  9.34600085e-03,  8.63040686e-02,
       -3.23926471e-02,  2.86610574e-02,  1.50509372e-01,  7.52124116e-02,
       -5.17612807e-02,  1.27235457e-01,  9.77770090e-02, -1.28268719e-01,
       -4.68861610e-02, -1.15150288e-01,  5.93228191e-02, -3.09221931e-02,
       -3.12793963e-02,  1.26825348e-01,  9.31125060e-02, -1.47863075e-01,
       -3.74256335e-02,  1.33986995e-01,  1.21432422e-02,  1.32407784e-01,
       -9.34156403e-02,  5.71728349e-02, -2.16434952e-02, -1.34076983e-01,
        9.81978327e-02, -3.29272710e-02, -7.33842254e-02, -2.49782745e-02,
       -5.24584129e-02,  3.87908407e-02, -3.74295041e-02,  4.63806204e-02,
        4.07150090e-02,  2.87640039e-02,  1.27663046e-01,  5.75500987e-02,
       -8.90718475e-02,  7.56895170e-03,  3.23241726e-02,  1.93947330e-02,
        3.67930494e-02, -9.51380208e-02, -4.41319980e-02,  8.57884958e-02,
        4.14173417e-02,  1.40594482e-01, -6.92482591e-02,  1.30554378e-01,
       -2.15285391e-01,  2.01056190e-02, -7.99032580e-03, -8.23112950e-02,
       -1.68792047e-02,  1.06788836e-01,  6.34648874e-02,  2.13105995e-02,
       -1.80575550e-02,  4.60529476e-02, -3.63741070e-02,  2.35845223e-02,
       -1.00416727e-01,  3.25617380e-02, -7.88760856e-02,  9.75480527e-02,
        8.82297233e-02,  5.38900420e-02, -8.95379856e-02, -9.39449966e-02,
       -7.28992373e-02,  1.88006330e-02, -8.75400566e-03,  5.06648980e-02,
        6.80149123e-02,  1.51269868e-01, -1.10467516e-01,  1.00599267e-01,
       -3.98969017e-02,  9.68675092e-02, -1.46582369e-02,  6.60193488e-02,
       -1.33243412e-01, -1.13830552e-01, -1.49943437e-02,  6.48272857e-02,
       -1.31840974e-01, -1.40073016e-01, -4.11789306e-02, -3.29446942e-02,
       -2.19765306e-02, -5.23938984e-02, -6.06445074e-02,  7.01277256e-02,
       -9.74142104e-02, -1.07590303e-01,  1.10895522e-01,  6.67271391e-02,
       -3.09469886e-02, -6.48048446e-02, -2.25180089e-02, -3.22227851e-02,
        1.66711286e-01,  1.14381664e-01,  2.45998595e-02,  1.74843166e-02,
       -1.13636684e-02, -8.63177236e-03,  3.26742642e-02, -1.02777041e-01,
        8.89775753e-02, -3.28960083e-02,  3.92097719e-02, -2.47455183e-02,
        1.56127110e-01,  2.82088928e-02, -4.72807810e-02,  1.37339346e-02,
       -1.41210184e-01,  2.82264035e-02,  1.67513713e-01,  5.74898869e-02,
        6.22934774e-02,  4.03168797e-03, -5.56229427e-03,  3.25334147e-02,
       -5.59424758e-02,  6.52346611e-02,  5.51082715e-02,  6.08740486e-02,
       -2.00791545e-02,  2.04621479e-02,  2.03846060e-02,  1.17066011e-01,
        6.13613613e-02, -8.93326178e-02, -1.05218254e-01,  3.78718786e-02,
        4.35605533e-02,  2.62191221e-02,  1.35312378e-02, -9.93424132e-02,
       -3.68702449e-02,  1.54797837e-01, -8.44005719e-02,  7.29120374e-02,
       -3.44414786e-02, -2.97771059e-02,  4.51398008e-02, -4.21103612e-02,
       -7.98137188e-02,  3.61170322e-02, -1.00169659e-01, -1.34515502e-02,
       -7.19861477e-04,  3.12143974e-02,  8.31572637e-02, -1.07064724e-01,
        2.31949054e-03, -9.44875628e-02, -8.72303471e-02,  2.94712726e-02,
       -4.26128954e-02,  9.22952816e-02,  2.41181962e-02, -1.70448676e-01,
       -4.85383198e-02,  7.03826621e-02,  2.31449381e-01, -8.84619132e-02,
       -4.02831361e-02,  1.01034127e-01,  1.16648890e-01,  8.45219195e-02,
       -2.20658630e-01,  2.14266237e-02, -1.82605889e-02, -6.57294393e-02,
        1.46086946e-01,  1.42274022e-01,  3.97890098e-02, -1.13532774e-01,
        1.29384678e-02, -2.76343618e-02, -2.89902631e-02, -6.32854998e-02,
        2.58520916e-02, -1.05752610e-01,  2.69750953e-02,  1.83528718e-02,
       -1.10194951e-01,  4.65242788e-02, -8.53431225e-02, -6.27870932e-02,
        8.57776999e-02, -1.31118074e-01, -4.33634073e-02,  4.19803400e-04,
        4.63377014e-02,  5.43826967e-02,  3.92473377e-02, -7.99207911e-02,
       -3.09829209e-02, -1.01264983e-01,  1.19563565e-01, -8.81698504e-02,
        8.77020359e-02, -1.05174653e-01,  2.34258249e-02, -1.51856951e-02,
        1.59882665e-01,  1.10805489e-01, -1.02993354e-01,  7.03025460e-02,
       -1.01210456e-02, -3.50001231e-02,  1.03470914e-01,  9.52189863e-02,
       -2.95811296e-02, -3.82754244e-02, -3.60092446e-02,  6.92792907e-02],
      dtype=float32)]FC Layer, 100 (Glorot Init.) Original_Weights[array([[ 0.17665596, -0.19330163,  0.        , ...,  0.        ,
        -0.        , -0.        ],
       [ 0.        , -0.23273481, -0.22533289, ...,  0.        ,
        -0.        , -0.4521366 ],
       [ 0.        ,  0.19725798,  0.        , ...,  0.        ,
         0.        ,  0.        ],
       ...,
       [ 0.2419418 , -0.        , -0.        , ...,  0.20573728,
         0.        ,  0.        ],
       [ 0.17420775,  0.22174408, -0.11628381, ..., -0.        ,
        -0.        , -0.        ],
       [ 0.        ,  0.        ,  0.22111276, ..., -0.        ,
         0.        , -0.        ]], dtype=float32)
 array([-0.03764506,  0.05993299,  0.12465284, -0.01139294,  0.08389182,
        0.17324191, -0.00622426,  0.0579315 , -0.21845937, -0.03203641,
       -0.01376342, -0.04643593,  0.1676411 ,  0.09116771, -0.04946677,
       -0.02006075, -0.05256649, -0.04841421,  0.18779741,  0.10473801,
        0.01530405,  0.09045557,  0.10764671, -0.11713715,  0.13737679,
        0.13100104, -0.06843349, -0.10288209, -0.11583219, -0.14300966,
        0.1486464 ,  0.00100505, -0.1103365 , -0.18193048,  0.04048456,
       -0.09146679,  0.05211317, -0.15169793, -0.04380734,  0.04210959,
       -0.07281281,  0.02808686, -0.1378523 ,  0.03278897, -0.02525248,
       -0.14958954,  0.04927352,  0.1270202 , -0.04406177,  0.01677885,
       -0.01958612, -0.0128807 ,  0.10190865, -0.0704544 ,  0.05061009,
        0.09869099, -0.06390718, -0.03229577,  0.00773214,  0.01248079,
        0.07535928,  0.00813471,  0.00347979, -0.07854328, -0.09295794,
       -0.00722631, -0.0268857 ,  0.18523094, -0.06106186,  0.05929749,
       -0.07279146,  0.03747197,  0.05497339, -0.03813105, -0.06685895,
       -0.11217585, -0.06868498,  0.04829381, -0.13926634, -0.05310054,
        0.06601764, -0.09084499,  0.03487157,  0.08476097,  0.04460502,
       -0.15725446,  0.01905747, -0.0324151 , -0.06338433,  0.04900591,
       -0.03893124, -0.07396509, -0.07634266,  0.16001083,  0.01301831,
       -0.07791989,  0.02078152, -0.00027487,  0.01713265, -0.1023133 ],
      dtype=float32)]FC Layer, 10 (Softmax) Original_Weights[array([[ 0.5244592 , -0.        , -0.6019995 , -0.        , -0.7029285 ,
         0.        , -0.41537502,  0.        ,  0.        ,  0.58980906],
       [ 0.        , -0.        , -0.62025166, -0.45834357,  0.46509317,
         0.68571156,  0.42611012,  0.        , -0.34788498,  0.42403242],
       [ 0.        ,  0.        , -0.        , -0.        ,  0.38497847,
         0.        ,  0.        ,  0.6165879 , -0.549205  ,  0.        ],
       [-0.        , -0.31540978,  0.75092185, -0.46549216,  0.        ,
        -0.6173046 , -0.        ,  0.52433306,  0.        ,  0.        ],
       [ 0.        ,  0.        , -0.        , -0.6690145 ,  0.        ,
         0.        , -0.        ,  0.42200688, -0.4216623 ,  0.6439113 ],
       [-0.        ,  0.58957386,  0.        , -0.        , -0.        ,
         0.622786  , -0.770142  ,  0.        , -0.        ,  0.        ],
       [ 0.        ,  0.        , -0.32617092, -0.8304463 , -0.        ,
         0.6080434 ,  0.27572063, -0.5978194 , -0.        , -0.        ],
       [-0.59184635,  0.3689218 ,  0.        , -0.        , -0.        ,
        -0.        , -0.44837847, -0.7360826 , -0.        ,  0.        ],
       [-0.        , -0.48021096, -0.812415  ,  0.69500524,  0.        ,
        -0.        ,  0.411351  , -0.6062627 ,  0.6784724 ,  0.        ],
       [ 0.65026873,  0.6688364 ,  0.        ,  0.        , -0.        ,
        -0.37405992,  0.7538951 , -0.        ,  0.        , -0.        ],
       [-0.        ,  0.480386  , -0.        , -0.        , -0.        ,
        -0.6267315 , -0.6303908 ,  0.        , -0.        ,  0.        ],
       [-0.        , -0.54988   ,  0.        ,  0.        , -0.3056208 ,
         0.        ,  0.        , -0.        ,  0.7424196 , -0.        ],
       [-0.6332207 ,  0.        , -0.        ,  0.5618142 ,  0.        ,
         0.6666417 ,  0.        ,  0.        , -0.97684807,  0.        ],
       [-0.        , -0.        ,  0.62347794,  0.791432  , -0.        ,
         0.        , -0.51850057,  0.41745386, -0.72144866, -0.        ],
       [-0.4593001 , -0.5576647 ,  0.7050255 , -0.        ,  0.6986551 ,
        -0.        ,  0.        ,  0.        ,  0.        , -0.457163  ],
       [-0.        , -0.5704643 ,  0.45240596, -0.        , -0.        ,
        -0.7487848 , -0.        ,  0.        , -0.        ,  0.        ],
       [ 0.        ,  0.        , -0.        , -0.67220664,  0.        ,
        -0.62510866, -0.        ,  0.        , -0.        ,  0.4357027 ],
       [-0.        ,  0.35375535,  0.        ,  0.4004607 , -0.85336065,
        -0.61785823, -0.        , -0.29673114, -0.        ,  0.593727  ],
       [-0.55977434,  0.        , -0.        , -0.        ,  0.4660555 ,
         0.        ,  0.30998817,  0.49979407, -0.75928974, -0.        ],
       [ 0.5557241 , -0.        ,  0.        , -0.        , -0.        ,
        -0.3175538 ,  0.5652922 ,  0.5840728 , -0.4627643 ,  0.        ],
       [-0.6020068 ,  0.        , -0.5972233 ,  0.4459791 ,  0.        ,
        -0.        ,  0.        ,  0.2547844 , -0.        ,  0.        ],
       [ 0.        ,  0.49760646, -0.65396196,  0.        , -0.        ,
        -0.        ,  0.76059777, -0.        , -0.        ,  0.        ],
       [-0.7969408 ,  0.4493696 ,  0.67542565, -0.44392347, -0.        ,
         0.40586933,  0.        ,  0.49231523, -0.        , -0.47765264],
       [ 0.        , -0.77620244, -0.        , -0.        ,  0.54862475,
        -0.        , -0.        ,  0.        ,  0.        ,  0.4749243 ],
       [ 0.        ,  0.50698745, -0.32832316, -0.        ,  0.        ,
         0.        , -0.        ,  0.7572048 , -0.        , -0.5173403 ],
       [-0.8650175 ,  0.        , -0.        , -0.        ,  0.        ,
         0.36994833, -0.66277945,  0.        , -0.6871037 ,  0.5859967 ],
       [-0.        ,  0.        ,  0.        , -0.49884218,  0.68422484,
        -0.        ,  0.        , -0.83938146, -0.        ,  0.        ],
       [ 0.        , -0.7193953 , -0.47286215,  0.49814126,  0.        ,
        -0.        ,  0.        ,  0.        ,  0.6038803 ,  0.        ],
       [ 0.44312492, -0.52148277, -0.44144198, -0.70208746,  0.5119165 ,
        -0.        , -0.37472698, -0.        ,  0.4391159 ,  0.43328908],
       [-0.        , -0.6629887 ,  0.        ,  0.40326905,  0.        ,
        -0.31075314,  0.        ,  0.        ,  0.64210397,  0.        ],
       [ 0.        ,  0.        , -0.        , -0.        , -0.        ,
         0.        , -0.        ,  0.91745317, -0.54193074, -0.47113538],
       [-0.53770185, -0.        , -0.        , -0.5955376 ,  0.71505475,
        -0.        ,  0.        , -0.39696863, -0.40035707,  0.7975142 ],
       [-0.        , -0.6974978 , -0.75477695,  0.6108788 ,  0.        ,
         0.        , -0.4504869 ,  0.        ,  0.30581114, -0.        ],
       [-0.        , -0.5831525 ,  0.46546695, -0.        , -0.        ,
        -0.6351175 , -0.3428473 , -0.27177382,  0.5033859 , -0.        ],
       [ 0.54420274,  0.2971821 ,  0.        , -0.        , -0.        ,
        -0.6242993 ,  0.4297379 ,  0.        , -0.51217926, -0.48694405],
       [ 0.5418179 , -0.        ,  0.        ,  0.        ,  0.        ,
        -0.55415416,  0.5693036 , -0.48662716, -0.3988059 , -0.        ],
       [ 0.5231816 , -0.        , -0.4777342 , -0.58376   ,  0.        ,
        -0.        ,  0.55679125, -0.        ,  0.        , -0.35893762],
       [ 0.5471755 , -0.48238963,  0.        ,  0.44740063,  0.        ,
         0.        ,  0.69237673, -0.50208163,  0.        , -0.        ],
       [ 0.        ,  0.6957682 ,  0.45040673, -0.        , -0.        ,
         0.        ,  0.        ,  0.67900217,  0.39523208, -0.61512023],
       [ 0.        ,  0.8374646 , -0.5879542 ,  0.45124802,  0.        ,
         0.        ,  0.        , -0.        ,  0.        , -0.        ],
       [ 0.40497807, -0.5117378 ,  0.4797185 ,  0.3837318 ,  0.34458926,
        -0.5476972 , -0.8761728 ,  0.        , -0.        ,  0.        ],
       [ 0.32132968, -0.        , -0.53371125,  0.        ,  0.5065695 ,
         0.5059562 ,  0.        , -0.        ,  0.        , -0.5250225 ],
       [ 0.        , -0.3946912 ,  0.5686373 ,  0.        ,  0.6215328 ,
        -0.37623823,  0.        , -0.38143995,  0.        ,  0.        ],
       [ 0.        , -0.        , -0.        , -0.        , -0.7581584 ,
         0.47277302,  0.34183162,  0.        , -0.4067794 ,  0.85005414],
       [ 0.6376401 , -0.        , -0.28700554,  0.        , -0.8447063 ,
        -0.        ,  0.        , -0.        , -0.        ,  0.77525496],
       [-0.5619661 , -0.6127018 , -0.        , -0.        ,  0.        ,
        -0.58454126, -0.        ,  0.39086083, -0.        ,  0.        ],
       [ 0.46071276, -0.        , -0.39710838, -0.52800596,  0.        ,
        -0.        , -0.        , -0.        , -0.3458196 ,  0.6854397 ],
       [-0.        , -0.        ,  0.6924078 , -0.6112748 , -0.        ,
        -0.45858696, -0.        ,  0.7633676 , -0.46880525, -0.        ],
       [-0.7254931 ,  0.47639778, -0.        , -0.        , -0.        ,
         0.        ,  0.        ,  0.        ,  0.6229682 , -0.6435065 ],
       [ 0.        ,  0.42777723,  0.        , -0.        , -0.6719475 ,
         0.        ,  0.        ,  0.        ,  0.4451209 , -0.        ],
       [-0.        , -0.        ,  0.        , -0.56323826,  0.        ,
         0.        ,  0.4885521 , -0.63421184, -0.        , -0.        ],
       [-0.        ,  0.        ,  0.6472086 ,  0.45649824, -0.6160063 ,
         0.        , -0.3469865 , -0.        ,  0.49660733, -0.41486743],
       [ 0.        ,  0.42083618, -0.62425834,  0.        , -0.        ,
         0.58818775,  0.4323334 , -0.        , -0.41447043,  0.        ],
       [-0.        ,  0.        ,  0.56799346, -0.4642735 , -0.        ,
        -0.5268624 , -0.        , -0.63462836, -0.        ,  0.        ],
       [ 0.30837354,  0.        ,  0.        ,  0.        , -0.6512118 ,
         0.39357424, -0.47247502, -0.        ,  0.        ,  0.3884813 ],
       [ 0.        , -0.38822958,  0.        ,  0.        ,  0.        ,
         0.9987279 ,  0.56875974, -0.        ,  0.        ,  0.        ],
       [ 0.        ,  0.595593  , -0.5009573 , -0.        ,  0.536651  ,
        -0.40307266,  0.        , -0.41723123,  0.        ,  0.36027053],
       [-0.41271275, -0.45619664, -0.44466186, -0.72606564,  0.        ,
        -0.        ,  0.        , -0.5371424 ,  0.40016308,  0.        ],
       [-0.        ,  0.        ,  0.        ,  0.        ,  0.46872678,
         0.4971593 , -0.59739316, -0.6324469 , -0.        ,  0.        ],
       [-0.4265252 ,  0.31616327, -0.        , -0.        , -0.436805  ,
         0.        ,  0.36780617,  0.        , -0.        , -0.6499032 ],
       [ 0.36862844, -0.        ,  0.        ,  0.        , -0.65742564,
         1.025917  ,  0.5288179 , -0.        ,  0.        , -0.        ],
       [-0.        ,  0.        , -0.44650313,  0.        ,  0.54601264,
         0.452657  ,  0.        ,  0.47361115, -0.        , -0.        ],
       [-0.        , -0.        ,  0.68198544, -0.41715434, -0.        ,
         0.36000502, -0.        , -0.3576506 ,  0.6129652 , -0.73921245],
       [ 0.6941696 , -0.4717498 , -0.        , -0.        ,  0.39810833,
        -0.        , -0.67813855,  0.        , -0.38690427,  0.47329798],
       [-0.        , -0.5907202 ,  0.7977529 ,  0.        , -0.        ,
        -0.        ,  0.35548636, -0.61612433, -0.42700902,  0.        ],
       [ 0.46774462,  0.4395552 , -0.        , -0.6095484 , -0.36925268,
        -0.40328652,  0.7733143 , -0.        ,  0.39518172, -0.        ],
       [-0.37845778, -0.41235837,  0.7029955 , -0.        , -0.4766327 ,
        -0.        , -0.        , -0.5141849 , -0.        ,  0.5743334 ],
       [ 0.        ,  0.42944342, -0.        ,  0.        ,  0.        ,
         0.5853559 ,  0.        ,  0.51000124, -0.32792547, -0.45054635],
       [-0.        ,  0.        , -0.        , -0.5562939 , -0.5493172 ,
        -0.33250657, -0.3927577 ,  0.        ,  0.51791364,  0.80679935],
       [ 0.42111653,  0.38079998, -0.31975052,  0.3288249 ,  0.        ,
         0.        ,  0.        ,  0.8020842 , -0.        , -0.5388169 ],
       [ 0.        ,  0.39039955, -0.387104  , -0.42969695, -0.        ,
        -0.5746583 ,  1.0416926 , -0.37076285,  0.        , -0.        ],
       [ 0.3643433 ,  0.        , -0.36508775,  0.37054387, -0.53570634,
         0.69449276,  0.        , -0.48616615, -0.6481375 , -0.        ],
       [ 0.9378049 , -0.        ,  0.        , -0.5731803 ,  0.        ,
         0.        , -0.49130607, -0.        , -0.38542056,  0.        ],
       [ 0.5680707 ,  0.        ,  0.4136623 ,  0.7908725 , -0.        ,
        -0.57597834, -0.70693624,  0.        , -0.5158119 , -0.        ],
       [ 0.46976712, -0.        , -0.56988484,  0.        ,  0.4648248 ,
        -0.56282836, -0.        , -0.48098612,  0.47794142,  0.5533513 ],
       [ 0.8647812 , -0.        , -0.59316355,  0.        ,  0.        ,
        -0.36848587,  0.9137999 , -0.        ,  0.        , -0.34062132],
       [-0.        ,  0.        , -0.5689658 , -0.68821895, -0.        ,
        -0.4537515 ,  0.37664202,  0.43736306,  0.6164474 , -0.        ],
       [ 0.6757842 , -0.        ,  0.68912405,  0.        ,  0.        ,
         0.        , -0.355792  , -0.        , -0.49344411, -0.        ],
       [ 0.        , -0.7794384 , -0.        , -0.        , -0.756588  ,
        -0.        , -0.32482177,  0.        ,  0.5916177 ,  0.42377552],
       [ 0.        ,  0.6357474 , -0.        , -0.        ,  0.9082976 ,
        -0.80493927,  0.        ,  0.        , -0.        , -0.2744261 ],
       [ 0.        , -0.        , -0.        , -0.        ,  0.        ,
        -0.68805057, -0.        ,  0.63675207,  0.        , -0.        ],
       [ 0.        ,  0.36015543,  0.        ,  0.        , -0.5708287 ,
        -0.6692971 ,  0.        , -0.5249463 ,  0.59399444, -0.        ],
       [-0.7891879 ,  0.        , -0.40312624,  0.7938344 , -0.        ,
         0.2708074 ,  0.6565251 , -0.        , -0.        , -0.66446185],
       [-0.        ,  0.5175719 ,  0.        , -0.5403343 ,  0.        ,
         0.6356674 , -0.54642737,  0.41812322, -0.        , -0.        ],
       [-0.        , -0.28798726,  0.        ,  0.7451535 ,  0.        ,
         0.38755384,  0.56745625,  0.        , -0.        ,  0.        ],
       [-0.        , -0.59831   , -0.5044637 , -0.        ,  0.4169456 ,
        -0.63258946, -0.        ,  0.38399777,  0.2972205 , -0.        ],
       [ 0.        ,  0.48771983, -0.        ,  0.51289207, -0.        ,
        -0.73248285,  0.        ,  0.        , -0.35724214, -0.        ],
       [-0.        ,  0.        ,  0.5192732 , -0.590927  ,  0.4395895 ,
        -0.34254634, -0.41652778, -0.        ,  0.46552536, -0.        ],
       [-0.5740099 , -0.7795601 , -0.        ,  0.41333488,  0.        ,
        -0.        , -0.40481967,  0.46233422, -0.        ,  0.32498413],
       [-0.6290098 ,  0.        , -0.61547613,  0.        ,  0.        ,
         0.4988622 , -0.        , -0.8934746 , -0.        ,  0.5232671 ],
       [ 0.44377092, -0.        ,  0.        , -0.4518355 , -0.41041797,
         0.        , -0.        , -0.72302425,  0.63287556, -0.4237244 ],
       [ 0.57268685, -0.        ,  0.76083195,  0.        ,  0.        ,
         0.        ,  0.        , -0.        ,  0.        , -0.57722956],
       [ 0.        , -0.49971822, -0.35351798, -0.        , -0.82591534,
        -0.        , -0.3063038 ,  0.45747018,  0.3181502 ,  0.77607316],
       [-0.        , -0.        ,  0.8116704 ,  0.        ,  0.        ,
         0.5373645 ,  0.        , -0.5060206 ,  0.        ,  0.        ],
       [-0.        ,  0.        ,  0.32605585,  0.48602617, -0.41914654,
        -0.        , -0.7371256 ,  0.        , -0.        ,  0.6402978 ],
       [ 0.7313499 ,  0.        , -0.        ,  0.36670607, -0.55934906,
        -0.38709277, -0.        ,  0.        , -0.        ,  0.6086171 ],
       [-0.5951127 ,  0.        , -0.61751723,  0.49101126,  0.        ,
         0.        , -0.53819627,  0.4602057 , -0.        , -0.        ],
       [ 0.        ,  0.89014286,  0.        ,  0.        ,  0.5606117 ,
        -0.4501603 ,  0.        , -0.43334842,  0.        , -0.        ],
       [-0.        , -0.        ,  0.82453513,  0.        , -0.        ,
        -0.        ,  0.43286932, -0.4884272 ,  0.        , -0.45867673],
       [ 0.        , -0.        , -0.        ,  0.83575225, -0.        ,
        -0.        ,  0.        , -0.695513  , -0.        ,  0.        ]],
      dtype=float32)
 array([-0.07646345,  0.2106888 ,  0.10774745, -0.04072574,  0.01714142,
        0.15348352, -0.03585183,  0.12268475, -0.33425817, -0.05704167],
      dtype=float32)]