FC Layer, 300 (Glorot Init.) Original_Weights[array([[ 0.06812921,  0.        ,  0.        , ..., -0.        ,
         0.        ,  0.        ],
       [ 0.        , -0.        , -0.        , ..., -0.04248241,
         0.        , -0.        ],
       [ 0.05752833,  0.        , -0.        , ..., -0.        ,
        -0.        , -0.        ],
       ...,
       [ 0.        ,  0.        , -0.06137045, ...,  0.        ,
         0.04515614,  0.        ],
       [ 0.05301665, -0.04368319, -0.        , ...,  0.        ,
         0.        , -0.        ],
       [-0.04747194, -0.06624366, -0.0671228 , ..., -0.        ,
        -0.        , -0.        ]], dtype=float32)
 array([-2.08970681e-02,  3.39686200e-02,  1.04254201e-01,  3.86429578e-02,
       -8.53135884e-02, -8.01408440e-02,  1.49456635e-01,  7.53017217e-02,
        4.95061241e-02,  5.92814349e-02,  1.56311709e-02, -9.23747793e-02,
        6.80745617e-02,  3.97081440e-03, -1.18590586e-01,  1.26107886e-01,
        1.32249758e-01, -2.64578581e-01, -1.76655538e-02,  2.08788261e-01,
       -7.07257167e-02, -1.55973166e-01, -9.65053681e-03, -5.78541979e-02,
        1.92445293e-01, -5.81531152e-02,  3.81085649e-02,  3.78987603e-02,
       -1.79795884e-02,  1.04315698e-01,  8.42302591e-02,  8.57837945e-02,
        1.27309397e-01, -7.73781631e-03, -1.41788023e-02,  9.86506715e-02,
        2.13830650e-01,  1.28824696e-01,  9.67325196e-02, -1.79599807e-01,
       -7.99543038e-02, -1.55779764e-01, -2.34414171e-02,  3.10419761e-02,
       -2.74260137e-02,  8.93549249e-03,  1.55967221e-01, -1.40195742e-01,
       -1.61499172e-01,  6.34984970e-02, -1.89291313e-01, -1.03644002e-02,
        1.20367587e-01, -8.69737566e-03, -7.84846917e-02, -4.00921926e-02,
        1.89730823e-02,  1.05038777e-01,  3.64827849e-02,  1.47996500e-01,
        5.38075678e-02, -4.19142544e-02,  3.56195159e-02,  8.04613307e-02,
        1.87346876e-01, -1.22498974e-01,  1.81734860e-01,  6.17103986e-02,
        4.56330366e-02,  8.97838399e-02, -1.74991474e-01, -1.82237446e-01,
        1.43760100e-01, -7.84235541e-03,  5.45574762e-02,  7.68450880e-03,
       -4.46477085e-02, -1.66993588e-02, -3.03909536e-02,  9.76860002e-02,
        7.71683380e-02, -9.24480930e-02,  6.71140775e-02,  5.06038852e-02,
        9.08355601e-03,  1.86009988e-01,  1.45911679e-01, -5.52425645e-02,
       -1.45406157e-01, -1.45986944e-01,  9.34714079e-02,  7.96955675e-02,
       -8.53626709e-03,  1.11624368e-01,  5.13379127e-02, -1.09589048e-01,
       -3.82355079e-02,  7.78063983e-02,  1.29590584e-02,  1.92881331e-01,
       -9.70907062e-02, -8.86721089e-02,  8.07960182e-02, -1.00455984e-01,
       -3.80998068e-02,  2.72443257e-02, -1.22736515e-02, -6.92127720e-02,
        1.09025324e-02,  4.59218137e-02, -9.25121084e-03,  1.67411596e-01,
       -2.31461376e-02, -1.00717664e-01,  3.34914178e-02,  2.05450337e-02,
       -2.75127664e-02, -1.14870146e-01,  8.54997784e-02, -5.44721782e-02,
        1.47224873e-01, -2.33765766e-01,  1.53676816e-03,  1.47949859e-01,
       -3.87903154e-02, -9.81276273e-04, -9.46553275e-02,  7.22185001e-02,
       -1.39245957e-01, -2.48157606e-02, -4.09116484e-02,  1.07276678e-01,
       -4.87742499e-02,  4.28568907e-02,  9.06667933e-02,  1.67375337e-02,
       -1.23868644e-01,  8.28608572e-02,  5.54551296e-02,  2.99525112e-02,
       -6.42937794e-02, -4.24027182e-02, -8.56718794e-02,  1.28574893e-01,
        1.61974624e-01,  7.83969983e-02, -5.17195202e-02, -1.36303857e-01,
       -5.59138022e-02,  4.73283939e-02, -1.89073887e-02, -1.59618631e-02,
       -8.35932493e-02,  9.34429616e-02, -6.98601231e-02,  8.73393714e-02,
       -8.28572512e-02,  6.51068538e-02,  3.36443186e-02,  7.50560015e-02,
       -1.20613419e-01, -1.18890598e-01, -1.16078131e-01,  9.34684351e-02,
       -1.46281987e-01, -1.42367646e-01, -9.13184602e-03,  7.01956376e-02,
       -7.90699571e-02, -1.16207719e-01, -1.40143946e-01,  7.63276890e-02,
        9.51972790e-03, -5.69854937e-02,  9.70835090e-02,  2.14805841e-01,
       -1.54860755e-02,  1.34453329e-03,  4.31272376e-04,  2.05391028e-04,
        1.15881711e-01,  5.64114302e-02, -1.57022327e-02,  5.50196022e-02,
       -1.57785386e-01,  1.23452388e-01,  3.41157615e-02, -7.43628815e-02,
        7.18001276e-02,  1.33537441e-01, -1.24842905e-01,  6.36302158e-02,
        1.65306851e-01,  1.18396297e-01, -1.26185820e-01, -3.46454531e-02,
       -6.70371503e-02,  8.11860040e-02,  1.04001097e-01, -2.94069815e-02,
        7.75385275e-02,  1.16535425e-02,  1.83652807e-02, -3.44067216e-02,
        1.63874533e-02,  7.51255453e-02,  1.19256444e-01,  1.41039059e-01,
       -8.24130103e-02,  9.57908481e-02, -4.24365252e-02,  1.14002869e-01,
        4.48384546e-02, -1.63420737e-02,  3.52735706e-02, -7.64300823e-02,
       -6.73211589e-02, -1.05585724e-01, -3.68182734e-02, -2.30043828e-02,
       -6.93640336e-02,  2.89062470e-01, -6.92777485e-02, -2.80095600e-02,
       -6.38823807e-02, -5.32667153e-02, -6.14293516e-02, -4.31943275e-02,
       -1.02475733e-01,  1.09601401e-01, -9.15035158e-02,  1.11511145e-02,
        9.53258500e-02,  3.64464223e-02,  8.18298534e-02,  1.08952321e-01,
        1.21294938e-01, -1.10945322e-01, -1.05766371e-01, -7.24970549e-02,
        7.40246195e-03,  1.06535979e-01, -7.66834691e-02, -8.60093534e-02,
        2.91705783e-03,  9.90914702e-02,  1.71985492e-01, -1.01522617e-02,
       -7.79314991e-03, -6.09283932e-02,  5.34339808e-02,  2.97665726e-02,
       -2.16684431e-01,  1.63754985e-01, -1.08159631e-02,  6.47232011e-02,
        7.49947578e-02,  2.33898029e-01,  1.33157849e-01,  1.67675074e-02,
       -1.24370560e-01,  2.59961002e-02,  2.07051393e-02, -1.04031071e-01,
        6.91553801e-02, -1.64282724e-01,  5.78044057e-02,  1.04760900e-02,
       -1.00924224e-01,  1.93965256e-01, -6.00021072e-02, -4.64073475e-03,
        8.31171200e-02, -1.10331513e-01,  4.01230566e-02, -4.93549323e-03,
        1.07193984e-01,  3.47434208e-02,  1.44583523e-01, -9.70459506e-02,
       -5.25779054e-02, -2.25100234e-01,  1.22108266e-01, -1.16325594e-01,
       -5.82129881e-03,  4.17625308e-02, -5.77635244e-02, -4.90122028e-02,
       -2.22449340e-02,  1.91920009e-02,  1.73158366e-02,  7.07440004e-02,
        9.28593352e-02, -1.73873201e-01,  2.26555280e-02,  2.23156996e-02,
       -1.07437678e-01, -3.92982401e-02, -5.80650792e-02,  1.35444831e-02],
      dtype=float32)]FC Layer, 100 (Glorot Init.) Original_Weights[array([[ 0.28637233, -0.18360494,  0.        , ..., -0.        ,
         0.        ,  0.        ],
       [ 0.        , -0.05215435, -0.15564172, ...,  0.        ,
         0.07665969, -0.34102595],
       [-0.27367765,  0.19135337, -0.08094997, ..., -0.        ,
        -0.        , -0.        ],
       ...,
       [ 0.16871254,  0.        ,  0.        , ...,  0.41306493,
         0.        , -0.04531346],
       [ 0.2243092 ,  0.148469  , -0.2776403 , ..., -0.        ,
        -0.        ,  0.        ],
       [-0.        ,  0.08419485,  0.12554677, ...,  0.20069936,
        -0.        ,  0.        ]], dtype=float32)
 array([-0.03090046,  0.05795302,  0.07562603,  0.01095549,  0.03176982,
        0.1095866 , -0.01196146,  0.07721128, -0.13809751, -0.12035917,
        0.05768293, -0.11780041,  0.16964996,  0.07177941,  0.0545533 ,
       -0.03034957,  0.03215638, -0.05444101,  0.1864644 ,  0.06667859,
        0.03329932,  0.07102387,  0.15940297, -0.182613  ,  0.10942525,
        0.16765396, -0.11426069, -0.13815258, -0.14061531, -0.15190047,
        0.13338104,  0.06177382, -0.12414297, -0.14817518,  0.10163096,
       -0.04145087, -0.09251098, -0.08227626, -0.05377304,  0.0539505 ,
       -0.12747233, -0.09151436, -0.08954804,  0.00712947, -0.02730834,
        0.01623084, -0.02580981,  0.12362935, -0.09850688,  0.02189005,
       -0.126521  , -0.02782562,  0.03702698, -0.15138727,  0.08788075,
       -0.02241095, -0.10283974, -0.06752472,  0.00804856, -0.02178313,
        0.05624181, -0.00819812,  0.0342757 ,  0.0538921 , -0.06905394,
       -0.00111758,  0.02744318,  0.1472185 , -0.13257849, -0.0060878 ,
       -0.05581954,  0.05770958, -0.01277918,  0.07567617, -0.03429371,
       -0.15876067, -0.08744131, -0.03480187, -0.06857886, -0.05684574,
       -0.04683658, -0.06081693,  0.06356803,  0.05645669,  0.15345298,
       -0.13869554, -0.01483262, -0.04359352,  0.02489945,  0.11382784,
       -0.06234084, -0.00121658, -0.09425774,  0.11831246,  0.05453287,
       -0.13330355,  0.09124565,  0.03463175, -0.03115172, -0.06176614],
      dtype=float32)]FC Layer, 10 (Softmax) Original_Weights[array([[ 0.33033097,  0.56458145, -0.47873238,  0.        , -0.5062318 ,
        -0.34830838, -0.49945432,  0.14047535, -0.        ,  0.7165209 ],
       [-0.        , -0.        , -0.4626549 , -0.4199058 ,  0.25415614,
         0.70279247,  0.48611513, -0.        , -0.42692554,  0.24302295],
       [-0.        ,  0.03784708, -0.47547102,  0.        ,  0.3923633 ,
        -0.        , -0.24324913,  0.545495  , -0.5807333 ,  0.26857662],
       [ 0.28497607, -0.36884058,  0.6793111 , -0.18751971,  0.        ,
        -0.30671856, -0.13332514,  0.6130808 , -0.17009676, -0.36435017],
       [ 0.        , -0.        , -0.3742868 , -0.5348116 , -0.32454878,
        -0.2237795 ,  0.        ,  0.39051232, -0.15614708,  0.5790873 ],
       [ 0.        ,  0.5561038 , -0.16631335, -0.        ,  0.5694027 ,
         0.34582722, -0.48379907, -0.3847955 , -0.38638666,  0.26415947],
       [-0.        ,  0.22864503, -0.22600776, -0.74125546, -0.        ,
         0.6885998 ,  0.47636068, -0.54188097,  0.19339992,  0.        ],
       [-0.5311694 ,  0.41192493,  0.32506618,  0.12713312, -0.32628646,
         0.47335523, -0.304091  , -0.67507905,  0.        , -0.        ],
       [ 0.        , -0.10546558, -0.50631696,  0.52927065, -0.11577117,
         0.1164515 ,  0.33944526, -0.35995364,  0.7420911 , -0.30627632],
       [ 0.59156734,  0.62295026,  0.        ,  0.17918207,  0.        ,
        -0.33369195,  0.29963377, -0.3066714 , -0.        , -0.16555029],
       [-0.31479177,  0.49234763,  0.2813837 , -0.1600251 ,  0.        ,
        -0.53362143, -0.7347689 ,  0.25503623,  0.        , -0.        ],
       [ 0.        , -0.3914101 , -0.        , -0.1740522 , -0.20906162,
         0.        ,  0.24761327, -0.        ,  0.658747  ,  0.        ],
       [-0.9097735 , -0.        , -0.        ,  0.4552425 ,  0.23313065,
         0.6325399 , -0.11422179, -0.        , -0.85274035, -0.        ],
       [ 0.29096594, -0.27424827,  0.52806306,  0.67998797,  0.31320792,
        -0.        , -0.41319415,  0.32545167, -0.53064734, -0.22935535],
       [-0.54907084, -0.44494483,  0.61942345, -0.        ,  0.5557859 ,
         0.        ,  0.4148449 , -0.13217248,  0.        , -0.5057178 ],
       [ 0.19954477, -0.45950305,  0.46970633,  0.        ,  0.        ,
        -0.45462868, -0.        , -0.        ,  0.        , -0.15923177],
       [-0.        ,  0.24266458, -0.        , -0.64336604,  0.        ,
        -0.45820445,  0.21442997,  0.5184854 , -0.        ,  0.15325126],
       [ 0.        ,  0.35062438, -0.        ,  0.25446677, -0.7274986 ,
        -0.8202567 ,  0.        , -0.46441922,  0.        ,  0.66327006],
       [-0.500508  ,  0.        , -0.4604887 ,  0.        ,  0.22847018,
        -0.        ,  0.32874793,  0.47056982, -0.79657006, -0.        ],
       [ 0.39534232, -0.16698988, -0.26700893, -0.26409352,  0.        ,
        -0.37994605,  0.5959222 ,  0.49318928, -0.25314942, -0.23568112],
       [-0.35893854, -0.        , -0.48239133,  0.47836924, -0.17534737,
        -0.40063524, -0.262538  ,  0.41671595, -0.202781  , -0.27083123],
       [-0.28727478,  0.38098308, -0.76923704, -0.        ,  0.        ,
         0.        ,  0.62476504, -0.        , -0.        ,  0.32129014],
       [-0.80459327,  0.30029756,  0.7654004 , -0.3192581 , -0.        ,
         0.32819945, -0.15261672,  0.28934273, -0.2274472 , -0.45492473],
       [-0.        , -0.6619263 ,  0.25446078,  0.        ,  0.5072688 ,
        -0.3132494 ,  0.14697216, -0.27836645, -0.17424466,  0.4006034 ],
       [-0.34026244,  0.15331787, -0.45856526,  0.08285882, -0.        ,
         0.50326735, -0.39498943,  0.5310027 ,  0.2791102 , -0.5112145 ],
       [-0.6874736 ,  0.32126638, -0.        , -0.14728029,  0.        ,
         0.42233133, -0.45392403, -0.        , -0.43626884,  0.6009423 ],
       [ 0.        ,  0.        , -0.39183897, -0.3694815 ,  0.53452426,
         0.14417493, -0.        , -0.67001796, -0.        ,  0.        ],
       [-0.        , -0.5907178 , -0.29596126,  0.4469345 ,  0.17334181,
         0.        , -0.        ,  0.29267323,  0.6076308 , -0.        ],
       [ 0.3662836 , -0.46428248, -0.4538763 , -0.45965323,  0.38358173,
        -0.        , -0.3931622 , -0.34665167,  0.25794506,  0.4367043 ],
       [ 0.        , -0.6884605 , -0.        ,  0.2814085 , -0.31766605,
        -0.3448395 , -0.        , -0.        ,  0.5930695 ,  0.        ],
       [-0.35465923,  0.255916  ,  0.31982955,  0.        ,  0.        ,
        -0.31566805, -0.        ,  0.764088  , -0.50827324, -0.3836981 ],
       [-0.7227854 , -0.        , -0.1209726 , -0.4367538 ,  0.540813  ,
         0.22915949, -0.27286997, -0.39935628, -0.39189076,  0.7487571 ],
       [ 0.22027194, -0.67035526, -0.49774975,  0.32878843, -0.        ,
         0.        , -0.2570314 ,  0.28874782,  0.36449754, -0.        ],
       [ 0.16781268, -0.58994466,  0.7346287 , -0.21138369, -0.        ,
        -0.5500016 , -0.5188632 , -0.3683604 ,  0.46706623,  0.147419  ],
       [ 0.28108248,  0.407429  ,  0.0864763 , -0.09041723, -0.46354482,
        -0.6373802 ,  0.49067587,  0.50997853, -0.24293031, -0.46223292],
       [ 0.5404716 , -0.        , -0.        , -0.42078525,  0.        ,
        -0.51934046,  0.62461215, -0.6498628 , -0.48893723,  0.        ],
       [ 0.42405948, -0.33203167, -0.3467517 , -0.4779435 ,  0.        ,
         0.        ,  0.613826  , -0.30458796,  0.20184627, -0.41810507],
       [ 0.3530163 , -0.56004816,  0.        ,  0.3556992 , -0.1687793 ,
         0.        ,  0.60559595, -0.5638489 , -0.24718587,  0.        ],
       [-0.19236954,  0.71936625,  0.53209937,  0.05641068, -0.        ,
        -0.27514243,  0.        ,  0.5201075 ,  0.24589503, -0.51716006],
       [-0.        ,  0.8607325 , -0.42232308,  0.46436492, -0.        ,
        -0.        ,  0.2794953 , -0.        , -0.17323503, -0.27659845],
       [ 0.39186123, -0.5568619 ,  0.39974144,  0.29197913,  0.31935304,
        -0.41948068, -0.6889247 ,  0.        , -0.        ,  0.15049882],
       [ 0.21037929, -0.        , -0.70138645, -0.16332234,  0.48877996,
         0.4015352 ,  0.42961735,  0.        ,  0.2720555 , -0.48192468],
       [ 0.        , -0.24831788,  0.5295096 , -0.26936018,  0.6058512 ,
        -0.5671669 ,  0.40278894, -0.30909753, -0.13706371,  0.        ],
       [-0.16448852, -0.17651966,  0.        , -0.47121468, -0.8798224 ,
         0.9254285 ,  0.5292464 ,  0.        , -0.29426205,  0.39922082],
       [ 0.3864143 , -0.17160586, -0.33923915,  0.        , -0.73600394,
         0.41853988, -0.        ,  0.        ,  0.15685363,  0.6695073 ],
       [-0.43955815, -0.40847754,  0.        ,  0.        ,  0.        ,
        -0.709359  , -0.16251382,  0.23591053, -0.        ,  0.        ],
       [ 0.34928635, -0.15148838, -0.514918  , -0.22993596,  0.        ,
         0.        , -0.        , -0.        , -0.46439117,  0.5076664 ],
       [ 0.3042288 , -0.        ,  0.58528274, -0.34803972,  0.        ,
        -0.3026485 , -0.31958246,  0.7286803 , -0.68487734, -0.36708453],
       [-0.6652716 ,  0.44242552,  0.        ,  0.31970197, -0.        ,
        -0.        , -0.        , -0.        ,  0.54872906, -0.573901  ],
       [-0.17338254,  0.2938298 , -0.        ,  0.21706598, -0.7515455 ,
         0.        ,  0.20016295,  0.26622862,  0.31557453, -0.23345686],
       [ 0.29920796, -0.        ,  0.        , -0.5642284 , -0.36572185,
        -0.16427353,  0.5076175 , -0.62214553,  0.32297206,  0.        ],
       [ 0.192933  ,  0.        ,  0.64719844,  0.45919943, -0.51940084,
        -0.        , -0.41670328,  0.        ,  0.58180803, -0.5339501 ],
       [ 0.2641867 ,  0.6386273 , -0.49883613, -0.        , -0.        ,
         0.5906089 ,  0.37292853,  0.18374762, -0.47390804,  0.        ],
       [ 0.        , -0.16320631,  0.3220125 , -0.5778004 ,  0.19928244,
        -0.6587794 ,  0.25194728, -0.46789438,  0.44239315,  0.18107796],
       [ 0.39353564,  0.20518239,  0.        , -0.14247394, -0.5727735 ,
         0.39443654, -0.5127129 ,  0.        , -0.        ,  0.24373995],
       [ 0.29787984, -0.41777298,  0.        , -0.        , -0.        ,
         0.783662  ,  0.7923475 ,  0.        , -0.        ,  0.        ],
       [-0.        ,  0.422709  , -0.53765774,  0.17009443,  0.40102866,
        -0.48004633,  0.        , -0.41823298, -0.        ,  0.20944297],
       [-0.35322118, -0.28810745, -0.39873174, -0.7296049 ,  0.1885812 ,
         0.        , -0.        , -0.28690666,  0.38301808,  0.17222598],
       [ 0.        ,  0.1783161 ,  0.3019894 , -0.        ,  0.49952385,
         0.49386847, -0.67371476, -0.3529419 ,  0.26653346,  0.        ],
       [-0.48904723,  0.2921185 ,  0.33356932, -0.15513432, -0.24957924,
        -0.        ,  0.45801774,  0.27621174,  0.4022755 , -0.738404  ],
       [ 0.44094285, -0.        ,  0.11904589,  0.        , -0.59694946,
         0.84914225,  0.47333744, -0.18891972, -0.        ,  0.        ],
       [-0.        ,  0.        , -0.490552  , -0.2781041 ,  0.3117475 ,
         0.3901687 ,  0.        ,  0.40073413, -0.12892404, -0.        ],
       [-0.11593769,  0.20098287,  0.61316645, -0.3648726 , -0.29620126,
         0.33129865, -0.        , -0.36097378,  0.53658634, -0.54399914],
       [ 0.70194715, -0.39121068,  0.11011179,  0.        ,  0.20400554,
         0.        , -0.51080793,  0.        , -0.4834318 ,  0.5066941 ],
       [-0.        , -0.6633188 ,  0.5100128 , -0.30849358,  0.        ,
         0.14774966,  0.41791004, -0.59920114, -0.25380546,  0.        ],
       [ 0.3961022 ,  0.57308775,  0.26303437, -0.74175686, -0.2331014 ,
        -0.4911438 ,  0.68610644,  0.        ,  0.1955131 , -0.13168265],
       [-0.21633093, -0.5827886 ,  0.7813066 , -0.        , -0.5555807 ,
         0.3649711 , -0.        , -0.4593367 ,  0.        ,  0.51790535],
       [-0.        ,  0.3094954 , -0.1481124 , -0.        , -0.        ,
         0.46896195, -0.28857487,  0.15299468, -0.4637614 , -0.24903895],
       [ 0.14826323, -0.18431774,  0.12587386, -0.45193234, -0.48463485,
        -0.41882086, -0.42641523,  0.        ,  0.4196508 ,  0.7336733 ],
       [ 0.27915737,  0.2226344 , -0.2739044 ,  0.38487256, -0.2267637 ,
        -0.19248985, -0.26845396,  0.5836808 ,  0.        , -0.48643112],
       [-0.        ,  0.5091237 , -0.15954575, -0.36154112,  0.        ,
        -0.54547626,  0.54454046, -0.41456863, -0.15203427, -0.24272141],
       [ 0.43104813,  0.        , -0.41037992,  0.45252502, -0.5397537 ,
         0.7903206 , -0.24175145, -0.6858524 , -0.6883007 , -0.        ],
       [ 0.9419581 , -0.1530785 ,  0.20077987, -0.49265876, -0.24787815,
         0.        , -0.15231268,  0.        , -0.36941826,  0.23598512],
       [ 0.49477884,  0.19773339,  0.4017028 ,  0.5722541 , -0.33070314,
        -0.36370543, -0.6145774 ,  0.        , -0.4823344 , -0.25818732],
       [ 0.4892721 , -0.23939674, -0.6419894 , -0.        ,  0.4113765 ,
        -0.53484726,  0.32950765, -0.4465638 ,  0.32356337,  0.6191314 ],
       [ 0.784369  , -0.        , -0.5124709 ,  0.34612715,  0.        ,
        -0.33310226,  0.8244681 ,  0.24222541,  0.1397539 , -0.23464401],
       [ 0.        , -0.08279742, -0.4722485 , -0.55782616,  0.29203236,
        -0.48139098,  0.24595118,  0.4908797 ,  0.49793017, -0.        ],
       [ 0.71061236, -0.22790644,  0.51194286,  0.15733615, -0.        ,
         0.        , -0.27470216,  0.        , -0.37122312,  0.18365188],
       [-0.16332449, -0.55304164,  0.        , -0.        , -0.81772584,
        -0.2859458 , -0.31209406, -0.        ,  0.6678756 ,  0.37044126],
       [ 0.        ,  0.68610144,  0.21150513,  0.        ,  0.6904372 ,
        -0.642908  , -0.        , -0.        ,  0.16721773, -0.25546125],
       [-0.        , -0.        ,  0.21932511, -0.10705888, -0.2599723 ,
        -0.46958762,  0.        ,  0.8571867 ,  0.25676963, -0.33495137],
       [ 0.        ,  0.29235852,  0.20093058,  0.        , -0.5087033 ,
        -0.48901725,  0.28562048, -0.6534287 ,  0.40228453, -0.        ],
       [-0.5157158 ,  0.21462536, -0.48805934,  0.88719046, -0.        ,
         0.29398084,  0.5230364 ,  0.        ,  0.        , -0.45359844],
       [ 0.        ,  0.26865047, -0.2429267 , -0.5339888 , -0.        ,
         0.62783337, -0.44138795,  0.4125461 , -0.23650648, -0.        ],
       [ 0.        , -0.2449173 , -0.19551356,  0.535827  , -0.25696445,
         0.50564176,  0.52596456, -0.2831714 , -0.1844745 , -0.27655905],
       [ 0.        , -0.458227  , -0.5776111 ,  0.15037033,  0.38672736,
        -0.31339198, -0.        ,  0.31709346,  0.27758336, -0.        ],
       [-0.43330574,  0.47991163,  0.        ,  0.5638353 ,  0.        ,
        -0.6640187 , -0.36972788, -0.        , -0.4231235 ,  0.13713023],
       [ 0.        ,  0.        ,  0.4340616 , -0.37794152,  0.63764805,
        -0.35947105, -0.6043529 , -0.        ,  0.36611164,  0.        ],
       [-0.19185027, -0.58854175, -0.5027004 ,  0.27262285, -0.        ,
         0.5433808 , -0.36579138,  0.24551275,  0.        ,  0.23569712],
       [-0.5257101 ,  0.1692886 , -0.59491795,  0.18284652,  0.        ,
         0.51264864, -0.        , -0.5615373 , -0.        ,  0.4919736 ],
       [ 0.32756805,  0.        ,  0.24358957, -0.28116897, -0.35527524,
        -0.        , -0.        , -0.8000004 ,  0.54476553, -0.3289851 ],
       [ 0.5351754 ,  0.        ,  0.7721502 , -0.39028677, -0.        ,
        -0.        ,  0.        ,  0.        , -0.3072458 , -0.29010898],
       [ 0.        , -0.48932034, -0.5205287 , -0.        , -0.8344765 ,
         0.        , -0.26416582,  0.3236538 ,  0.41222838,  0.8068084 ],
       [-0.        , -0.        ,  0.52244455, -0.19074275, -0.        ,
         0.41588762,  0.3375038 , -0.39203328, -0.18703566,  0.        ],
       [-0.12581849, -0.        ,  0.20225273,  0.5001735 , -0.42157722,
        -0.23486789, -0.73343027, -0.25985196, -0.29786536,  0.42386174],
       [ 0.48869124,  0.10848356,  0.        ,  0.80765784, -0.3677928 ,
        -0.43640745,  0.        ,  0.        , -0.        ,  0.6168052 ],
       [-0.3620274 , -0.262766  , -0.5214995 ,  0.49617076, -0.14180835,
         0.21307321, -0.49978966,  0.38304868, -0.2691665 , -0.        ],
       [-0.        ,  0.8016974 ,  0.        ,  0.2545833 ,  0.4119793 ,
        -0.4001738 ,  0.        , -0.41989318, -0.        ,  0.        ],
       [ 0.3587174 , -0.        ,  0.62165713, -0.34417906,  0.09069677,
        -0.5172777 ,  0.39925078, -0.25865018, -0.18839289, -0.5237636 ],
       [-0.10486767,  0.        , -0.        ,  0.5136358 , -0.        ,
         0.        ,  0.25798178, -0.860625  ,  0.        , -0.24335602]],
      dtype=float32)
 array([-0.10390461,  0.2426582 ,  0.07586654, -0.06460369, -0.00908435,
        0.18716234, -0.06700137,  0.19269851, -0.3223806 , -0.05684228],
      dtype=float32)]