FC Layer, 300 (Glorot Init.) Original_Weights[array([[ 0.06812921,  0.        ,  0.        , ..., -0.        ,
         0.        ,  0.        ],
       [ 0.        , -0.        , -0.        , ..., -0.        ,
         0.        , -0.        ],
       [ 0.05752833,  0.        , -0.        , ..., -0.        ,
        -0.        , -0.        ],
       ...,
       [ 0.        ,  0.        , -0.06137045, ...,  0.        ,
         0.        ,  0.        ],
       [ 0.        , -0.        , -0.        , ...,  0.        ,
         0.        , -0.        ],
       [-0.        , -0.06624366, -0.0671228 , ..., -0.        ,
        -0.        , -0.        ]], dtype=float32)
 array([ 0.04636775,  0.04254267,  0.04659365,  0.1457923 , -0.0762539 ,
       -0.07282284,  0.12575443,  0.0699159 , -0.06190485,  0.14756365,
        0.01002437, -0.11422867,  0.04729716,  0.03804601, -0.02234113,
        0.11080734,  0.12275495, -0.1523086 , -0.07916141,  0.20964614,
       -0.0715773 , -0.16694863,  0.00577054, -0.02439902,  0.15795532,
       -0.07122748, -0.00954261,  0.01077896,  0.01649095,  0.1023714 ,
        0.03072833,  0.0112713 ,  0.11552852, -0.03612227,  0.00904323,
        0.07015744,  0.03321925, -0.06776866,  0.10399903, -0.14130464,
        0.01409342,  0.03093614, -0.07276843,  0.01723322, -0.05931018,
        0.06468978,  0.08821031, -0.06796599, -0.14260267, -0.0171304 ,
       -0.19716121, -0.07189615,  0.07223988,  0.034726  , -0.07824522,
        0.00682438,  0.09828143,  0.02522036,  0.08235731,  0.11908732,
        0.00738289, -0.03135077, -0.13850652, -0.01508445,  0.02414439,
       -0.07476787,  0.19504018,  0.06364089,  0.05120868,  0.15707423,
       -0.20989102, -0.07801422,  0.12082861,  0.06943914,  0.12914841,
        0.04700771,  0.01351   , -0.04960964,  0.01025363,  0.0647409 ,
        0.07664758, -0.06369956,  0.09609456,  0.04764147,  0.09178046,
        0.1427727 ,  0.12708354, -0.06221889, -0.07586583, -0.13130751,
        0.06195036,  0.05441007, -0.01968649,  0.12378982,  0.09762996,
       -0.12027088, -0.17661251,  0.13862748,  0.08066831,  0.11368091,
       -0.1009736 ,  0.03266798, -0.01211755, -0.15950736,  0.04411279,
       -0.0034632 , -0.07698648, -0.05198839, -0.06598554,  0.02060412,
       -0.05506394,  0.12225848,  0.01757512,  0.00404377,  0.1366604 ,
        0.00399553, -0.08998791, -0.09014419,  0.10372142, -0.01390996,
        0.01067363, -0.13721824,  0.0032999 ,  0.09228046, -0.05324959,
        0.07792149, -0.04847251,  0.07034173, -0.18509479,  0.02396837,
       -0.01776458,  0.05445025, -0.02976319,  0.02632922,  0.08451741,
        0.01679282, -0.09690489,  0.08915515, -0.02421909,  0.01624015,
       -0.04286794,  0.04364946, -0.10146117,  0.08250637,  0.14115368,
        0.06947713, -0.08104727, -0.10792456, -0.07174012,  0.01166143,
       -0.01377818, -0.03361086, -0.04772414,  0.06603312, -0.12160329,
        0.15205008, -0.13230412,  0.08061399, -0.03344753,  0.08216617,
       -0.01904288, -0.17636333, -0.00756841,  0.06551968, -0.0891771 ,
       -0.18920077, -0.0774141 , -0.00437328, -0.01044592,  0.00921613,
       -0.17374071,  0.171321  , -0.04649852, -0.09957   ,  0.08287349,
        0.11864325,  0.02304562,  0.03488535, -0.01721935, -0.05876133,
        0.21717113,  0.06812892, -0.01614338,  0.06687919, -0.03307601,
        0.14599958,  0.09848641, -0.09641461,  0.03445909, -0.08563939,
       -0.00876484, -0.03678143,  0.21378556,  0.00410611, -0.01880688,
        0.09681761, -0.13359179,  0.07232565,  0.2358484 ,  0.06198411,
        0.02073737,  0.05325818, -0.00712003,  0.01899459, -0.10835947,
       -0.02156809,  0.01809235,  0.18437852, -0.03491531, -0.07661675,
        0.0215809 ,  0.1738941 ,  0.07335194, -0.04411494, -0.01386066,
        0.04453012,  0.04064875,  0.00372941,  0.02161596, -0.02570936,
       -0.01484718,  0.19975618, -0.09966783,  0.06304237, -0.15291537,
       -0.0639338 ,  0.01943091, -0.02961184, -0.0925113 ,  0.08782757,
       -0.12272376, -0.02384823,  0.07187689,  0.00761427,  0.06134951,
        0.00785357,  0.06135073,  0.04233742, -0.039726  ,  0.00993984,
       -0.04110551,  0.15187772, -0.05374938, -0.17764595, -0.04703227,
        0.09279819,  0.1383535 , -0.03478599, -0.01905031,  0.03296706,
        0.15087998,  0.13830322, -0.2136489 ,  0.12411465, -0.0198785 ,
       -0.01908181,  0.24321482,  0.12098551, -0.06263348, -0.08753002,
       -0.10745795,  0.00946862, -0.02212138, -0.08501885,  0.00834081,
       -0.2142915 ,  0.01424151, -0.16087157, -0.11609723,  0.19899344,
       -0.09830352, -0.01747796,  0.11517936, -0.10941715,  0.03820172,
       -0.07510101, -0.01829202,  0.03927967,  0.1099277 ,  0.01942407,
       -0.05032522, -0.0331689 ,  0.12756428, -0.11883416,  0.08184777,
       -0.03436035,  0.04049037, -0.01133953,  0.1471815 ,  0.02567535,
       -0.08716862,  0.05397573,  0.0691611 , -0.04310497,  0.11189838,
        0.07376619, -0.08226175, -0.05197369, -0.02074122,  0.04232081],
      dtype=float32)]FC Layer, 100 (Glorot Init.) Original_Weights[array([[ 0.21466684, -0.21988119, -0.        , ..., -0.        ,
        -0.        ,  0.        ],
       [-0.        , -0.08551098, -0.18242566, ...,  0.        ,
         0.17629382, -0.45433798],
       [-0.09845559,  0.09239283, -0.        , ...,  0.        ,
        -0.        ,  0.        ],
       ...,
       [ 0.20392697, -0.        ,  0.        , ...,  0.39118227,
         0.        , -0.        ],
       [ 0.2568119 ,  0.17518269, -0.15991284, ...,  0.        ,
        -0.        ,  0.        ],
       [ 0.        ,  0.        ,  0.13087232, ..., -0.        ,
         0.        , -0.        ]], dtype=float32)
 array([-0.08129574,  0.07757576,  0.1724759 , -0.02157291,  0.00323851,
        0.10667424, -0.07427055,  0.07548302, -0.26849756, -0.10849617,
        0.04132079, -0.11749025,  0.26881543,  0.05178873,  0.00644796,
       -0.03127489,  0.02207894, -0.07968906,  0.20274809,  0.08220077,
        0.08169802,  0.08992113,  0.1400911 , -0.16831191,  0.06497876,
        0.16010123, -0.05603632, -0.12219445, -0.16132283, -0.1259515 ,
        0.19913828,  0.07021283, -0.12036861, -0.11537799,  0.17690526,
       -0.11113594, -0.07969771, -0.04341487, -0.07644708,  0.01889153,
       -0.07586553, -0.02388087, -0.0874026 ,  0.03690694, -0.01953725,
       -0.00963533, -0.01784842,  0.1350416 , -0.1019468 ,  0.04162569,
       -0.05572162, -0.02909935,  0.12098847, -0.14042124,  0.09774833,
        0.16544235, -0.10618477, -0.10779945,  0.0085348 ,  0.01288794,
        0.05831869,  0.1339671 , -0.02176881, -0.00517   , -0.00889114,
       -0.00264713,  0.0158969 ,  0.21353316, -0.12934056,  0.06322239,
       -0.09753284,  0.04595047,  0.01559336,  0.04534373, -0.11707596,
       -0.13911974, -0.07594998, -0.03411892, -0.14883429, -0.05737669,
        0.05314151, -0.17615487,  0.08472425,  0.02549491,  0.05827102,
       -0.14278157, -0.00616954, -0.03169739, -0.02745039,  0.05756957,
       -0.07681992, -0.07255056, -0.11202951,  0.21881644,  0.04181593,
       -0.09587773,  0.08819716,  0.00156078, -0.02580519, -0.01500579],
      dtype=float32)]FC Layer, 10 (Softmax) Original_Weights[array([[ 0.62076694, -0.        , -0.43186784,  0.        , -0.735534  ,
        -0.25306988, -0.36526233,  0.        ,  0.        ,  0.47364792],
       [-0.        ,  0.        , -0.6191597 , -0.36232466,  0.4115204 ,
         0.7587071 ,  0.46516544,  0.        , -0.478748  ,  0.3434891 ],
       [ 0.        , -0.        ,  0.        , -0.        ,  0.3958083 ,
        -0.        , -0.25527668,  0.7393742 , -0.5857718 , -0.        ],
       [-0.        , -0.3015537 ,  0.8330346 , -0.5221253 ,  0.        ,
        -0.57369256, -0.261342  ,  0.595264  ,  0.        , -0.        ],
       [-0.        , -0.        , -0.38879052, -0.6950095 ,  0.        ,
        -0.        ,  0.        ,  0.53477824, -0.3142769 ,  0.5702911 ],
       [-0.        ,  0.6244576 , -0.        ,  0.        ,  0.44649503,
         0.4967608 , -0.7135958 , -0.31294996, -0.29795375,  0.        ],
       [ 0.        ,  0.3452869 , -0.45849475, -1.131023  ,  0.        ,
         0.6624428 ,  0.4022963 , -0.51661503,  0.        ,  0.        ],
       [-0.50497293,  0.44509676,  0.2578975 ,  0.        ,  0.        ,
         0.33531615, -0.46332464, -0.70393234, -0.        , -0.        ],
       [-0.        , -0.28128594, -0.7267663 ,  0.70919335,  0.        ,
         0.        ,  0.46540046, -0.5009165 ,  0.78163415, -0.        ],
       [ 0.6175003 ,  0.6183434 ,  0.        ,  0.        , -0.        ,
        -0.2752242 ,  0.6880932 ,  0.        ,  0.        , -0.31454   ],
       [-0.32802096,  0.51331604,  0.        , -0.        ,  0.        ,
        -0.4779976 , -0.6790139 , -0.        ,  0.        ,  0.        ],
       [-0.        , -0.46129388, -0.        ,  0.        , -0.45185292,
         0.        , -0.        ,  0.        ,  0.7722627 ,  0.        ],
       [-0.71218   , -0.        , -0.        ,  0.551735  ,  0.        ,
         0.72988516, -0.35637897, -0.        , -0.8989136 ,  0.        ],
       [ 0.33612096, -0.38001353,  0.6895763 ,  0.7271305 , -0.        ,
        -0.        , -0.46255267,  0.29690886, -0.6796529 , -0.        ],
       [-0.4455804 , -0.3606449 ,  0.6796932 , -0.        ,  0.6874873 ,
        -0.        ,  0.3351765 , -0.        ,  0.        , -0.6003154 ],
       [-0.        , -0.574908  ,  0.51658165,  0.        ,  0.        ,
        -0.6301102 ,  0.        , -0.        , -0.        ,  0.        ],
       [-0.        , -0.        ,  0.        , -0.5647611 ,  0.        ,
        -0.7373422 ,  0.        , -0.        , -0.        ,  0.33968994],
       [-0.        ,  0.36339676, -0.        ,  0.34769845, -0.7654796 ,
        -0.637921  ,  0.        , -0.36863497,  0.        ,  0.5585477 ],
       [-0.5562229 ,  0.        , -0.33366838, -0.        ,  0.36494118,
        -0.        ,  0.28051707,  0.4332926 , -0.7013957 , -0.        ],
       [ 0.60904807, -0.31005517, -0.        , -0.        ,  0.        ,
        -0.32770777,  0.60061306,  0.5128203 , -0.58507574, -0.23469624],
       [-0.3663915 , -0.        , -0.3929943 ,  0.55098623, -0.28925407,
        -0.45773953, -0.23678519,  0.46770146, -0.        , -0.280596  ],
       [-0.3137776 ,  0.52863336, -0.6908206 , -0.        ,  0.        ,
        -0.        ,  0.626023  , -0.        , -0.        ,  0.33212525],
       [-0.9362533 ,  0.4405361 ,  0.7837228 , -0.4371479 , -0.        ,
         0.36500508, -0.        ,  0.3888141 , -0.321717  , -0.35864395],
       [ 0.        , -0.7746842 ,  0.3432209 , -0.        ,  0.6024675 ,
        -0.        ,  0.        , -0.27941686, -0.286969  ,  0.37044987],
       [-0.41481557,  0.44665504, -0.47273773, -0.        ,  0.        ,
         0.36927548, -0.36537316,  0.8134779 , -0.        , -0.49368763],
       [-0.96168995,  0.37633482, -0.        ,  0.        ,  0.        ,
         0.36700407, -0.65290195, -0.        , -0.4392298 ,  0.6934743 ],
       [-0.        , -0.        , -0.        , -0.47405776,  0.6451542 ,
         0.        , -0.        , -0.8088487 , -0.        , -0.        ],
       [ 0.        , -0.61877054, -0.28151023,  0.56410086,  0.        ,
        -0.        ,  0.        ,  0.37001097,  0.6044774 , -0.        ],
       [ 0.45268062, -0.3704809 , -0.4197957 , -0.59220076,  0.63180727,
        -0.        , -0.35257977, -0.4002744 ,  0.35438922,  0.31836706],
       [-0.        , -0.777618  , -0.        ,  0.36387178, -0.22263151,
        -0.37094674, -0.        ,  0.        ,  0.63274825, -0.        ],
       [-0.214385  ,  0.        , -0.        , -0.        ,  0.        ,
        -0.        ,  0.        ,  0.9040603 , -0.62385094, -0.44327444],
       [-0.5139783 , -0.        , -0.2091398 , -0.5486744 ,  0.6569376 ,
         0.22478074, -0.35123095, -0.38724208, -0.44708332,  0.93165195],
       [ 0.29221526, -0.7558904 , -0.6504247 ,  0.5216768 ,  0.        ,
        -0.        , -0.34615022,  0.27096212,  0.3541088 ,  0.        ],
       [-0.        , -0.6947823 ,  0.5435152 ,  0.        ,  0.        ,
        -0.4493411 , -0.36998892, -0.37540153,  0.48688486,  0.2627084 ],
       [ 0.50471926,  0.31885207, -0.        , -0.19847631, -0.        ,
        -0.5535602 ,  0.3863015 ,  0.46498418, -0.48907688, -0.49334243],
       [ 0.5145223 ,  0.        ,  0.        , -0.26855713, -0.        ,
        -0.6764501 ,  0.70214546, -0.48428676, -0.5477625 ,  0.        ],
       [ 0.43509004, -0.3165572 , -0.45785746, -0.44657716,  0.        ,
        -0.        ,  0.574367  , -0.        ,  0.28903818, -0.4727778 ],
       [ 0.42602524, -0.52695155,  0.        ,  0.43175322, -0.2716293 ,
         0.        ,  0.7170815 , -0.51665246, -0.30060744, -0.        ],
       [ 0.        ,  0.75843537,  0.4171767 , -0.        , -0.        ,
        -0.35355377, -0.        ,  0.61734605,  0.28529668, -0.6045132 ],
       [ 0.        ,  0.80084455, -0.5895063 ,  0.32450876, -0.        ,
        -0.        , -0.        ,  0.        ,  0.        ,  0.        ],
       [ 0.30231923, -0.60146594,  0.5422122 ,  0.40169477,  0.42632365,
        -0.6087667 , -0.8795566 , -0.        , -0.        ,  0.20566632],
       [ 0.33318546,  0.        , -0.5468549 , -0.        ,  0.45501718,
         0.612314  ,  0.34842896,  0.        ,  0.21794808, -0.43277445],
       [ 0.        , -0.44069028,  0.5465519 , -0.        ,  0.62772554,
        -0.28559414,  0.331455  , -0.4203158 ,  0.        , -0.        ],
       [-0.        , -0.24989145,  0.        , -0.3960691 , -0.8120923 ,
         0.6319374 ,  0.5084092 ,  0.        , -0.30672553,  0.6569214 ],
       [ 0.65539855, -0.        , -0.3226735 , -0.        , -0.87301373,
         0.263828  , -0.        , -0.        , -0.        ,  0.78286904],
       [-0.5573786 , -0.57875735, -0.        , -0.        ,  0.        ,
        -0.5444589 , -0.2687194 ,  0.50144905,  0.        , -0.        ],
       [ 0.44430804, -0.        , -0.39825115, -0.2852541 ,  0.        ,
        -0.        ,  0.        ,  0.        , -0.37650573,  0.5930816 ],
       [-0.        ,  0.        ,  0.91569877, -0.54874057, -0.        ,
        -0.45381254, -0.2773174 ,  0.7147838 , -0.5903707 , -0.2381556 ],
       [-0.66275644,  0.4836037 , -0.        ,  0.34640947, -0.        ,
         0.        , -0.        ,  0.        ,  0.6063879 , -0.6854782 ],
       [-0.43933123,  0.31800577, -0.        ,  0.        , -0.7503605 ,
         0.        ,  0.3757571 ,  0.        ,  0.39956376, -0.        ],
       [ 0.3232032 ,  0.        ,  0.        , -0.45446557, -0.3515598 ,
         0.        ,  0.5078557 , -0.60114825,  0.        , -0.        ],
       [ 0.        ,  0.        ,  0.78346765,  0.39498907, -0.53769255,
         0.        , -0.41580382,  0.        ,  0.617454  , -0.55991566],
       [ 0.        ,  0.57026356, -0.7365526 , -0.        , -0.        ,
         0.6720264 ,  0.29864967,  0.        , -0.53193676,  0.        ],
       [-0.        , -0.        ,  0.52368414, -0.55256975,  0.320684  ,
        -0.6876483 ,  0.        , -0.6229364 , -0.        , -0.        ],
       [ 0.40350944,  0.42567557,  0.        , -0.        , -0.6830899 ,
         0.39597735, -0.49302652,  0.        ,  0.        ,  0.32303432],
       [ 0.30893332, -0.3247779 , -0.        , -0.        , -0.        ,
         0.980906  ,  0.5408824 ,  0.        ,  0.        , -0.        ],
       [ 0.        ,  0.42515048, -0.4782198 , -0.        ,  0.5901727 ,
        -0.45867455,  0.        , -0.42132014,  0.        ,  0.28792724],
       [-0.42999512, -0.49981302, -0.43566373, -0.62811846,  0.28130338,
         0.        , -0.        , -0.5744041 ,  0.5001948 ,  0.34067172],
       [ 0.        ,  0.        ,  0.3133809 , -0.        ,  0.49889037,
         0.5964003 , -0.6385641 , -0.52997625, -0.        , -0.        ],
       [-0.43260577,  0.25645128,  0.30193445, -0.        , -0.2749936 ,
         0.        ,  0.3687995 ,  0.3000666 ,  0.39036855, -0.6848983 ],
       [ 0.3813528 ,  0.        ,  0.        , -0.        , -0.62793684,
         0.8689492 ,  0.47154725,  0.        , -0.        , -0.        ],
       [ 0.        ,  0.        , -0.3741298 ,  0.        ,  0.50179887,
         0.47355694, -0.        ,  0.47833103, -0.3378264 , -0.        ],
       [-0.        ,  0.        ,  0.6702793 , -0.39783975, -0.31124225,
         0.31856483, -0.        , -0.3715637 ,  0.5786181 , -0.73425406],
       [ 0.83900905, -0.4987103 ,  0.        , -0.        ,  0.29937747,
        -0.        , -0.6013671 , -0.        , -0.46112844,  0.5391201 ],
       [-0.        , -0.6191122 ,  0.79804075, -0.2501498 , -0.        ,
         0.        ,  0.28985646, -0.64418995, -0.39582574,  0.        ],
       [ 0.5416213 ,  0.5610144 ,  0.        , -0.71641475, -0.3842213 ,
        -0.4932837 ,  0.6500793 , -0.        ,  0.33939242, -0.27936015],
       [-0.41934034, -0.49460235,  0.7334919 ,  0.        , -0.596768  ,
         0.3091991 , -0.        , -0.39346942, -0.        ,  0.6748078 ],
       [ 0.        ,  0.44006026,  0.        , -0.        , -0.        ,
         0.47714293, -0.28921002,  0.42693204, -0.43138677, -0.35744587],
       [-0.        , -0.        , -0.        , -0.47400206, -0.57104784,
        -0.42586106, -0.4856486 , -0.        ,  0.48336324,  0.90059507],
       [ 0.38684407,  0.3841794 , -0.34973925,  0.3457836 , -0.3252758 ,
        -0.        , -0.2669346 ,  0.6259117 , -0.        , -0.43892926],
       [ 0.        ,  0.49216682, -0.28945613, -0.40676218,  0.        ,
        -0.46859163,  0.69466406, -0.36065447,  0.        , -0.        ],
       [ 0.42921612, -0.        , -0.4518167 ,  0.3809349 , -0.529662  ,
         0.7678841 , -0.25564212, -0.5796128 , -0.64295465,  0.        ],
       [ 0.9694357 , -0.        ,  0.34851834, -0.52229375,  0.        ,
        -0.        , -0.4250172 , -0.        , -0.36531878,  0.        ],
       [ 0.5929082 ,  0.28459626,  0.4266106 ,  0.7132289 , -0.33452865,
        -0.35997915, -0.7837032 ,  0.        , -0.5332945 , -0.22850734],
       [ 0.46709073, -0.2999153 , -0.63197213, -0.        ,  0.49886006,
        -0.52913284,  0.        , -0.51564574,  0.4387837 ,  0.57301456],
       [ 0.75291854, -0.        , -0.5743947 , -0.        , -0.        ,
        -0.27761585,  0.93131036,  0.21863888,  0.        , -0.43074   ],
       [-0.        ,  0.        , -0.55419034, -0.67816126,  0.26721036,
        -0.5501062 ,  0.34191385,  0.474818  ,  0.64230907, -0.        ],
       [ 0.6291158 , -0.31167164,  0.5369557 , -0.        , -0.        ,
        -0.        , -0.48085013,  0.        , -0.49309567,  0.24326476],
       [-0.        , -0.73558855,  0.        , -0.        , -0.8582518 ,
        -0.29658833, -0.3735888 ,  0.        ,  0.6750186 ,  0.4794078 ],
       [-0.        ,  0.8438845 , -0.        , -0.        ,  0.7109186 ,
        -0.6401862 ,  0.        , -0.        ,  0.        , -0.42869073],
       [ 0.        , -0.        ,  0.3755489 , -0.28563973,  0.        ,
        -0.5855547 ,  0.        ,  0.7340442 ,  0.        ,  0.        ],
       [-0.        ,  0.331749  ,  0.        ,  0.        , -0.6483071 ,
        -0.61822295,  0.        , -0.69170636,  0.60418826, -0.        ],
       [-0.72955626,  0.3996178 , -0.5015308 ,  0.7752042 ,  0.        ,
         0.32888436,  0.5941557 , -0.        , -0.        , -0.6398989 ],
       [ 0.        ,  0.42294022, -0.2720128 , -0.5072469 , -0.        ,
         0.70066285, -0.46027482,  0.40379235,  0.        ,  0.        ],
       [-0.        , -0.24225615, -0.41008326,  0.59486806, -0.        ,
         0.47177854,  0.54511386, -0.        , -0.        , -0.        ],
       [-0.        , -0.5492075 , -0.62285966,  0.        ,  0.33680853,
        -0.5501285 ,  0.        ,  0.36402315,  0.35936296,  0.        ],
       [-0.        ,  0.30441365,  0.        ,  0.63914436, -0.        ,
        -0.8242649 , -0.28370017,  0.        , -0.30035138,  0.        ],
       [-0.        , -0.        ,  0.4607039 , -0.6441043 ,  0.6152007 ,
        -0.31576902, -0.54759556, -0.        ,  0.41073823,  0.        ],
       [-0.27882317, -0.8268032 , -0.29356813,  0.45819265,  0.        ,
         0.357911  , -0.27164832,  0.5148261 , -0.        ,  0.36396754],
       [-0.57003677, -0.        , -0.48793632,  0.40587887,  0.        ,
         0.5470516 , -0.        , -0.80241853, -0.        ,  0.50407654],
       [ 0.37554583,  0.        ,  0.29065305, -0.47755575, -0.24477364,
         0.        , -0.        , -0.770474  ,  0.60943764, -0.4720416 ],
       [ 0.43104026, -0.        ,  0.7366926 , -0.33897707, -0.        ,
        -0.        , -0.        ,  0.        ,  0.        , -0.5584201 ],
       [-0.        , -0.6676384 , -0.4372011 ,  0.        , -0.7846369 ,
         0.        , -0.38629138,  0.43889546,  0.44989973,  0.8232248 ],
       [ 0.        ,  0.        ,  0.7569833 ,  0.        , -0.        ,
         0.4481425 , -0.        , -0.49049625, -0.        , -0.        ],
       [-0.        , -0.        ,  0.34000736,  0.4664318 , -0.3515434 ,
        -0.31954765, -0.87389255, -0.29416046, -0.33156553,  0.562267  ],
       [ 0.6653659 ,  0.2718623 , -0.        ,  0.5458133 , -0.5696993 ,
        -0.45911348,  0.        ,  0.        ,  0.        ,  0.5956363 ],
       [-0.5764546 , -0.        , -0.6399101 ,  0.4751464 ,  0.        ,
        -0.        , -0.47534096,  0.49691033, -0.        ,  0.        ],
       [ 0.        ,  0.9586681 ,  0.        , -0.        ,  0.61122084,
        -0.41604748,  0.        , -0.50091136,  0.        , -0.        ],
       [-0.        ,  0.        ,  0.6834114 , -0.22327253,  0.        ,
        -0.36246917,  0.43798316, -0.39740047,  0.        , -0.43410984],
       [ 0.        ,  0.        , -0.        ,  0.8889214 , -0.        ,
         0.        , -0.        , -0.81512004, -0.        , -0.37285253]],
      dtype=float32)
 array([-0.12822518,  0.2835174 ,  0.10304452, -0.06683253,  0.00846936,
        0.17671879, -0.03941907,  0.21273273, -0.36906183, -0.10018075],
      dtype=float32)]