FC Layer, 300 (Glorot Init.) Original_Weights[array([[ 0.06812921,  0.        ,  0.        , ..., -0.        ,
         0.        ,  0.        ],
       [ 0.        , -0.        , -0.        , ..., -0.        ,
         0.        , -0.        ],
       [ 0.05752833,  0.        , -0.        , ..., -0.        ,
        -0.        , -0.        ],
       ...,
       [ 0.        ,  0.        , -0.06137045, ...,  0.        ,
         0.        ,  0.        ],
       [ 0.05301665, -0.        , -0.        , ...,  0.        ,
         0.        , -0.        ],
       [-0.        , -0.06624366, -0.0671228 , ..., -0.        ,
        -0.        , -0.        ]], dtype=float32)
 array([ 0.04894695,  0.04484472,  0.10663863,  0.10953538, -0.01348548,
       -0.12597795,  0.13973099,  0.06271872,  0.00162547,  0.10598134,
        0.06141903, -0.08096837,  0.05145136,  0.1334315 ,  0.05588319,
        0.08767168,  0.16832158, -0.12337216, -0.05751207,  0.14531668,
       -0.02262058, -0.09844883, -0.01256876, -0.03477973,  0.2055377 ,
       -0.06399716,  0.06234408,  0.0194484 ,  0.03099623,  0.19164224,
        0.02091836, -0.0265951 ,  0.11128235, -0.05869414, -0.08287306,
        0.07125348,  0.09976211, -0.04361388,  0.02431789, -0.18908632,
       -0.05314616, -0.03235126, -0.0859815 , -0.02163444, -0.06349187,
        0.03503419,  0.05201814, -0.06717881, -0.19469291, -0.06252259,
       -0.08905918, -0.04560671,  0.12028141,  0.03835623, -0.08945002,
        0.05619202,  0.14100762, -0.02190656,  0.05291688,  0.09060451,
        0.03298391, -0.03521793, -0.16713794, -0.02580799,  0.11419777,
       -0.12792745,  0.1897717 ,  0.0254303 ,  0.07093908,  0.09748054,
       -0.16985321, -0.07298701,  0.08339369,  0.0716878 ,  0.17171572,
        0.03098661,  0.0119315 , -0.09463821, -0.00950916, -0.0054049 ,
        0.03031208, -0.01586912,  0.07929818,  0.09168611,  0.08784013,
        0.16223146,  0.04160148, -0.10793567, -0.09415114, -0.14741266,
        0.0568372 ,  0.02821734,  0.00582386,  0.13762547,  0.0557755 ,
       -0.06882352, -0.07948379,  0.1534541 ,  0.04235006,  0.10920769,
       -0.10949806,  0.08206743, -0.05975051, -0.15904106,  0.06250697,
        0.04996485, -0.01854977,  0.00629904, -0.03480221,  0.04817494,
       -0.03053686,  0.02740574,  0.00854689,  0.00046262,  0.10000139,
       -0.00771314, -0.08850972, -0.06073978,  0.08869716,  0.00373596,
        0.07430331, -0.20810415, -0.01353493,  0.04238423, -0.08839844,
       -0.03607352, -0.01559692,  0.06052897, -0.10069009,  0.04453448,
        0.00552015, -0.01042632, -0.07864113,  0.06823863,  0.03117904,
        0.04348633, -0.03851983,  0.06845269,  0.02332451,  0.01460613,
       -0.09923846,  0.07958369, -0.02406833,  0.17032906,  0.11393793,
        0.12445588, -0.1007008 , -0.13652344, -0.06555716,  0.03199866,
       -0.05689869, -0.01743495, -0.021246  ,  0.0952239 , -0.11352743,
        0.08776488, -0.0939569 ,  0.08484235, -0.06851491,  0.01180774,
       -0.12825571, -0.16106929, -0.1341932 ,  0.04412667, -0.09194378,
       -0.18541446, -0.06216648,  0.01884657, -0.02909398, -0.06993986,
       -0.12805742,  0.12487667, -0.01743186, -0.08430962,  0.11288513,
        0.12925127, -0.0041757 ,  0.02894268,  0.00852796, -0.07944135,
        0.10618017,  0.05419284,  0.01871413,  0.03094907, -0.13258578,
        0.1590937 ,  0.01719675, -0.08336117,  0.07213073, -0.09781104,
       -0.11477477, -0.03631774,  0.17137563,  0.15497041, -0.07653672,
        0.12846522, -0.07759743,  0.1647591 ,  0.17603008,  0.08305313,
        0.06611858,  0.02273028,  0.01253751, -0.0238175 , -0.14892314,
        0.00998739,  0.07915149,  0.03713939, -0.04437618,  0.07542844,
        0.00190785,  0.2113363 ,  0.112151  , -0.07185964,  0.06904928,
       -0.04021504,  0.01024859, -0.01322313, -0.06046649, -0.0275872 ,
       -0.06864002,  0.20284234, -0.05249968,  0.00941471, -0.10162852,
       -0.10341986, -0.00763693, -0.00126095, -0.09022122,  0.10075148,
       -0.18035622,  0.00341119, -0.03118957,  0.05717253, -0.04107603,
        0.05513138,  0.11798344,  0.01880969, -0.04362572, -0.07459721,
       -0.03166647,  0.12229161, -0.10154604, -0.20918573, -0.03291136,
        0.07784148,  0.17506103,  0.0564363 , -0.00834718,  0.02882902,
        0.07988048,  0.0634667 , -0.22037342,  0.10828537, -0.0755025 ,
        0.01049562,  0.19107749,  0.21816371, -0.06462099, -0.05333984,
       -0.10378993,  0.01493883,  0.01883618, -0.09165526,  0.07160593,
       -0.1757499 , -0.00393447, -0.09061619, -0.11140241,  0.19663301,
       -0.03600787, -0.0481398 ,  0.12861708, -0.10069555,  0.01573406,
        0.00234562,  0.07818336,  0.06526703,  0.07962164, -0.06036259,
       -0.03321074, -0.08726236,  0.18668748, -0.14224651,  0.13673787,
        0.01417401, -0.01249195, -0.00397093,  0.08861306,  0.01438129,
       -0.12291948,  0.13170438,  0.09587713, -0.00296071,  0.00972208,
        0.00216353, -0.08115816, -0.00517381, -0.02167576, -0.01814663],
      dtype=float32)]FC Layer, 100 (Glorot Init.) Original_Weights[array([[ 0.16886136, -0.23751295, -0.        , ...,  0.        ,
        -0.        ,  0.        ],
       [ 0.        , -0.12503195, -0.19140622, ...,  0.        ,
         0.12753451, -0.42074537],
       [-0.25791386,  0.11567206, -0.        , ..., -0.        ,
         0.        , -0.        ],
       ...,
       [ 0.16694075, -0.        ,  0.        , ...,  0.30806947,
         0.        ,  0.        ],
       [ 0.21207307,  0.20312054, -0.2654321 , ...,  0.        ,
         0.        , -0.        ],
       [-0.        ,  0.        ,  0.1898581 , ...,  0.        ,
        -0.        ,  0.        ]], dtype=float32)
 array([-0.07958554,  0.08840075,  0.0980711 , -0.0607998 ,  0.04382941,
        0.11281113, -0.05955045,  0.11074189, -0.16938658, -0.11599683,
        0.00857272, -0.1022476 ,  0.20156744,  0.06499033, -0.0126781 ,
        0.02536787, -0.00982634, -0.09066576,  0.19370519,  0.07849784,
        0.04772044,  0.07722486,  0.1130257 , -0.17885084,  0.10157357,
        0.17080428, -0.08068861, -0.12033831, -0.13732111, -0.13849843,
        0.21386243,  0.05219308, -0.13100117, -0.1465404 ,  0.0968062 ,
       -0.06740986, -0.08919983, -0.11172502, -0.0332914 ,  0.03926649,
       -0.06239   , -0.04322521, -0.12170804,  0.06053973, -0.03050101,
       -0.01873409, -0.01322441,  0.11328519, -0.12751043,  0.0201234 ,
       -0.05500032,  0.00646503,  0.13567288, -0.15690325,  0.08436901,
        0.14618579, -0.13288674, -0.10015053,  0.04043746,  0.0120407 ,
        0.08849028,  0.1425524 , -0.01536885,  0.02765564,  0.00637442,
       -0.02049979,  0.06484909,  0.20227915, -0.09556337,  0.11352157,
       -0.01775838,  0.08428898, -0.0251394 ,  0.07375695, -0.06147913,
       -0.12635858, -0.13002084, -0.01027029, -0.136797  , -0.04607477,
        0.08891694, -0.11726372,  0.11519685,  0.07648973,  0.14494531,
       -0.17100382, -0.01513547, -0.10519966,  0.05480612,  0.13651654,
       -0.09456915, -0.02863475, -0.11427565,  0.15749481,  0.08550794,
       -0.08825704,  0.05252434, -0.05523858, -0.00163832, -0.05096593],
      dtype=float32)]FC Layer, 10 (Softmax) Original_Weights[array([[ 0.46469975,  0.14564002, -0.47612816,  0.        , -0.5664402 ,
        -0.29821903, -0.30488807, -0.        ,  0.        ,  0.3343844 ],
       [ 0.        , -0.        , -0.5414766 , -0.4416984 ,  0.3764215 ,
         0.6589311 ,  0.5529136 ,  0.        , -0.39126757,  0.2498436 ],
       [ 0.        ,  0.        , -0.5298998 ,  0.        ,  0.52576166,
         0.        , -0.16623813,  0.552883  , -0.59689975,  0.2835544 ],
       [ 0.51746994, -0.32273227,  0.7222367 , -0.59279776, -0.        ,
        -0.6034651 , -0.15799747,  0.52258766,  0.        , -0.        ],
       [-0.        ,  0.        , -0.35383683, -0.6759197 , -0.        ,
        -0.23198596,  0.        ,  0.45794317, -0.24036464,  0.4429729 ],
       [-0.        ,  0.689949  ,  0.        , -0.        ,  0.75251895,
         0.30565438, -0.60425436, -0.35750514, -0.36325318, -0.        ],
       [-0.        ,  0.34855533, -0.413776  , -0.79873186, -0.        ,
         0.6226441 ,  0.24953641, -0.5163778 ,  0.16312785,  0.        ],
       [-0.52057225,  0.4716413 ,  0.28307724, -0.        , -0.14442892,
         0.4024252 , -0.46268865, -0.6752619 , -0.        ,  0.        ],
       [-0.        , -0.19338083, -0.61861694,  0.63660634,  0.        ,
        -0.        ,  0.41243377, -0.5385965 ,  0.77632004, -0.        ],
       [ 0.7545529 ,  0.5185438 , -0.        ,  0.19624484,  0.        ,
        -0.21140869,  0.50207007, -0.20845345, -0.        , -0.2939036 ],
       [-0.42352703,  0.58396435,  0.30887708, -0.22988677,  0.        ,
        -0.5636157 , -0.661779  ,  0.20556739, -0.        ,  0.        ],
       [ 0.        , -0.5165339 ,  0.        , -0.        , -0.4420888 ,
        -0.        ,  0.        , -0.        ,  0.5206977 , -0.        ],
       [-0.68368316,  0.        ,  0.        ,  0.5461972 , -0.        ,
         0.6112978 , -0.24851747, -0.        , -0.8058779 ,  0.        ],
       [ 0.19956973, -0.31740567,  0.6031432 ,  0.7243    ,  0.        ,
        -0.        , -0.37009925,  0.37562823, -0.6851394 , -0.        ],
       [-0.5795911 , -0.3305057 ,  0.6001569 ,  0.        ,  0.6144315 ,
         0.        ,  0.44041714,  0.        ,  0.        , -0.54346925],
       [-0.        , -0.36355254,  0.5116807 , -0.        , -0.        ,
        -0.5782625 ,  0.        , -0.        ,  0.        ,  0.        ],
       [ 0.        ,  0.1877462 ,  0.        , -0.5190912 , -0.        ,
        -0.7217265 ,  0.        ,  0.20933677,  0.        ,  0.3485607 ],
       [-0.        ,  0.36592788,  0.        ,  0.43444887, -0.7429268 ,
        -0.6756214 , -0.        , -0.37143072, -0.        ,  0.52708375],
       [-0.5826638 , -0.        , -0.3880965 ,  0.        ,  0.36472595,
        -0.        ,  0.2875343 ,  0.5451411 , -0.72918195,  0.        ],
       [ 0.5192449 , -0.16314082, -0.        ,  0.        , -0.        ,
        -0.33879742,  0.7585272 ,  0.65422976, -0.58615535, -0.3493966 ],
       [-0.3853156 ,  0.        , -0.41628897,  0.53610724, -0.20390792,
        -0.4822901 , -0.24450786,  0.50537115, -0.2631366 , -0.37164393],
       [-0.3099874 ,  0.45482734, -0.7448667 ,  0.        , -0.        ,
        -0.        ,  0.6673998 , -0.        , -0.        ,  0.23051156],
       [-0.6939779 ,  0.36623323,  0.7734587 , -0.4249671 , -0.        ,
         0.26094702, -0.22850303,  0.3906755 , -0.21684079, -0.41037643],
       [-0.        , -0.7547297 ,  0.29496312,  0.        ,  0.66199785,
        -0.2764766 ,  0.        , -0.21833509, -0.29713556,  0.31568718],
       [-0.33844405,  0.42529187, -0.38468528,  0.        , -0.        ,
         0.3888261 , -0.38064417,  0.7502218 ,  0.14982693, -0.46013966],
       [-0.89735496,  0.3918585 ,  0.        ,  0.        , -0.        ,
         0.3082738 , -0.62324584, -0.        , -0.35935444,  0.65688956],
       [-0.        ,  0.        , -0.        , -0.41175762,  0.5002927 ,
         0.33804184,  0.        , -0.7654398 , -0.        ,  0.        ],
       [-0.        , -0.52846026, -0.36756033,  0.50570524,  0.18362658,
         0.        , -0.        ,  0.3450262 ,  0.6505028 , -0.        ],
       [ 0.30907288, -0.32283086, -0.34286937, -0.53961116,  0.45073277,
        -0.        , -0.24764581, -0.45992982,  0.2866046 ,  0.4305866 ],
       [ 0.        , -0.6084996 ,  0.        ,  0.27043253, -0.18575384,
        -0.42690837,  0.        ,  0.        ,  0.59976226, -0.        ],
       [-0.26585245,  0.21997844,  0.        ,  0.        , -0.        ,
        -0.29234788,  0.        ,  0.9036054 , -0.5088647 , -0.40070063],
       [-0.64323646,  0.        , -0.18885341, -0.48511502,  0.6085611 ,
         0.22194102, -0.3048899 , -0.35449472, -0.36405572,  0.8692004 ],
       [ 0.273407  , -0.6675629 , -0.62758744,  0.46736354, -0.        ,
         0.        , -0.24401052,  0.22805332,  0.28999376,  0.        ],
       [-0.        , -0.62251467,  0.47917986, -0.15491375,  0.        ,
        -0.48688468, -0.45544165, -0.45237163,  0.52643174,  0.28753754],
       [ 0.34470913,  0.3381866 ,  0.        , -0.2783715 , -0.17894642,
        -0.63302547,  0.41197023,  0.52469385, -0.3856401 , -0.3705935 ],
       [ 0.422721  , -0.        ,  0.        , -0.31838673, -0.        ,
        -0.65478766,  0.63726664, -0.43917036, -0.54979366, -0.        ],
       [ 0.31344438, -0.2900796 , -0.49815536, -0.48632252,  0.        ,
        -0.        ,  0.46807772,  0.        ,  0.28484863, -0.45296106],
       [ 0.5119524 , -0.6444336 , -0.        ,  0.3109189 , -0.2513641 ,
        -0.        ,  0.64350504, -0.49737555, -0.29848677, -0.        ],
       [-0.        ,  0.7043906 ,  0.44361803,  0.        ,  0.        ,
        -0.2888641 , -0.        ,  0.5828155 ,  0.26083446, -0.52352476],
       [-0.        ,  0.7838101 , -0.46873567,  0.31481263,  0.        ,
        -0.        ,  0.25597346, -0.        , -0.        ,  0.        ],
       [ 0.27885088, -0.40407923,  0.62069577,  0.25978935,  0.4167609 ,
        -0.44258755, -0.75006783, -0.        ,  0.        ,  0.15742719],
       [ 0.28351626, -0.        , -0.6864103 , -0.21160056,  0.4286188 ,
         0.5370079 ,  0.32882303,  0.        ,  0.2733165 , -0.45767158],
       [ 0.        , -0.41679272,  0.62516946, -0.1578663 ,  0.6110057 ,
        -0.3118392 ,  0.20356639, -0.3655764 ,  0.        ,  0.        ],
       [-0.28332308, -0.24486506,  0.        , -0.31969163, -0.78312194,
         0.5765655 ,  0.47426233,  0.        , -0.22078598,  0.50715584],
       [ 0.5027896 , -0.15854503, -0.43138433, -0.        , -0.88582534,
         0.24793306,  0.        , -0.        , -0.        ,  0.6878812 ],
       [-0.56085354, -0.5611517 , -0.        ,  0.        , -0.        ,
        -0.5264328 , -0.30167592,  0.44428542,  0.        ,  0.        ],
       [ 0.41418675,  0.        , -0.28617883, -0.34380034,  0.        ,
         0.        ,  0.        , -0.        , -0.39250633,  0.5648317 ],
       [ 0.28410938,  0.        ,  0.7405183 , -0.5461574 , -0.        ,
        -0.46598336, -0.17059779,  0.78109765, -0.69866234, -0.28003827],
       [-0.6099062 ,  0.44978094, -0.        ,  0.28156993,  0.        ,
        -0.        , -0.        ,  0.        ,  0.56363595, -0.5892849 ],
       [-0.18889622,  0.4378351 ,  0.        ,  0.        , -0.72677964,
         0.        ,  0.27670988,  0.2531583 ,  0.3242457 , -0.23558281],
       [ 0.33093968, -0.        , -0.        , -0.4165132 , -0.31651297,
         0.        ,  0.56064034, -0.5715    , -0.        , -0.        ],
       [-0.        , -0.        ,  0.83903813,  0.4485754 , -0.51921725,
        -0.        , -0.3947065 ,  0.        ,  0.54283667, -0.543859  ],
       [ 0.2834668 ,  0.4626859 , -0.7856456 , -0.        ,  0.        ,
         0.7068661 ,  0.28090942,  0.2979596 , -0.47336853,  0.        ],
       [-0.        , -0.20473811,  0.39816636, -0.6075816 ,  0.26093405,
        -0.63748294,  0.        , -0.5232328 ,  0.362942  ,  0.21894284],
       [ 0.47002172,  0.37465733, -0.        , -0.1824756 , -0.7497061 ,
         0.43643284, -0.44773775, -0.        , -0.        ,  0.25697044],
       [ 0.2207163 , -0.29678407, -0.        ,  0.        ,  0.        ,
         0.97872186,  0.511524  ,  0.        ,  0.        , -0.        ],
       [ 0.        ,  0.4578166 , -0.4983286 , -0.        ,  0.35964864,
        -0.39961347, -0.        , -0.49467236, -0.        ,  0.35328382],
       [-0.2583433 , -0.2817273 , -0.49193838, -0.6159025 ,  0.17011283,
        -0.        ,  0.        , -0.5192857 ,  0.42001292,  0.28299153],
       [-0.        , -0.        ,  0.3656691 , -0.        ,  0.42654547,
         0.52824557, -0.65608436, -0.5052332 ,  0.18384252, -0.        ],
       [-0.42855105,  0.24839197,  0.26885247,  0.        , -0.259787  ,
         0.        ,  0.35735106,  0.26043794,  0.37891787, -0.65421516],
       [ 0.39680424, -0.        ,  0.26995686, -0.        , -0.5034523 ,
         0.6403938 ,  0.35337773, -0.2770848 ,  0.        , -0.        ],
       [ 0.        ,  0.        , -0.44195512, -0.        ,  0.4908397 ,
         0.4507283 ,  0.        ,  0.47007406, -0.31188977,  0.        ],
       [-0.        ,  0.        ,  0.6290444 , -0.45498195, -0.3161079 ,
         0.41612136,  0.        , -0.46549252,  0.5261523 , -0.52205074],
       [ 0.67978907, -0.4038571 ,  0.1732581 , -0.        ,  0.34430397,
        -0.        , -0.54639894,  0.        , -0.48209825,  0.41383997],
       [ 0.        , -0.7511392 ,  0.64579684, -0.18512776, -0.        ,
        -0.        ,  0.3611695 , -0.5893525 , -0.39835718, -0.        ],
       [ 0.43467477,  0.50222605,  0.3798204 , -0.772758  , -0.30787817,
        -0.49723938,  0.63041437,  0.        ,  0.25158533, -0.19139327],
       [-0.429725  , -0.591097  ,  0.7619314 , -0.        , -0.52912325,
         0.20902362,  0.        , -0.3786027 , -0.        ,  0.6305432 ],
       [ 0.        ,  0.49201655, -0.21874876,  0.        ,  0.        ,
         0.5235617 , -0.3555876 ,  0.3694444 , -0.4914945 , -0.3403215 ],
       [ 0.        , -0.25795934,  0.22519042, -0.45333508, -0.5243837 ,
        -0.44420788, -0.44399744,  0.        ,  0.4745551 ,  0.7893857 ],
       [ 0.3994114 ,  0.59751004, -0.36898872,  0.30353484, -0.32197088,
        -0.2507463 , -0.30115077,  0.59949815, -0.        , -0.5551938 ],
       [-0.        ,  0.37890705, -0.36371288, -0.45564896, -0.        ,
        -0.35626298,  0.6513376 , -0.31390047, -0.        ,  0.        ],
       [ 0.3683546 , -0.        , -0.30650464,  0.39483923, -0.6361794 ,
         0.74926704, -0.3245677 , -0.4739856 , -0.64915663,  0.        ],
       [ 0.80706453, -0.17130192,  0.29623678, -0.41839218, -0.11970627,
         0.        , -0.3774036 , -0.        , -0.3010808 ,  0.1760206 ],
       [ 0.39956757,  0.3302373 ,  0.43411452,  0.72096807, -0.3878539 ,
        -0.3776781 , -0.8009981 , -0.        , -0.51786935, -0.22519548],
       [ 0.4080031 , -0.25940922, -0.6269016 , -0.        ,  0.36030814,
        -0.5271718 ,  0.26736122, -0.47392866,  0.39469   ,  0.5912345 ],
       [ 0.80915856,  0.        , -0.5063514 ,  0.17373155, -0.        ,
        -0.2802868 ,  0.88667625,  0.29979283,  0.20309265, -0.30803883],
       [-0.        , -0.29364806, -0.5102759 , -0.61117244,  0.2859567 ,
        -0.5696665 ,  0.38246903,  0.520578  ,  0.6409501 ,  0.        ],
       [ 0.5676068 , -0.24530071,  0.45252958,  0.31719542,  0.        ,
         0.        , -0.44932684,  0.        , -0.39168546,  0.1448676 ],
       [-0.        , -0.5924848 ,  0.        , -0.        , -0.8206814 ,
        -0.2234631 , -0.3843937 ,  0.        ,  0.66539073,  0.4007178 ],
       [-0.        ,  0.8604592 ,  0.        , -0.        ,  0.72392625,
        -0.6114607 ,  0.        , -0.        ,  0.25733387, -0.45344457],
       [ 0.        ,  0.        ,  0.47674415, -0.2735661 , -0.        ,
        -0.53288025,  0.        ,  0.4655741 , -0.        , -0.19868588],
       [ 0.        ,  0.28677708,  0.        , -0.        , -0.59419405,
        -0.501883  ,  0.32512325, -0.76657754,  0.45643625,  0.        ],
       [-0.60158676,  0.393526  , -0.48594204,  0.76485217, -0.        ,
         0.27078405,  0.58646846, -0.        , -0.        , -0.5329389 ],
       [-0.        ,  0.4323561 , -0.20475003, -0.48905596, -0.        ,
         0.674039  , -0.35998398,  0.3793956 , -0.        ,  0.        ],
       [-0.        , -0.24131688, -0.2763175 ,  0.6290047 , -0.34548527,
         0.41267177,  0.56070685,  0.        ,  0.        , -0.33864033],
       [-0.        , -0.61926544, -0.50296754,  0.        ,  0.35860893,
        -0.5632899 ,  0.        ,  0.3499658 ,  0.3958965 ,  0.        ],
       [-0.24045044,  0.38880396,  0.        ,  0.39314258, -0.        ,
        -0.7949772 , -0.26427096, -0.        , -0.2632398 ,  0.        ],
       [ 0.        ,  0.        ,  0.3630725 , -0.46676105,  0.57517636,
        -0.3698687 , -0.54626995, -0.        ,  0.44375265, -0.        ],
       [-0.29499125, -0.74884665, -0.38544485,  0.3792586 , -0.        ,
         0.41901422, -0.24090631,  0.51896876,  0.        ,  0.23368675],
       [-0.6513091 ,  0.        , -0.52395225,  0.32878163,  0.        ,
         0.677761  , -0.        , -0.7113581 , -0.        ,  0.43470386],
       [ 0.37473017, -0.        ,  0.24156904, -0.47202408, -0.41332337,
        -0.        ,  0.        , -0.74167717,  0.66545594, -0.36424172],
       [ 0.57912934,  0.        ,  0.6306629 , -0.25395858,  0.        ,
         0.        , -0.        , -0.        , -0.        , -0.64258265],
       [ 0.        , -0.62761706, -0.4075018 , -0.        , -0.8241067 ,
         0.        , -0.3691149 ,  0.355512  ,  0.4748655 ,  0.7882018 ],
       [ 0.        , -0.        ,  0.4934084 , -0.31191033,  0.        ,
         0.42063883,  0.2234124 , -0.3100118 , -0.        , -0.        ],
       [-0.        ,  0.        ,  0.36374003,  0.38732806, -0.46949407,
        -0.20980595, -0.8346852 , -0.24950923, -0.28628716,  0.6384706 ],
       [ 0.587211  ,  0.3708968 ,  0.        ,  0.5813242 , -0.5242433 ,
        -0.4292422 ,  0.        ,  0.        ,  0.        ,  0.5037044 ],
       [-0.404077  ,  0.        , -0.56882274,  0.45167783, -0.        ,
         0.        , -0.45202214,  0.45804343, -0.27073988,  0.        ],
       [-0.        ,  0.86506015, -0.        , -0.        ,  0.52336186,
        -0.32484195, -0.        , -0.52474165,  0.        , -0.        ],
       [-0.        , -0.        ,  0.7546643 , -0.24187884, -0.        ,
        -0.3591382 ,  0.3409039 , -0.4313458 , -0.20172814, -0.47264367],
       [-0.        , -0.        , -0.        ,  0.6572463 ,  0.        ,
        -0.        ,  0.22113271, -0.8157119 ,  0.        , -0.35825133]],
      dtype=float32)
 array([-0.16463834,  0.32311165,  0.08580672, -0.03885833, -0.0310664 ,
        0.1511321 , -0.01995769,  0.20660439, -0.37116456, -0.06675436],
      dtype=float32)]