FC Layer, 300 (Glorot Init.) Original_Weights[array([[ 0.06812921,  0.        ,  0.        , ..., -0.        ,
         0.        ,  0.        ],
       [ 0.        , -0.        , -0.        , ..., -0.        ,
         0.        , -0.        ],
       [ 0.05752833,  0.        , -0.        , ..., -0.        ,
        -0.        , -0.        ],
       ...,
       [ 0.        ,  0.        , -0.06137045, ...,  0.        ,
         0.        ,  0.        ],
       [ 0.05301665, -0.        , -0.        , ...,  0.        ,
         0.        , -0.        ],
       [-0.        , -0.06624366, -0.0671228 , ..., -0.        ,
        -0.        , -0.        ]], dtype=float32)
 array([ 0.05242191,  0.03647522,  0.038385  ,  0.14006141, -0.0564073 ,
       -0.07258664,  0.13887642,  0.05737385, -0.0485061 ,  0.13502523,
        0.00479332, -0.08851559,  0.02446043,  0.0557342 , -0.03268198,
        0.07690936,  0.10621546, -0.09916301, -0.05066755,  0.17504448,
       -0.03609213, -0.14156929,  0.03705029, -0.02661158,  0.15024297,
       -0.06949753, -0.00919286,  0.01110948,  0.03504603,  0.10222401,
        0.00528648,  0.01297396,  0.11067753, -0.03688256, -0.00430227,
        0.08192991,  0.05772898, -0.08197556,  0.11268136, -0.1216919 ,
       -0.00774139,  0.0089239 , -0.05443417,  0.00124826, -0.02339773,
        0.05463267,  0.06129846, -0.03270922, -0.09960876, -0.00460573,
       -0.15106803, -0.03984605,  0.03651123,  0.06218318, -0.07038482,
        0.00590895,  0.06091357,  0.01188761,  0.06116015,  0.10039104,
       -0.0146117 , -0.04147161, -0.10087257, -0.01841233,  0.03385697,
       -0.06422669,  0.19696598,  0.02547172,  0.06447811,  0.1271083 ,
       -0.1587439 , -0.09413548,  0.1475351 ,  0.04731839,  0.13395105,
        0.05001776,  0.00176004, -0.03682545,  0.04885616,  0.0534832 ,
        0.08612186, -0.03955297,  0.12394316,  0.03746182,  0.05973426,
        0.10099313,  0.09964552, -0.0603359 , -0.05589991, -0.14052284,
        0.03633171,  0.01586747, -0.00645809,  0.1210008 ,  0.08297297,
       -0.07888732, -0.14653629,  0.13691965,  0.05620577,  0.07725335,
       -0.09368572,  0.05127037, -0.00576735, -0.12381911,  0.04738683,
       -0.00467353, -0.05790683, -0.03689409, -0.06863347, -0.00080614,
       -0.04685189,  0.09760215,  0.01628902,  0.01848266,  0.1191277 ,
        0.0115824 , -0.10311294, -0.06654851,  0.04756638, -0.02659482,
        0.03414   , -0.09947771, -0.03391846,  0.06815974, -0.06831852,
        0.10830919, -0.0306496 ,  0.10571538, -0.12431609,  0.0226206 ,
       -0.02497003,  0.02927245, -0.03213798,  0.02422377,  0.07066727,
        0.03188365, -0.07290986,  0.10275488, -0.04121555,  0.02331413,
       -0.03034977,  0.02626499, -0.05970569,  0.06403548,  0.11410917,
        0.07891665, -0.07617   , -0.06728037, -0.06906708,  0.02126414,
       -0.02547874, -0.01432692, -0.00936887,  0.06605979, -0.10417921,
        0.12790413, -0.09322365,  0.09682661, -0.04375274,  0.08926024,
       -0.02817755, -0.1559914 , -0.00822609,  0.04809557, -0.09394122,
       -0.17695422, -0.1058716 ,  0.01340918, -0.01180104,  0.03406595,
       -0.11670305,  0.14007318, -0.01692504, -0.07850128,  0.06869684,
        0.09554711,  0.02481637,  0.03592791,  0.00664855, -0.0681317 ,
        0.21077141,  0.0571816 , -0.039122  ,  0.0510086 , -0.03568437,
        0.15473494,  0.09807138, -0.1034198 ,  0.01722883, -0.08259819,
       -0.00891553, -0.0030039 ,  0.19204438,  0.0041548 , -0.03402445,
        0.06514353, -0.09838742,  0.05321179,  0.23093045,  0.06717363,
       -0.00482703,  0.05462214, -0.01450117,  0.03971361, -0.1017569 ,
       -0.00351574,  0.01576515,  0.16881135, -0.0353237 , -0.06536267,
        0.04058002,  0.20692916,  0.08778268, -0.04285388, -0.03074625,
        0.05890308,  0.01732471,  0.00073708,  0.00628173, -0.01766293,
       -0.02909485,  0.17086926, -0.09389627,  0.05860555, -0.13930027,
       -0.03305128,  0.00118272, -0.00919358, -0.07660738,  0.07713666,
       -0.10346713, -0.01181012,  0.07172062,  0.01566115,  0.07376727,
       -0.01357057,  0.08305539,  0.02056825, -0.02357315,  0.04685954,
       -0.03976301,  0.11183649, -0.06271014, -0.14270891, -0.04566504,
        0.07781267,  0.13782944, -0.06398623, -0.02850383,  0.0301172 ,
        0.14099436,  0.11732358, -0.18558234,  0.09552568, -0.01413918,
       -0.02499957,  0.22098629,  0.09541445, -0.0347666 , -0.08663487,
       -0.1239737 , -0.03403736, -0.01954521, -0.08937678,  0.02926386,
       -0.18382221,  0.0124983 , -0.12962937, -0.10148102,  0.19144091,
       -0.11133017, -0.00888098,  0.06099527, -0.09063022, -0.01551599,
       -0.05026583, -0.03072552,  0.02678608,  0.07494159, -0.03405595,
       -0.03337898, -0.00917972,  0.15667239, -0.07455162,  0.08371963,
       -0.0464249 ,  0.03425426, -0.01284347,  0.13894807,  0.03883788,
       -0.10384904,  0.04668057,  0.03410827, -0.04665925,  0.06880073,
        0.07874091, -0.05824737, -0.0237471 , -0.01024932,  0.01296105],
      dtype=float32)]FC Layer, 100 (Glorot Init.) Original_Weights[array([[ 0.23579219, -0.16336502, -0.        , ...,  0.        ,
        -0.        ,  0.        ],
       [ 0.        , -0.13296688, -0.15917325, ...,  0.        ,
         0.1208545 , -0.41050142],
       [-0.10867482,  0.09548707, -0.        , ..., -0.        ,
         0.        , -0.        ],
       ...,
       [ 0.2050687 , -0.        ,  0.        , ...,  0.28741658,
         0.        ,  0.        ],
       [ 0.2513543 ,  0.18119527, -0.18710323, ...,  0.        ,
         0.        , -0.        ],
       [-0.        ,  0.        ,  0.09084156, ...,  0.        ,
        -0.        ,  0.        ]], dtype=float32)
 array([-0.04395488,  0.05769715,  0.13683026, -0.01574017,  0.0301876 ,
        0.09351433, -0.06141818,  0.05425927, -0.23462366, -0.0984915 ,
        0.04040534, -0.09186549,  0.22623685,  0.04967402,  0.00902197,
       -0.0238244 ,  0.04187299, -0.0667369 ,  0.18740919,  0.06236241,
        0.06982152,  0.11268397,  0.13104509, -0.13229245,  0.05693566,
        0.11479495, -0.04353157, -0.13431765, -0.15318108, -0.11036673,
        0.15979889,  0.05635057, -0.08947515, -0.1043718 ,  0.15207978,
       -0.07841253, -0.06122293, -0.04659292, -0.05647844,  0.01553652,
       -0.05408884, -0.04603364, -0.08442745,  0.04710526, -0.01664741,
       -0.00861854,  0.00922787,  0.12117546, -0.10082702,  0.00295062,
       -0.06307925, -0.03122461,  0.08806686, -0.14320374,  0.10033077,
        0.14648873, -0.09940058, -0.08958903,  0.00523174,  0.00384595,
        0.05051981,  0.12555824, -0.0171621 , -0.00292491, -0.00052723,
        0.00635413,  0.01328594,  0.1648014 , -0.10602179,  0.05311714,
       -0.07827126,  0.03827589,  0.01625347,  0.02475978, -0.10237354,
       -0.11428344, -0.0747805 , -0.03439091, -0.12186915, -0.06092848,
        0.03850785, -0.15717094,  0.0608803 ,  0.04520368,  0.01691454,
       -0.15681979, -0.00759176, -0.01420381, -0.01362076,  0.04717079,
       -0.06752532, -0.06268381, -0.12056696,  0.17338292,  0.05719548,
       -0.07968375,  0.075514  ,  0.00327883, -0.03263365, -0.04815377],
      dtype=float32)]FC Layer, 10 (Softmax) Original_Weights[array([[ 0.4474544 ,  0.18498304, -0.3695033 ,  0.        , -0.6013155 ,
        -0.23438463, -0.3084635 , -0.        ,  0.        ,  0.41797495],
       [ 0.        , -0.        , -0.52119803, -0.30064768,  0.36537784,
         0.624053  ,  0.3955792 ,  0.        , -0.40486434,  0.2893316 ],
       [ 0.        ,  0.        , -0.17941974,  0.        ,  0.3519924 ,
         0.        , -0.24981932,  0.58280826, -0.4580845 ,  0.17394508],
       [ 0.14639705, -0.2828739 ,  0.65428376, -0.43405092, -0.        ,
        -0.4531428 , -0.22121987,  0.47424027,  0.        , -0.        ],
       [-0.        ,  0.        , -0.2693824 , -0.55400443, -0.        ,
        -0.1845385 ,  0.        ,  0.4045964 , -0.2522389 ,  0.45303935],
       [-0.        ,  0.5281051 ,  0.        , -0.        ,  0.32521743,
         0.4006017 , -0.5680472 , -0.26326677, -0.24746668, -0.        ],
       [-0.        ,  0.25265986, -0.34702846, -0.8399988 , -0.        ,
         0.5370602 ,  0.35194317, -0.41598663,  0.17183632,  0.        ],
       [-0.4589801 ,  0.38278505,  0.21027674, -0.        , -0.14269996,
         0.29065526, -0.41492707, -0.61559105, -0.        ,  0.        ],
       [-0.        , -0.25499514, -0.5427099 ,  0.57188064,  0.        ,
        -0.        ,  0.39864326, -0.4471027 ,  0.6530666 , -0.        ],
       [ 0.45977756,  0.4757296 , -0.        ,  0.18365765,  0.        ,
        -0.2163982 ,  0.5353016 , -0.17807102, -0.        , -0.22519791],
       [-0.21610725,  0.4020585 ,  0.16446412, -0.18473685,  0.        ,
        -0.4120512 , -0.5857458 ,  0.18334287, -0.        ,  0.        ],
       [ 0.        , -0.39026117,  0.        , -0.        , -0.31640002,
        -0.        ,  0.        , -0.        ,  0.65065026, -0.        ],
       [-0.59967846,  0.        ,  0.        ,  0.47870874, -0.        ,
         0.6053649 , -0.29899257, -0.        , -0.7316305 ,  0.        ],
       [ 0.24303378, -0.25443184,  0.57299954,  0.610407  ,  0.        ,
        -0.        , -0.35461995,  0.24895222, -0.56336486, -0.        ],
       [-0.37230644, -0.25544098,  0.5426415 ,  0.        ,  0.48185316,
         0.        ,  0.18291149,  0.        ,  0.        , -0.4734966 ],
       [-0.        , -0.45904997,  0.39475355, -0.        , -0.        ,
        -0.51119965,  0.        , -0.        ,  0.        ,  0.        ],
       [ 0.        ,  0.1085908 ,  0.        , -0.44187444, -0.        ,
        -0.5707067 ,  0.        ,  0.1834114 ,  0.        ,  0.27113175],
       [-0.        ,  0.34261125,  0.        ,  0.2695525 , -0.6288211 ,
        -0.53721446, -0.        , -0.29927954, -0.        ,  0.41323295],
       [-0.47513032, -0.        , -0.29407752,  0.        ,  0.3053842 ,
        -0.        ,  0.21600123,  0.35954624, -0.58589685,  0.        ],
       [ 0.46980497, -0.34134158, -0.        ,  0.        , -0.        ,
        -0.27317545,  0.48771068,  0.44023272, -0.47597805, -0.20787174],
       [-0.31024465,  0.        , -0.35668066,  0.3872712 , -0.25651747,
        -0.37436512, -0.24263017,  0.32042623, -0.21588078, -0.2544231 ],
       [-0.24388641,  0.47799996, -0.5744384 ,  0.        , -0.        ,
        -0.        ,  0.52213913, -0.        , -0.        ,  0.259546  ],
       [-0.74929476,  0.36822575,  0.60558546, -0.33864075, -0.        ,
         0.29507262, -0.13336632,  0.33419716, -0.27655876, -0.3255455 ],
       [-0.        , -0.6204487 ,  0.28169695,  0.        ,  0.40817618,
        -0.16018084,  0.        , -0.17514181, -0.23778546,  0.32653067],
       [-0.30237395,  0.37246177, -0.3681613 ,  0.        , -0.        ,
         0.3133071 , -0.29014575,  0.661573  ,  0.19034393, -0.45407182],
       [-0.7978101 ,  0.30888155,  0.        ,  0.        , -0.        ,
         0.27196997, -0.5500928 , -0.        , -0.35096914,  0.6032337 ],
       [-0.        ,  0.        , -0.        , -0.38294956,  0.5379245 ,
         0.1008651 ,  0.        , -0.6420721 , -0.        ,  0.        ],
       [-0.        , -0.47735867, -0.2517128 ,  0.4854777 ,  0.13394512,
         0.        , -0.        ,  0.31910023,  0.538852  , -0.        ],
       [ 0.38543254, -0.32580486, -0.3738085 , -0.46730796,  0.49214357,
        -0.        , -0.30580464, -0.3252781 ,  0.30122602,  0.3205256 ],
       [ 0.        , -0.6412834 ,  0.        ,  0.32164094, -0.19624314,
        -0.363602  ,  0.        ,  0.        ,  0.56242174, -0.        ],
       [-0.20313081,  0.01257841,  0.        ,  0.        , -0.        ,
        -0.09319706,  0.        ,  0.72920316, -0.5534388 , -0.348925  ],
       [-0.41413024,  0.        , -0.24916306, -0.46778852,  0.5163241 ,
         0.23151432, -0.3134959 , -0.29125285, -0.3606345 ,  0.7699394 ],
       [ 0.2639304 , -0.6018382 , -0.5720687 ,  0.42346138, -0.        ,
         0.        , -0.28192163,  0.1955814 ,  0.30610332,  0.        ],
       [-0.        , -0.5445719 ,  0.4226526 , -0.08961179,  0.        ,
        -0.38651967, -0.28907096, -0.3165171 ,  0.41703176,  0.21684837],
       [ 0.4484582 ,  0.24717589,  0.        , -0.19691235, -0.12658171,
        -0.47162616,  0.29528126,  0.34718508, -0.42250314, -0.38487083],
       [ 0.37898514, -0.        ,  0.        , -0.26132584, -0.        ,
        -0.5485822 ,  0.5582503 , -0.37244642, -0.45866433, -0.        ],
       [ 0.35801512, -0.32428706, -0.34671134, -0.35602185,  0.        ,
        -0.        ,  0.50963426,  0.        ,  0.21005377, -0.37545472],
       [ 0.333509  , -0.4828684 , -0.        ,  0.31147715, -0.24250902,
        -0.        ,  0.55065554, -0.43594375, -0.26524565, -0.        ],
       [-0.        ,  0.641775  ,  0.35451847,  0.        ,  0.        ,
        -0.25668624, -0.        ,  0.5468667 ,  0.2602408 , -0.5348061 ],
       [-0.        ,  0.6673999 , -0.4604684 ,  0.23340246,  0.        ,
        -0.        ,  0.18410404, -0.        , -0.        ,  0.        ],
       [ 0.20302741, -0.46818325,  0.4573845 ,  0.30565053,  0.34527883,
        -0.47638786, -0.7293486 , -0.        ,  0.        ,  0.21528715],
       [ 0.31729555, -0.        , -0.51381415, -0.18581441,  0.39346495,
         0.532077  ,  0.30551514,  0.        ,  0.23143598, -0.36992195],
       [ 0.        , -0.3766034 ,  0.4844427 , -0.14448285,  0.5548755 ,
        -0.24850297,  0.24455273, -0.32028326,  0.        ,  0.        ],
       [-0.18974103, -0.21123762,  0.        , -0.36476144, -0.72215086,
         0.5640067 ,  0.37332445,  0.        , -0.3240089 ,  0.5771356 ],
       [ 0.5330888 , -0.13442029, -0.27506357, -0.        , -0.6496508 ,
         0.22236937,  0.        , -0.        , -0.        ,  0.6614123 ],
       [-0.49246395, -0.51148015, -0.        ,  0.        , -0.        ,
        -0.44371203, -0.23682047,  0.38924202,  0.        ,  0.        ],
       [ 0.39032102,  0.        , -0.3400092 , -0.22598305,  0.        ,
         0.        ,  0.        , -0.        , -0.34303537,  0.5033434 ],
       [ 0.1768208 ,  0.        ,  0.70966935, -0.4809195 , -0.        ,
        -0.38231742, -0.24921368,  0.5927373 , -0.5348623 , -0.21465005],
       [-0.54803616,  0.4653996 , -0.        ,  0.26978076,  0.        ,
        -0.        , -0.        ,  0.        ,  0.548573  , -0.5645359 ],
       [-0.36643606,  0.30054605,  0.        ,  0.        , -0.6211048 ,
         0.        ,  0.3194079 ,  0.15978742,  0.3504281 , -0.19289011],
       [ 0.2627644 , -0.        , -0.        , -0.39319804, -0.2852826 ,
         0.        ,  0.381328  , -0.5123133 , -0.        , -0.        ],
       [-0.        , -0.        ,  0.6230442 ,  0.32622433, -0.47154042,
        -0.        , -0.32621688,  0.        ,  0.52423215, -0.44969738],
       [ 0.21101104,  0.44252348, -0.5590876 , -0.        ,  0.        ,
         0.52205735,  0.27545738,  0.18595688, -0.4309846 ,  0.        ],
       [-0.        , -0.066123  ,  0.42449787, -0.4443757 ,  0.23641856,
        -0.58721733,  0.        , -0.5528388 ,  0.18451498,  0.13794559],
       [ 0.3216934 ,  0.41782176, -0.        , -0.17422904, -0.5890335 ,
         0.35299495, -0.42813846, -0.        , -0.        ,  0.2761517 ],
       [ 0.24086681, -0.29779702, -0.        ,  0.        ,  0.        ,
         0.74624026,  0.4969092 ,  0.        ,  0.        , -0.        ],
       [ 0.        ,  0.3871833 , -0.43051097, -0.        ,  0.5137938 ,
        -0.39331064, -0.        , -0.3432302 , -0.        ,  0.25758815],
       [-0.33080342, -0.40944484, -0.35540202, -0.5357081 ,  0.21677034,
        -0.        ,  0.        , -0.46199974,  0.34687725,  0.29845774],
       [-0.        , -0.        ,  0.2790302 , -0.        ,  0.4084851 ,
         0.48925668, -0.54992193, -0.42148435,  0.12608205, -0.        ],
       [-0.36539695,  0.233047  ,  0.23152165,  0.        , -0.26303652,
         0.        ,  0.3438566 ,  0.22486019,  0.3248179 , -0.5770851 ],
       [ 0.25550082, -0.        ,  0.1001573 , -0.        , -0.49122956,
         0.65346926,  0.38444963, -0.18286286,  0.        , -0.        ],
       [ 0.        ,  0.        , -0.28860274, -0.        ,  0.43302393,
         0.39942807,  0.        ,  0.42253286, -0.24089167,  0.        ],
       [-0.        ,  0.        ,  0.4986097 , -0.34022176, -0.21395227,
         0.28087434,  0.        , -0.35667628,  0.4512702 , -0.5894505 ],
       [ 0.63161016, -0.43736932,  0.18604329, -0.        ,  0.32759035,
        -0.        , -0.42735845,  0.        , -0.37500814,  0.4367487 ],
       [ 0.        , -0.48002055,  0.5922254 , -0.23561732, -0.        ,
        -0.        ,  0.23970035, -0.51694757, -0.37626693, -0.        ],
       [ 0.4863175 ,  0.4625343 ,  0.2014439 , -0.5872017 , -0.3104729 ,
        -0.36553678,  0.55366457,  0.        ,  0.2096955 , -0.21793643],
       [-0.45002016, -0.45558938,  0.6224252 , -0.        , -0.54410875,
         0.28323522,  0.        , -0.31829876, -0.        ,  0.5382459 ],
       [ 0.        ,  0.38169947, -0.19997358,  0.        ,  0.        ,
         0.41346171, -0.26185367,  0.38525313, -0.37972498, -0.2870921 ],
       [ 0.        , -0.12772962,  0.144462  , -0.38673916, -0.46472678,
        -0.3632316 , -0.39516515,  0.        ,  0.40670547,  0.70697534],
       [ 0.32044482,  0.3044704 , -0.28676185,  0.29968423, -0.24355555,
        -0.1602504 , -0.21499418,  0.51595217, -0.        , -0.4000546 ],
       [-0.        ,  0.34966832, -0.24646436, -0.37167245, -0.        ,
        -0.43830168,  0.5852267 , -0.28808877, -0.        ,  0.        ],
       [ 0.32872564, -0.        , -0.36537775,  0.34751478, -0.4400589 ,
         0.6228602 , -0.22269326, -0.4598831 , -0.52533275,  0.        ],
       [ 0.7736399 , -0.2290063 ,  0.2730707 , -0.44626614, -0.1275354 ,
         0.        , -0.34300533, -0.        , -0.3103497 ,  0.16437341],
       [ 0.46194744,  0.26984474,  0.34681806,  0.57538146, -0.29885998,
        -0.30645782, -0.6614299 , -0.        , -0.4449405 , -0.23042047],
       [ 0.38571185, -0.24725854, -0.47605574, -0.        ,  0.4097313 ,
        -0.4474381 ,  0.17866229, -0.45008668,  0.42641127,  0.51363075],
       [ 0.58735734,  0.        , -0.45709866,  0.16519086, -0.        ,
        -0.21002476,  0.7214596 ,  0.20998913,  0.20371833, -0.34667087],
       [-0.        , -0.15113267, -0.44265124, -0.54317117,  0.236635  ,
        -0.46099404,  0.29887447,  0.38181317,  0.5106044 ,  0.        ],
       [ 0.52613103, -0.2611249 ,  0.4867114 ,  0.15611486,  0.        ,
         0.        , -0.4104745 ,  0.        , -0.4092831 ,  0.21524034],
       [-0.        , -0.5670881 ,  0.        , -0.        , -0.6908544 ,
        -0.2802715 , -0.29176646,  0.        ,  0.54071647,  0.31053293],
       [-0.        ,  0.64387196,  0.        , -0.        ,  0.58985096,
        -0.49671796,  0.        , -0.        ,  0.10640142, -0.33858684],
       [ 0.        ,  0.        ,  0.28917834, -0.23322555, -0.        ,
        -0.49406976,  0.        ,  0.54732406, -0.        , -0.1902256 ],
       [ 0.        ,  0.3372917 ,  0.        , -0.        , -0.5625633 ,
        -0.51199234,  0.1764188 , -0.59799016,  0.50937915,  0.        ],
       [-0.53464276,  0.35698095, -0.41187578,  0.6335923 , -0.        ,
         0.25789806,  0.5136947 , -0.        , -0.        , -0.5403353 ],
       [-0.        ,  0.33678138, -0.22917184, -0.4465073 , -0.        ,
         0.5879553 , -0.37094626,  0.33050427, -0.        ,  0.        ],
       [-0.        , -0.23106954, -0.34527418,  0.44737235, -0.17705408,
         0.362702  ,  0.4791308 ,  0.        ,  0.        , -0.17494841],
       [-0.        , -0.4874381 , -0.4886624 ,  0.        ,  0.28775248,
        -0.4922357 ,  0.        ,  0.2800429 ,  0.34770688,  0.        ],
       [-0.18603884,  0.2818397 ,  0.        ,  0.49366054, -0.        ,
        -0.6703162 , -0.28396723, -0.        , -0.23651056,  0.        ],
       [ 0.        ,  0.        ,  0.40408832, -0.49694422,  0.5034946 ,
        -0.2829347 , -0.42016658, -0.        ,  0.33638743, -0.        ],
       [-0.23645811, -0.63387644, -0.23964377,  0.38226888, -0.        ,
         0.28761804, -0.22733049,  0.39363733,  0.        ,  0.28687575],
       [-0.41983598,  0.        , -0.4523471 ,  0.36305735,  0.        ,
         0.449764  , -0.        , -0.6511798 , -0.        ,  0.42344078],
       [ 0.30022264, -0.        ,  0.22822082, -0.416989  , -0.27760762,
        -0.        ,  0.        , -0.6229647 ,  0.46222967, -0.3512929 ],
       [ 0.32687718,  0.        ,  0.6130547 , -0.30206588,  0.        ,
         0.        , -0.        , -0.        , -0.        , -0.48922125],
       [ 0.        , -0.52557117, -0.3733631 , -0.        , -0.6295762 ,
         0.        , -0.31474882,  0.3178646 ,  0.40888193,  0.6609783 ],
       [ 0.        , -0.        ,  0.5200805 , -0.14577353,  0.        ,
         0.35349485,  0.00664598, -0.36838025, -0.        , -0.        ],
       [-0.        ,  0.        ,  0.25375146,  0.36605138, -0.27853003,
        -0.23741618, -0.7447115 , -0.2676921 , -0.25095898,  0.44923332],
       [ 0.5532835 ,  0.28558356,  0.        ,  0.37681964, -0.4372448 ,
        -0.35530385,  0.        ,  0.        ,  0.        ,  0.52111363],
       [-0.4738617 ,  0.        , -0.5107829 ,  0.4237376 , -0.        ,
         0.        , -0.3609624 ,  0.42111588, -0.20759931,  0.        ],
       [-0.        ,  0.79783934, -0.        , -0.        ,  0.48156732,
        -0.3832402 , -0.        , -0.40561554,  0.        , -0.        ],
       [-0.        , -0.        ,  0.52527106, -0.234346  , -0.        ,
        -0.2560186 ,  0.3584228 , -0.3269288 , -0.11025003, -0.34977722],
       [-0.        , -0.        , -0.        ,  0.65234494,  0.        ,
        -0.        ,  0.18878075, -0.63811535,  0.        , -0.25729197]],
      dtype=float32)
 array([-0.12779969,  0.22286303,  0.10552742, -0.04517902, -0.00148729,
        0.14688402, -0.01702775,  0.16739592, -0.29294235, -0.07217852],
      dtype=float32)]