FC Layer, 300 (Glorot Init.) Original_Weights[array([[-0.06170221, -0.02347309,  0.02390644, ...,  0.05211021,
         0.01832458,  0.02085805],
       [-0.03803515,  0.04837403, -0.04780634, ...,  0.03846326,
        -0.01884177,  0.05032701],
       [-0.02162942,  0.05176209,  0.04485385, ...,  0.04802458,
         0.02075189,  0.02110517],
       ...,
       [-0.03746157,  0.02320764,  0.0266584 , ..., -0.07152876,
        -0.00332908, -0.00812764],
       [-0.01621994,  0.07184547, -0.05139561, ...,  0.04299942,
         0.04090573, -0.06522521],
       [-0.05944026,  0.06178756, -0.06496299, ..., -0.03908258,
         0.01128622,  0.04020716]], dtype=float32)
 array([-1.38871027e-02, -6.35696352e-02,  9.10177231e-02,  3.11187878e-02,
       -1.42888412e-01,  2.54799752e-03, -1.63341239e-02, -1.04913116e-01,
       -1.91034049e-01,  8.47895890e-02, -8.26227441e-02,  1.14809245e-01,
        1.45215886e-02, -2.91244388e-02,  2.16951650e-02, -4.63488437e-02,
        4.83510718e-02,  5.33311022e-03, -1.60714418e-01, -2.16187979e-03,
       -6.36336654e-02, -5.83096705e-02,  1.34325936e-01,  1.13812476e-01,
        1.26136020e-01, -3.06334030e-02,  9.50105116e-02,  3.12600434e-02,
       -9.64610428e-02, -1.84322417e-01, -1.58571512e-01, -1.43675625e-01,
        5.17228730e-02, -7.67052919e-02, -1.90919284e-02,  2.21683666e-01,
        6.55783862e-02, -9.86769982e-03, -7.62965903e-02, -6.79717734e-02,
       -2.49908157e-02,  1.40685821e-02, -2.02721953e-01, -1.47113040e-01,
       -8.10348913e-02,  1.13573112e-01, -1.39559999e-01, -6.56344295e-02,
        6.14319891e-02, -6.13468736e-02, -1.27655402e-01,  7.27312639e-02,
        5.08983098e-02,  4.82833013e-02, -2.00738162e-01,  1.22159787e-01,
       -5.87772280e-02,  2.04838649e-03, -8.06144103e-02, -1.57649636e-01,
        1.25468984e-01, -1.60745010e-02,  5.23594767e-02, -5.66794127e-02,
        8.52286443e-02, -1.52003346e-03, -5.17034084e-02,  8.92458186e-02,
       -9.54289213e-02, -1.65512934e-01, -1.03183188e-01,  3.69806774e-02,
        1.56058073e-01,  1.13535836e-01, -1.02870371e-02,  8.65054503e-02,
       -3.21651287e-02,  5.57182394e-02,  8.10294822e-02,  6.81195632e-02,
       -1.31561570e-02,  1.24937236e-01, -1.73874736e-01,  5.90817444e-02,
        4.14883941e-02, -1.83785766e-01,  5.82854487e-02, -1.00310147e-01,
        9.46543831e-03,  7.54123330e-02, -8.52837637e-02, -1.00712568e-01,
        6.62416685e-03, -9.50989351e-02, -1.11400329e-01, -1.28479004e-01,
       -2.89941020e-02,  6.04632385e-02,  1.45701813e-02, -2.29906365e-02,
        1.18088245e-01,  4.01997715e-02,  9.50643942e-02,  2.01143585e-02,
        6.28699511e-02, -2.89568100e-02, -1.52187333e-01, -1.25423446e-01,
        7.79771507e-02,  2.31041200e-02,  8.06262046e-02,  1.03150189e-01,
       -1.18687106e-02, -1.85052350e-01,  1.20247364e-01,  5.53658009e-02,
       -3.59011777e-02,  1.33055747e-01,  9.43797082e-02,  4.19873334e-02,
       -1.20817326e-01, -8.44430551e-02,  1.11967988e-01, -7.82210194e-03,
       -6.56462312e-02,  1.21587187e-01, -3.06610949e-02, -2.28601798e-01,
       -6.19399846e-02, -6.59856014e-03,  2.02598553e-02,  4.92690653e-02,
       -2.19635628e-02,  1.41617954e-01,  2.43193991e-02,  2.05240864e-03,
       -2.28241965e-01,  3.78034264e-02,  8.97860155e-02, -1.11832857e-01,
       -6.25618100e-02, -1.69563353e-01,  2.59409267e-02, -2.21648753e-01,
       -9.81437936e-02,  1.97597936e-01,  2.22216602e-02, -6.61019012e-02,
        7.92813003e-02,  2.25086175e-02, -1.76290292e-02, -7.14787617e-02,
        7.30280280e-02,  2.49934513e-02, -5.91701409e-03, -7.63420686e-02,
       -6.74409717e-02, -1.21065617e-01, -1.69802383e-01,  1.65208414e-01,
       -1.68220937e-01,  7.28390515e-02, -6.78918511e-02, -6.34664372e-02,
        6.07866943e-02, -8.39118659e-02,  7.41486624e-02, -3.62781137e-02,
       -7.60738328e-02,  4.64952365e-03,  1.08083390e-01,  1.68180361e-01,
        5.18967882e-02, -9.45726931e-02,  2.37919707e-02,  2.01958176e-02,
        4.43029031e-02,  4.82267253e-02, -8.10533576e-03, -1.49413496e-01,
       -1.21948525e-01, -2.43786424e-01, -8.90743434e-02, -3.16455401e-03,
       -2.05787048e-02, -1.28359690e-01,  1.69696316e-01,  5.28433584e-02,
        2.15721149e-02,  2.51567475e-02,  7.22051859e-02,  6.31991029e-02,
        1.04324548e-02, -9.94441062e-02, -4.34025601e-02, -2.86261160e-02,
        1.87121704e-02, -8.65932629e-02,  1.29192263e-01, -7.72783207e-03,
        4.20689583e-03, -8.45395029e-03,  1.62988707e-01, -2.64279004e-02,
       -8.57697204e-02,  1.68519974e-01,  2.29743961e-02, -1.44777626e-01,
        7.63452649e-02,  1.53573096e-01, -8.00308958e-02,  2.92740148e-02,
       -6.71097040e-02, -1.71799287e-01,  1.79522812e-01, -6.69432878e-02,
       -1.94888845e-01,  7.20458701e-02,  1.09676823e-01, -2.12446600e-02,
       -8.76056701e-02, -5.65461330e-02,  1.11690305e-01, -1.74521580e-01,
       -6.59118071e-02, -2.06665695e-02, -1.09741002e-01,  8.71286690e-02,
        7.99107924e-02, -5.56891337e-02,  2.27002017e-02, -9.75711197e-02,
       -1.09491512e-01, -1.71553746e-01, -8.76621380e-02, -1.22068539e-01,
        7.74083883e-02, -1.28431469e-01,  2.58452743e-02,  9.54509452e-02,
       -1.45694196e-01, -1.28697511e-02, -1.92441832e-04, -5.64035438e-02,
        1.03779085e-01,  1.26420856e-02,  8.09335783e-02,  2.44342606e-04,
       -2.23461888e-03, -6.80877045e-02,  4.25709933e-02,  4.49285433e-02,
       -6.23501800e-02, -3.45940106e-02,  5.90567291e-03, -9.98712853e-02,
        1.30726948e-01, -3.53154577e-02,  7.45444819e-02,  1.72303677e-01,
        7.93697536e-02, -4.56347456e-03,  3.17435414e-02, -2.21810132e-01,
        1.43294469e-01,  9.48490798e-02, -8.23307317e-03, -2.40268055e-02,
       -4.05057855e-02,  2.68960983e-01, -8.31820369e-02,  2.76885051e-02,
       -6.85134456e-02, -4.98187579e-02, -7.32407421e-02,  1.10452518e-01,
        2.68553607e-02,  4.74362969e-02, -8.46245810e-02,  3.99040841e-02,
        7.35915005e-02,  9.61777791e-02, -7.25926384e-02, -1.31813318e-01,
       -2.38728640e-03,  2.00694725e-02,  2.46703532e-02, -2.10902635e-02,
       -2.99521778e-02, -3.64148878e-02, -3.75500545e-02, -2.70147435e-03,
       -7.35668093e-03, -1.64327770e-01, -5.52242808e-02,  6.06761128e-02,
       -6.51747594e-03,  1.48536026e-01,  5.95287196e-02,  7.15040639e-02],
      dtype=float32)]FC Layer, 100 (Glorot Init.) Original_Weights[array([[-0.30152905,  0.03403315, -0.01847383, ...,  0.06202244,
        -0.14035994, -0.07814915],
       [-0.14670824, -0.11991548, -0.14687265, ...,  0.11539178,
         0.40956268,  0.02261194],
       [ 0.07754031, -0.14735192, -0.02188714, ...,  0.16650155,
        -0.13957396, -0.12149972],
       ...,
       [ 0.16279857,  0.0304975 ,  0.14252734, ...,  0.19940665,
         0.20510568, -0.08497041],
       [ 0.12507561,  0.03257588,  0.17182316, ..., -0.03467323,
        -0.07074845,  0.32927826],
       [ 0.23819108,  0.10423616,  0.13455543, ..., -0.30297467,
        -0.05048401, -0.06919649]], dtype=float32)
 array([ 0.00041593, -0.0282424 ,  0.12630637,  0.09207485,  0.00453839,
       -0.02441519,  0.06028471,  0.02709027, -0.17782398,  0.04555231,
       -0.07320297,  0.02629184, -0.01628117,  0.21142052,  0.04917459,
        0.07136628, -0.14630169, -0.02649462,  0.06379505, -0.2716139 ,
        0.00479498, -0.06571608, -0.04956996, -0.1327547 ,  0.04950837,
       -0.02067506,  0.13037279,  0.0393355 , -0.03471177,  0.14788118,
        0.1589248 ,  0.02184547,  0.00444474, -0.00118738, -0.10036001,
       -0.06781216, -0.08260633,  0.05005525,  0.04916477, -0.01511492,
        0.0670113 ,  0.11886298, -0.11259562,  0.02661999,  0.14127597,
       -0.019023  , -0.08207602,  0.15207262, -0.14415303, -0.13645346,
       -0.06041628, -0.11384851,  0.05885504,  0.11647943,  0.03242751,
        0.01738962,  0.03180904,  0.00261147, -0.00280667,  0.04078729,
       -0.08260401,  0.02235157,  0.11343079,  0.02071283,  0.01304715,
        0.0741405 , -0.0125733 ,  0.13166381, -0.05836285, -0.1705011 ,
        0.03063477,  0.0741478 ,  0.03897885, -0.06746948, -0.14743485,
        0.05273619, -0.10796063, -0.02878198, -0.14397196,  0.00640971,
       -0.11477177,  0.08813412,  0.09347552, -0.00283052, -0.14038134,
        0.06597605,  0.10339002, -0.07100793, -0.10023463,  0.01053686,
       -0.14620839, -0.07488716,  0.15967146,  0.00757165,  0.09727392,
       -0.1533173 , -0.07369349, -0.06955411,  0.0324814 , -0.02383699],
      dtype=float32)]FC Layer, 10 (Softmax) Original_Weights[array([[-3.27332467e-01, -4.22755539e-01, -3.89898717e-01,
        -3.41771454e-01,  4.69937474e-02,  9.64203849e-02,
         3.69787633e-01,  2.71024197e-01,  1.58128038e-01,
         3.38273019e-01],
       [ 4.22605902e-01, -1.02849394e-01, -1.28916828e-02,
        -6.04759932e-01, -2.92569727e-01,  1.27763852e-01,
         5.16031384e-01,  7.13091567e-02,  4.29873228e-01,
         2.42966712e-01],
       [-1.17616720e-01,  2.02483132e-01,  3.45915593e-02,
        -5.69046251e-02,  5.56392729e-01,  1.57777578e-01,
        -1.26965448e-01,  5.39787352e-01, -8.29047710e-02,
        -5.55566967e-01],
       [ 3.36685926e-01,  3.40355754e-01,  5.38663149e-01,
        -1.94714203e-01, -9.98305902e-02,  4.04488176e-01,
         1.60072222e-01, -5.01932465e-02, -3.47292662e-01,
        -1.54820129e-01],
       [ 3.93372476e-01, -1.24438234e-01, -2.60343820e-01,
         2.65125245e-01, -1.97095916e-01,  3.34193647e-01,
         3.89381170e-01, -1.02288857e-01, -1.64047897e-01,
        -5.24966955e-01],
       [ 3.83913577e-01,  1.85524732e-01,  2.96115130e-01,
        -1.91827619e-03, -6.52905285e-01, -2.94152617e-01,
        -4.09896880e-01,  6.16984852e-02, -2.10459493e-02,
         5.30289650e-01],
       [-2.37441972e-01,  3.43134344e-01, -4.78511900e-01,
         3.73509288e-01, -2.98527390e-01, -1.71065569e-01,
        -5.97738087e-01,  3.82127017e-01, -2.65360236e-01,
         3.20086092e-01],
       [ 3.90043974e-01,  3.75644118e-01, -5.39532185e-01,
         1.55204639e-01, -2.46306062e-01,  1.22526482e-01,
        -8.21027160e-02,  3.05525154e-01,  3.59160304e-01,
        -4.01599348e-01],
       [ 4.99861091e-02,  1.00130234e-02, -3.57104748e-01,
         2.36613780e-01,  1.20847225e-01, -4.78976816e-01,
        -8.60957503e-02, -1.15834974e-01,  9.76321250e-02,
         3.71398896e-01],
       [-1.87007159e-01,  4.98465091e-01, -4.75124389e-01,
        -2.07917541e-01, -1.46141008e-01,  4.77765977e-01,
         3.93813282e-01,  2.42567956e-01, -3.80640388e-01,
         1.30965427e-01],
       [ 4.78159748e-02, -3.01571600e-02, -5.92285156e-01,
        -9.64545682e-02, -1.16791755e-01,  6.78137004e-01,
         6.11064613e-01, -3.98469001e-01,  3.19766887e-02,
         2.67299470e-02],
       [ 4.83709067e-01, -1.76604062e-01,  9.01102647e-03,
         1.94583163e-01,  4.63657416e-02,  7.47973919e-02,
         5.56562781e-01, -5.90152502e-01, -5.08792639e-01,
         3.44679564e-01],
       [-3.54528785e-01,  2.02350140e-01,  1.57784864e-01,
         4.07676578e-01,  6.11770093e-01, -5.29856086e-01,
        -2.84000635e-01, -3.68347049e-01, -2.49670669e-01,
         6.20093606e-02],
       [ 2.50052035e-01,  2.74369717e-01,  5.06381094e-01,
        -6.64258361e-01, -2.24264160e-01, -2.54930466e-01,
        -1.58222765e-02,  6.03157759e-01, -2.78255552e-01,
        -3.56849641e-01],
       [-1.74047872e-01,  4.76636231e-01,  2.04231739e-01,
         2.25097865e-01,  3.77869695e-01, -1.88018844e-01,
         3.69101375e-01,  2.67662138e-01,  2.37348098e-02,
        -4.45802867e-01],
       [-4.47098017e-01,  1.51235491e-01, -4.65631574e-01,
         3.64793032e-01,  3.38624448e-01,  9.60489362e-02,
        -4.42263126e-01,  3.71438950e-01,  1.70931462e-02,
        -2.07608432e-01],
       [ 2.12149764e-03, -5.12041092e-01, -9.56272930e-02,
        -2.26780772e-01,  3.89312714e-01, -2.02866718e-01,
         1.69402972e-01, -4.55467194e-01,  8.06974173e-02,
         5.03920078e-01],
       [ 1.06385119e-01, -4.39843148e-01,  5.59926987e-01,
        -3.28136384e-01, -2.93072648e-02,  9.19050276e-02,
        -1.83893323e-01,  1.37089379e-02,  1.31768927e-01,
        -9.59925726e-02],
       [-1.63100455e-02,  2.60402918e-01,  2.55699903e-01,
         4.42212760e-01, -1.67168617e-01, -4.26638186e-01,
        -4.94760454e-01,  1.13663055e-01, -3.79009187e-01,
         3.12060535e-01],
       [ 5.73160827e-01, -3.80450636e-01,  1.53914541e-01,
        -2.89942861e-01,  2.59331346e-01, -5.20820320e-01,
         1.28655508e-01, -3.70824546e-01,  5.61497688e-01,
         7.90979341e-02],
       [-1.59954336e-02, -4.40248102e-01, -2.39719376e-01,
         5.17160356e-01, -3.79151911e-01,  5.11613607e-01,
         5.63292690e-02, -2.81223118e-01, -3.27278078e-02,
        -1.38187811e-01],
       [ 3.61828089e-01,  2.46194914e-01,  1.64521471e-01,
        -2.43456870e-01, -3.15331310e-01, -3.43395889e-01,
         5.95133066e-01, -1.20820194e-01,  7.14899004e-02,
        -1.89156726e-01],
       [-1.68748081e-01, -2.61839002e-01,  5.22480011e-01,
         1.89295426e-01, -3.11758846e-01, -3.24497372e-02,
        -2.22489938e-01, -3.18128437e-01,  3.77360940e-01,
         3.27470541e-01],
       [ 2.68411189e-01, -2.00347528e-01, -2.24900246e-01,
         2.45492849e-02,  6.79950416e-02,  7.56933540e-03,
        -3.92470509e-01, -5.23801565e-01,  2.71076411e-01,
         1.21824466e-01],
       [ 3.73713136e-01, -3.46405774e-01, -1.48140728e-01,
         2.98811227e-01, -5.40412009e-01,  4.89675730e-01,
        -4.04401124e-02,  4.94863167e-02, -5.79729378e-01,
        -1.18327685e-01],
       [-4.36794192e-01,  8.15334916e-02,  2.71149248e-01,
         1.78745210e-01, -3.01323235e-01, -2.42321230e-02,
         5.27062297e-01, -5.12961030e-01,  4.05879408e-01,
        -1.78281933e-01],
       [-4.38049942e-01,  3.38332862e-01, -3.35097730e-01,
         4.37732041e-01, -8.98153409e-02,  3.09879541e-01,
        -4.25057083e-01,  7.06723258e-02, -5.30263305e-01,
        -3.98843735e-02],
       [-2.54150510e-01,  4.71333176e-01,  2.73956239e-01,
         3.28317359e-02,  1.82738662e-01,  3.36472243e-01,
        -2.71758795e-01,  2.78127611e-01,  3.81104052e-01,
        -6.54531837e-01],
       [-2.43889064e-01, -5.04977740e-02,  3.71573865e-01,
         5.76446593e-01, -1.78013176e-01, -3.78726982e-02,
        -2.09553018e-01, -1.52833059e-01,  5.10934055e-01,
        -5.10047257e-01],
       [ 3.23828533e-02, -3.68839316e-02,  5.43932617e-01,
        -2.72069931e-01,  8.31471011e-02, -6.31278679e-02,
         1.38833120e-01,  2.79231161e-01, -5.33602238e-01,
        -7.60915577e-02],
       [ 1.27137929e-01, -3.31402540e-01,  4.92407113e-01,
        -1.29399121e-01, -1.24560498e-01,  2.44854391e-02,
         1.11992463e-01,  4.78406250e-01, -4.84327108e-01,
        -2.98491657e-01],
       [-4.72931832e-01,  7.67942742e-02,  4.30780888e-01,
         7.49981627e-02,  5.33454239e-01, -9.69804358e-03,
         3.34067971e-01, -9.69237313e-02,  1.34479463e-01,
        -3.51918846e-01],
       [ 2.00856522e-01,  2.03818783e-01,  5.27466059e-01,
         3.35994244e-01,  4.74811912e-01, -7.08907068e-01,
        -2.50414312e-01,  4.55995798e-01, -2.94803232e-01,
        -2.87302583e-01],
       [ 2.63942719e-01, -2.33405322e-01, -1.45136073e-01,
        -1.62988737e-01, -2.60082752e-01,  1.32526845e-01,
        -1.69036254e-01,  6.79214895e-01, -1.03022039e-01,
        -4.97779250e-01],
       [ 5.61122119e-01,  6.57936931e-02, -2.50009429e-02,
         2.28877500e-01, -1.37164384e-01, -3.70108396e-01,
         2.02739969e-01,  5.43329157e-02,  2.90917605e-02,
        -3.90288085e-01],
       [-2.21025705e-01, -6.96272910e-01,  2.09144741e-01,
         8.68655220e-02, -5.75939059e-01,  2.55988449e-01,
        -2.49196455e-01,  2.63036013e-01,  6.31638527e-01,
        -2.25071888e-02],
       [ 5.18488288e-01,  1.59528494e-01,  1.56144544e-01,
        -2.99774081e-01, -3.41541678e-01,  1.21263281e-01,
         1.16552196e-01, -4.00396585e-01,  3.68528485e-01,
         6.30667806e-02],
       [ 2.69812346e-01, -3.81872505e-01, -1.73570186e-01,
         4.63288069e-01, -2.68393308e-01, -2.60973543e-01,
         2.02465519e-01,  3.02849591e-01, -2.98219264e-01,
         2.53173083e-01],
       [ 4.68893759e-02,  1.21539548e-01,  5.69635689e-01,
        -3.36804241e-01,  3.54687683e-02,  1.53330679e-03,
        -2.69891202e-01,  2.25489020e-01,  4.52738851e-02,
        -5.25573730e-01],
       [ 7.27645084e-02,  1.03246965e-01,  3.75792354e-01,
         5.17945170e-01,  6.98801428e-02,  3.00492197e-01,
         3.13174218e-01, -2.27854148e-01, -3.22844505e-01,
        -5.43478251e-01],
       [ 1.32662430e-01,  4.63160455e-01,  4.36490089e-01,
         3.53507161e-01, -2.43060395e-01, -3.43220770e-01,
        -3.94264907e-01,  1.38622344e-01, -3.34495366e-01,
         2.16403395e-01],
       [-8.51600766e-02, -3.37680340e-01, -4.06559497e-01,
        -3.62830073e-01, -1.24514706e-01,  8.60862494e-01,
         2.59852391e-02, -2.25724727e-01, -2.20792249e-01,
        -4.88043800e-02],
       [-1.37153238e-01, -2.44620100e-01, -3.23581338e-01,
         2.67405719e-01, -5.10279417e-01,  1.40427761e-02,
         2.82681644e-01, -2.51675606e-01,  6.64784849e-01,
        -4.47569370e-01],
       [-2.14590222e-01,  3.32441956e-01, -3.91310751e-01,
        -3.90908629e-01,  8.26763362e-03, -1.09940492e-01,
         4.61525023e-01,  8.48516151e-02, -1.87206045e-01,
         2.77394712e-01],
       [-5.22938430e-01,  3.46615672e-01,  2.93868959e-01,
         3.25179189e-01,  2.26781845e-01, -3.69714409e-01,
         1.29219815e-01,  3.19775164e-01, -3.00063848e-01,
        -2.97575831e-01],
       [-3.95856440e-01, -3.17693561e-01, -5.44389427e-01,
        -1.66590791e-02,  4.30615991e-01,  5.18703818e-01,
        -5.73215336e-02, -2.78102279e-01,  3.50459576e-01,
        -8.67449120e-02],
       [-2.61123508e-01, -6.57352626e-01,  2.75235295e-01,
         4.03416097e-01, -1.03654146e-01, -5.13385117e-01,
        -3.06574136e-01,  3.47684830e-01,  4.22488362e-01,
         3.62446755e-01],
       [-6.16005898e-01, -1.34605572e-01, -2.04639673e-01,
         3.11227947e-01,  1.18637942e-01,  3.01688761e-01,
        -6.48370385e-01,  5.56553662e-01, -2.17832327e-01,
         1.42480806e-01],
       [-1.43905595e-01, -2.25042969e-01, -4.77474630e-02,
        -1.42283767e-01, -1.26725227e-01, -2.60266691e-01,
        -1.35568818e-02, -5.53247511e-01,  4.38474417e-01,
         1.92244738e-01],
       [-1.34356171e-01,  1.84863880e-01, -1.72205806e-01,
         2.66575694e-01, -9.94739234e-02, -6.73159420e-01,
        -3.11809838e-01, -2.33523339e-01, -2.20078360e-02,
         1.09705351e-01],
       [-2.80259699e-01, -2.31101647e-01,  1.41333848e-01,
        -5.39128840e-01,  3.58311757e-02, -5.50898492e-01,
         2.66224891e-01,  1.88361242e-01,  5.48844576e-01,
        -1.03401914e-01],
       [ 7.41479546e-02, -6.04932010e-01,  3.96633118e-01,
         3.01069260e-01, -1.01522662e-01, -4.54914153e-01,
         1.29655942e-01,  4.72330868e-01,  3.76739115e-01,
        -1.39447093e-01],
       [-9.28358212e-02, -5.85803628e-01,  9.20868814e-02,
         4.66077812e-02,  1.86929479e-01,  5.87548196e-01,
         1.13893270e-01,  1.46843223e-02,  6.49180114e-02,
        -1.06504604e-01],
       [-7.82551408e-01,  4.76439238e-01,  7.56716609e-01,
        -1.36616752e-01, -2.94153541e-01,  4.08239901e-01,
        -2.28376970e-01,  2.83270597e-01,  3.62278745e-02,
        -3.33910733e-01],
       [ 3.74515094e-02,  3.42486501e-01,  1.70119852e-01,
         2.46283412e-01, -5.37335873e-01, -3.60626698e-01,
         4.61201072e-01,  5.65311134e-01, -2.10850403e-01,
        -2.14464962e-01],
       [ 1.39503099e-03, -3.95099103e-01, -1.33451328e-01,
         3.61150980e-01, -1.45181924e-01,  3.30915481e-01,
        -4.93942320e-01,  1.74822167e-01,  2.25409120e-01,
         8.34851190e-02],
       [-2.47364298e-01,  3.46742988e-01, -2.84162551e-01,
        -3.30897152e-01, -4.40800965e-01,  3.29091460e-01,
         2.08432272e-01,  2.55936950e-01,  4.10802841e-01,
        -2.93435186e-01],
       [-2.17000514e-01, -4.01788443e-01, -4.15647238e-01,
        -3.54684055e-01, -1.03844665e-01,  4.07023877e-01,
         5.21343052e-01, -3.84802729e-01,  3.82882625e-01,
         2.36167118e-01],
       [-1.67644829e-01, -5.24151027e-01, -3.82872045e-01,
         3.11557144e-01, -4.68900084e-01, -4.50723581e-02,
         2.45266743e-02,  3.23144644e-01, -3.63022268e-01,
         2.74202943e-01],
       [ 5.72394393e-02, -3.01108211e-01,  4.62044328e-01,
        -1.04592033e-01, -2.61190832e-01,  1.47757098e-01,
        -1.84271652e-02,  4.76127654e-01, -2.18172908e-01,
        -6.21730804e-01],
       [ 5.47598839e-01,  3.61776501e-01,  4.32322115e-01,
        -2.55439162e-01,  1.24190509e-01, -3.70109022e-01,
         2.63485342e-01,  2.86648590e-02,  3.54148626e-01,
        -1.85860097e-01],
       [-4.79671955e-01, -3.22130978e-01, -4.25054848e-01,
        -2.47300401e-01,  4.54631627e-01,  4.51229155e-01,
        -1.69347227e-01,  4.21791673e-01,  1.50480449e-01,
         2.80802101e-01],
       [-4.92519319e-01,  5.46056628e-01,  3.14026684e-01,
         8.16349834e-02, -1.07330240e-01,  1.75106764e-01,
        -5.79497337e-01, -3.33331466e-01, -1.68421417e-02,
        -2.70103931e-01],
       [-6.20581061e-02,  1.05879985e-01, -3.12650144e-01,
         3.62047195e-01,  4.77901071e-01, -3.02989900e-01,
        -2.73532957e-01,  9.37005952e-02, -6.50878131e-01,
         5.02595007e-01],
       [-1.97681516e-01, -5.26621938e-01,  1.81851879e-01,
         4.03207131e-02,  3.44823331e-01, -2.54994631e-01,
         6.32995367e-02,  3.52028280e-01, -4.48084921e-01,
        -1.66537136e-01],
       [-2.71214217e-01,  1.96002349e-01,  4.58238542e-01,
         3.71920615e-02, -4.54146594e-01,  5.65193951e-01,
        -3.04540873e-01, -4.48408335e-01, -4.23200652e-02,
         3.45723420e-01],
       [-3.23009402e-01, -3.42681378e-01, -3.50259453e-01,
        -2.21589163e-01, -7.07806274e-02, -8.95630792e-02,
        -3.53399754e-01, -4.18972746e-02,  4.90913361e-01,
         1.78107977e-01],
       [-2.71524817e-01,  3.51167083e-01,  4.83243942e-01,
         8.61683413e-02, -2.38495290e-01,  4.75868106e-01,
        -4.96314168e-01, -4.04780991e-02, -3.79486918e-01,
        -1.89813882e-01],
       [ 7.48987436e-01,  3.51092368e-01, -3.45303804e-01,
        -3.42516035e-01, -2.84372061e-01, -3.00074697e-01,
        -2.49042198e-01,  3.11060160e-01,  2.02522993e-01,
         1.15853352e-02],
       [ 3.18171322e-01, -4.50416565e-01, -1.23022750e-01,
         3.24909806e-01, -6.85827374e-01, -3.20821524e-01,
         2.58050621e-01, -5.77397227e-01,  2.34676480e-01,
         1.33204699e-01],
       [-1.06069505e-01, -1.18906192e-01,  1.18560754e-01,
        -2.17435330e-01,  3.96891654e-01,  4.42310959e-01,
        -3.19854051e-01, -3.71447235e-01, -2.17794299e-01,
        -2.98667073e-01],
       [ 3.31629127e-01,  8.34944844e-02,  3.44176978e-01,
        -6.49021149e-01,  9.93324071e-02, -5.63736558e-01,
         3.75807613e-01,  4.83429521e-01,  5.45461595e-01,
        -5.91263711e-01],
       [ 1.66382581e-01, -3.44200969e-01,  2.70288140e-01,
         3.53013188e-01, -8.87610763e-02,  3.15487385e-01,
        -4.97467697e-01, -5.34082711e-01, -2.77030051e-01,
         5.08340538e-01],
       [-7.01374635e-02, -5.53709030e-01, -4.86711562e-01,
         4.31490660e-01,  3.93765010e-02,  2.26526901e-01,
         8.22677761e-02, -5.43986797e-01,  3.07561129e-01,
         3.66810784e-02],
       [ 3.62048209e-01,  1.08713165e-01,  1.12991914e-01,
        -4.82271701e-01,  2.52754390e-01,  4.30047810e-02,
         5.37342072e-01, -3.92572492e-01,  3.61588389e-01,
         3.17544900e-02],
       [-2.34188989e-01,  8.54650289e-02, -2.60951668e-01,
        -5.67311764e-01,  5.78582227e-01, -1.12592816e-01,
        -1.03998996e-01,  2.04959348e-01, -3.64453107e-01,
         4.91789073e-01],
       [ 4.36446778e-02, -2.14524329e-01, -2.80925781e-01,
        -3.97957355e-01, -3.54667045e-02, -5.38196802e-01,
        -2.66227666e-02,  5.06521344e-01,  3.61849457e-01,
         2.82082945e-01],
       [-3.78316734e-04, -5.21395206e-01,  4.21453536e-01,
        -9.53175053e-02,  5.61377048e-01,  2.92604268e-01,
         4.29578543e-01, -5.39615043e-02,  2.43338523e-03,
        -4.59690362e-01],
       [ 4.85935003e-01, -3.42993528e-01, -1.85083240e-01,
         8.74594301e-02, -6.68054700e-01, -5.13402671e-02,
         1.80116631e-02, -1.99237987e-01,  5.18642783e-01,
        -2.39102036e-01],
       [-2.25122161e-02, -2.01115429e-01, -6.46527588e-01,
         1.73987567e-01,  3.20502609e-01,  1.48926526e-01,
         5.99887781e-02,  4.72869515e-01,  3.34252790e-03,
        -7.24549079e-03],
       [ 2.51863748e-01, -3.56489837e-01,  2.84077495e-01,
        -2.75982887e-01,  3.43941152e-01, -6.12245977e-01,
        -3.04009259e-01,  3.79676700e-01, -3.25650834e-02,
         1.10286877e-01],
       [ 1.46639004e-01, -2.68234849e-01,  3.76121759e-01,
         3.97124588e-01,  4.59203720e-01, -1.51446298e-01,
        -4.20059264e-01,  8.05529431e-02, -2.67953366e-01,
        -3.69567752e-01],
       [-3.72215062e-01, -3.65692005e-03, -1.74626743e-03,
        -5.85330203e-02,  7.09142387e-02,  3.80220175e-01,
        -7.29491949e-01,  5.86144328e-01,  3.14979255e-01,
        -1.80734858e-01],
       [ 2.42017340e-02, -2.30610549e-01,  1.49723738e-01,
        -3.90132815e-01, -1.80646241e-01,  3.02975297e-01,
         5.77426493e-01, -3.38868469e-01, -7.84746185e-02,
         1.69898525e-01],
       [-3.43003571e-01, -2.57571012e-01,  2.25624502e-01,
         8.48145112e-02,  3.10756713e-01,  2.77394801e-01,
        -6.06507957e-01, -2.87542850e-01,  6.81700826e-01,
        -1.45629361e-01],
       [-2.78376162e-01,  4.54883486e-01,  1.78973779e-01,
        -3.50017011e-01, -2.78405935e-01,  1.23462141e-01,
         4.71560359e-01, -8.54572188e-03, -1.09442279e-01,
        -1.46393031e-02],
       [-4.39024478e-01,  3.25648516e-01, -1.24582097e-01,
         4.57240313e-01, -2.41562650e-01,  5.58082573e-02,
         2.80459642e-01,  3.95075530e-01, -1.07428864e-01,
        -5.43202698e-01],
       [-4.69224527e-02, -4.26830232e-01, -7.46446103e-02,
         3.55364680e-01,  2.51170635e-01, -2.58673161e-01,
        -6.30180001e-01,  5.68303406e-01, -1.06805757e-01,
         2.63427854e-01],
       [ 2.82592982e-01, -5.15936255e-01, -2.46235788e-01,
         2.24752367e-01, -6.17844403e-01, -8.03076401e-02,
         1.88638896e-01,  5.39811790e-01,  1.91307679e-01,
        -9.16218758e-02],
       [-5.92428297e-02,  2.12144762e-01, -3.15935761e-01,
        -2.66199820e-02,  6.57434314e-02,  4.16755229e-01,
        -1.25403926e-01, -2.70761341e-01,  1.41800523e-01,
        -5.21347642e-01],
       [-2.90266842e-01,  2.99512483e-02,  5.61883926e-01,
        -9.64903533e-02,  2.38726392e-01, -7.75063574e-01,
        -3.53705108e-01, -1.36321887e-01,  5.50727606e-01,
         2.06143305e-01],
       [ 2.44707555e-01,  7.99491286e-01, -3.70468736e-01,
        -2.00559005e-01,  6.40731812e-01, -3.12373966e-01,
         3.32323387e-02, -2.13928238e-01,  2.56347400e-03,
        -4.37419564e-01],
       [ 1.46106645e-01,  1.91085473e-01, -5.99139094e-01,
        -4.73427176e-01,  4.93298501e-01,  4.97917891e-01,
        -1.09197073e-01,  1.22278761e-02, -5.70882618e-01,
        -1.16415903e-01],
       [-6.08933091e-01,  2.46870041e-01, -5.72746992e-01,
         5.57486236e-01,  4.62411195e-02,  3.15403938e-01,
         3.23327810e-01, -3.31474453e-01,  1.50531530e-01,
         6.63946941e-02],
       [ 1.97527155e-01, -6.04052603e-01, -5.60714304e-01,
         1.63542807e-01,  5.71087115e-02,  3.90305459e-01,
        -2.80686826e-01, -2.30901614e-01, -6.74244583e-01,
         4.83092725e-01],
       [ 4.65275913e-01, -1.88290983e-01, -4.16155130e-01,
        -2.15693042e-02,  5.17066896e-01, -1.05694875e-01,
         6.97963476e-01, -3.29288185e-01,  1.24807335e-01,
        -5.04684567e-01],
       [-3.01273435e-01, -3.91563363e-02,  1.80996507e-01,
         5.14636934e-01,  1.63583070e-01, -1.79009363e-01,
        -6.09678682e-03,  3.00481111e-01,  4.41805661e-01,
        -4.35506195e-01],
       [ 5.62411487e-01, -2.36319616e-01, -3.68200004e-01,
        -1.70952991e-01,  4.27907616e-01, -5.85500240e-01,
        -4.70853746e-01, -7.73211777e-01,  4.33157831e-01,
         3.70815903e-01],
       [-1.78790808e-01,  1.76018804e-01,  1.37445629e-01,
         4.99512792e-01, -6.21013880e-01,  5.56688845e-01,
         9.87550989e-02, -2.67064512e-01,  1.39678568e-01,
        -4.93704304e-02],
       [ 3.26154411e-01,  1.22611813e-01, -5.64825296e-01,
         1.38964757e-01, -3.65282953e-01,  4.16633427e-01,
        -1.44101530e-01,  1.49884894e-01,  4.42297697e-01,
         1.08949989e-01]], dtype=float32)
 array([-0.11793785,  0.21129243,  0.07704467, -0.00126386, -0.04876354,
        0.14240319, -0.03478451,  0.19501586, -0.30388272, -0.05825494],
      dtype=float32)]