FC Layer, 300 (Glorot Init.) Original_Weights[array([[ 0.06812921,  0.        ,  0.        , ..., -0.        ,
         0.        ,  0.        ],
       [ 0.03370968, -0.        , -0.        , ..., -0.04248241,
         0.        , -0.04065768],
       [ 0.05752833,  0.        , -0.03934428, ..., -0.        ,
        -0.        , -0.        ],
       ...,
       [ 0.03569245,  0.        , -0.06137045, ...,  0.        ,
         0.04515614,  0.        ],
       [ 0.05301665, -0.04368319, -0.        , ...,  0.        ,
         0.        , -0.        ],
       [-0.04747194, -0.06624366, -0.0671228 , ..., -0.        ,
        -0.03192266, -0.        ]], dtype=float32)
 array([-0.00306866, -0.02797393,  0.08617137,  0.06584825, -0.11937322,
       -0.05592933,  0.12242569,  0.04027731,  0.05801057,  0.06732392,
        0.06180272, -0.03595341,  0.12147764,  0.02457166,  0.05887531,
        0.1075435 ,  0.01759144, -0.2461251 , -0.06837955,  0.13381791,
       -0.02028281, -0.09734683, -0.02918159,  0.033309  ,  0.2067581 ,
       -0.07674196,  0.00091982, -0.0035451 ,  0.03960669, -0.05055054,
       -0.00663209,  0.04922074, -0.01484489, -0.10394932, -0.01360188,
        0.15910466,  0.06056656,  0.03962133,  0.01794549, -0.14725056,
       -0.08339273, -0.15300281, -0.03412792, -0.13622598, -0.09296963,
       -0.05213148,  0.13626291, -0.18197575, -0.16667585,  0.13558836,
       -0.02406132,  0.00381803,  0.14206475, -0.03285281, -0.03848125,
        0.06298736,  0.1373425 , -0.06727304,  0.05157808,  0.08986969,
        0.03513997, -0.09008248,  0.01741724,  0.147682  ,  0.11374063,
       -0.18980561,  0.19757119,  0.03749018,  0.11397298,  0.09697335,
       -0.18067336, -0.1242966 , -0.01873721, -0.06281916,  0.16070788,
        0.09289818,  0.01812936,  0.01398591, -0.00976008,  0.09547337,
        0.07490793, -0.0169284 ,  0.12504518,  0.1376761 ,  0.01773342,
        0.17408694, -0.09272767,  0.06751136, -0.08338967, -0.16071206,
        0.07681652,  0.03361289,  0.03800865,  0.13847527,  0.04875472,
       -0.14625658, -0.10522316,  0.16090453,  0.07025524,  0.05580555,
       -0.17336471,  0.05726357,  0.12593105, -0.05766514,  0.02965976,
       -0.0071348 , -0.1077233 , -0.04651156, -0.03284674,  0.02582215,
       -0.06757578,  0.1536868 ,  0.23187122, -0.01315285,  0.20782904,
        0.02610269,  0.09371734, -0.12161257,  0.00741304, -0.02340707,
       -0.01734882, -0.13712676,  0.07146053,  0.06766947, -0.09311841,
        0.19312628, -0.10753623,  0.2828338 , -0.15878771, -0.05629921,
       -0.05990648,  0.05874147,  0.1193769 ,  0.08597673,  0.14148237,
        0.17566203, -0.08268026,  0.04472449,  0.00986208, -0.11904883,
       -0.13352805, -0.12855121,  0.01064649,  0.06834369,  0.0511826 ,
        0.07803951, -0.0197428 , -0.16664341, -0.10768725,  0.11303096,
        0.06291019,  0.05301829,  0.01591923,  0.19910152, -0.15475325,
        0.11599057, -0.08362891,  0.07021093, -0.01277857,  0.04715666,
       -0.13184592, -0.13033636, -0.11893566,  0.01817363, -0.14066578,
       -0.2598892 ,  0.03700007,  0.06309611, -0.03613058, -0.01262804,
       -0.0727388 ,  0.0691728 , -0.11215169, -0.01822557,  0.02510812,
        0.12804137,  0.02474627,  0.12126591, -0.04423834, -0.05923266,
        0.13419423, -0.00194707,  0.08190492,  0.12200306, -0.09519418,
        0.10350331,  0.06156513, -0.05549967,  0.16783234, -0.00458679,
       -0.0587609 ,  0.05435928,  0.12661561, -0.01184885, -0.07690564,
        0.02243359, -0.06272746,  0.11452496,  0.25083727,  0.0617027 ,
        0.00968252,  0.01592156, -0.03735466,  0.10597822, -0.12200341,
       -0.06193703,  0.1027548 ,  0.02620785, -0.09510908, -0.06007461,
       -0.01893538, -0.03812107,  0.10039017, -0.14065008,  0.00210144,
       -0.01455086,  0.01865332, -0.0988814 , -0.07526258,  0.05719321,
       -0.14769231,  0.22200145, -0.17278723,  0.06617732, -0.04578231,
        0.01115589, -0.06831019, -0.06052243, -0.1495039 , -0.05547229,
       -0.13330485,  0.00783995,  0.06463086, -0.0009976 ,  0.06504733,
        0.02893391,  0.15242565, -0.05680683, -0.05568908, -0.14907359,
        0.06095912,  0.14031303, -0.02657184, -0.26102456, -0.1011141 ,
        0.0241103 ,  0.03586568,  0.06784172,  0.0307593 , -0.00291667,
        0.13611923,  0.21062589, -0.13560078,  0.07495034, -0.05223011,
        0.0437789 ,  0.15802933,  0.2256482 ,  0.0176189 ,  0.04804064,
       -0.11199083, -0.09354845,  0.11911729, -0.06898827,  0.00734372,
       -0.18138757,  0.13132046, -0.17247397, -0.1548039 ,  0.18917646,
       -0.09309566, -0.05731636, -0.01351067, -0.05890629, -0.07632464,
       -0.02387869,  0.01486247,  0.17062064,  0.10297682,  0.00651577,
       -0.12996155, -0.10803586,  0.1165648 , -0.10549355,  0.04847791,
       -0.03730593, -0.03767011,  0.0318154 ,  0.26525593,  0.03710401,
        0.07343887,  0.00052295,  0.0676179 , -0.15022218,  0.09888404,
        0.00529981, -0.11326044, -0.00791667, -0.00394571,  0.18099077],
      dtype=float32)]FC Layer, 100 (Glorot Init.) Original_Weights[array([[ 0.43244672, -0.12679195,  0.01168315, ...,  0.09254831,
        -0.02904691, -0.        ],
       [ 0.04451874, -0.19718964, -0.23811246, ..., -0.        ,
         0.18064454, -0.25391906],
       [-0.32796603,  0.22393404, -0.1704225 , ..., -0.06738853,
         0.03394891,  0.        ],
       ...,
       [ 0.17186204,  0.        , -0.        , ...,  0.26845625,
         0.06458229,  0.27547708],
       [ 0.07009147, -0.06463865, -0.06383753, ..., -0.        ,
        -0.03129451,  0.03125948],
       [-0.00346944,  0.2764115 ,  0.12025053, ...,  0.03034446,
        -0.19126803,  0.07836297]], dtype=float32)
 array([ 0.00806525,  0.01145666,  0.08404295, -0.03844105,  0.0192194 ,
        0.13009296, -0.02948054,  0.04241735, -0.17285202, -0.11199944,
       -0.00999844, -0.05376983,  0.21427676,  0.11674477, -0.00127701,
       -0.1062289 ,  0.10010789, -0.03938003,  0.225506  ,  0.04249474,
        0.04690429,  0.05176149,  0.18468723, -0.19359274,  0.13032892,
        0.1399633 , -0.02221536, -0.1228555 , -0.09052029, -0.10412565,
        0.11229406,  0.01421792, -0.09766445, -0.04762574,  0.0868903 ,
       -0.02321352, -0.08681014, -0.08986118, -0.02885407,  0.05971022,
       -0.17128654, -0.02561503, -0.07686374, -0.01557051, -0.04403252,
        0.01573963,  0.06386235,  0.16025427, -0.08510428, -0.01622909,
       -0.12612791, -0.10255595,  0.0791738 , -0.18704523,  0.05257612,
        0.17739034, -0.03573729, -0.10009886,  0.08118539,  0.01954318,
        0.08895972,  0.0717746 , -0.01051888,  0.00677914,  0.02727532,
        0.00335033, -0.02171896,  0.15858185, -0.11825976,  0.05120097,
       -0.03383409,  0.03411705, -0.01187594, -0.01818112, -0.09006262,
       -0.0603451 , -0.00608746, -0.02847007, -0.13309672, -0.02001829,
        0.08175046, -0.15664282,  0.02690389,  0.10840674,  0.05582885,
       -0.03769222,  0.02003209, -0.05119456, -0.01007981,  0.07990619,
       -0.11320344, -0.00729731, -0.10146468,  0.13210648,  0.06283344,
       -0.09057231,  0.00522856, -0.06063153, -0.06116064, -0.02566151],
      dtype=float32)]FC Layer, 10 (Softmax) Original_Weights[array([[ 1.41554967e-01,  4.62117553e-01, -3.78458709e-01,
        -1.04420528e-01, -2.74806648e-01, -3.30509484e-01,
        -3.33892018e-01,  1.81769997e-01,  0.00000000e+00,
         4.60302562e-01],
       [ 6.58183247e-02, -0.00000000e+00, -5.97324073e-01,
        -3.44261616e-01,  2.59270072e-01,  7.95896709e-01,
         3.82074475e-01, -7.24360943e-02, -3.81935567e-01,
         2.38453373e-01],
       [-6.71966076e-02, -4.31647822e-02, -4.69067365e-01,
         1.21366931e-02,  1.90067708e-01,  4.10629101e-02,
        -1.69766709e-01,  5.12539446e-01, -2.57681847e-01,
         2.09462270e-01],
       [ 2.54148692e-01, -2.07398564e-01,  6.28170013e-01,
        -4.27787840e-01,  2.07983166e-01, -5.01208663e-01,
        -2.65535891e-01,  4.92726326e-01,  7.32133687e-02,
        -1.35248348e-01],
       [-1.92714557e-01, -0.00000000e+00, -2.26536512e-01,
        -4.13109154e-01, -1.10970207e-01, -2.63462931e-01,
         1.82930976e-01,  4.33870494e-01, -2.38590106e-01,
         4.03374523e-01],
       [-1.46235943e-01,  3.29310268e-01,  1.21898659e-01,
        -0.00000000e+00,  2.66226143e-01,  6.14212215e-01,
        -5.92238963e-01, -1.90935075e-01, -3.15841705e-01,
         3.60725708e-02],
       [ 0.00000000e+00,  3.74394864e-01, -3.69123399e-01,
        -6.78601682e-01, -1.93034142e-01,  5.02763450e-01,
         5.18675923e-01, -2.43666157e-01,  2.19661012e-01,
        -1.70443431e-01],
       [-3.38364154e-01,  3.18335772e-01,  2.23171651e-01,
         2.64062524e-01, -4.06701952e-01,  3.50010753e-01,
        -3.23622197e-01, -7.40947723e-01, -0.00000000e+00,
        -0.00000000e+00],
       [-0.00000000e+00, -2.35260546e-01, -6.00434899e-01,
         4.61591512e-01,  9.28049088e-02,  1.67678565e-01,
         1.69829845e-01, -4.86518532e-01,  4.88408953e-01,
         8.90311152e-02],
       [ 3.41214389e-01,  2.92779326e-01, -5.36134429e-02,
         1.16456524e-01, -3.63908947e-01, -9.72282887e-02,
         5.62209487e-01, -3.83996606e-01,  2.31283888e-01,
        -5.67767844e-02],
       [-1.80393189e-01,  3.19371402e-01,  1.38986155e-01,
        -2.35127449e-01,  6.02316223e-02, -5.11427045e-01,
        -4.47236240e-01,  2.66632259e-01,  1.06796816e-01,
         1.26245528e-01],
       [ 3.54674846e-01, -1.96947396e-01, -1.16030976e-01,
         1.30135730e-01, -2.58514553e-01,  0.00000000e+00,
         4.44523871e-01, -0.00000000e+00, -1.02283545e-01,
         6.91146264e-03],
       [-7.30180502e-01,  0.00000000e+00,  6.85196146e-02,
         3.20213467e-01,  2.58864552e-01,  3.78338367e-01,
        -1.51174858e-01, -0.00000000e+00, -3.67790759e-01,
        -7.86889717e-02],
       [ 6.90661445e-02, -2.70144105e-01,  3.57050091e-01,
         5.71514666e-01,  1.11974232e-01,  1.13648906e-01,
        -3.90970707e-01,  2.89311111e-01, -3.35102469e-01,
        -1.46364987e-01],
       [-4.72325057e-01, -3.17725450e-01,  5.32274187e-01,
         1.06289312e-01,  6.02208376e-01, -1.08493254e-01,
         1.49424538e-01, -1.55441329e-01, -7.30703995e-02,
        -4.29194748e-01],
       [ 1.92521527e-01, -5.34628928e-01,  2.87022829e-01,
        -0.00000000e+00,  1.00003062e-02, -3.13000709e-01,
        -0.00000000e+00, -3.76185328e-02,  4.56809193e-01,
        -4.01690274e-01],
       [ 1.78766534e-01,  2.71837085e-01, -0.00000000e+00,
        -5.27578950e-01,  4.18709544e-03, -4.49070871e-01,
         2.55791456e-01,  2.83086419e-01, -2.22011000e-01,
         1.00028351e-01],
       [-1.16729073e-01,  2.15723008e-01, -3.65447067e-02,
         3.98373604e-01, -5.85729599e-01, -5.70806980e-01,
        -7.50531852e-02, -4.55381989e-01,  1.47903217e-02,
         3.56808066e-01],
       [-2.92247891e-01, -5.53155541e-02, -2.85670370e-01,
         2.43376605e-02,  2.38974467e-01,  8.59406870e-03,
        -4.12105955e-02,  5.13671756e-01, -6.24413550e-01,
         0.00000000e+00],
       [ 5.95231116e-01, -3.68667156e-01, -1.55470908e-01,
         1.05306804e-01, -5.82847483e-02, -2.84042329e-01,
         5.22315800e-01,  3.29621553e-01, -5.19683897e-01,
        -3.58360380e-01],
       [-4.26922083e-01,  1.11270763e-01, -2.50316948e-01,
         2.85644770e-01, -1.14750139e-01, -4.18852508e-01,
        -2.35748172e-01,  1.94355577e-01, -3.31964642e-01,
        -1.68626383e-01],
       [-2.70291895e-01,  3.85467887e-01, -5.08863807e-01,
        -1.33663807e-02, -0.00000000e+00, -1.18958808e-01,
         4.44540024e-01, -4.56757657e-02,  2.12184042e-01,
         2.58408546e-01],
       [-8.02511156e-01,  2.74544448e-01,  6.84184313e-01,
        -3.10144871e-01,  0.00000000e+00,  3.32424253e-01,
        -1.25347778e-01,  3.53735417e-01, -1.91268697e-01,
        -3.86023551e-01],
       [-2.30017547e-02, -5.61530113e-01,  2.39147082e-01,
        -1.69980094e-01,  4.51755285e-01, -2.30899245e-01,
         1.12271965e-01, -1.51176006e-01, -2.56362140e-01,
         4.20575023e-01],
       [-3.56742680e-01,  4.19209659e-01, -3.47641855e-01,
         6.58764914e-02, -0.00000000e+00,  2.03188822e-01,
        -2.47927427e-01,  5.72417617e-01,  2.91144282e-01,
        -4.68252897e-01],
       [-7.50540555e-01,  2.27336049e-01,  1.31613165e-01,
        -1.95962831e-01,  8.45956877e-02,  1.69447750e-01,
        -3.50182235e-01,  2.98335850e-02, -2.94344187e-01,
         5.25886714e-01],
       [-1.34922221e-01, -0.00000000e+00, -1.81600854e-01,
        -5.84019840e-01,  6.50794208e-01,  5.38961403e-02,
         0.00000000e+00, -5.31417549e-01,  5.70504703e-02,
        -7.60359168e-02],
       [-0.00000000e+00, -5.15527368e-01, -5.69424152e-01,
         3.24746728e-01,  3.62479150e-01,  0.00000000e+00,
         2.03077216e-02,  1.73473850e-01,  4.55323130e-01,
        -3.73286903e-02],
       [ 3.42328221e-01, -2.84036160e-01, -2.50370294e-01,
        -3.58895689e-01,  3.35835397e-01,  4.10337336e-02,
        -2.77730912e-01, -4.18993384e-01,  1.66293442e-01,
         4.38891262e-01],
       [-0.00000000e+00, -4.49340910e-01, -3.51604000e-02,
         3.34663123e-01, -1.98531553e-01, -3.27241421e-01,
        -0.00000000e+00, -0.00000000e+00,  3.78457963e-01,
         0.00000000e+00],
       [-2.35076323e-01,  1.84036687e-01,  1.77935138e-01,
        -7.29570631e-03,  4.04206254e-02, -2.47488588e-01,
         0.00000000e+00,  5.85470080e-01, -5.24731159e-01,
        -3.12026024e-01],
       [-3.96399140e-01, -2.62912214e-01, -3.21527988e-01,
        -1.93122685e-01,  4.88935709e-01,  4.69956577e-01,
        -3.58688474e-01, -2.38428682e-01, -3.73652667e-01,
         4.72793609e-01],
       [ 3.22477460e-01, -6.50919318e-01, -5.31456888e-01,
         4.78587985e-01, -2.10977048e-01,  3.33376527e-02,
        -9.73896012e-02,  1.74492002e-01,  2.47437730e-01,
        -2.20705315e-01],
       [ 7.47856945e-02, -5.13440788e-01,  7.60466278e-01,
        -1.66359246e-01, -0.00000000e+00, -2.63959080e-01,
        -5.07203043e-01, -2.93057948e-01,  4.01090145e-01,
         1.16700120e-01],
       [ 2.62333006e-01,  9.64363366e-02,  1.77314907e-01,
        -1.60914674e-01, -4.51004922e-01, -4.21995670e-01,
         2.65598744e-01,  2.96618879e-01,  9.94844586e-02,
        -4.50501978e-01],
       [ 4.51179683e-01,  8.47557038e-02, -5.75756072e-04,
        -3.91154110e-01,  0.00000000e+00, -4.40618366e-01,
         6.49055839e-01, -4.71162587e-01, -4.45990562e-01,
         0.00000000e+00],
       [ 4.83060122e-01, -3.48110318e-01, -2.21260056e-01,
        -4.13664162e-01, -5.51033653e-02,  3.70286219e-02,
         6.29512548e-01, -3.59429657e-01,  2.97914922e-01,
        -2.23318204e-01],
       [ 5.99082947e-01, -3.74099523e-01,  2.75115147e-02,
         1.76207826e-01, -2.65540421e-01,  1.15128830e-01,
         6.39293790e-01, -4.84333158e-01, -2.90917903e-01,
         0.00000000e+00],
       [-1.13628723e-01,  7.99949348e-01,  4.61176068e-01,
         1.67539001e-01,  2.85870079e-02, -2.79700100e-01,
        -2.51952242e-02,  4.81449187e-01,  1.59916952e-01,
        -5.47528088e-01],
       [ 1.38794789e-02,  6.80450141e-01, -3.59874427e-01,
         2.59564281e-01,  2.90185586e-02, -7.31888786e-02,
         2.07821742e-01,  9.59977601e-03, -1.53127834e-01,
        -1.92195475e-01],
       [ 2.12326929e-01, -4.79571283e-01,  4.56001818e-01,
         4.26963985e-01,  6.32033288e-01, -7.27776468e-01,
        -4.68680233e-01,  1.70187317e-02,  1.76022023e-01,
         1.53361946e-01],
       [ 1.44349113e-01,  0.00000000e+00, -5.39236426e-01,
        -2.48640284e-01,  4.59255964e-01,  5.63502550e-01,
         3.25542629e-01,  1.60595812e-02,  3.07272226e-01,
        -3.86405200e-01],
       [ 3.07690650e-02, -3.83138835e-01,  5.46119869e-01,
        -1.91931516e-01,  5.80666542e-01, -2.96104401e-01,
         2.07964405e-01, -2.07559362e-01, -1.95259303e-01,
        -8.33655968e-02],
       [-3.14294159e-01, -2.08348662e-01, -2.53280640e-01,
        -4.40126747e-01, -8.31627905e-01,  8.68074536e-01,
         5.76162517e-01, -8.91558826e-03, -1.31974995e-01,
         2.39038080e-01],
       [ 4.26038802e-01, -1.39590368e-01, -3.28878641e-01,
        -0.00000000e+00, -6.21240795e-01,  2.62921363e-01,
         4.19178605e-02, -0.00000000e+00,  2.83411354e-01,
         5.78907728e-01],
       [-4.90737319e-01, -4.78995115e-01,  0.00000000e+00,
         6.94586635e-02,  1.71425223e-01, -3.75561208e-01,
        -5.64181209e-01,  4.04538155e-01, -1.21656895e-01,
         0.00000000e+00],
       [ 4.06065673e-01, -4.06693339e-01, -4.78544831e-01,
        -1.08366959e-01,  0.00000000e+00,  0.00000000e+00,
        -0.00000000e+00, -6.72785416e-02, -2.35421866e-01,
         3.78210008e-01],
       [ 1.85687110e-01,  1.66053057e-01,  4.19334263e-01,
        -5.84621906e-01,  0.00000000e+00, -3.45042974e-01,
        -1.25308245e-01,  4.51175541e-01, -3.98784399e-01,
        -1.91313714e-01],
       [-5.66251338e-01,  3.66050303e-01, -2.61212289e-02,
         3.25923353e-01, -0.00000000e+00, -1.29282149e-02,
        -1.57688513e-01,  4.66889031e-02,  4.07887518e-01,
        -4.50361818e-01],
       [-2.05096200e-01,  3.56528163e-01, -0.00000000e+00,
         8.03600997e-02, -5.16112089e-01,  3.56309600e-02,
         2.43243769e-01,  1.35106057e-01,  4.01723891e-01,
        -1.64394647e-01],
       [ 3.06338251e-01, -1.25732511e-01, -0.00000000e+00,
        -4.11875576e-01, -3.38346511e-01,  1.64358243e-01,
         4.01201040e-01, -3.51058275e-01,  1.69554472e-01,
        -0.00000000e+00],
       [ 5.63247725e-02, -0.00000000e+00,  5.51909328e-01,
         8.69298130e-02, -4.58340883e-01, -0.00000000e+00,
        -2.80943990e-01,  0.00000000e+00,  4.00781423e-01,
        -2.60702342e-01],
       [ 1.11421004e-01,  3.47373039e-01, -5.86919248e-01,
         6.53779507e-02, -6.71498151e-03,  4.66490805e-01,
         3.19533437e-01,  2.98794180e-01, -4.22060192e-01,
        -7.73694590e-02],
       [-0.00000000e+00, -2.21322641e-01,  2.61657536e-01,
        -4.84461874e-01,  2.54433453e-01, -6.18334293e-01,
         1.27802491e-01, -5.85212171e-01,  3.72862667e-01,
         1.73938319e-01],
       [ 3.87539715e-01,  2.45363593e-01, -0.00000000e+00,
        -8.58646557e-02, -7.45750129e-01,  2.80690730e-01,
        -5.95763862e-01,  1.10107429e-01, -7.29332119e-03,
         3.27337742e-01],
       [ 2.49845251e-01, -3.05931240e-01, -0.00000000e+00,
         1.33938074e-01,  0.00000000e+00,  6.93095565e-01,
         5.59442341e-01, -0.00000000e+00, -1.27501100e-01,
        -2.55385727e-01],
       [-2.16419958e-02,  5.26185870e-01, -3.64413083e-01,
        -1.45233810e-01,  3.32443208e-01, -3.32606077e-01,
         0.00000000e+00, -2.11186796e-01,  0.00000000e+00,
         1.71176121e-01],
       [-1.76087499e-01, -3.42791885e-01, -3.67573649e-01,
        -4.77165312e-01,  2.46168658e-01,  0.00000000e+00,
        -0.00000000e+00, -3.54602516e-01,  3.27906162e-01,
         9.76973325e-02],
       [-3.63158174e-02,  1.02915764e-01,  2.28871688e-01,
        -5.68932742e-02,  3.63453597e-01,  2.86699235e-01,
        -4.51281130e-01, -3.26793760e-01,  6.99170530e-02,
        -1.23224229e-01],
       [-2.70685196e-01,  3.38791192e-01,  9.57357585e-02,
        -3.04622233e-01, -2.33856529e-01, -1.83744237e-01,
         4.81181949e-01,  3.20620596e-01,  2.26814821e-01,
        -5.04723549e-01],
       [ 3.04519832e-01, -0.00000000e+00,  3.95763665e-01,
        -0.00000000e+00, -3.93748820e-01,  6.18760645e-01,
         1.86101794e-01, -2.35977948e-01, -0.00000000e+00,
         0.00000000e+00],
       [ 2.42583811e-01,  5.79535887e-02, -2.31054664e-01,
        -3.78764659e-01,  3.24324399e-01,  2.69871414e-01,
         0.00000000e+00,  4.78829056e-01, -4.81100678e-02,
         3.09262667e-02],
       [-1.01653427e-01,  1.57558277e-01,  4.16185200e-01,
        -2.38280624e-01, -1.69647276e-01,  2.58513808e-01,
        -0.00000000e+00, -4.46754903e-01,  6.12389982e-01,
        -5.24220943e-01],
       [ 5.96004605e-01, -4.13970083e-01,  8.08463767e-02,
         0.00000000e+00,  2.05334902e-01,  3.68727967e-02,
        -4.19168383e-01, -5.38811274e-03, -2.25148752e-01,
         5.43661416e-01],
       [ 0.00000000e+00, -5.50764024e-01,  4.13732111e-01,
        -3.11042219e-01,  0.00000000e+00,  2.29545504e-01,
         3.27526450e-01, -5.59391379e-01, -2.16833875e-01,
         3.90973575e-02],
       [ 3.36782157e-01,  4.10425574e-01,  1.13240585e-01,
        -5.15035748e-01, -2.45035455e-01, -3.01605493e-01,
         5.92686892e-01,  2.78478153e-02,  1.24589048e-01,
        -1.67641953e-01],
       [-3.66044939e-01, -3.57944459e-01,  6.02318227e-01,
        -0.00000000e+00, -2.92883188e-01,  2.34541044e-01,
        -0.00000000e+00, -3.39676917e-01,  5.91953918e-02,
         4.49638993e-01],
       [-9.95523408e-02,  3.08567137e-01, -3.95961076e-01,
        -1.51820378e-02, -9.54096168e-02,  6.51232600e-01,
        -3.13504398e-01,  2.69380033e-01, -3.50405276e-01,
        -2.04208449e-01],
       [ 6.67089596e-02, -2.41302922e-01,  1.65640324e-01,
        -3.37794065e-01, -4.51487154e-01, -3.47066492e-01,
        -2.14294657e-01, -7.66798705e-02,  3.46034557e-01,
         6.08234465e-01],
       [ 3.98752570e-01,  3.56112033e-01, -2.61649668e-01,
         2.50161916e-01, -2.76762426e-01, -1.09972402e-01,
        -3.48864406e-01,  5.81959546e-01,  0.00000000e+00,
        -5.43967843e-01],
       [-4.57233302e-02,  3.88006657e-01, -2.09970251e-01,
        -3.76850814e-01, -3.49281617e-02, -2.69983917e-01,
         5.43981254e-01, -2.72974432e-01, -1.35232866e-01,
        -2.65801698e-01],
       [ 1.97378203e-01,  3.36801440e-01, -3.47011268e-01,
         2.39144057e-01, -4.19029832e-01,  5.93345463e-01,
        -1.68560982e-01, -5.01228988e-01, -4.25890684e-01,
         0.00000000e+00],
       [ 8.64191413e-01, -2.18967542e-01,  2.18102753e-01,
        -5.86152971e-01, -9.11193043e-02, -1.26337275e-01,
        -4.08360362e-01, -0.00000000e+00, -1.75643831e-01,
         4.08815116e-01],
       [ 2.67986000e-01,  1.05125196e-01,  2.60008335e-01,
         5.15234292e-01, -1.01147488e-01, -2.08953649e-01,
        -5.71384072e-01, -0.00000000e+00, -2.63509840e-01,
        -2.69321591e-01],
       [ 2.43494228e-01, -1.83174163e-01, -4.36343372e-01,
        -2.50218570e-01,  4.41195935e-01, -4.30812746e-01,
         1.59109771e-01, -4.85811830e-01,  4.86255497e-01,
         5.89891851e-01],
       [ 4.93091226e-01, -1.29487889e-04, -2.50338078e-01,
         1.07384495e-01, -0.00000000e+00, -4.09905016e-01,
         3.58015180e-01,  3.35754395e-01,  3.74918312e-01,
        -2.83522487e-01],
       [-0.00000000e+00, -2.08186209e-01, -3.69446874e-01,
        -5.67669988e-01,  2.69908369e-01, -4.56672192e-01,
         3.24954629e-01,  3.26572001e-01,  4.47939396e-01,
         0.00000000e+00],
       [ 3.39481115e-01, -2.84987181e-01,  4.95484263e-01,
         8.78831893e-02,  1.18821025e-01, -0.00000000e+00,
        -2.42466137e-01,  0.00000000e+00, -2.35864952e-01,
         2.19206795e-01],
       [-4.08387214e-01, -5.29290497e-01, -0.00000000e+00,
        -0.00000000e+00, -6.15586996e-01, -3.38945270e-01,
        -8.74626115e-02, -4.32732143e-02,  4.57864136e-01,
         2.98351645e-01],
       [ 3.27855023e-03,  7.18838990e-01,  1.22648537e-01,
        -1.51653290e-01,  3.82178903e-01, -3.41619611e-01,
        -2.76890136e-02, -0.00000000e+00,  2.82200336e-01,
        -2.42909983e-01],
       [ 5.68440482e-02, -1.13577778e-02,  6.97684228e-01,
        -2.61526614e-01, -1.06835425e-01, -4.25727338e-01,
         2.48348545e-02,  5.13938963e-01, -2.08525747e-01,
        -2.54045069e-01],
       [ 0.00000000e+00,  3.36427212e-01,  3.53157341e-01,
        -9.33881551e-02, -3.42895895e-01, -5.05386233e-01,
         2.06971318e-01, -3.00520957e-01,  4.05519903e-01,
        -4.89086322e-02],
       [-6.26742721e-01,  3.40792686e-01, -2.84341007e-01,
         5.03960967e-01,  1.10903442e-01,  1.04635909e-01,
         5.72744668e-01,  6.08879291e-02,  7.69706219e-02,
        -5.13734758e-01],
       [-1.18504792e-01,  2.36046493e-01, -1.45984650e-01,
        -2.64162958e-01, -1.34392846e-02,  4.67921585e-01,
        -4.59554732e-01,  5.19100130e-01, -7.30174556e-02,
         0.00000000e+00],
       [-1.21970937e-01, -3.10401112e-01, -1.03614725e-01,
         6.22565389e-01, -3.24836731e-01,  3.96256655e-01,
         3.64500016e-01, -3.34028482e-01, -1.04058854e-01,
        -1.71558708e-01],
       [ 3.61212343e-03, -5.58208585e-01, -3.25133115e-01,
         3.13366592e-01,  2.43478239e-01, -5.10652125e-01,
         1.25642970e-01,  1.62107274e-01,  2.23508328e-01,
         1.50795519e-01],
       [-1.33019030e-01,  2.94181287e-01, -6.30779713e-02,
         4.30554271e-01,  0.00000000e+00, -6.12454534e-01,
        -4.01311964e-01,  2.39632756e-01, -3.37307155e-01,
         8.58541876e-02],
       [ 1.33672357e-01, -0.00000000e+00,  5.36373794e-01,
        -4.90066171e-01,  4.19738203e-01, -1.84324101e-01,
        -4.46239144e-01,  5.27571701e-02,  3.81191462e-01,
         2.92877201e-02],
       [-2.58580297e-01, -5.42087674e-01, -2.08879471e-01,
         3.47084463e-01,  8.31449479e-02,  1.56260252e-01,
        -3.00164700e-01,  1.78943381e-01,  0.00000000e+00,
         3.33912045e-01],
       [-7.49397755e-01,  2.13340431e-01, -5.46034038e-01,
         3.57654780e-01, -0.00000000e+00,  4.43318039e-01,
         8.56112689e-02, -5.07977784e-01, -0.00000000e+00,
         3.38973790e-01],
       [ 3.17939520e-01,  0.00000000e+00,  1.97899118e-01,
        -4.40238982e-01, -2.76180923e-01,  0.00000000e+00,
        -0.00000000e+00, -5.74372709e-01,  4.65171188e-01,
        -2.80932456e-01],
       [ 3.77402574e-01,  6.05684444e-02,  5.46295464e-01,
        -1.19454555e-01, -1.51157185e-01, -0.00000000e+00,
         2.19452120e-02,  0.00000000e+00, -2.36277312e-01,
        -4.49866384e-01],
       [ 4.08926187e-03, -4.87670004e-01, -2.70383418e-01,
         0.00000000e+00, -7.54019141e-01, -1.11614071e-01,
        -2.74974644e-01,  3.22619826e-01,  3.79139692e-01,
         5.89810967e-01],
       [-6.29639477e-02,  0.00000000e+00,  1.91237167e-01,
        -1.72037870e-01, -5.76864891e-02,  2.86726415e-01,
         3.74539465e-01, -2.35376000e-01, -2.70798624e-01,
         0.00000000e+00],
       [-8.28362554e-02, -4.34111416e-01,  1.72595724e-01,
         3.36611092e-01, -4.35719609e-01, -1.53132930e-01,
        -5.98393738e-01, -2.26877242e-01, -1.78899452e-01,
         5.53665340e-01],
       [ 6.60710096e-01, -8.34497139e-02, -2.24489067e-02,
         2.46623889e-01, -2.66331911e-01, -2.77191013e-01,
         0.00000000e+00, -0.00000000e+00, -5.19646257e-02,
         2.71446019e-01],
       [-2.77099699e-01, -7.69595876e-02, -2.76221693e-01,
         3.89131278e-01, -2.44583964e-01, -3.83747399e-01,
        -3.17186028e-01,  3.68119895e-01, -2.49028131e-01,
        -1.01237083e-02],
       [ 0.00000000e+00,  5.11959136e-01, -5.27024604e-02,
         2.37504914e-01,  3.49490881e-01, -3.76068026e-01,
        -1.70130767e-02, -3.08783680e-01,  1.02137044e-01,
        -0.00000000e+00],
       [ 3.24286908e-01, -1.26035456e-02,  4.85488713e-01,
        -4.02246922e-01,  1.46432117e-01, -4.15859550e-01,
         4.58510637e-01, -3.89812082e-01, -1.56127661e-01,
        -1.72610193e-01],
       [ 8.17749277e-02,  6.91420510e-02,  1.12026772e-02,
         5.87559283e-01,  3.14915106e-02,  1.47873208e-01,
         9.54584554e-02, -3.97163808e-01, -0.00000000e+00,
        -3.63464892e-01]], dtype=float32)
 array([-1.04702488e-01,  2.35679299e-01,  7.45485350e-02,  2.12467887e-04,
        1.83495842e-02,  1.23053156e-01, -5.31689357e-03,  1.49414361e-01,
       -3.15270990e-01, -4.28457186e-02], dtype=float32)]