FC Layer, 300 (Glorot Init.) Original_Weights[array([[ 0.06812921,  0.03127486,  0.02412889, ..., -0.00488689,
         0.00098122,  0.00379469],
       [ 0.03370968, -0.00439493, -0.01763973, ..., -0.04248241,
         0.01906567, -0.04065768],
       [ 0.05752833,  0.00116158, -0.03934428, ..., -0.00697951,
        -0.0079958 , -0.00369097],
       ...,
       [ 0.03569245,  0.02246359, -0.06137045, ...,  0.02152923,
         0.04515614,  0.02422436],
       [ 0.05301665, -0.04368319, -0.01177651, ...,  0.00050718,
         0.00916705, -0.01215804],
       [-0.04747194, -0.06624366, -0.0671228 , ..., -0.01155939,
        -0.03192266, -0.01754811]], dtype=float32)
 array([ 0.03909701, -0.01695507, -0.01163809,  0.08549495, -0.1310758 ,
       -0.05073178,  0.0708234 , -0.08292641,  0.10507354,  0.1952085 ,
       -0.07172042,  0.06822215, -0.01994323,  0.12380719,  0.01718784,
        0.03407139,  0.01549995, -0.02680026,  0.00181131,  0.03797218,
       -0.03380587, -0.01375116,  0.0707052 ,  0.06025541,  0.092733  ,
       -0.07660434,  0.05278051,  0.04673404,  0.06484845,  0.10803553,
        0.07709859,  0.03531234,  0.11242165, -0.07150017, -0.04059777,
        0.10194155,  0.02017114,  0.10766876,  0.05208688, -0.07215425,
        0.12439563,  0.29454723, -0.08989927,  0.04522807, -0.14903991,
       -0.00430178,  0.14268608, -0.02248259,  0.08819292,  0.16643561,
        0.0362331 , -0.0673719 ,  0.15100713,  0.04592248, -0.18305948,
       -0.08626365,  0.05849019,  0.03083572,  0.05529233,  0.0531688 ,
        0.0550082 , -0.11436541,  0.03392671,  0.09510039, -0.02267813,
       -0.09840489,  0.05307271,  0.16775563,  0.20782568,  0.15108386,
       -0.13040084, -0.12172152, -0.03102009, -0.01611484,  0.08542061,
       -0.05990367,  0.07281092, -0.07084504,  0.11690522, -0.03856927,
        0.10410843, -0.11903069,  0.22703053, -0.01978377, -0.12129887,
        0.12732422,  0.15530722,  0.14369394, -0.10435484, -0.16030815,
       -0.03850193, -0.02719828, -0.02192933,  0.0958829 ,  0.08004805,
        0.08270381, -0.1277316 ,  0.12763646, -0.05981076, -0.1097118 ,
       -0.20335554,  0.05800221,  0.20837332, -0.12704587, -0.03227387,
       -0.082358  ,  0.02943728, -0.05927932, -0.01873689,  0.09624499,
        0.04410587,  0.14308806, -0.03758293,  0.12565303, -0.09276781,
       -0.01252116, -0.00514624, -0.11684345,  0.08464967, -0.00227661,
        0.02956697, -0.10682557,  0.00499373,  0.08856297,  0.00983509,
        0.00823969, -0.14785044,  0.23794755,  0.11063518, -0.04176884,
       -0.06920639, -0.02509164, -0.15350306,  0.12794921, -0.03004473,
        0.18239887, -0.06193058,  0.1464401 ,  0.11495437, -0.03864352,
       -0.06763707, -0.1252882 , -0.1579507 ,  0.16347657,  0.0959098 ,
        0.11887626, -0.00391058, -0.03925387, -0.12583   , -0.02796014,
       -0.06564149, -0.00719575,  0.10270329,  0.09526616, -0.11111891,
        0.0639068 , -0.10920342, -0.045136  ,  0.03956389,  0.0945095 ,
        0.04527579, -0.33201587, -0.12875967,  0.07829566,  0.15117148,
       -0.10427455, -0.11569331,  0.06201371,  0.0362371 , -0.00654672,
       -0.17524773, -0.05547848, -0.01189584, -0.01998235,  0.04043341,
        0.07273142,  0.07718807, -0.0076993 , -0.02547272, -0.17649998,
        0.05812437,  0.14321308,  0.0762153 ,  0.03764789, -0.00934234,
        0.20031372, -0.03187585, -0.05012406,  0.14960884,  0.15721737,
        0.07661477, -0.06134441,  0.16387568, -0.11405238, -0.0307863 ,
       -0.15945993, -0.06769827,  0.18750894,  0.0610314 ,  0.07660422,
       -0.03755945,  0.02296199,  0.06762438, -0.05934646,  0.01902775,
        0.0269585 ,  0.150186  ,  0.03589996, -0.03584723,  0.12321571,
       -0.08820886,  0.08471205,  0.21059197,  0.09156372,  0.06505587,
        0.00521366,  0.01970676, -0.15240175,  0.12922041,  0.00932905,
       -0.13153137,  0.16071804, -0.02233766, -0.0006922 ,  0.06295892,
        0.06210666, -0.13172731, -0.11027486, -0.23786615,  0.06970261,
        0.03352459, -0.03586393,  0.05496918, -0.1049426 ,  0.01855566,
        0.07935503,  0.17122349,  0.00660153,  0.09070382, -0.04493626,
        0.16312349,  0.09943324, -0.05404349, -0.1922586 , -0.03374928,
        0.12273303,  0.07123519,  0.02888687, -0.025282  , -0.05945069,
        0.19337127, -0.09500396, -0.06600267,  0.01554092,  0.00666029,
        0.04636724,  0.1624605 ,  0.14831547,  0.14516445,  0.04816722,
       -0.03485711,  0.05298413,  0.1644344 , -0.04793783, -0.10386111,
       -0.0849012 , -0.00399584, -0.10123955, -0.16706173,  0.29249173,
       -0.03578735, -0.12574297, -0.0102689 ,  0.00873301, -0.10701943,
        0.07623744,  0.09911373,  0.04118073,  0.03702764, -0.06585322,
       -0.16775331,  0.03816107,  0.12256051,  0.05162345, -0.0263035 ,
       -0.08500937,  0.09448772, -0.06338377,  0.23216237, -0.1218092 ,
       -0.0562599 , -0.09553194, -0.06957923,  0.06463151, -0.10214012,
        0.05455803, -0.06404836,  0.11209714, -0.08746872,  0.01792578],
      dtype=float32)]FC Layer, 100 (Glorot Init.) Original_Weights[array([[ 9.8524339e-02, -4.9264370e-03,  1.6473840e-01, ...,
        -1.7421213e-01, -2.2829048e-01,  1.2337173e-01],
       [ 3.2084405e-02,  9.1078850e-03, -1.5388592e-01, ...,
        -8.9895487e-02,  1.8333179e-01, -3.3644846e-01],
       [-9.1956317e-02,  1.6704425e-01, -9.8735794e-02, ...,
         3.5927352e-02,  1.9536190e-01, -1.5563923e-01],
       ...,
       [ 2.5620043e-01,  2.1779755e-01, -7.4178495e-02, ...,
         3.4028494e-01,  1.8212115e-05, -2.6159286e-01],
       [ 1.5164278e-01,  1.3268821e-01,  1.8644951e-01, ...,
        -4.1243132e-02, -2.9321498e-01, -3.8769159e-01],
       [-4.4213079e-02,  9.3019001e-02,  3.6331239e-01, ...,
         1.7529128e-01, -1.3213634e-01, -1.4623517e-01]], dtype=float32)
 array([ 0.00391715,  0.17414266,  0.14091963,  0.03388675,  0.00443142,
        0.09442625, -0.07644799, -0.1755268 , -0.21478772, -0.12123184,
       -0.09490418, -0.00121684,  0.18961862,  0.13836627,  0.06577797,
       -0.16103894,  0.06366131, -0.08110289,  0.22970581, -0.01597194,
        0.04171588,  0.01886755,  0.14512148, -0.18625277,  0.01813208,
        0.09638064,  0.05450319, -0.11882304, -0.12994696, -0.11143938,
        0.12764694,  0.09226909, -0.08073255, -0.18078506,  0.03365169,
       -0.07418575, -0.14441527, -0.04528169, -0.04592878,  0.10723963,
       -0.08616589, -0.09389369, -0.08340427,  0.0258978 , -0.0325705 ,
       -0.02460753,  0.02600561,  0.00962339, -0.0217324 ,  0.06885454,
       -0.16232002, -0.07099479, -0.01214835, -0.1347851 ,  0.07716037,
        0.02355898, -0.09416068, -0.11318301,  0.0011986 , -0.01348931,
        0.03829428,  0.07648519,  0.03629776,  0.03494697, -0.05130176,
       -0.00641855,  0.03594203,  0.18257688, -0.08814646,  0.10261768,
       -0.08147977,  0.10045096, -0.01310731, -0.02524002, -0.05581755,
       -0.12955329, -0.11631998, -0.05935499, -0.18312941, -0.10320305,
       -0.0099944 , -0.12382204,  0.07617465,  0.01311761,  0.03690851,
       -0.0352691 ,  0.01358708, -0.04489344,  0.01776707, -0.02059173,
       -0.11590403,  0.00797968,  0.02572656,  0.13074283,  0.07661647,
       -0.04267447,  0.00260337, -0.09042627, -0.08826537, -0.07231791],
      dtype=float32)]FC Layer, 10 (Softmax) Original_Weights[array([[ 4.22125518e-01,  4.54013675e-01, -2.59933650e-01,
        -3.58569950e-01, -3.08315933e-01, -2.15360388e-01,
        -3.31736773e-01,  2.33577952e-01,  1.02145717e-01,
         2.04352260e-01],
       [ 1.94603086e-01,  1.05883695e-01, -4.94830579e-01,
        -3.29972923e-01,  2.99746275e-01,  4.29821074e-01,
         3.13302398e-01, -3.47688287e-01, -3.15399587e-01,
         3.78721774e-01],
       [-3.92739594e-01,  2.35041335e-01, -4.03658181e-01,
         3.52379054e-01,  2.95395792e-01, -2.13749502e-02,
        -2.23461881e-01,  5.91453254e-01, -3.16495419e-01,
        -1.23194516e-01],
       [ 2.97156006e-01, -1.93607509e-01,  6.87331617e-01,
        -1.39985189e-01,  8.09225366e-02, -6.16105676e-01,
        -1.44018307e-01,  5.85489452e-01, -5.02083264e-02,
        -3.60619038e-01],
       [-6.63379654e-02, -2.04573691e-01, -1.52891636e-01,
        -4.10759419e-01, -4.79034364e-01, -1.37573883e-01,
         3.10329974e-01,  1.41868427e-01, -1.70845613e-01,
         4.80418593e-01],
       [-1.84353083e-01,  2.84483910e-01, -3.31422151e-03,
         3.32510114e-01,  7.55834132e-02,  5.63502252e-01,
        -4.18127447e-01, -4.33932483e-01, -4.33983207e-01,
         2.71500707e-01],
       [-5.65234125e-02,  3.65961581e-01, -3.75702083e-01,
        -5.36134720e-01,  4.49015200e-02,  3.29711914e-01,
         3.26654017e-01, -4.43424702e-01,  3.67374837e-01,
        -1.41791716e-01],
       [-6.56971335e-01,  5.47755845e-02,  1.96087465e-01,
         1.09293170e-01,  1.78299010e-01,  7.65282959e-02,
        -6.14953339e-01, -7.04208910e-01,  5.87064981e-01,
         3.98925319e-02],
       [-6.37184596e-03, -4.09824461e-01, -5.07448137e-01,
         6.28989935e-01, -2.55900472e-01,  1.66220278e-01,
         5.16712844e-01, -3.83211583e-01,  6.06314898e-01,
        -1.16792887e-01],
       [ 3.78916740e-01,  2.23289609e-01, -3.50960642e-01,
         3.52267295e-01, -1.66491836e-01, -1.88939556e-01,
         5.10938406e-01, -3.36557120e-01,  5.28645851e-02,
         2.77495962e-02],
       [ 1.51650116e-01,  1.80174738e-01,  4.98544350e-02,
        -2.75004566e-01, -2.89898030e-02, -5.37534952e-01,
        -4.73192394e-01,  3.15998122e-02,  1.77356273e-01,
         4.25528795e-01],
       [ 1.14031374e-01, -1.71912715e-01, -5.99046759e-02,
        -1.09156899e-01, -1.45284146e-01, -2.66061395e-01,
         1.35444790e-01,  7.32395470e-01,  2.35169962e-01,
        -2.55480736e-01],
       [-6.39177084e-01,  1.87702745e-01,  3.04499239e-01,
         1.31292403e-01,  8.19966793e-02,  3.15300018e-01,
        -7.49752522e-02, -1.84198320e-02, -4.19538051e-01,
         5.57351336e-02],
       [ 2.04950988e-01, -6.69219792e-02,  4.89608586e-01,
         4.49471623e-01, -1.74595281e-01,  1.20498918e-01,
        -4.34996128e-01,  2.52851993e-01, -4.47605371e-01,
        -6.22411855e-02],
       [-4.51736748e-01, -5.61079569e-02,  4.10761297e-01,
        -6.37277439e-02,  5.34201145e-01, -1.45404279e-01,
         1.72441065e-01, -4.13726866e-02, -1.28128260e-01,
        -3.66114289e-01],
       [ 5.44366658e-01, -4.83816415e-01,  5.53211749e-01,
        -8.74455869e-02, -1.31847575e-01, -4.44366574e-01,
         8.72160122e-02, -3.40075642e-01,  3.60990971e-01,
        -1.69478774e-01],
       [ 3.49506080e-01,  2.79705495e-01,  1.96854532e-01,
        -6.27758682e-01, -1.68024451e-01, -4.80441183e-01,
         1.79960489e-01,  2.85441786e-01, -1.69472396e-01,
         3.57135803e-01],
       [-5.98386601e-02,  3.63991708e-01, -1.05518416e-01,
         3.09595376e-01, -5.64407229e-01, -6.98393822e-01,
        -1.95962757e-01, -1.47038698e-01,  4.83762175e-02,
         2.77691633e-01],
       [-5.21377563e-01,  2.27579251e-01, -4.56180513e-01,
         3.63376625e-02,  3.21443021e-01,  7.85561651e-02,
         1.71387017e-01,  3.95139992e-01, -6.77744806e-01,
        -1.09973811e-01],
       [ 3.14894795e-01, -4.36542302e-01, -2.63246864e-01,
         4.64709699e-02,  6.42739013e-02, -3.09217840e-01,
         5.09202540e-01,  2.95505196e-01, -3.71427178e-01,
        -1.76610559e-01],
       [-4.61892396e-01,  3.26137275e-01, -3.22284460e-01,
         1.67671770e-01, -9.44262594e-02, -5.55014431e-01,
         5.30353040e-02,  1.89128935e-01, -2.63594210e-01,
        -1.81780279e-01],
       [ 8.00126046e-02,  4.08078372e-01, -6.49173617e-01,
        -2.16980219e-01, -8.76171514e-02,  1.61063820e-01,
         4.99005705e-01, -1.37600839e-01,  2.29037613e-01,
         3.18896204e-01],
       [-6.17366850e-01,  2.58032918e-01,  7.41792321e-01,
        -2.41300359e-01, -1.52405158e-01,  2.57449090e-01,
        -1.88081637e-01,  2.71852791e-01, -4.59520012e-01,
        -3.09125662e-01],
       [-1.27080217e-01, -6.27864182e-01,  2.34750569e-01,
        -2.53896445e-01,  3.88233513e-01, -4.38766956e-01,
         9.29989964e-02, -2.06724733e-01,  8.75965953e-02,
         5.56270301e-01],
       [-1.81280136e-01,  3.95700514e-01, -1.28038064e-01,
        -3.59363854e-01,  4.04754430e-01,  2.08614275e-01,
        -6.00609519e-02,  3.82102609e-01, -1.16677955e-02,
        -3.08278829e-01],
       [-6.65982723e-01,  2.12542027e-01,  1.41045541e-01,
        -9.86741260e-02,  6.25983253e-02,  1.24021947e-01,
        -3.61870885e-01, -6.67164624e-02, -3.20814162e-01,
         5.92293441e-01],
       [-5.78319058e-02,  2.17626337e-02,  6.90973178e-03,
        -3.61249030e-01,  4.22371179e-01,  1.82417586e-01,
         8.56101885e-02, -4.68416035e-01, -1.09659865e-01,
        -1.60231158e-01],
       [-1.02590621e-01, -4.47448254e-01, -4.12721187e-01,
         5.36888599e-01,  3.24713856e-01,  1.48967415e-01,
         1.10633872e-01,  1.06894329e-01,  5.08028448e-01,
        -3.07125449e-01],
       [ 1.78944662e-01, -4.26139981e-01, -4.21655238e-01,
        -6.08052433e-01,  6.09800160e-01,  2.63450414e-01,
        -2.59686410e-01, -3.40093732e-01,  3.16648006e-01,
         4.21915442e-01],
       [ 1.81725562e-01, -5.76008022e-01, -3.04633342e-02,
         1.01002596e-01, -2.79508561e-01, -1.56813055e-01,
        -1.75411001e-01,  3.17385882e-01,  6.15829051e-01,
        -1.82294160e-01],
       [-2.61213750e-01,  1.45778924e-01,  2.31109098e-01,
         1.72994629e-01,  9.53172520e-02, -4.38760817e-01,
         8.94442052e-02,  6.22023463e-01, -5.03600657e-01,
        -3.67278129e-01],
       [-2.76645809e-01,  7.07262829e-02, -5.24804950e-01,
        -3.18552524e-01,  5.70189118e-01,  4.89308834e-01,
        -3.13798606e-01, -3.40503633e-01, -5.64352751e-01,
         4.82955962e-01],
       [ 3.85354906e-01, -6.46558344e-01, -5.84338248e-01,
         4.19757158e-01, -3.65830094e-01,  1.07254032e-02,
        -1.24694772e-01,  3.14811736e-01,  9.97006223e-02,
         1.13724750e-02],
       [ 2.59307414e-01, -3.81854951e-01,  5.19021988e-01,
        -2.17746302e-01, -1.28570929e-01, -3.40901554e-01,
        -3.02292526e-01, -2.42088050e-01,  4.35752392e-01,
        -7.20251277e-02],
       [ 5.02262652e-01,  2.41528481e-01,  9.46359411e-02,
        -2.20644906e-01, -9.53455567e-02, -5.46489358e-01,
         2.30791181e-01,  3.57873201e-01, -1.70964286e-01,
        -4.41162914e-01],
       [ 3.64212781e-01,  1.48395583e-01,  3.01685333e-01,
        -2.21772626e-01, -3.89492959e-02, -5.03812134e-01,
         4.24787104e-01, -4.66998190e-01, -5.28292358e-01,
         1.60367236e-01],
       [ 4.20547605e-01, -3.91041130e-01, -2.09009781e-01,
        -3.91696185e-01, -3.32419537e-02,  8.37310478e-02,
         5.39917409e-01, -2.05762222e-01,  1.73436612e-01,
        -2.68701255e-01],
       [ 1.55390546e-01, -5.24339259e-01,  9.85497683e-02,
         4.04652923e-01, -3.19124192e-01,  2.52052575e-01,
         7.32824504e-01, -5.27613282e-01, -3.47315311e-01,
        -5.64533211e-02],
       [-1.72886834e-01,  6.99279845e-01,  5.17571747e-01,
         6.43223301e-02, -7.35308602e-02, -1.90679953e-01,
         5.86001761e-03,  4.48298872e-01,  2.91581273e-01,
        -4.68117923e-01],
       [-8.82527977e-03,  6.23398364e-01,  4.38378341e-02,
         1.83199987e-01, -1.97037145e-01,  5.39495237e-02,
         2.10742578e-01,  4.93081994e-02, -5.79629391e-02,
        -4.21718478e-01],
       [ 1.79384962e-01, -3.94725412e-01,  2.75782198e-02,
         3.19956124e-01,  6.14506066e-01, -4.30871606e-01,
        -6.00540280e-01,  1.04743481e-01, -5.65237775e-02,
         4.76038486e-01],
       [ 1.94449052e-01, -2.73396283e-01, -5.83651721e-01,
        -1.72707647e-01,  5.22541046e-01,  5.33737838e-01,
         3.14419359e-01, -1.37533724e-01,  3.71756107e-01,
        -3.25621337e-01],
       [ 1.27229676e-01, -4.46351945e-01,  6.72690630e-01,
        -1.26635194e-01,  3.76290709e-01, -3.07408065e-01,
         8.35367739e-02, -1.94320410e-01, -4.05135483e-01,
         2.03040347e-01],
       [-7.65172318e-02, -2.93127418e-01, -2.21532121e-01,
        -2.23754779e-01, -7.63449550e-01,  6.60311818e-01,
         3.96933109e-01, -2.52977252e-01, -2.91863024e-01,
         5.43353021e-01],
       [ 1.83022693e-01,  9.89727229e-02, -2.67873973e-01,
         2.44520649e-01, -5.21251917e-01, -3.31488140e-02,
        -2.26365060e-01,  8.00195485e-02,  2.47630924e-01,
         6.95574880e-01],
       [-6.84808075e-01, -3.96027029e-01, -9.61594358e-02,
         3.16473156e-01,  8.10842663e-02, -4.65031207e-01,
        -3.19640815e-01,  4.02525902e-01, -1.82938322e-01,
        -6.06170744e-02],
       [ 2.21600547e-01, -3.30855042e-01, -3.16688746e-01,
        -1.72436610e-02,  2.94677883e-01,  9.16946493e-03,
        -6.47477759e-03, -4.84121531e-01, -2.96433419e-01,
         3.42819601e-01],
       [ 2.68184990e-01,  3.04055423e-01,  3.19975793e-01,
        -4.66688454e-01, -1.69999413e-02, -5.59762180e-01,
        -2.97405928e-01,  5.99062085e-01, -3.54244173e-01,
        -2.21482098e-01],
       [-3.80828977e-01,  1.81155741e-01,  5.01544103e-02,
         5.79900563e-01,  3.64679135e-02, -2.44288877e-01,
        -3.40309858e-01,  1.25125259e-01,  4.63303775e-01,
        -5.71401358e-01],
       [-2.36559287e-01,  2.12475792e-01,  9.74203870e-02,
         5.82143068e-01, -5.34139395e-01,  1.59453690e-01,
         1.93072706e-01, -1.95474416e-01,  4.81093451e-02,
        -1.02108501e-01],
       [ 3.58540833e-01, -2.13053405e-01, -7.20483437e-02,
        -3.72872055e-01, -3.16954106e-01, -1.68561280e-01,
         4.48818088e-01, -7.13636994e-01,  2.95542151e-01,
        -2.18285769e-02],
       [-1.97746754e-02, -3.15629840e-01,  5.81731260e-01,
         4.77595359e-01, -5.48476696e-01,  4.38345373e-02,
        -1.06042437e-01, -3.48909348e-01,  4.74049330e-01,
        -3.29899758e-01],
       [ 3.63891125e-01,  1.80583581e-01, -5.56361914e-01,
         1.12551019e-01, -1.67486578e-01,  6.16234481e-01,
         3.97081047e-01,  9.42825079e-02, -3.76354694e-01,
        -7.14887902e-02],
       [-2.23068520e-01, -3.63105148e-01,  1.37755617e-01,
        -2.61380523e-01,  1.32474825e-01, -5.34893513e-01,
        -2.28378251e-02, -4.37036842e-01,  3.87044013e-01,
         2.97377855e-01],
       [ 2.57178575e-01,  4.79598522e-01, -5.73476076e-01,
        -6.17152639e-03, -5.37661910e-01,  4.52482164e-01,
        -3.77182633e-01, -4.32418380e-03,  2.34915409e-02,
         2.44813859e-01],
       [ 3.08770593e-02, -4.03484911e-01, -1.04408994e-01,
         1.86194237e-02, -4.51281607e-01,  4.11403030e-01,
         2.97897249e-01,  9.40407887e-02,  5.40510893e-01,
        -2.74831653e-01],
       [ 3.11259204e-03,  4.21931565e-01, -4.82724428e-01,
         5.73744588e-02,  4.22072411e-01, -4.34238255e-01,
         9.63975787e-02, -3.09005141e-01,  9.99184772e-02,
         1.54393539e-01],
       [-8.08745250e-02, -2.09481359e-01, -3.02417129e-01,
        -5.86261094e-01, -1.37759065e-02,  1.77922800e-01,
        -8.61650258e-02, -2.04300478e-01,  3.31485361e-01,
         1.95593074e-01],
       [-2.31492907e-01,  3.66143554e-01,  3.93088073e-01,
        -3.54233205e-01,  2.65202284e-01,  3.56351674e-01,
        -5.56962848e-01, -3.01951140e-01,  2.86016434e-01,
        -1.57334775e-01],
       [-4.44178939e-01,  3.24653059e-01,  3.57565284e-01,
        -4.40481752e-01, -6.70566633e-02, -1.22280739e-01,
         2.42158920e-01,  8.68141279e-02,  2.61570036e-01,
        -3.60469282e-01],
       [ 2.44088933e-01, -3.10799223e-04,  4.97165114e-01,
        -2.11132303e-01, -3.96640420e-01,  5.72406113e-01,
         3.68946604e-02, -2.59408504e-01,  1.12784058e-01,
         2.22606733e-02],
       [ 2.10041136e-01,  2.58324444e-01, -4.00630772e-01,
        -4.65220124e-01,  4.79167432e-01,  2.10156351e-01,
         1.50276989e-01,  5.22822440e-01, -5.66157997e-02,
        -7.79388919e-02],
       [ 2.41397843e-02,  5.30054986e-01,  4.29213524e-01,
        -2.69949794e-01, -3.79015356e-01,  1.24857694e-01,
         2.10354608e-02, -3.24684381e-01,  4.53225464e-01,
        -5.05849063e-01],
       [ 4.83314544e-01, -2.01201051e-01,  1.47382513e-01,
        -2.39980649e-02,  2.77437449e-01,  2.38279954e-01,
        -6.68474078e-01,  4.01038826e-01, -3.28142703e-01,
         1.69115543e-01],
       [ 6.00337200e-02, -3.81150216e-01,  4.61857229e-01,
        -3.77795607e-01,  1.78282306e-01,  1.10348485e-01,
         2.90463775e-01, -5.44196129e-01, -3.18006665e-01,
        -3.25618638e-03],
       [ 2.68224299e-01,  5.59665561e-01,  1.28472358e-01,
        -4.79228705e-01, -4.32328045e-01, -1.87373593e-01,
         7.04769135e-01,  2.07217876e-02,  6.99002519e-02,
        -1.37062058e-01],
       [-2.13712528e-01, -2.58108020e-01,  4.79861736e-01,
        -3.01764756e-01, -6.57159328e-01,  3.93160403e-01,
        -8.77190009e-02, -2.88279176e-01,  2.55210668e-01,
         4.04400617e-01],
       [-1.34427607e-01,  2.87685156e-01, -4.25050557e-01,
        -6.27685860e-02,  1.80527344e-02,  5.06134748e-01,
        -2.78774738e-01,  3.62824172e-01, -3.12235743e-01,
        -2.29018152e-01],
       [ 4.36765924e-02, -5.13710141e-01,  8.79917443e-02,
        -3.99708927e-01, -5.66442907e-01, -2.43028149e-01,
        -3.87089610e-01,  2.30926484e-01,  4.97894257e-01,
         6.39948189e-01],
       [ 3.55452448e-01,  4.56098974e-01, -3.44238818e-01,
         2.72091657e-01, -4.07633811e-01, -2.56414890e-01,
        -2.02249780e-01,  5.17100334e-01,  1.66281343e-01,
        -3.84625494e-01],
       [ 4.89662230e-01,  4.84555572e-01, -3.74687940e-01,
        -3.25194061e-01, -1.01431318e-01, -4.44326967e-01,
         7.06445873e-01, -3.97122949e-01, -2.39437684e-01,
        -1.81851313e-01],
       [ 1.68767452e-01,  2.32116729e-01, -2.90063798e-01,
         2.80378252e-01, -3.70329976e-01,  7.80058980e-01,
        -8.44621509e-02, -2.95086980e-01, -3.90209168e-01,
        -2.71890461e-01],
       [ 7.44400740e-01, -1.90391943e-01,  1.74892142e-01,
        -4.76697177e-01, -3.11294496e-02, -1.03920065e-01,
        -2.61613816e-01, -8.50928798e-02, -2.61769384e-01,
         3.03797185e-01],
       [ 4.18430537e-01, -2.30228841e-01,  4.17069435e-01,
         4.53874886e-01, -2.36633688e-01,  4.70314659e-02,
        -4.74102139e-01, -2.31147736e-01, -3.27788651e-01,
        -1.93824381e-01],
       [ 4.14977312e-01, -1.15769133e-01, -4.54661250e-01,
        -1.50878832e-01,  3.60868424e-01, -4.44295138e-01,
         1.07044905e-01, -5.67404509e-01,  4.60967392e-01,
         6.04469240e-01],
       [ 4.95986521e-01, -2.87578143e-02, -2.71274477e-01,
         3.05855185e-01,  3.84741247e-01, -4.34346110e-01,
         3.96934867e-01,  1.04911290e-01,  2.15410873e-01,
        -3.86765033e-01],
       [-1.81814298e-01, -1.77988783e-01, -5.30220628e-01,
        -4.29961383e-01,  2.39194334e-01, -4.09416020e-01,
         3.03609818e-01,  4.97988194e-01,  5.08451998e-01,
        -4.87503149e-02],
       [ 4.25995141e-01, -3.72930765e-01,  4.82073843e-01,
         3.56017083e-01,  1.82633206e-01, -1.53622836e-01,
        -3.98014873e-01, -2.56182086e-02, -3.75716537e-01,
         2.64756292e-01],
       [-1.71443433e-01, -3.19422394e-01, -1.44279554e-01,
         2.75698602e-01, -2.59238422e-01, -5.07391930e-01,
        -3.08401853e-01, -7.88849741e-02,  4.03550506e-01,
        -2.22215336e-02],
       [ 1.16137952e-01,  5.82093835e-01, -1.45978019e-01,
        -1.03840753e-02,  5.68125963e-01, -5.62216282e-01,
         2.02840604e-02, -3.47600609e-01,  3.65518093e-01,
        -2.74189889e-01],
       [-1.10353716e-01, -1.03804521e-01,  2.70595998e-01,
        -2.19885036e-01, -6.01673871e-02, -5.53923786e-01,
         1.40379354e-01,  7.25523114e-01,  2.77161628e-01,
        -4.21829581e-01],
       [ 2.12063074e-01,  1.37180984e-01,  2.40462631e-01,
        -6.85335323e-02, -3.87107193e-01, -6.16295815e-01,
         2.17542902e-01, -5.46062648e-01,  3.83990854e-01,
         3.10713053e-01],
       [-5.81176817e-01,  4.04413939e-01, -3.97733808e-01,
         5.27042031e-01, -1.45034781e-02,  3.88177514e-01,
         3.87769848e-01, -4.37630191e-02,  1.13467470e-01,
        -4.62028205e-01],
       [-1.30684420e-01,  7.68530592e-02, -4.15065348e-01,
        -4.55261350e-01,  3.45721543e-01,  5.63314378e-01,
        -2.63449967e-01,  2.99908668e-01, -2.77147302e-03,
        -2.91092265e-02],
       [ 1.14833765e-01, -3.78768057e-01, -4.34189558e-01,
         7.76245415e-01, -3.38406086e-01,  1.09205186e-01,
         5.87664187e-01,  3.77309889e-01, -4.58857656e-01,
        -1.80776164e-01],
       [ 7.86386803e-02, -4.82001334e-01, -2.42791817e-01,
         9.28647071e-02,  4.12533551e-01, -5.92474580e-01,
         3.88019145e-01,  3.37730706e-01,  1.17814407e-01,
        -2.58741174e-02],
       [-1.22432798e-01,  3.29665571e-01, -3.40389200e-02,
         5.81744313e-01,  2.01441869e-01, -7.92111456e-01,
        -4.92841393e-01,  2.04942659e-01, -3.89002591e-01,
         7.37489108e-03],
       [ 2.58185238e-01, -1.41552195e-01,  4.88733202e-01,
        -3.08024257e-01,  5.53631186e-01, -5.31111062e-01,
        -5.14142036e-01,  1.13478117e-01,  3.10746938e-01,
         1.04457717e-02],
       [-4.46402967e-01, -4.35436815e-01, -1.64484710e-01,
         3.91004086e-01, -1.79414317e-01,  3.42832029e-01,
        -4.49572593e-01,  3.50971252e-01,  3.04930300e-01,
         1.96030542e-01],
       [-2.99885213e-01,  1.07299045e-01, -6.98625743e-01,
         1.74139403e-02,  1.06589220e-01,  4.18200910e-01,
        -3.45676206e-03, -2.81197250e-01, -1.08949639e-01,
         4.96053010e-01],
       [ 3.38622898e-01, -3.99344116e-01,  2.17878044e-01,
        -2.39718139e-01, -3.46058339e-01, -6.84050173e-02,
         1.20049842e-01, -6.34955704e-01,  6.06429756e-01,
        -3.37141454e-01],
       [ 6.42461658e-01,  1.63573489e-01,  4.68191922e-01,
        -1.22585580e-01, -1.90228358e-01, -1.44479737e-01,
        -3.39705974e-01,  2.06741422e-01,  1.55821800e-01,
        -5.93293309e-01],
       [ 3.17214169e-02, -4.21842366e-01, -1.86042070e-01,
         1.98714528e-02, -5.88118792e-01,  3.14797372e-01,
        -3.65712196e-01,  3.71572524e-01,  1.24343231e-01,
         3.96771640e-01],
       [ 1.34505369e-02,  4.35497575e-02,  5.15055537e-01,
        -2.46133506e-01, -1.90010488e-01,  3.06057841e-01,
         3.17721188e-01, -2.14179471e-01, -3.34121019e-01,
         5.21561839e-02],
       [-1.40449554e-01, -2.48034373e-01,  2.05967233e-01,
         3.48804384e-01, -3.91150445e-01, -1.40016481e-01,
        -7.29148448e-01, -2.48627067e-01, -1.69303089e-01,
         4.59456205e-01],
       [ 4.54529136e-01,  3.72438669e-01,  2.51565129e-01,
         2.46632233e-01, -4.28972363e-01, -4.05550152e-01,
         4.51185182e-02, -2.83507966e-02, -1.54601201e-01,
         4.20335948e-01],
       [-6.19149983e-01, -1.52691767e-01, -5.35325527e-01,
         3.76322001e-01,  2.85856962e-01, -1.02823049e-01,
        -3.32431197e-01,  3.91009778e-01, -5.38961664e-02,
        -3.65084171e-01],
       [ 1.27566382e-01,  6.24740362e-01, -1.93916947e-01,
         2.05863178e-01,  3.69186372e-01, -2.78163582e-01,
         5.52672222e-02, -4.33276504e-01, -1.28009869e-03,
         1.13067612e-01],
       [ 3.29941601e-01, -4.45496798e-01,  5.98713934e-01,
        -2.97569603e-01,  1.25869289e-01, -2.07429022e-01,
         4.73875344e-01, -4.64494050e-01,  7.39270747e-02,
        -3.67884248e-01],
       [-1.69655591e-01,  1.74504332e-02,  1.46034509e-01,
         4.88182038e-01, -9.59039629e-02,  1.63138583e-01,
         1.02589829e-02, -5.74649751e-01,  3.49420995e-01,
        -2.62384057e-01]], dtype=float32)
 array([-0.12957138,  0.2527406 ,  0.12440567, -0.02231642, -0.01879453,
        0.0940852 , -0.10643377,  0.28963923, -0.32678387, -0.07705502],
      dtype=float32)]