FC Layer, 300 (Glorot Init.) Original_Weights[array([[ 0.06812921,  0.03127486,  0.02412889, ..., -0.00488689,
         0.00098122,  0.00379469],
       [ 0.03370968, -0.00439493, -0.01763973, ..., -0.04248241,
         0.01906567, -0.04065768],
       [ 0.05752833,  0.00116158, -0.03934428, ..., -0.00697951,
        -0.0079958 , -0.00369097],
       ...,
       [ 0.03569245,  0.02246359, -0.06137045, ...,  0.02152923,
         0.04515614,  0.02422436],
       [ 0.05301665, -0.04368319, -0.01177651, ...,  0.00050718,
         0.00916705, -0.01215804],
       [-0.04747194, -0.06624366, -0.0671228 , ..., -0.01155939,
        -0.03192266, -0.01754811]], dtype=float32)
 array([-0.01209401,  0.04521422,  0.07472792,  0.07704571, -0.07474346,
       -0.00832507,  0.040554  , -0.14015089,  0.13166578, -0.05044305,
       -0.03348808, -0.0699788 ,  0.03720423,  0.06595621, -0.0177388 ,
        0.06631504,  0.06121976, -0.05287891, -0.00561829,  0.1511088 ,
        0.04104546, -0.05933436, -0.05471729, -0.01525066,  0.08470749,
       -0.14783283,  0.00478195,  0.05851001, -0.00239808,  0.00597537,
       -0.00981074,  0.02807194,  0.11008135, -0.17149213,  0.06193928,
        0.15792409,  0.04503719,  0.08378863,  0.00222967, -0.11055063,
        0.06433903,  0.00685417, -0.14178424, -0.03854549, -0.14332509,
       -0.12580113,  0.11359449, -0.09013232, -0.16251357,  0.07557788,
        0.05588541,  0.05329766,  0.17335404, -0.08971342, -0.04114639,
       -0.01709197,  0.05810703,  0.03452638,  0.04567487,  0.02505457,
        0.00313842,  0.07263327,  0.06916123,  0.11441396,  0.16599868,
       -0.03179064,  0.01582779,  0.09391651,  0.06533789,  0.117389  ,
       -0.06768994, -0.1077892 , -0.05770765, -0.09045859,  0.1983818 ,
       -0.13314365,  0.00769227,  0.08162922, -0.02370319,  0.07711661,
       -0.01307234, -0.05152385,  0.18920618,  0.09116942,  0.05060679,
        0.08623799,  0.11598081, -0.05891196,  0.04773425, -0.04835488,
        0.09699667, -0.01014991,  0.07519273,  0.01310744, -0.00395964,
        0.00436354, -0.10426672,  0.14820105,  0.12007011,  0.09029094,
       -0.21055573,  0.19243285,  0.23943432, -0.02046065, -0.01262525,
       -0.02709176, -0.09102061, -0.01493583,  0.00560536,  0.08864861,
       -0.0984629 ,  0.0593269 ,  0.01522473,  0.08038326,  0.13530709,
       -0.19855966, -0.01335402, -0.16160381,  0.04267062,  0.086055  ,
        0.00818461, -0.12884215,  0.04409258, -0.02585172, -0.10417343,
        0.09473547, -0.08035109,  0.1644148 , -0.11604609,  0.02287156,
       -0.03765674,  0.03485608, -0.03887216,  0.0058533 ,  0.11923052,
        0.04018296,  0.03503206, -0.00207791,  0.14058787, -0.04314422,
       -0.0300922 , -0.03816786, -0.16181579,  0.03450594,  0.05741351,
        0.06392492, -0.05815993, -0.0986453 , -0.03252495,  0.0454035 ,
        0.02726263,  0.01765111,  0.02222843,  0.04564959, -0.06307209,
        0.13362657, -0.0861382 , -0.15066351, -0.16441968,  0.27761638,
       -0.05510306, -0.10346275, -0.09815616,  0.11440648, -0.20628384,
       -0.03020639,  0.19191754, -0.00480337,  0.00141721, -0.00968265,
       -0.10473496, -0.04735797,  0.00766081, -0.07484931, -0.08394441,
        0.10625353,  0.00960095,  0.10534324, -0.05645511, -0.04301198,
       -0.03940044,  0.10028103,  0.10852714,  0.04004473,  0.03905681,
        0.07833808,  0.01465125, -0.02651086,  0.11596257,  0.05317454,
       -0.02189338,  0.08299248,  0.08378649, -0.08077837,  0.11115342,
       -0.05613749, -0.07693639,  0.09948526,  0.11729529,  0.11762236,
        0.10399611, -0.04589654,  0.11591754, -0.01170121, -0.1446831 ,
       -0.02473457,  0.05902909, -0.04997926, -0.17298868,  0.00698292,
       -0.05321309,  0.12549752,  0.09768431, -0.10768203, -0.0435705 ,
       -0.07504376,  0.05998692, -0.04898835,  0.04627023,  0.0852604 ,
       -0.10452674,  0.10546161, -0.01385084,  0.07120377, -0.08038009,
        0.02476038, -0.07865559, -0.073306  , -0.14197437,  0.01788248,
       -0.16505615, -0.22825736,  0.01338278, -0.00097477,  0.11552881,
        0.12098522,  0.11832862, -0.02545635, -0.08006079, -0.1618087 ,
        0.10625768,  0.08927248, -0.06206299, -0.24821442, -0.06965233,
        0.08055174, -0.03354098,  0.06574139,  0.00038637,  0.05576317,
        0.12770978,  0.02134145, -0.13827509, -0.03848996, -0.06506886,
        0.02272875,  0.1812816 ,  0.21967074, -0.02057465,  0.03006697,
       -0.02863481,  0.06544475, -0.01957483, -0.0813022 ,  0.08630784,
       -0.1052368 ,  0.08476818, -0.01310967, -0.10117363,  0.11850446,
       -0.06118392, -0.07361522,  0.00537479,  0.12904221, -0.0453563 ,
        0.14052077,  0.00798873,  0.03541856,  0.06614195, -0.10944696,
       -0.09106039, -0.04375817, -0.02624094, -0.01011828,  0.08722413,
       -0.01205833,  0.0707288 ,  0.00545436,  0.19324501, -0.05891667,
        0.01639104,  0.01789254,  0.08940121, -0.14131325, -0.12021416,
       -0.02835299, -0.1278464 ,  0.01818476, -0.03858581, -0.08810847],
      dtype=float32)]FC Layer, 100 (Glorot Init.) Original_Weights[array([[ 0.351354  , -0.07335974,  0.20135054, ..., -0.1440869 ,
        -0.1425573 , -0.00852673],
       [-0.0066325 , -0.22775246, -0.26475292, ..., -0.01067562,
         0.23825406, -0.23008679],
       [-0.09120768, -0.05396258,  0.07453264, ..., -0.13524361,
         0.12263352, -0.02636433],
       ...,
       [ 0.10707891,  0.02724778, -0.02821646, ...,  0.25541   ,
        -0.01829755,  0.0702152 ],
       [ 0.08018552,  0.3010681 ,  0.1147531 , ..., -0.05857912,
        -0.14220825, -0.22264014],
       [ 0.09336945,  0.3894455 ,  0.19124614, ...,  0.1553574 ,
        -0.27625936, -0.03608704]], dtype=float32)
 array([-1.75059703e-03,  7.71183230e-04,  1.78627297e-01,  1.74662820e-03,
        6.52916282e-02,  1.17661767e-01, -3.36912423e-02,  1.01832263e-01,
       -1.19121574e-01, -1.13424748e-01, -1.26183748e-01, -3.49989086e-02,
        1.41552716e-01,  8.64255354e-02,  8.65169801e-03, -1.63193733e-01,
        3.48183177e-02, -6.45251200e-02,  1.54973969e-01,  4.95161600e-02,
       -7.34105473e-03,  6.77626133e-02,  8.49396735e-02, -1.45241052e-01,
        1.00213483e-01,  9.75521728e-02, -1.08768670e-02, -5.23818284e-02,
       -1.71821471e-02, -1.13558635e-01,  1.38917029e-01,  8.40325207e-02,
       -7.42197335e-02, -1.11229986e-01,  1.79164726e-02,  2.11541355e-03,
       -5.80321550e-02, -1.07105918e-01,  1.93060152e-02, -1.24526294e-02,
       -7.71083385e-02, -4.91933711e-02, -5.37515990e-02, -8.89362302e-03,
       -5.13185672e-02,  4.60975477e-03,  1.13113694e-01,  1.61597103e-01,
       -9.16610658e-02,  3.59587185e-02, -1.52627543e-01, -2.84669716e-02,
        5.22851804e-03, -1.27428696e-01,  1.13808759e-01, -3.24814068e-03,
       -4.29654904e-02,  2.19889311e-03,  6.51783915e-03, -1.99082308e-02,
        5.95734082e-02,  1.30203232e-01, -2.78879739e-02,  6.72697350e-02,
        2.40190849e-02, -7.43557736e-02,  1.14735523e-02,  1.36940569e-01,
       -1.07984692e-01,  7.76868388e-02,  3.82549106e-03,  4.97772880e-02,
        8.63403175e-03,  1.50721811e-04, -5.79559207e-02, -7.89498985e-02,
       -6.74822852e-02, -1.29909422e-02, -9.85254124e-02,  6.01463430e-02,
       -2.12017614e-02, -1.32802352e-01,  9.26843807e-02,  5.89036606e-02,
        5.75345382e-02, -1.26088068e-01,  9.81861055e-02, -8.64961650e-03,
       -2.57302597e-02,  7.49562308e-02, -5.65243028e-02, -4.74337768e-03,
       -1.09470613e-01,  1.47816792e-01, -3.40873078e-02, -2.45413603e-03,
        8.53124410e-02, -7.93705210e-02, -6.52266145e-02, -5.50229959e-02],
      dtype=float32)]FC Layer, 10 (Softmax) Original_Weights[array([[ 6.20263182e-02,  4.80675548e-01, -3.64142597e-01,
        -1.07665561e-01, -3.66277397e-01, -2.97117710e-01,
        -3.43789905e-01,  1.72184199e-01,  1.89540570e-03,
         3.51192892e-01],
       [ 2.02747434e-01,  1.55598922e-02, -4.25067902e-01,
        -2.93543309e-01,  2.85116166e-01,  5.76823354e-01,
         1.75185874e-01, -3.53346497e-01, -2.77992696e-01,
         4.35307592e-01],
       [-2.44007781e-01, -1.14656217e-01, -4.72039543e-02,
         4.43141431e-01,  1.28295198e-01,  1.41623840e-01,
        -3.61144274e-01,  4.69130009e-01, -3.91111821e-01,
        -3.31333205e-02],
       [ 4.48377877e-01,  6.67267619e-03,  5.35291612e-01,
        -2.48816207e-01,  1.16366476e-01, -5.69243252e-01,
        -1.85302675e-01,  5.08155584e-01, -1.00525811e-01,
        -2.63955981e-01],
       [-2.71205783e-01, -4.29688320e-02, -4.14396822e-01,
        -3.91287595e-01, -1.72364935e-01, -2.10494325e-01,
         2.00581983e-01,  3.13594162e-01, -1.90146312e-01,
         4.01144773e-01],
       [-2.15472609e-01,  3.93776178e-01,  1.34143844e-01,
         1.47673702e-02,  1.79944083e-01,  3.53370100e-01,
        -4.30619806e-01, -2.51751423e-01, -2.72488981e-01,
         1.92972422e-01],
       [ 5.03858291e-02,  3.91845316e-01, -3.32081258e-01,
        -4.38518643e-01, -2.04844758e-01,  3.88096035e-01,
         3.81651521e-01, -2.84485757e-01,  9.14614722e-02,
        -1.20197609e-01],
       [-5.38916051e-01,  3.18147570e-01,  3.45829546e-01,
         1.61121890e-01, -3.11759830e-01,  3.59976232e-01,
        -3.95830452e-01, -5.05012810e-01,  4.72588912e-02,
        -1.29632773e-02],
       [-3.34447809e-02, -1.75514191e-01, -5.72658420e-01,
         4.42732155e-01,  1.39703289e-01,  1.82978138e-01,
         2.43272454e-01, -5.74525595e-01,  4.76762563e-01,
         1.01180419e-01],
       [ 2.11197212e-01,  3.66495579e-01, -2.73415655e-01,
         1.45823374e-01, -1.71237454e-01, -2.50067472e-01,
         6.49248064e-01, -2.67606884e-01,  2.38269910e-01,
        -1.27452701e-01],
       [-7.48495311e-02,  1.05496250e-01, -2.21727595e-01,
        -3.46874297e-01,  9.28311571e-02, -3.31325322e-01,
        -2.23181471e-01,  3.47317815e-01,  1.38560191e-01,
         2.47740895e-01],
       [ 3.78978789e-01, -2.16783613e-01,  4.80516106e-02,
         1.18985467e-01, -3.80436867e-01,  1.37275513e-02,
        -6.89564049e-02,  1.66720524e-02, -6.94872513e-02,
         2.21517459e-01],
       [-5.56038380e-01,  2.32322630e-03,  5.17019778e-02,
         3.09925377e-01,  2.69461274e-01,  2.75993913e-01,
        -2.03955814e-01, -2.26959884e-02, -5.12585461e-01,
         2.13917911e-01],
       [ 1.60538256e-01, -1.81052744e-01,  3.78508061e-01,
         5.99964917e-01,  2.69698858e-01,  1.96039658e-02,
        -4.67770994e-01,  1.77530542e-01, -3.20497423e-01,
        -2.26932108e-01],
       [-5.12213886e-01, -4.06408280e-01,  5.57338834e-01,
         6.77364841e-02,  3.39127719e-01, -9.77743939e-02,
         1.79665178e-01, -8.50946456e-02,  8.47996920e-02,
        -3.62557232e-01],
       [ 2.00457111e-01, -4.45433185e-02,  3.02614659e-01,
        -3.49474023e-03, -1.11010760e-01, -4.24760044e-01,
         3.23461518e-02, -1.14770621e-01,  2.73398638e-01,
        -2.27674142e-01],
       [ 9.47241038e-02,  3.08354527e-01,  6.19418512e-04,
        -2.44471475e-01, -4.37028408e-01, -3.88619035e-01,
         4.00968015e-01,  2.19337314e-01, -1.64098173e-01,
         2.28161260e-01],
       [-1.36686131e-01,  4.16504323e-01, -1.86101750e-01,
         4.86300886e-01, -3.71895492e-01, -7.45747566e-01,
        -3.10079753e-01, -1.55707061e-01, -5.38104251e-02,
         2.70928264e-01],
       [-4.55684483e-01, -1.18095711e-01, -2.96914697e-01,
        -8.26693028e-02,  2.86239564e-01, -9.61320549e-02,
         1.01785138e-01,  4.82221186e-01, -4.61351097e-01,
        -9.74245276e-03],
       [ 3.15818280e-01, -4.12948400e-01, -5.74249923e-02,
         1.39439076e-01, -1.01979613e-01, -1.03722654e-01,
         4.62928206e-01,  2.88687021e-01, -5.56375861e-01,
        -3.12620550e-01],
       [-4.86021578e-01,  4.89605293e-02, -3.70541900e-01,
         3.88927042e-01, -2.32993215e-01, -3.71785313e-01,
        -2.15624034e-01,  3.37809205e-01, -1.85372025e-01,
        -2.38447368e-01],
       [-2.21279815e-01,  3.42421591e-01, -5.11301160e-01,
         4.64395136e-02, -6.73712045e-03,  6.27020001e-02,
         2.76446790e-01,  9.40903723e-02,  1.90681994e-01,
         1.75625607e-01],
       [-6.78135097e-01,  1.68915808e-01,  6.60922050e-01,
        -1.15005717e-01, -7.02526942e-02,  2.28168681e-01,
        -1.91613242e-01,  1.26173913e-01, -2.50776708e-01,
        -3.98309231e-01],
       [ 6.60828203e-02, -6.37346208e-01,  2.61078507e-01,
        -1.48593038e-01,  3.48877847e-01, -2.51512349e-01,
         1.41087487e-01, -1.52784199e-01, -1.50601521e-01,
         3.69998842e-01],
       [-3.45358074e-01,  3.88670415e-01,  1.07826278e-01,
        -2.51910597e-01,  6.63441326e-03,  2.01020479e-01,
        -2.71123856e-01,  5.12490988e-01,  1.89644873e-01,
        -3.94225478e-01],
       [-5.30148506e-01,  1.25274733e-01,  1.19945325e-01,
        -1.29901603e-01,  1.24384850e-01, -2.02691644e-01,
        -1.44707307e-01,  4.74127606e-02, -3.31400752e-01,
         6.28743172e-01],
       [ 5.21113575e-02,  2.78488304e-02,  1.24528468e-01,
        -3.31934094e-01,  4.41259235e-01,  1.89504828e-02,
        -3.24732587e-02, -3.70396882e-01, -4.81632948e-01,
         1.35334894e-01],
       [ 2.66512912e-02, -3.22286904e-01, -2.28250399e-01,
         2.29431510e-01,  4.88973200e-01,  6.25725761e-02,
        -2.09140092e-01,  1.66443869e-01,  4.59825546e-01,
        -2.33593807e-01],
       [ 4.62692827e-02, -3.73386621e-01, -2.19825357e-01,
        -4.37884510e-01,  2.06334472e-01,  2.60384411e-01,
        -2.29398593e-01, -7.42253065e-02,  2.11630404e-01,
         3.62179369e-01],
       [ 3.21379602e-02, -6.32533312e-01, -1.69077218e-01,
         2.71075100e-01, -2.62546957e-01, -1.58025831e-01,
         1.00248773e-02,  3.43510881e-03,  6.08330309e-01,
         2.63272338e-02],
       [-3.99992436e-01,  2.46881798e-01, -7.33095109e-02,
        -4.88859564e-02,  3.11042726e-01, -5.23583233e-01,
        -7.28711067e-03,  4.37801689e-01, -2.01269671e-01,
        -1.29938871e-01],
       [-4.36144620e-01, -2.36399487e-01, -3.29887986e-01,
        -1.17536217e-01,  4.08189386e-01,  3.28237981e-01,
        -3.38691741e-01, -9.84959006e-02, -3.78708124e-01,
         4.87516284e-01],
       [ 2.07005218e-01, -4.26057696e-01, -3.38317782e-01,
         2.08703548e-01, -3.25892836e-01,  6.21345975e-02,
        -1.68037504e-01,  4.11451519e-01,  1.61509871e-01,
        -1.28122792e-01],
       [ 2.69895762e-01, -2.65655726e-01,  2.69666493e-01,
        -2.50234812e-01,  5.27637415e-02, -1.55303061e-01,
        -3.50578636e-01, -4.20996726e-01,  2.27695674e-01,
         2.01542348e-01],
       [ 5.64251125e-01,  1.24890104e-01,  1.73674494e-01,
        -8.68348628e-02, -3.26193541e-01, -4.00912732e-01,
         2.37968206e-01,  3.30940008e-01, -1.30476147e-01,
        -5.33556819e-01],
       [ 2.54301041e-01,  2.17004687e-01,  4.12934780e-01,
        -3.54678005e-01,  3.36540304e-02, -4.59094882e-01,
         4.29135680e-01, -4.23302859e-01, -4.22319800e-01,
         2.71031656e-03],
       [ 2.31618702e-01, -4.12270218e-01, -1.01666994e-01,
        -5.08203208e-01, -5.58266640e-02,  4.41426635e-01,
         4.77589279e-01, -2.49018490e-01,  1.34835631e-01,
        -2.39732876e-01],
       [ 3.40960979e-01, -3.76379132e-01, -9.80269313e-02,
         3.40118498e-01, -1.78291366e-01,  1.34990886e-01,
         6.43964887e-01, -4.37044978e-01, -3.40360314e-01,
         3.55157279e-03],
       [-3.04085668e-02,  4.74356800e-01,  3.85862738e-01,
         2.41218448e-01, -1.81048170e-01, -1.59527928e-01,
        -1.03102811e-01,  5.25821865e-01,  1.16436094e-01,
        -2.98318565e-01],
       [ 4.36431207e-02,  5.55987716e-01, -3.95450264e-01,
         1.57262906e-01, -5.79486825e-02,  1.21184438e-01,
         2.01754183e-01, -2.02907518e-01,  9.40686688e-02,
        -2.00910136e-01],
       [ 3.09881065e-02, -5.16117215e-01,  4.39515740e-01,
         3.11969489e-01,  2.72242367e-01, -4.69588399e-01,
        -3.86252552e-01,  1.72278196e-01,  2.64967293e-01,
         1.70736164e-01],
       [ 1.48337558e-01, -1.22131146e-02, -4.12190467e-01,
        -1.67886615e-01,  4.27886963e-01,  3.40803385e-01,
         3.25575262e-01,  1.54692084e-01,  3.00674289e-01,
        -5.85885167e-01],
       [-5.09209465e-03, -2.10995480e-01,  6.39135122e-01,
        -2.21465081e-01,  4.79558676e-01, -1.98816061e-01,
         1.64670512e-01, -3.35403442e-01, -1.21177673e-01,
        -1.47977263e-01],
       [-2.77652204e-01, -3.87623638e-01, -3.15839052e-01,
        -3.04617703e-01, -6.17767751e-01,  7.81077623e-01,
         7.51059413e-01, -1.54278159e-01, -1.09752819e-01,
         2.83326834e-01],
       [ 5.14985085e-01, -1.45985469e-01, -1.41062245e-01,
         1.13728801e-02, -4.80877012e-01,  3.28354120e-01,
        -1.57249525e-01,  2.80738994e-02,  2.71555245e-01,
         4.42399502e-01],
       [-5.98777354e-01, -4.01870102e-01,  4.70467731e-02,
         2.30470017e-01,  6.48419484e-02, -4.59144086e-01,
        -2.88869590e-01,  1.76989958e-01, -1.08681843e-01,
        -5.42498082e-02],
       [ 1.98075265e-01, -4.61252630e-01, -3.00141990e-01,
        -1.16024144e-01,  4.10867631e-02,  2.21583340e-02,
        -1.99484527e-02, -1.63688645e-01, -3.28194052e-01,
         5.27440906e-01],
       [ 3.57912719e-01,  2.60472327e-01,  3.69395256e-01,
        -5.50035179e-01, -3.91659774e-02, -5.04080713e-01,
         6.91936836e-02,  5.33321142e-01, -5.30067623e-01,
        -3.04547012e-01],
       [-3.30332547e-01,  3.35730553e-01, -9.05153230e-02,
         4.34497356e-01,  5.82182109e-02, -2.39211515e-01,
        -2.44665936e-01,  1.68825299e-01,  3.09582084e-01,
        -4.31439131e-01],
       [-2.42367357e-01,  2.39085317e-01, -2.96789613e-02,
         3.01930666e-01, -3.46647322e-01,  1.97229341e-01,
         1.91920474e-01, -2.65720904e-01,  2.94641078e-01,
        -1.37289941e-01],
       [ 4.62813526e-01, -2.14002267e-01, -9.78424028e-02,
        -4.67717171e-01, -1.80323392e-01, -2.07044601e-01,
         4.33317989e-01, -6.72520876e-01,  2.33599141e-01,
        -3.59978415e-02],
       [-2.06437513e-01,  4.17192243e-02,  3.96143913e-01,
         2.99724698e-01, -3.80086511e-01,  5.16303303e-03,
        -4.76299673e-02, -2.44139619e-02,  4.16206986e-01,
        -4.62597787e-01],
       [ 3.84565949e-01,  2.34506115e-01, -3.76613945e-01,
         2.06578061e-01, -5.37707284e-02,  3.40179801e-01,
         2.91784883e-01,  1.23838946e-01, -3.84842694e-01,
        -1.81778297e-01],
       [-6.91845194e-02, -2.38453060e-01,  2.80994952e-01,
        -4.40386266e-01,  2.92390972e-01, -5.87242723e-01,
         1.03505060e-01, -6.60247862e-01,  3.70890379e-01,
         1.97753027e-01],
       [ 3.33492577e-01,  3.01844090e-01, -6.45470023e-02,
        -2.25634962e-01, -4.12184745e-01,  2.82899171e-01,
        -6.05372727e-01,  3.61764729e-01, -1.91420168e-01,
         1.66574240e-01],
       [ 8.03095922e-02, -2.75704354e-01, -1.98632069e-02,
        -1.41470671e-01,  4.27073683e-04,  4.37147647e-01,
         3.45879287e-01, -2.33972725e-02,  2.28241950e-01,
        -2.98235953e-01],
       [ 9.43393037e-02,  4.16367233e-01, -3.21145356e-01,
        -6.30589351e-02,  3.67728472e-01, -4.27169949e-01,
         2.13240343e-03, -2.66390324e-01,  9.40424204e-03,
         1.94695950e-01],
       [ 7.73347467e-02, -1.56351373e-01, -4.61766839e-01,
        -7.04739392e-01,  1.83993176e-01, -9.92460456e-03,
         3.55009958e-02, -1.61908984e-01,  2.97327876e-01,
         2.50780553e-01],
       [-1.87960565e-01,  2.20096618e-01,  2.81698108e-01,
        -2.73799747e-01,  4.17536050e-01,  2.53537625e-01,
        -3.59352052e-01, -2.59875000e-01,  1.40012458e-01,
        -1.45757854e-01],
       [-3.71315449e-01,  1.28933698e-01,  2.04562515e-01,
        -2.47242868e-01, -2.95563728e-01,  2.01738700e-02,
         2.27148622e-01,  1.92727178e-01,  2.47477487e-01,
        -3.82617056e-01],
       [ 1.91325054e-01, -1.95456930e-02,  1.95019186e-01,
         2.59042494e-02, -3.92059743e-01,  6.06271148e-01,
         3.03146988e-01, -2.07872078e-01, -3.45376059e-02,
         3.65348496e-02],
       [ 5.37574470e-01,  2.47823238e-01, -2.50839651e-01,
        -5.09954691e-01,  2.95624733e-01,  2.71564126e-01,
         5.44194207e-02,  4.74586517e-01, -2.38057554e-01,
        -4.78337072e-02],
       [-6.61638528e-02,  1.67989299e-01,  5.30205965e-01,
        -2.14592889e-01, -2.36081079e-01,  2.19291136e-01,
         2.95917131e-02, -3.71627063e-01,  4.81185734e-01,
        -4.27925557e-01],
       [ 2.37970769e-01, -4.05522257e-01,  3.78217727e-01,
        -1.73334070e-02, -2.14557424e-02,  3.30284238e-01,
        -5.21436989e-01,  3.99968207e-01, -2.19656885e-01,
         2.00555265e-01],
       [ 3.14512774e-02, -3.81706238e-01,  3.70296031e-01,
        -2.80020028e-01, -2.54398435e-02,  2.50828326e-01,
         2.69459277e-01, -4.72097456e-01, -1.51202977e-01,
        -1.16358787e-01],
       [ 2.89504558e-01,  2.01376095e-01,  1.61539227e-01,
        -3.57411802e-01, -3.23577553e-01, -1.78990528e-01,
         6.12803042e-01, -6.42274097e-02,  2.08914593e-01,
        -2.44043589e-01],
       [-2.51966208e-01, -4.45632488e-01,  4.48669940e-01,
         5.18159941e-02, -3.97070736e-01,  1.73449695e-01,
         2.56374143e-02, -3.48022133e-01,  1.49292871e-01,
         3.16148490e-01],
       [-1.70428112e-01,  2.92554736e-01, -4.83731210e-01,
        -7.12548420e-02, -2.61082590e-01,  5.72381139e-01,
        -2.64220387e-01,  2.23012701e-01, -9.87677425e-02,
        -8.87473077e-02],
       [-9.21374783e-02, -3.41213465e-01, -1.23506285e-01,
        -1.74611852e-01, -4.10328537e-01, -2.92169154e-01,
        -2.34384745e-01,  7.84133673e-02,  3.95284563e-01,
         6.24802172e-01],
       [ 2.52762109e-01,  5.35266995e-01, -2.99255401e-01,
         2.25144774e-01, -5.44654191e-01,  7.44762495e-02,
        -3.40780437e-01,  6.30875230e-01,  3.54842022e-02,
        -4.46782380e-01],
       [ 1.83548734e-01,  4.81704473e-01, -2.43873999e-01,
        -4.17822152e-01,  2.77536493e-02, -4.97616738e-01,
         4.72120494e-01, -1.46501124e-01, -2.75721133e-01,
        -1.53036162e-01],
       [ 3.13036352e-01,  2.79115826e-01, -3.05176109e-01,
         2.91808754e-01, -2.14558348e-01,  5.60962975e-01,
        -2.59427428e-01, -4.13320631e-01, -5.30350804e-01,
        -9.92965046e-03],
       [ 8.54768455e-01, -2.54835248e-01,  3.02177370e-01,
        -6.16609037e-01,  4.74570058e-02, -8.06410089e-02,
        -3.73295099e-01, -2.34867241e-02, -2.00486571e-01,
         1.94056094e-01],
       [ 2.81311840e-01,  1.24982595e-01,  3.27308089e-01,
         4.71918941e-01, -3.80615175e-01, -3.33389252e-01,
        -6.53547227e-01,  2.38238275e-02, -2.73177475e-01,
        -7.22377226e-02],
       [ 4.11995381e-01, -2.09519967e-01, -3.41259837e-01,
        -1.84414014e-01,  2.51515120e-01, -3.37887198e-01,
         1.54551327e-01, -5.12364388e-01,  4.14767563e-01,
         5.73070586e-01],
       [ 6.15943491e-01, -2.44739994e-01, -1.01486281e-01,
         3.11901152e-01, -2.57434491e-02, -3.41520876e-01,
         7.58293033e-01,  2.05083534e-01,  1.35482177e-01,
        -4.43432659e-01],
       [-8.68376344e-02, -1.79749489e-01, -3.05116594e-01,
        -4.35057431e-01,  1.85725629e-01, -3.11227977e-01,
         2.21329078e-01,  3.01545471e-01,  4.18428481e-01,
        -1.08746449e-02],
       [ 4.96642530e-01, -1.89111188e-01,  5.25104523e-01,
         9.84293297e-02,  7.79160708e-02, -7.66969053e-03,
        -2.12033957e-01, -2.62768455e-02, -3.99081558e-01,
         1.59174472e-01],
       [-2.57765889e-01, -4.00628477e-01, -6.37296960e-02,
         3.17206644e-02, -4.63355064e-01, -1.78470463e-01,
        -5.08159399e-01, -1.17164373e-01,  4.75177407e-01,
         1.91272780e-01],
       [ 4.34660316e-02,  4.92003143e-01,  1.45518243e-01,
        -3.46923769e-01,  1.33136004e-01, -6.67639971e-01,
         2.51036227e-01,  1.19252019e-02,  5.11496007e-01,
        -2.27175966e-01],
       [ 1.81318700e-01, -2.21863091e-01,  5.01096904e-01,
        -5.12774765e-01,  5.12379371e-02, -5.80475032e-01,
        -9.85847265e-02,  7.22119868e-01,  1.54970646e-01,
        -2.10838020e-01],
       [-3.45250815e-02,  2.13464811e-01,  2.42875755e-01,
        -2.49084875e-01, -2.95412719e-01, -4.29259300e-01,
         2.06328616e-01, -4.95963007e-01,  5.85097253e-01,
         1.52668878e-01],
       [-4.52190340e-01,  3.65156800e-01, -3.96973640e-01,
         3.14002395e-01, -5.18543087e-02,  2.59242564e-01,
         5.24873197e-01,  2.06540212e-01,  1.13745011e-01,
        -4.15628046e-01],
       [-3.06709826e-01,  3.34995836e-01, -2.43446991e-01,
        -4.29984242e-01,  2.35389903e-01,  5.45997500e-01,
        -3.54482591e-01,  2.54585534e-01, -6.29018769e-02,
         2.74287518e-02],
       [ 2.57910788e-01, -2.26931646e-01, -4.36513603e-01,
         2.77309030e-01, -1.86709046e-01,  3.44571799e-01,
         4.57927138e-01,  3.11599463e-01, -2.68215358e-01,
        -1.86425075e-01],
       [ 1.04713492e-01, -4.93889868e-01, -4.06956315e-01,
         2.78393775e-01,  2.36348838e-01, -3.80482972e-01,
         1.02009781e-01, -4.87660728e-02,  2.10889280e-01,
         2.34861642e-01],
       [-2.55864024e-01,  2.63955206e-01, -6.67517856e-02,
         5.11956751e-01,  6.91837817e-02, -4.36025769e-01,
        -1.35820344e-01,  3.48114908e-01, -4.80073810e-01,
        -1.92661986e-01],
       [ 1.52210087e-01, -4.22024988e-02,  5.83401978e-01,
        -4.40242618e-01,  2.39910781e-01, -4.23617154e-01,
        -2.92453557e-01,  8.76116827e-02,  2.94793606e-01,
         8.63689408e-02],
       [-3.08563054e-01, -4.62838411e-01, -3.93302113e-01,
         2.80106932e-01,  2.86891103e-01,  1.22723706e-01,
        -2.52932280e-01,  3.50208789e-01,  4.49088477e-02,
         3.33468050e-01],
       [-5.86656690e-01,  2.77603358e-01, -5.68996370e-01,
         2.01976195e-01,  1.70786474e-02,  4.43194777e-01,
        -1.34903282e-01, -4.76992905e-01, -4.91940649e-03,
         3.74123007e-01],
       [ 1.18849255e-01,  2.67336215e-03,  1.28207192e-01,
        -2.40677685e-01, -1.97348610e-01,  2.56686583e-02,
         5.53507358e-02, -6.57553971e-01,  3.48656297e-01,
        -2.44509757e-01],
       [ 2.96679467e-01,  1.73781812e-01,  4.59825009e-01,
        -2.75291920e-01, -1.07245371e-01,  8.48033279e-03,
         1.78147048e-01,  6.56980835e-03, -1.60276249e-01,
        -4.20453191e-01],
       [-9.22265202e-02, -2.87467033e-01, -3.09907675e-01,
        -1.36937154e-02, -5.97440362e-01,  1.58510640e-01,
        -3.97521466e-01,  3.44674319e-01,  3.37191373e-01,
         5.43138087e-01],
       [ 6.34076968e-02, -2.58710459e-02,  1.02853596e-01,
        -2.20784441e-01, -1.30503997e-01,  5.89570642e-01,
         1.91477850e-01, -7.88786635e-02, -3.94638002e-01,
        -5.62606147e-04],
       [ 1.41845763e-01, -4.03409094e-01,  3.71014662e-02,
         3.17630082e-01, -3.90945196e-01, -1.66562214e-01,
        -2.91523427e-01, -1.64021075e-01, -2.17170611e-01,
         4.06717002e-01],
       [ 4.06735271e-01,  5.05364835e-01,  4.06244516e-01,
         2.56518185e-01, -2.95432448e-01, -4.37328696e-01,
         4.56541516e-02, -3.84174883e-02, -2.94191360e-01,
         2.85505503e-01],
       [-4.56922978e-01, -2.25861385e-01, -6.44106627e-01,
         3.37808490e-01, -2.02916369e-01,  1.14463516e-01,
        -2.41848618e-01,  5.21852553e-01, -1.66211024e-01,
        -1.38255179e-01],
       [ 2.80275177e-02,  5.70163727e-01, -4.28179577e-02,
         2.65157484e-02,  7.00546026e-01, -3.17590624e-01,
        -1.42060488e-01, -3.31252426e-01,  4.68325019e-02,
        -5.93790924e-03],
       [ 1.96508095e-01, -1.46844581e-01,  6.13206327e-01,
        -3.78723413e-01, -1.02538563e-01, -2.60926217e-01,
         2.85111368e-01, -4.63625699e-01,  5.38995601e-02,
        -1.05956003e-01],
       [ 1.77822083e-01,  5.78823648e-02,  8.62377286e-02,
         4.11463022e-01, -9.10272747e-02,  1.43232942e-01,
         1.68008313e-01, -4.52253819e-01,  2.16661058e-02,
        -2.71377295e-01]], dtype=float32)
 array([-0.17180307,  0.23390336,  0.08204481, -0.03951089,  0.00260648,
        0.11238246, -0.08719997,  0.20415865, -0.32965386,  0.00543639],
      dtype=float32)]