FC Layer, 300 (Glorot Init.) Original_Weights[array([[ 0.06812921,  0.        ,  0.        , ..., -0.        ,
         0.        ,  0.        ],
       [ 0.        , -0.        , -0.        , ..., -0.        ,
         0.        , -0.        ],
       [ 0.05752833,  0.        , -0.        , ..., -0.        ,
        -0.        , -0.        ],
       ...,
       [ 0.        ,  0.        , -0.06137045, ...,  0.        ,
         0.        ,  0.        ],
       [ 0.        , -0.        , -0.        , ...,  0.        ,
         0.        , -0.        ],
       [-0.        , -0.06624366, -0.0671228 , ..., -0.        ,
        -0.        , -0.        ]], dtype=float32)
 array([ 2.26446036e-02,  1.66308805e-02,  9.75550786e-02,  1.36947751e-01,
       -1.03628390e-01, -8.28554854e-02,  1.16410024e-01,  8.09471086e-02,
       -3.40500218e-03,  1.25182748e-01,  1.58742499e-02, -5.62221073e-02,
        3.19228731e-02,  9.49856937e-02,  4.93282937e-02,  8.25771615e-02,
        1.04785718e-01, -1.33198082e-01, -1.16932720e-01,  1.61234528e-01,
       -6.87164962e-02, -1.10535264e-01, -3.27175707e-02, -9.17341269e-04,
        2.58992970e-01, -4.63885479e-02, -2.10179090e-02,  2.74920054e-02,
       -4.77812067e-02,  8.59228298e-02,  1.02200285e-02,  5.29074110e-03,
        8.92871246e-02, -6.72211796e-02, -2.76443735e-02,  3.61972637e-02,
        1.19271368e-01,  1.36544080e-02,  1.33312687e-01, -1.73013121e-01,
        3.15944813e-02,  1.91695597e-02, -6.55670390e-02,  1.88993197e-02,
       -1.86036769e-02,  5.10952249e-02,  2.73356140e-02, -4.55543734e-02,
       -9.47861895e-02, -2.65483409e-02, -1.51256502e-01, -8.30852240e-02,
        5.95066976e-03,  2.03729216e-02, -1.21227339e-01,  1.00199901e-01,
        7.38652423e-02, -4.62800674e-02,  8.08885396e-02,  1.05829142e-01,
        6.94315322e-03, -3.69878300e-02, -1.26635790e-01,  7.42172496e-03,
        2.76589096e-02, -3.38892043e-02,  1.59220159e-01,  9.46262758e-03,
        3.74670401e-02,  9.93250087e-02, -2.03342810e-01, -4.03094478e-02,
        5.99177592e-02, -1.24860993e-02,  1.12029463e-01,  2.03166120e-02,
        6.58614188e-03, -5.63415810e-02,  4.54165936e-02,  9.04675797e-02,
        6.90860301e-02, -6.25704089e-03,  1.91332504e-01, -1.44170392e-02,
        8.28471482e-02,  1.71731248e-01,  1.07095025e-01, -7.47604072e-02,
       -7.30259866e-02, -1.75778255e-01,  6.14372641e-02,  3.04768495e-02,
       -4.07059006e-02,  1.00378081e-01,  5.62594645e-02, -1.16712205e-01,
       -1.23786405e-01,  1.16913527e-01,  2.11483315e-02,  1.10105224e-01,
       -1.28232569e-01,  6.53347224e-02,  6.42412296e-03, -1.36159524e-01,
        1.82625372e-02, -8.81363463e-04, -3.10347155e-02, -3.10082790e-02,
       -3.78685780e-02,  4.36308142e-03,  1.10797977e-04,  1.04269356e-01,
        2.33395547e-02, -2.45050564e-02,  9.15533751e-02,  1.42150233e-02,
       -9.11678299e-02, -7.88320005e-02,  8.95655826e-02,  1.24000395e-02,
        6.14755228e-02, -7.45806023e-02, -4.24478017e-02,  9.70956907e-02,
       -4.58169309e-03,  1.14331998e-01, -4.58338931e-02,  6.63946867e-02,
       -2.03921944e-01,  1.45788938e-02,  1.90339293e-02,  8.51877183e-02,
       -2.09186152e-02,  2.58923788e-02,  1.22316316e-01,  2.29313243e-02,
       -4.94997650e-02,  1.09635264e-01,  3.64666991e-02,  7.11464509e-02,
       -4.32575829e-02,  2.18519252e-02, -4.25760485e-02,  3.76969017e-03,
        1.29843429e-01,  8.33053589e-02, -1.26818404e-01, -6.58247471e-02,
       -1.36915641e-02,  5.33082187e-02,  1.11152306e-02,  6.06135186e-03,
        4.45708483e-02,  1.26537636e-01, -1.35895923e-01,  8.76229778e-02,
       -3.13936584e-02,  1.62817344e-01, -6.51867017e-02,  6.99201003e-02,
       -2.43463069e-02, -1.40506446e-01, -4.52303626e-02,  3.41790234e-04,
       -9.47297588e-02, -7.51011372e-02, -6.38407329e-03,  2.43176930e-02,
       -4.51078340e-02, -1.66816954e-02, -8.71017799e-02,  4.04186584e-02,
        7.98247848e-03, -6.75025433e-02,  5.64794876e-02,  1.09935902e-01,
        2.69846506e-02, -1.00929830e-02, -4.68418337e-02, -5.47986217e-02,
        1.55375004e-01,  1.03280626e-01,  4.59944084e-03,  5.07595055e-02,
       -4.15067449e-02,  8.37674215e-02,  7.48499557e-02, -8.81013498e-02,
        7.67640695e-02, -3.60036977e-02, -6.33780956e-02,  1.49356788e-02,
        2.14180857e-01,  6.22130781e-02, -6.19868524e-02,  9.26615074e-02,
       -6.40069097e-02,  8.96866396e-02,  1.84169888e-01,  8.50908980e-02,
       -1.82812125e-03,  4.59581316e-02, -3.89796272e-02,  2.81240214e-02,
       -7.76124299e-02,  2.71151830e-02,  2.95367446e-02,  1.48150712e-01,
       -9.17350575e-02, -6.03981428e-02, -1.57259665e-02,  1.25416309e-01,
        7.26842433e-02, -5.52195907e-02, -3.76582257e-02,  7.10388422e-02,
        3.41214761e-02,  1.00354338e-02, -3.12831625e-02, -1.25701994e-01,
       -3.17271501e-02,  2.25512430e-01, -9.04390141e-02,  9.70531851e-02,
       -1.21016413e-01, -4.65791188e-02,  7.03945523e-03, -2.23573484e-02,
       -8.41995254e-02,  9.30431113e-02, -8.74274150e-02, -2.04689447e-02,
        2.61549708e-02,  3.85548286e-02,  2.10325383e-02,  2.64050119e-04,
        1.19557671e-01, -4.28899601e-02, -8.22425336e-02,  3.98159437e-02,
       -5.36061637e-02,  7.83310831e-02, -7.39568546e-02, -1.84906960e-01,
       -2.01444663e-02,  1.02202572e-01,  1.42122254e-01, -3.13333571e-02,
        7.07109040e-03,  4.71393727e-02,  1.40103459e-01,  4.30944525e-02,
       -1.87850013e-01,  9.14924741e-02,  1.93452816e-02,  7.25253858e-03,
        2.33198360e-01,  1.39782026e-01, -1.72626961e-03, -7.59493187e-02,
       -8.49896111e-03, -5.36131337e-02, -2.77941730e-02, -4.87965792e-02,
        2.89806481e-02, -1.24589145e-01,  3.94410035e-03, -6.18447140e-02,
       -9.01432708e-02,  1.33158281e-01, -1.11944690e-01, -5.46862036e-02,
        1.18164442e-01, -1.42964303e-01,  3.59997228e-02, -5.95326908e-02,
       -5.43000642e-04,  6.24458939e-02,  8.88494626e-02, -1.62715651e-02,
       -4.78471294e-02, -4.46557216e-02,  1.36815429e-01, -5.78938983e-02,
        6.50271550e-02, -3.41870822e-02,  1.44067714e-02,  4.29877499e-03,
        1.58585861e-01,  1.03796855e-01, -9.72465351e-02,  6.09414764e-02,
        6.01693615e-02, -6.29869923e-02,  8.85083154e-02,  7.02476650e-02,
       -4.38856222e-02, -5.19917756e-02, -6.89451955e-03,  4.55543771e-02],
      dtype=float32)]FC Layer, 100 (Glorot Init.) Original_Weights[array([[ 0.20004655, -0.14453794, -0.        , ..., -0.        ,
        -0.        ,  0.        ],
       [-0.        , -0.14612421, -0.168169  , ...,  0.        ,
         0.111643  , -0.3991406 ],
       [-0.09409233,  0.14970683, -0.        , ...,  0.        ,
        -0.        ,  0.        ],
       ...,
       [ 0.17970675, -0.        ,  0.        , ...,  0.33153775,
         0.        , -0.        ],
       [ 0.18435179,  0.19364549, -0.12007242, ...,  0.        ,
        -0.        ,  0.        ],
       [ 0.        ,  0.        ,  0.19551697, ..., -0.        ,
         0.        , -0.        ]], dtype=float32)
 array([-0.12499402,  0.06067024,  0.16020574, -0.02141886,  0.0535337 ,
        0.10424409,  0.0066905 ,  0.05707054, -0.24906196, -0.07836217,
       -0.02176082, -0.0690998 ,  0.21293792,  0.06097033,  0.01342393,
       -0.00049919, -0.00873893, -0.0589788 ,  0.15737653,  0.08522563,
        0.00028819,  0.08628145,  0.14447692, -0.16319226,  0.09705036,
        0.16718644, -0.05732891, -0.07619024, -0.10224424, -0.10081242,
        0.15596312,  0.05959243, -0.06954625, -0.11400288,  0.08702746,
       -0.05669731, -0.07469736, -0.07534423, -0.06021275,  0.00166259,
       -0.07187408, -0.06083805, -0.09770374,  0.01841458, -0.00985457,
       -0.04041278,  0.00307028,  0.12496307, -0.04602671,  0.01173187,
       -0.04280076, -0.02124047,  0.07991965, -0.06058652,  0.06262141,
        0.13275042, -0.08405069, -0.10124519,  0.05534691,  0.03315817,
        0.05411667,  0.14347869,  0.01167313, -0.01542727,  0.00084639,
       -0.04809031,  0.01523342,  0.18819009, -0.08587997,  0.07190072,
       -0.09810348,  0.06664508,  0.02289971,  0.04193241, -0.09936051,
       -0.0648691 , -0.06508453, -0.04242928, -0.13479015, -0.03791906,
        0.07982351, -0.12527436,  0.07748877,  0.01284992,  0.00705053,
       -0.14774813, -0.01080681, -0.01841862, -0.01345549,  0.04960049,
       -0.03206088, -0.07468858, -0.12234332,  0.17624162,  0.03125616,
       -0.07785086,  0.0352144 ,  0.00900527, -0.03855043, -0.05921016],
      dtype=float32)]FC Layer, 10 (Softmax) Original_Weights[array([[ 0.36787805, -0.        , -0.37042186,  0.        , -0.619154  ,
        -0.23002829, -0.3547879 ,  0.        ,  0.        ,  0.54844016],
       [-0.        ,  0.        , -0.52688444, -0.29731858,  0.34392238,
         0.6463175 ,  0.41372293,  0.        , -0.39445752,  0.3220797 ],
       [ 0.        , -0.        ,  0.        , -0.        ,  0.39432216,
        -0.        , -0.2700226 ,  0.6231931 , -0.60352075, -0.        ],
       [-0.        , -0.29704076,  0.70221746, -0.38045126,  0.        ,
        -0.54987615, -0.23564108,  0.58465546,  0.        , -0.        ],
       [-0.        , -0.        , -0.2962838 , -0.7016414 ,  0.        ,
        -0.        ,  0.        ,  0.51817596, -0.3067663 ,  0.6289177 ],
       [-0.        ,  0.5420518 , -0.        ,  0.        ,  0.45999268,
         0.41871506, -0.65280443, -0.22223632, -0.31506884,  0.        ],
       [ 0.        ,  0.31889066, -0.3650569 , -0.79314077,  0.        ,
         0.4866029 ,  0.33936143, -0.4300455 ,  0.        ,  0.        ],
       [-0.4685088 ,  0.34991947,  0.26967186,  0.        ,  0.        ,
         0.25856018, -0.43005028, -0.620731  , -0.        , -0.        ],
       [-0.        , -0.31909704, -0.6689566 ,  0.65230757,  0.        ,
         0.        ,  0.45392582, -0.56938684,  0.6320026 , -0.        ],
       [ 0.53951573,  0.6621917 ,  0.        ,  0.        , -0.        ,
        -0.3178784 ,  0.6569633 ,  0.        ,  0.        , -0.21416087],
       [-0.25766677,  0.47690403,  0.        , -0.        ,  0.        ,
        -0.5237144 , -0.56620693, -0.        ,  0.        ,  0.        ],
       [-0.        , -0.3823031 , -0.        ,  0.        , -0.25025892,
         0.        , -0.        ,  0.        ,  0.6446795 ,  0.        ],
       [-0.6248404 , -0.        , -0.        ,  0.4472222 ,  0.        ,
         0.6634476 , -0.23759204, -0.        , -0.82479346,  0.        ],
       [ 0.27135518, -0.26202   ,  0.5623257 ,  0.6777731 , -0.        ,
        -0.        , -0.40061447,  0.2909306 , -0.64169127, -0.        ],
       [-0.4395014 , -0.39555022,  0.6474288 , -0.        ,  0.6360747 ,
        -0.        ,  0.25698787, -0.        ,  0.        , -0.5060621 ],
       [-0.        , -0.58823305,  0.39325118,  0.        ,  0.        ,
        -0.6602381 ,  0.        , -0.        , -0.        ,  0.        ],
       [-0.        , -0.        ,  0.        , -0.4747763 ,  0.        ,
        -0.59725577,  0.        , -0.        , -0.        ,  0.33665133],
       [-0.        ,  0.30634665, -0.        ,  0.35107148, -0.80502456,
        -0.5082286 ,  0.        , -0.32530263,  0.        ,  0.53938645],
       [-0.46932718,  0.        , -0.3544547 , -0.        ,  0.32933173,
        -0.        ,  0.26471815,  0.43498132, -0.6244348 , -0.        ],
       [ 0.5206612 , -0.2713331 , -0.        , -0.        ,  0.        ,
        -0.31383368,  0.50754935,  0.5045915 , -0.4968677 , -0.23721722],
       [-0.45333707, -0.        , -0.47104043,  0.43553862, -0.14399517,
        -0.2450162 , -0.19721992,  0.38066545, -0.        , -0.34557825],
       [-0.2408525 ,  0.52829546, -0.64887273, -0.        ,  0.        ,
        -0.        ,  0.66869694, -0.        , -0.        ,  0.31790158],
       [-0.77636963,  0.342949  ,  0.63532466, -0.3818097 , -0.        ,
         0.3667222 , -0.        ,  0.41548058, -0.25214747, -0.40233406],
       [ 0.        , -0.683541  ,  0.23897997, -0.        ,  0.45120713,
        -0.        ,  0.        , -0.25888008, -0.13934836,  0.3631317 ],
       [-0.2525132 ,  0.4322338 , -0.44140682, -0.        ,  0.        ,
         0.35961577, -0.26245442,  0.6878116 , -0.        , -0.51913   ],
       [-0.86505705,  0.35708153, -0.        ,  0.        ,  0.        ,
         0.27511516, -0.6388202 , -0.        , -0.4282925 ,  0.5927282 ],
       [-0.        , -0.        , -0.        , -0.34078935,  0.58734727,
         0.        , -0.        , -0.6817826 , -0.        , -0.        ],
       [ 0.        , -0.5530683 , -0.329546  ,  0.49946386,  0.        ,
        -0.        ,  0.        ,  0.32978928,  0.5747105 , -0.        ],
       [ 0.454336  , -0.38323337, -0.42105442, -0.5625044 ,  0.42049032,
        -0.        , -0.3426534 , -0.24075507,  0.42948073,  0.36809987],
       [-0.        , -0.61948436, -0.        ,  0.34889442, -0.21317561,
        -0.28172928, -0.        ,  0.        ,  0.59935284, -0.        ],
       [-0.21212015,  0.        , -0.        , -0.        ,  0.        ,
        -0.        ,  0.        ,  0.8302429 , -0.5908166 , -0.45434153],
       [-0.5120519 , -0.        , -0.13794647, -0.4305772 ,  0.5178772 ,
         0.17587698, -0.3031227 , -0.2425312 , -0.4290129 ,  0.809495  ],
       [ 0.2967322 , -0.6907563 , -0.58564085,  0.43724516,  0.        ,
        -0.        , -0.3605292 ,  0.28140488,  0.31166986,  0.        ],
       [-0.        , -0.6316628 ,  0.39684218,  0.        ,  0.        ,
        -0.5694684 , -0.31878203, -0.3086869 ,  0.5404499 ,  0.18665297],
       [ 0.4432897 ,  0.32028446, -0.        , -0.07278761, -0.        ,
        -0.5439346 ,  0.3877808 ,  0.43789715, -0.4349881 , -0.4353314 ],
       [ 0.44654444,  0.        ,  0.        , -0.25787506, -0.        ,
        -0.5179569 ,  0.58564407, -0.51147914, -0.49237174,  0.        ],
       [ 0.43515682, -0.31696832, -0.5152723 , -0.47837353,  0.        ,
        -0.        ,  0.5308407 , -0.        ,  0.35688007, -0.4121475 ],
       [ 0.4143736 , -0.48127285,  0.        ,  0.42850825, -0.2347113 ,
         0.        ,  0.5891711 , -0.5287446 , -0.30207732, -0.        ],
       [ 0.        ,  0.6676701 ,  0.48881817, -0.        , -0.        ,
        -0.21056898, -0.        ,  0.57934004,  0.31073615, -0.56320447],
       [ 0.        ,  0.7272171 , -0.5596502 ,  0.34764516, -0.        ,
        -0.        , -0.        ,  0.        ,  0.        ,  0.        ],
       [ 0.32893756, -0.5452635 ,  0.4206491 ,  0.31656116,  0.37134683,
        -0.56433326, -0.77786064, -0.        , -0.        ,  0.22184253],
       [ 0.3278298 ,  0.        , -0.593578  , -0.        ,  0.4400011 ,
         0.49074578,  0.2636852 ,  0.        ,  0.20450638, -0.44829378],
       [ 0.        , -0.39283282,  0.48401207, -0.        ,  0.55427474,
        -0.29368907,  0.26594958, -0.41188893,  0.        , -0.        ],
       [-0.        , -0.20899568,  0.        , -0.2529128 , -0.6614661 ,
         0.4704141 ,  0.3689649 ,  0.        , -0.40503547,  0.64943296],
       [ 0.4910849 , -0.        , -0.27977842, -0.        , -0.7564715 ,
         0.30056876, -0.        , -0.        , -0.        ,  0.6700955 ],
       [-0.44717267, -0.49898002, -0.        , -0.        ,  0.        ,
        -0.5203282 , -0.14142212,  0.3566427 ,  0.        , -0.        ],
       [ 0.39666608, -0.        , -0.4229601 , -0.32494092,  0.        ,
        -0.        ,  0.        ,  0.        , -0.34963024,  0.5796828 ],
       [-0.        ,  0.        ,  0.7142835 , -0.50271285, -0.        ,
        -0.4186845 , -0.30010536,  0.7270769 , -0.49314612, -0.23852526],
       [-0.60032535,  0.44077212, -0.        ,  0.23819688, -0.        ,
         0.        , -0.        ,  0.        ,  0.5554842 , -0.63494164],
       [-0.37612775,  0.30347043, -0.        ,  0.        , -0.6368824 ,
         0.        ,  0.36133465,  0.        ,  0.45330074, -0.        ],
       [ 0.27190426,  0.        ,  0.        , -0.43792856, -0.24042101,
         0.        ,  0.33798477, -0.62724525,  0.        , -0.        ],
       [ 0.        ,  0.        ,  0.68277913,  0.41910318, -0.5371488 ,
         0.        , -0.34678915,  0.        ,  0.5130533 , -0.47856542],
       [ 0.        ,  0.44810534, -0.57818854, -0.        , -0.        ,
         0.5482029 ,  0.36543104,  0.        , -0.42420426,  0.        ],
       [-0.        , -0.        ,  0.526468  , -0.5831462 ,  0.31380168,
        -0.6235792 ,  0.        , -0.5747243 , -0.        , -0.        ],
       [ 0.4152301 ,  0.29454863,  0.        , -0.        , -0.6381363 ,
         0.36107755, -0.49561426,  0.        ,  0.        ,  0.34518638],
       [ 0.24994762, -0.321544  , -0.        , -0.        , -0.        ,
         0.92342067,  0.5243522 ,  0.        ,  0.        , -0.        ],
       [ 0.        ,  0.5118184 , -0.45573074, -0.        ,  0.4755818 ,
        -0.40941748,  0.        , -0.45063323,  0.        ,  0.35697767],
       [-0.32360107, -0.3652041 , -0.3268    , -0.63884884,  0.27079907,
         0.        , -0.        , -0.4434127 ,  0.48000956,  0.18423776],
       [ 0.        ,  0.        ,  0.3342334 , -0.        ,  0.39220914,
         0.4768725 , -0.6118417 , -0.4951211 , -0.        , -0.        ],
       [-0.3620757 ,  0.33432233,  0.20847492, -0.        , -0.3063789 ,
         0.        ,  0.3306196 ,  0.2620794 ,  0.3947118 , -0.60487247],
       [ 0.31526703,  0.        ,  0.        , -0.        , -0.6224004 ,
         0.7500965 ,  0.44632438,  0.        , -0.        , -0.        ],
       [ 0.        ,  0.        , -0.25640053,  0.        ,  0.46814546,
         0.43377557, -0.        ,  0.46384722, -0.22824876, -0.        ],
       [-0.        ,  0.        ,  0.58697945, -0.35676274, -0.2760138 ,
         0.33989996, -0.        , -0.35258466,  0.55614144, -0.72804415],
       [ 0.7169829 , -0.41539046,  0.        , -0.        ,  0.32485652,
        -0.        , -0.5438376 , -0.        , -0.37907708,  0.50451404],
       [-0.        , -0.5014774 ,  0.6972932 , -0.20469455, -0.        ,
         0.        ,  0.28427964, -0.56108195, -0.47406098,  0.        ],
       [ 0.4571775 ,  0.42832977,  0.        , -0.5543868 , -0.34133956,
        -0.41135064,  0.6467664 , -0.        ,  0.30898598, -0.27718234],
       [-0.47994235, -0.43544373,  0.6623861 ,  0.        , -0.5462338 ,
         0.29542023, -0.        , -0.40906945, -0.        ,  0.5727219 ],
       [ 0.        ,  0.44288248,  0.        , -0.        , -0.        ,
         0.46668395, -0.24227437,  0.45550054, -0.41171074, -0.377422  ],
       [-0.        , -0.        , -0.        , -0.5369073 , -0.48378244,
        -0.3567017 , -0.43545386, -0.        ,  0.41154474,  0.73918056],
       [ 0.33675176,  0.30311263, -0.3035049 ,  0.3263008 , -0.27163193,
        -0.        , -0.1516699 ,  0.6153245 , -0.        , -0.45878965],
       [ 0.        ,  0.42615694, -0.31458575, -0.40255567,  0.        ,
        -0.5106532 ,  0.74836725, -0.26742756,  0.        , -0.        ],
       [ 0.3627811 , -0.        , -0.3542348 ,  0.30222318, -0.43225062,
         0.65895593, -0.20406544, -0.51041114, -0.6194078 ,  0.        ],
       [ 0.8784395 , -0.        ,  0.29396206, -0.483706  ,  0.        ,
        -0.        , -0.3933782 , -0.        , -0.3188739 ,  0.        ],
       [ 0.5625509 ,  0.2488446 ,  0.38697043,  0.63925755, -0.20377171,
        -0.5104967 , -0.6500929 ,  0.        , -0.54448086, -0.28726214],
       [ 0.48958886, -0.27379182, -0.46785402, -0.        ,  0.46633774,
        -0.4979728 ,  0.        , -0.4850128 ,  0.50455284,  0.5392195 ],
       [ 0.7413945 , -0.        , -0.5169964 , -0.        , -0.        ,
        -0.3640136 ,  0.8110016 ,  0.2773943 ,  0.        , -0.40103862],
       [-0.        ,  0.        , -0.56558824, -0.6333762 ,  0.27292216,
        -0.39726448,  0.33353916,  0.48628473,  0.6161024 , -0.        ],
       [ 0.5567332 , -0.18721901,  0.45024362, -0.        , -0.        ,
        -0.        , -0.35105133,  0.        , -0.4068406 ,  0.1984204 ],
       [-0.        , -0.7366888 ,  0.        , -0.        , -0.8009028 ,
        -0.26934555, -0.3317582 ,  0.        ,  0.5922806 ,  0.3982601 ],
       [-0.        ,  0.5766586 , -0.        , -0.        ,  0.6972267 ,
        -0.6077708 ,  0.        , -0.        ,  0.        , -0.24904233],
       [ 0.        , -0.        ,  0.36829978, -0.18204649,  0.        ,
        -0.56337553,  0.        ,  0.5760814 ,  0.        ,  0.        ],
       [-0.        ,  0.26452026,  0.        ,  0.        , -0.60432106,
        -0.5851803 ,  0.        , -0.5811032 ,  0.58461475, -0.        ],
       [-0.7088656 ,  0.31530657, -0.41452825,  0.71471554,  0.        ,
         0.41906816,  0.5637584 , -0.        , -0.        , -0.6440449 ],
       [ 0.        ,  0.35828146, -0.2660921 , -0.4776065 , -0.        ,
         0.62313354, -0.44635886,  0.40373838,  0.        ,  0.        ],
       [-0.        , -0.27820513, -0.35455787,  0.5955786 , -0.        ,
         0.39108407,  0.5535509 , -0.        , -0.        , -0.        ],
       [-0.        , -0.550887  , -0.499267  ,  0.        ,  0.38546038,
        -0.53674394,  0.        ,  0.3105223 ,  0.33539122,  0.        ],
       [-0.        ,  0.31631213,  0.        ,  0.5247932 , -0.        ,
        -0.6718505 , -0.28275177,  0.        , -0.30907056,  0.        ],
       [-0.        , -0.        ,  0.500561  , -0.5433684 ,  0.49357027,
        -0.33400038, -0.41549444, -0.        ,  0.41775373,  0.        ],
       [-0.3719153 , -0.7203789 , -0.2558881 ,  0.41068485,  0.        ,
         0.25915223, -0.34756023,  0.46890923, -0.        ,  0.29395026],
       [-0.53117764, -0.        , -0.50266874,  0.29170567,  0.        ,
         0.5120925 , -0.        , -0.71331185, -0.        ,  0.4870768 ],
       [ 0.3949474 ,  0.        ,  0.25390393, -0.45522836, -0.34036762,
         0.        , -0.        , -0.73403656,  0.56485695, -0.4164704 ],
       [ 0.41132164, -0.        ,  0.6735402 , -0.33545002, -0.        ,
        -0.        , -0.        ,  0.        ,  0.        , -0.48550516],
       [-0.        , -0.5706238 , -0.34886003,  0.        , -0.7187094 ,
         0.        , -0.2870154 ,  0.42549497,  0.41618487,  0.6870274 ],
       [ 0.        ,  0.        ,  0.62086254,  0.        , -0.        ,
         0.44895655, -0.        , -0.44152483, -0.        , -0.        ],
       [-0.        , -0.        ,  0.24961036,  0.42321932, -0.3607473 ,
        -0.2366632 , -0.73768646, -0.2982258 , -0.29882577,  0.44348836],
       [ 0.601483  ,  0.2885237 , -0.        ,  0.5340484 , -0.4820238 ,
        -0.43219832,  0.        ,  0.        ,  0.        ,  0.59841925],
       [-0.52606976, -0.        , -0.5314046 ,  0.4654663 ,  0.        ,
        -0.        , -0.43128532,  0.45151627, -0.        ,  0.        ],
       [ 0.        ,  0.8066823 ,  0.        , -0.        ,  0.56899333,
        -0.5202476 ,  0.        , -0.4086118 ,  0.        , -0.        ],
       [-0.        ,  0.        ,  0.6256448 , -0.2085862 ,  0.        ,
        -0.35262334,  0.35987157, -0.4299915 ,  0.        , -0.34917057],
       [ 0.        ,  0.        , -0.        ,  0.70694345, -0.        ,
         0.        , -0.        , -0.724545  , -0.        , -0.21236114]],
      dtype=float32)
 array([-0.12403809,  0.17680024,  0.11039174, -0.04824672,  0.01720531,
        0.14890206, -0.06096477,  0.19821388, -0.27858692, -0.11018839],
      dtype=float32)]