FC Layer, 300 (Glorot Init.) Original_Weights[array([[ 0.,  0.,  0., ..., -0.,  0.,  0.],
       [ 0., -0., -0., ..., -0.,  0., -0.],
       [ 0.,  0., -0., ..., -0., -0., -0.],
       ...,
       [ 0.,  0., -0., ...,  0.,  0.,  0.],
       [ 0., -0., -0., ...,  0.,  0., -0.],
       [-0., -0., -0., ..., -0., -0., -0.]], dtype=float32)
 array([-0.23478974,  0.06219658,  0.        ,  0.25800207,  0.        ,
        0.16739602,  0.14214934,  0.03914991,  0.        ,  0.16197982,
        0.02992522,  0.16963693, -0.15574108,  0.        , -0.0228985 ,
        0.27277607,  0.        ,  0.        ,  0.        , -0.4363333 ,
        0.        ,  0.03500104,  0.        ,  0.        ,  0.14805636,
       -0.09024381,  0.        ,  0.        ,  0.        , -0.10871865,
        0.        , -0.1645382 ,  0.        ,  0.02720169, -0.10857008,
       -0.05141518,  0.        , -0.29329982,  0.        ,  0.        ,
        0.        ,  0.        ,  0.        ,  0.13388413,  0.        ,
        0.        ,  0.        ,  0.23175594,  0.16697675,  0.        ,
       -0.4078947 , -0.17577861, -0.34560072, -0.24143279,  0.        ,
        0.        ,  0.13736932,  0.        ,  0.        , -0.02359174,
       -0.20914969,  0.        ,  0.        ,  0.        ,  0.        ,
        0.1444416 ,  0.        ,  0.06927258,  0.18404707,  0.        ,
        0.07637503,  0.        ,  0.        ,  0.        ,  0.        ,
        0.        ,  0.        , -0.01797391,  0.        ,  0.        ,
        0.        ,  0.        , -0.27063543,  0.        ,  0.        ,
        0.05327567,  0.37351665,  0.        ,  0.        , -0.3696814 ,
        0.        , -0.29438165, -0.29234278, -0.24215324, -0.30875596,
        0.        ,  0.        ,  0.        ,  0.        ,  0.31720704,
       -0.00367831, -0.14691427, -0.17726998,  0.        ,  0.        ,
        0.23527695,  0.        ,  0.27797058, -0.4684604 ,  0.        ,
       -0.16094464, -0.03919175,  0.        ,  0.        ,  0.        ,
        0.        , -0.09998337,  0.        ,  0.        , -0.22614501,
        0.        , -0.15790051, -0.30013683,  0.19124472,  0.        ,
        0.02417583,  0.        , -0.04825698, -0.46973443, -0.14451125,
       -0.01568018,  0.        ,  0.        ,  0.        ,  0.        ,
        0.        ,  0.        ,  0.        , -0.15773271,  0.        ,
        0.        ,  0.33766818,  0.04749487,  0.        ,  0.0515072 ,
        0.01547826,  0.        , -0.19292553, -0.02497546,  0.        ,
        0.        ,  0.04491483,  0.10124122,  0.        ,  0.        ,
       -0.2556889 ,  0.        ,  0.        , -0.24301937, -0.44250196,
        0.        ,  0.        ,  0.1323221 ,  0.        ,  0.        ,
        0.45217365,  0.23023593,  0.        , -0.13993098,  0.03912085,
        0.        ,  0.        ,  0.        ,  0.        ,  0.        ,
        0.        , -0.13966283, -0.27900046, -0.06570952,  0.        ,
        0.        ,  0.        , -0.01220978, -0.0735643 ,  0.        ,
        0.05183682,  0.21833603,  0.20961055,  0.        ,  0.        ,
        0.        ,  0.28662053,  0.07680315,  0.        ,  0.        ,
        0.        ,  0.04257955,  0.21488494,  0.1646388 ,  0.        ,
        0.        ,  0.08905708,  0.        ,  0.33363527, -0.1732263 ,
        0.        , -0.35026705, -0.3966137 ,  0.        ,  0.        ,
        0.        , -0.00504916,  0.34028015, -0.3930223 ,  0.        ,
        0.        ,  0.05678802,  0.        ,  0.        ,  0.        ,
       -0.24773619,  0.        ,  0.16400348, -0.11711622,  0.        ,
        0.        ,  0.        ,  0.        ,  0.        ,  0.        ,
       -0.08133   , -0.2795811 ,  0.        ,  0.        ,  0.        ,
       -0.48621926,  0.        ,  0.        ,  0.        ,  0.        ,
       -0.12390205, -0.10329382,  0.        ,  0.        ,  0.        ,
        0.1459616 ,  0.45227292, -0.20577784,  0.        ,  0.082041  ,
       -0.11536144,  0.        ,  0.        , -0.16339484,  0.        ,
        0.        ,  0.        ,  0.        ,  0.        ,  0.        ,
        0.        ,  0.        ,  0.        ,  0.        , -0.00573769,
        0.        ,  0.09938302,  0.        ,  0.        ,  0.        ,
        0.        , -0.2174962 ,  0.        , -0.26313958,  0.        ,
        0.22465648,  0.        ,  0.0710773 , -0.05271353,  0.7644597 ,
       -0.03485102,  0.08951011,  0.        ,  0.        ,  0.        ,
       -0.26859972, -0.31203297, -0.03855754,  0.        ,  0.        ,
        0.        ,  0.        , -0.08667867,  0.31528133,  0.        ,
        0.        ,  0.        , -0.19969732,  0.        ,  0.        ],
      dtype=float32)]FC Layer, 100 (Glorot Init.) Original_Weights[array([[-0., -0.,  0., ...,  0., -0., -0.],
       [ 0.,  0., -0., ..., -0., -0., -0.],
       [-0.,  0.,  0., ...,  0.,  0., -0.],
       ...,
       [ 0., -0.,  0., ...,  0., -0., -0.],
       [ 0.,  0.,  0., ..., -0.,  0., -0.],
       [ 0., -0.,  0., ...,  0., -0.,  0.]], dtype=float32)
 array([ 0.00000000e+00,  0.00000000e+00,  3.36321384e-01,  0.00000000e+00,
        0.00000000e+00,  4.50832658e-02,  6.15235381e-02, -1.25839666e-01,
        0.00000000e+00, -5.03033139e-02, -1.16001815e-01,  0.00000000e+00,
        2.38071099e-01,  9.78878215e-02,  9.32575390e-02, -1.53654814e-01,
        4.43931611e-04, -8.43982920e-02,  3.72996539e-01,  0.00000000e+00,
       -1.21796469e-03,  7.33230859e-02,  4.56780195e-01, -7.63777941e-02,
        2.28966117e-01,  2.63669968e-01, -4.21515971e-01, -2.65482038e-01,
        1.46314681e-01,  0.00000000e+00,  1.91021621e-01,  9.96640250e-02,
        6.33455738e-02,  0.00000000e+00, -3.63764167e-03, -1.60701677e-01,
        0.00000000e+00,  0.00000000e+00, -6.29440770e-02,  2.04490758e-02,
       -4.94668186e-01,  0.00000000e+00, -2.50376761e-01, -8.49703699e-02,
        0.00000000e+00, -2.12718457e-01, -8.91783014e-02,  2.27160901e-01,
       -1.06507242e-01,  0.00000000e+00,  0.00000000e+00,  2.46414304e-01,
        8.37352648e-02,  0.00000000e+00,  0.00000000e+00,  6.06352150e-01,
        1.55096561e-01,  0.00000000e+00, -3.10751259e-01,  0.00000000e+00,
        6.71888934e-03,  0.00000000e+00, -6.83148904e-03,  4.57239673e-02,
        3.22713181e-02,  0.00000000e+00,  0.00000000e+00,  0.00000000e+00,
       -1.61648437e-01,  1.23107500e-01, -2.70189792e-01,  3.81450117e-01,
        0.00000000e+00,  0.00000000e+00,  0.00000000e+00,  2.23142549e-01,
        1.16448238e-01,  5.43979667e-02, -3.06829780e-01,  9.03141126e-02,
       -1.44564494e-01,  0.00000000e+00,  1.71511069e-01,  0.00000000e+00,
        0.00000000e+00,  0.00000000e+00,  6.83219582e-02, -1.82975367e-01,
        0.00000000e+00, -4.69411835e-02, -2.06682786e-01, -2.71563619e-01,
       -2.08719313e-01, -8.64500552e-02, -2.58269086e-02,  1.41594419e-02,
        7.48018503e-01,  1.02224071e-02,  5.96412132e-03,  0.00000000e+00],
      dtype=float32)]FC Layer, 10 (Softmax) Original_Weights[array([[ 0.0000000e+00, -0.0000000e+00,  0.0000000e+00, -0.0000000e+00,
        -0.0000000e+00, -0.0000000e+00,  0.0000000e+00,  0.0000000e+00,
         0.0000000e+00,  0.0000000e+00],
       [-0.0000000e+00, -0.0000000e+00,  0.0000000e+00,  0.0000000e+00,
         0.0000000e+00, -0.0000000e+00,  0.0000000e+00,  0.0000000e+00,
        -0.0000000e+00, -0.0000000e+00],
       [-0.0000000e+00,  0.0000000e+00,  0.0000000e+00,  0.0000000e+00,
         1.9067229e+00, -0.0000000e+00,  0.0000000e+00,  2.0261073e+00,
        -2.0303721e+00,  0.0000000e+00],
       [ 0.0000000e+00,  0.0000000e+00, -0.0000000e+00, -0.0000000e+00,
        -0.0000000e+00, -0.0000000e+00, -0.0000000e+00,  0.0000000e+00,
        -0.0000000e+00, -0.0000000e+00],
       [ 0.0000000e+00,  0.0000000e+00, -0.0000000e+00,  0.0000000e+00,
        -0.0000000e+00, -0.0000000e+00,  0.0000000e+00,  0.0000000e+00,
        -0.0000000e+00,  0.0000000e+00],
       [-0.0000000e+00, -0.0000000e+00, -0.0000000e+00,  0.0000000e+00,
        -0.0000000e+00, -0.0000000e+00, -2.2130823e+00, -0.0000000e+00,
         0.0000000e+00,  0.0000000e+00],
       [ 0.0000000e+00,  0.0000000e+00, -0.0000000e+00, -1.7178029e+00,
        -0.0000000e+00, -0.0000000e+00,  0.0000000e+00, -2.1154695e+00,
         0.0000000e+00,  0.0000000e+00],
       [ 0.0000000e+00, -0.0000000e+00, -0.0000000e+00,  0.0000000e+00,
        -0.0000000e+00, -0.0000000e+00,  0.0000000e+00, -2.3832655e+00,
         0.0000000e+00,  0.0000000e+00],
       [ 0.0000000e+00, -0.0000000e+00, -0.0000000e+00, -0.0000000e+00,
         0.0000000e+00,  0.0000000e+00,  0.0000000e+00, -0.0000000e+00,
        -0.0000000e+00, -0.0000000e+00],
       [ 0.0000000e+00,  1.7840098e+00, -0.0000000e+00,  0.0000000e+00,
         0.0000000e+00,  0.0000000e+00,  1.3613703e+00,  0.0000000e+00,
        -0.0000000e+00, -0.0000000e+00],
       [-0.0000000e+00, -0.0000000e+00, -0.0000000e+00,  0.0000000e+00,
         0.0000000e+00, -0.0000000e+00, -1.8968140e+00, -0.0000000e+00,
        -0.0000000e+00,  0.0000000e+00],
       [-0.0000000e+00,  0.0000000e+00, -0.0000000e+00, -0.0000000e+00,
        -0.0000000e+00,  0.0000000e+00, -0.0000000e+00,  0.0000000e+00,
         0.0000000e+00, -0.0000000e+00],
       [ 0.0000000e+00, -0.0000000e+00,  0.0000000e+00,  0.0000000e+00,
        -0.0000000e+00, -0.0000000e+00,  0.0000000e+00, -0.0000000e+00,
        -1.9649389e+00,  0.0000000e+00],
       [-0.0000000e+00, -0.0000000e+00,  0.0000000e+00,  2.3391440e+00,
         0.0000000e+00,  0.0000000e+00,  0.0000000e+00,  0.0000000e+00,
        -0.0000000e+00, -0.0000000e+00],
       [-0.0000000e+00, -0.0000000e+00,  0.0000000e+00, -0.0000000e+00,
         1.9512156e+00,  0.0000000e+00,  0.0000000e+00,  0.0000000e+00,
        -0.0000000e+00, -0.0000000e+00],
       [ 0.0000000e+00, -0.0000000e+00, -0.0000000e+00,  0.0000000e+00,
        -0.0000000e+00, -1.6602265e+00, -0.0000000e+00, -0.0000000e+00,
         0.0000000e+00,  0.0000000e+00],
       [-0.0000000e+00, -0.0000000e+00,  0.0000000e+00, -2.6054862e+00,
         0.0000000e+00, -0.0000000e+00, -0.0000000e+00, -0.0000000e+00,
        -0.0000000e+00,  0.0000000e+00],
       [-0.0000000e+00,  0.0000000e+00,  0.0000000e+00, -0.0000000e+00,
         0.0000000e+00, -2.4289017e+00, -0.0000000e+00, -0.0000000e+00,
        -0.0000000e+00,  0.0000000e+00],
       [ 0.0000000e+00, -0.0000000e+00, -0.0000000e+00,  0.0000000e+00,
        -0.0000000e+00, -0.0000000e+00, -0.0000000e+00,  0.0000000e+00,
        -1.4720384e+00,  0.0000000e+00],
       [-0.0000000e+00,  0.0000000e+00,  0.0000000e+00,  0.0000000e+00,
         0.0000000e+00,  0.0000000e+00,  0.0000000e+00, -0.0000000e+00,
        -0.0000000e+00, -0.0000000e+00],
       [ 0.0000000e+00, -0.0000000e+00,  1.2392972e-03,  0.0000000e+00,
        -0.0000000e+00, -0.0000000e+00,  0.0000000e+00, -0.0000000e+00,
         0.0000000e+00,  0.0000000e+00],
       [-0.0000000e+00,  0.0000000e+00, -1.0541273e+00, -0.0000000e+00,
        -0.0000000e+00,  0.0000000e+00,  2.5647097e+00, -0.0000000e+00,
         0.0000000e+00, -0.0000000e+00],
       [ 0.0000000e+00,  0.0000000e+00,  2.0912056e+00,  0.0000000e+00,
        -0.0000000e+00, -0.0000000e+00,  0.0000000e+00, -0.0000000e+00,
         0.0000000e+00,  0.0000000e+00],
       [ 0.0000000e+00, -1.7490467e+00, -0.0000000e+00,  0.0000000e+00,
        -0.0000000e+00, -0.0000000e+00, -0.0000000e+00,  0.0000000e+00,
         0.0000000e+00,  0.0000000e+00],
       [-0.0000000e+00, -0.0000000e+00, -0.0000000e+00,  0.0000000e+00,
        -0.0000000e+00, -0.0000000e+00,  0.0000000e+00,  1.7658051e+00,
         0.0000000e+00,  0.0000000e+00],
       [-2.6892431e+00,  0.0000000e+00,  0.0000000e+00, -0.0000000e+00,
        -0.0000000e+00, -0.0000000e+00, -1.8222953e+00, -0.0000000e+00,
        -0.0000000e+00,  0.0000000e+00],
       [-0.0000000e+00,  0.0000000e+00, -0.0000000e+00, -0.0000000e+00,
         2.7478073e+00,  0.0000000e+00, -0.0000000e+00, -2.7631638e+00,
         0.0000000e+00,  0.0000000e+00],
       [ 0.0000000e+00, -0.0000000e+00, -0.0000000e+00,  0.0000000e+00,
        -0.0000000e+00, -0.0000000e+00,  0.0000000e+00, -0.0000000e+00,
         2.7792408e+00,  0.0000000e+00],
       [-0.0000000e+00,  0.0000000e+00, -0.0000000e+00, -2.3931935e+00,
         0.0000000e+00,  0.0000000e+00,  0.0000000e+00,  0.0000000e+00,
        -0.0000000e+00, -0.0000000e+00],
       [ 0.0000000e+00,  0.0000000e+00, -0.0000000e+00, -0.0000000e+00,
         0.0000000e+00, -0.0000000e+00, -0.0000000e+00,  0.0000000e+00,
         0.0000000e+00, -0.0000000e+00],
       [-0.0000000e+00, -0.0000000e+00, -0.0000000e+00,  0.0000000e+00,
         0.0000000e+00, -0.0000000e+00,  0.0000000e+00,  0.0000000e+00,
        -2.4078906e+00, -0.0000000e+00],
       [-0.0000000e+00,  0.0000000e+00,  0.0000000e+00, -1.5333184e+00,
         1.0994862e+00,  0.0000000e+00,  0.0000000e+00,  0.0000000e+00,
         0.0000000e+00,  2.1827121e+00],
       [ 0.0000000e+00, -2.8966417e+00, -1.9466056e+00,  0.0000000e+00,
        -0.0000000e+00, -0.0000000e+00,  0.0000000e+00, -0.0000000e+00,
         0.0000000e+00,  0.0000000e+00],
       [ 0.0000000e+00,  0.0000000e+00, -0.0000000e+00,  0.0000000e+00,
        -0.0000000e+00, -0.0000000e+00,  0.0000000e+00, -0.0000000e+00,
        -0.0000000e+00,  0.0000000e+00],
       [ 1.7324042e+00,  0.0000000e+00, -0.0000000e+00,  0.0000000e+00,
         0.0000000e+00, -0.0000000e+00, -0.0000000e+00,  0.0000000e+00,
        -0.0000000e+00,  0.0000000e+00],
       [ 2.5847595e+00,  0.0000000e+00,  0.0000000e+00,  0.0000000e+00,
        -0.0000000e+00, -0.0000000e+00,  2.3860195e+00, -0.0000000e+00,
        -0.0000000e+00, -0.0000000e+00],
       [-0.0000000e+00, -0.0000000e+00, -0.0000000e+00, -0.0000000e+00,
         0.0000000e+00,  0.0000000e+00,  0.0000000e+00,  0.0000000e+00,
         0.0000000e+00, -0.0000000e+00],
       [ 0.0000000e+00,  0.0000000e+00, -0.0000000e+00, -0.0000000e+00,
        -0.0000000e+00, -0.0000000e+00,  0.0000000e+00,  0.0000000e+00,
         0.0000000e+00,  0.0000000e+00],
       [-0.0000000e+00,  2.6906450e+00,  0.0000000e+00, -0.0000000e+00,
         0.0000000e+00,  0.0000000e+00,  0.0000000e+00,  0.0000000e+00,
        -0.0000000e+00, -0.0000000e+00],
       [-0.0000000e+00,  2.4257061e+00, -0.0000000e+00,  0.0000000e+00,
        -0.0000000e+00, -0.0000000e+00, -0.0000000e+00,  0.0000000e+00,
        -0.0000000e+00,  0.0000000e+00],
       [ 0.0000000e+00, -0.0000000e+00, -0.0000000e+00, -0.0000000e+00,
        -0.0000000e+00, -2.4760096e+00, -3.3647258e+00, -0.0000000e+00,
         0.0000000e+00,  0.0000000e+00],
       [-0.0000000e+00, -0.0000000e+00,  0.0000000e+00, -0.0000000e+00,
         0.0000000e+00,  0.0000000e+00,  0.0000000e+00,  0.0000000e+00,
        -0.0000000e+00, -0.0000000e+00],
       [-0.0000000e+00, -0.0000000e+00,  1.7631099e+00,  0.0000000e+00,
         0.0000000e+00, -0.0000000e+00,  0.0000000e+00,  0.0000000e+00,
        -0.0000000e+00, -0.0000000e+00],
       [ 0.0000000e+00,  0.0000000e+00,  0.0000000e+00, -0.0000000e+00,
         0.0000000e+00,  0.0000000e+00,  0.0000000e+00,  0.0000000e+00,
        -0.0000000e+00,  2.1648517e+00],
       [ 0.0000000e+00, -0.0000000e+00, -0.0000000e+00,  0.0000000e+00,
        -0.0000000e+00, -0.0000000e+00,  0.0000000e+00, -0.0000000e+00,
         0.0000000e+00,  0.0000000e+00],
       [-0.0000000e+00, -0.0000000e+00, -0.0000000e+00, -0.0000000e+00,
         0.0000000e+00, -2.5155098e+00,  0.0000000e+00,  0.0000000e+00,
        -0.0000000e+00,  0.0000000e+00],
       [-0.0000000e+00, -0.0000000e+00, -2.8247793e+00, -0.0000000e+00,
         0.0000000e+00,  0.0000000e+00,  0.0000000e+00, -0.0000000e+00,
         0.0000000e+00, -0.0000000e+00],
       [ 0.0000000e+00, -0.0000000e+00, -0.0000000e+00, -0.0000000e+00,
        -0.0000000e+00,  0.0000000e+00, -0.0000000e+00,  0.0000000e+00,
        -2.1361651e+00,  0.0000000e+00],
       [-0.0000000e+00, -0.0000000e+00,  0.0000000e+00, -0.0000000e+00,
        -0.0000000e+00,  0.0000000e+00,  0.0000000e+00,  0.0000000e+00,
         2.1265545e+00, -1.6142322e+00],
       [ 0.0000000e+00, -0.0000000e+00, -0.0000000e+00, -0.0000000e+00,
        -0.0000000e+00, -0.0000000e+00,  0.0000000e+00,  0.0000000e+00,
         0.0000000e+00,  0.0000000e+00],
       [ 0.0000000e+00,  0.0000000e+00, -0.0000000e+00, -0.0000000e+00,
         0.0000000e+00,  0.0000000e+00, -0.0000000e+00,  0.0000000e+00,
         0.0000000e+00, -0.0000000e+00],
       [-0.0000000e+00, -0.0000000e+00,  0.0000000e+00, -0.0000000e+00,
        -2.3696046e+00,  0.0000000e+00,  0.0000000e+00, -0.0000000e+00,
        -0.0000000e+00,  0.0000000e+00],
       [-0.0000000e+00,  0.0000000e+00, -1.0164140e+00, -0.0000000e+00,
         0.0000000e+00, -0.0000000e+00, -0.0000000e+00, -0.0000000e+00,
        -0.0000000e+00, -0.0000000e+00],
       [-0.0000000e+00, -0.0000000e+00,  0.0000000e+00,  0.0000000e+00,
        -0.0000000e+00,  0.0000000e+00,  0.0000000e+00, -0.0000000e+00,
        -0.0000000e+00, -0.0000000e+00],
       [ 0.0000000e+00,  0.0000000e+00, -0.0000000e+00, -0.0000000e+00,
         0.0000000e+00,  0.0000000e+00, -0.0000000e+00, -0.0000000e+00,
        -0.0000000e+00, -0.0000000e+00],
       [-0.0000000e+00,  0.0000000e+00,  0.0000000e+00, -0.0000000e+00,
         0.0000000e+00,  1.8633730e+00,  2.3809402e+00,  0.0000000e+00,
        -0.0000000e+00, -0.0000000e+00],
       [ 0.0000000e+00,  2.7724383e+00,  0.0000000e+00,  0.0000000e+00,
         0.0000000e+00, -0.0000000e+00, -0.0000000e+00, -0.0000000e+00,
        -0.0000000e+00,  0.0000000e+00],
       [-0.0000000e+00,  0.0000000e+00, -0.0000000e+00, -0.0000000e+00,
         0.0000000e+00, -0.0000000e+00,  0.0000000e+00,  0.0000000e+00,
        -0.0000000e+00,  0.0000000e+00],
       [-0.0000000e+00,  0.0000000e+00, -0.0000000e+00, -0.0000000e+00,
         0.0000000e+00,  0.0000000e+00, -0.0000000e+00, -1.3086351e+00,
         0.0000000e+00, -0.0000000e+00],
       [ 0.0000000e+00, -0.0000000e+00,  0.0000000e+00,  0.0000000e+00,
        -0.0000000e+00,  0.0000000e+00, -0.0000000e+00, -0.0000000e+00,
         0.0000000e+00, -0.0000000e+00],
       [-0.0000000e+00,  0.0000000e+00,  0.0000000e+00, -0.0000000e+00,
         0.0000000e+00,  1.8593942e+00,  0.0000000e+00,  0.0000000e+00,
         0.0000000e+00, -0.0000000e+00],
       [-0.0000000e+00, -0.0000000e+00,  0.0000000e+00,  0.0000000e+00,
        -0.0000000e+00, -0.0000000e+00, -0.0000000e+00,  0.0000000e+00,
        -0.0000000e+00,  0.0000000e+00],
       [ 0.0000000e+00,  0.0000000e+00, -0.0000000e+00,  0.0000000e+00,
        -0.0000000e+00,  0.0000000e+00, -0.0000000e+00,  0.0000000e+00,
         0.0000000e+00, -1.6186392e+00],
       [ 1.8696648e+00, -0.0000000e+00,  0.0000000e+00, -0.0000000e+00,
         0.0000000e+00, -0.0000000e+00,  0.0000000e+00,  0.0000000e+00,
        -0.0000000e+00, -0.0000000e+00],
       [ 0.0000000e+00,  0.0000000e+00,  1.5690002e+00, -0.0000000e+00,
         0.0000000e+00,  0.0000000e+00, -0.0000000e+00,  0.0000000e+00,
         0.0000000e+00, -0.0000000e+00],
       [ 0.0000000e+00, -0.0000000e+00,  0.0000000e+00, -0.0000000e+00,
        -0.0000000e+00, -0.0000000e+00, -0.0000000e+00,  0.0000000e+00,
         0.0000000e+00,  0.0000000e+00],
       [ 0.0000000e+00,  0.0000000e+00, -0.0000000e+00,  0.0000000e+00,
         0.0000000e+00, -0.0000000e+00, -0.0000000e+00, -0.0000000e+00,
        -0.0000000e+00,  0.0000000e+00],
       [-0.0000000e+00, -0.0000000e+00,  0.0000000e+00,  0.0000000e+00,
        -0.0000000e+00,  0.0000000e+00, -0.0000000e+00, -0.0000000e+00,
        -0.0000000e+00,  0.0000000e+00],
       [-0.0000000e+00, -0.0000000e+00,  0.0000000e+00, -0.0000000e+00,
        -0.0000000e+00,  0.0000000e+00, -0.0000000e+00,  0.0000000e+00,
         0.0000000e+00,  1.7527457e+00],
       [ 0.0000000e+00,  0.0000000e+00,  0.0000000e+00, -0.0000000e+00,
        -0.0000000e+00, -0.0000000e+00, -0.0000000e+00,  2.8231978e+00,
        -0.0000000e+00,  0.0000000e+00],
       [ 0.0000000e+00,  0.0000000e+00,  0.0000000e+00,  0.0000000e+00,
        -0.0000000e+00, -0.0000000e+00,  2.2156155e+00, -0.0000000e+00,
        -0.0000000e+00, -0.0000000e+00],
       [ 0.0000000e+00,  0.0000000e+00, -0.0000000e+00,  0.0000000e+00,
        -0.0000000e+00,  2.2082431e+00, -0.0000000e+00, -0.0000000e+00,
         0.0000000e+00,  0.0000000e+00],
       [ 0.0000000e+00,  0.0000000e+00, -0.0000000e+00,  0.0000000e+00,
        -0.0000000e+00, -0.0000000e+00, -0.0000000e+00,  0.0000000e+00,
         0.0000000e+00,  0.0000000e+00],
       [ 0.0000000e+00,  0.0000000e+00, -0.0000000e+00, -0.0000000e+00,
         0.0000000e+00, -0.0000000e+00,  0.0000000e+00,  0.0000000e+00,
        -0.0000000e+00,  0.0000000e+00],
       [-0.0000000e+00,  0.0000000e+00, -0.0000000e+00,  0.0000000e+00,
        -0.0000000e+00, -0.0000000e+00,  0.0000000e+00, -0.0000000e+00,
        -0.0000000e+00,  0.0000000e+00],
       [ 1.3029754e+00,  0.0000000e+00, -0.0000000e+00, -0.0000000e+00,
         0.0000000e+00,  0.0000000e+00,  2.0579901e+00,  0.0000000e+00,
         0.0000000e+00, -0.0000000e+00],
       [-0.0000000e+00, -0.0000000e+00,  0.0000000e+00, -2.8437757e+00,
        -0.0000000e+00, -3.2084131e+00,  0.0000000e+00,  0.0000000e+00,
         0.0000000e+00,  0.0000000e+00],
       [ 1.3610361e+00,  0.0000000e+00, -0.0000000e+00,  0.0000000e+00,
         0.0000000e+00,  0.0000000e+00,  0.0000000e+00,  0.0000000e+00,
        -1.6226225e+00, -0.0000000e+00],
       [-0.0000000e+00, -3.6018643e+00, -0.0000000e+00,  0.0000000e+00,
        -3.8797078e+00, -0.0000000e+00,  0.0000000e+00, -0.0000000e+00,
        -0.0000000e+00,  0.0000000e+00],
       [-0.0000000e+00,  1.6939827e+00,  0.0000000e+00, -0.0000000e+00,
        -0.0000000e+00, -2.8023341e+00, -0.0000000e+00, -0.0000000e+00,
        -0.0000000e+00,  0.0000000e+00],
       [-0.0000000e+00,  0.0000000e+00,  0.0000000e+00, -0.0000000e+00,
         0.0000000e+00, -1.6904438e+00,  0.0000000e+00, -0.0000000e+00,
        -0.0000000e+00, -0.0000000e+00],
       [-0.0000000e+00,  0.0000000e+00, -0.0000000e+00, -0.0000000e+00,
        -0.0000000e+00, -0.0000000e+00,  0.0000000e+00, -0.0000000e+00,
         0.0000000e+00,  0.0000000e+00],
       [-1.9419252e+00,  0.0000000e+00, -0.0000000e+00,  0.0000000e+00,
        -0.0000000e+00, -0.0000000e+00, -0.0000000e+00, -0.0000000e+00,
         0.0000000e+00,  0.0000000e+00],
       [-0.0000000e+00, -0.0000000e+00,  0.0000000e+00,  0.0000000e+00,
        -0.0000000e+00,  0.0000000e+00, -0.0000000e+00,  0.0000000e+00,
         0.0000000e+00, -0.0000000e+00],
       [ 0.0000000e+00,  0.0000000e+00,  0.0000000e+00, -0.0000000e+00,
         0.0000000e+00,  0.0000000e+00,  0.0000000e+00,  0.0000000e+00,
        -0.0000000e+00, -0.0000000e+00],
       [ 0.0000000e+00,  0.0000000e+00,  0.0000000e+00, -0.0000000e+00,
        -0.0000000e+00,  0.0000000e+00, -0.0000000e+00, -0.0000000e+00,
        -0.0000000e+00, -0.0000000e+00],
       [-0.0000000e+00,  0.0000000e+00,  0.0000000e+00,  1.6669837e+00,
         0.0000000e+00,  0.0000000e+00, -0.0000000e+00, -0.0000000e+00,
        -0.0000000e+00, -0.0000000e+00],
       [-0.0000000e+00,  0.0000000e+00,  0.0000000e+00, -1.7945558e+00,
         0.0000000e+00,  0.0000000e+00,  0.0000000e+00, -0.0000000e+00,
         1.3410814e+00, -0.0000000e+00],
       [ 0.0000000e+00, -0.0000000e+00,  0.0000000e+00,  0.0000000e+00,
         0.0000000e+00, -0.0000000e+00,  0.0000000e+00, -0.0000000e+00,
        -0.0000000e+00, -0.0000000e+00],
       [ 0.0000000e+00,  0.0000000e+00, -0.0000000e+00, -0.0000000e+00,
        -0.0000000e+00, -0.0000000e+00,  0.0000000e+00, -0.0000000e+00,
         0.0000000e+00,  2.4162774e+00],
       [ 0.0000000e+00, -0.0000000e+00, -0.0000000e+00,  0.0000000e+00,
         0.0000000e+00, -0.0000000e+00, -0.0000000e+00, -1.3145834e+00,
        -0.0000000e+00,  0.0000000e+00],
       [-0.0000000e+00, -0.0000000e+00,  0.0000000e+00, -0.0000000e+00,
         0.0000000e+00,  0.0000000e+00, -0.0000000e+00,  0.0000000e+00,
        -0.0000000e+00, -1.8755410e+00],
       [ 0.0000000e+00,  0.0000000e+00,  0.0000000e+00,  0.0000000e+00,
        -0.0000000e+00, -0.0000000e+00,  0.0000000e+00, -0.0000000e+00,
        -0.0000000e+00,  2.5789690e+00],
       [ 0.0000000e+00, -0.0000000e+00,  2.3049829e+00, -0.0000000e+00,
         0.0000000e+00,  0.0000000e+00, -0.0000000e+00,  0.0000000e+00,
        -0.0000000e+00, -0.0000000e+00],
       [ 0.0000000e+00, -0.0000000e+00, -0.0000000e+00,  0.0000000e+00,
        -1.9914243e+00, -0.0000000e+00, -0.0000000e+00,  0.0000000e+00,
         0.0000000e+00,  0.0000000e+00],
       [ 1.3824699e+00,  0.0000000e+00, -0.0000000e+00,  0.0000000e+00,
        -0.0000000e+00,  0.0000000e+00, -0.0000000e+00,  0.0000000e+00,
         0.0000000e+00, -0.0000000e+00],
       [-2.4453440e+00, -0.0000000e+00,  0.0000000e+00,  0.0000000e+00,
         0.0000000e+00, -0.0000000e+00, -2.9727304e+00, -0.0000000e+00,
        -0.0000000e+00,  0.0000000e+00],
       [ 0.0000000e+00,  1.5008534e+00,  0.0000000e+00, -0.0000000e+00,
        -0.0000000e+00, -0.0000000e+00, -0.0000000e+00, -0.0000000e+00,
         0.0000000e+00,  0.0000000e+00],
       [ 0.0000000e+00,  0.0000000e+00,  2.1614354e+00,  0.0000000e+00,
         0.0000000e+00,  0.0000000e+00,  0.0000000e+00,  0.0000000e+00,
         0.0000000e+00, -0.0000000e+00],
       [ 0.0000000e+00,  0.0000000e+00, -0.0000000e+00,  0.0000000e+00,
        -0.0000000e+00, -0.0000000e+00, -0.0000000e+00, -0.0000000e+00,
         0.0000000e+00,  0.0000000e+00]], dtype=float32)
 array([-0.08637359,  0.14379188, -0.05008479,  0.28088486, -0.02647538,
        0.2345792 ,  0.055939  ,  0.5669695 , -0.75551033, -0.26020527],
      dtype=float32)]