FC Layer, 300 (Glorot Init.) Original_Weights[array([[ 0.06812921,  0.        ,  0.        , ..., -0.        ,
         0.        ,  0.        ],
       [ 0.        , -0.        , -0.        , ..., -0.04248241,
         0.        , -0.04065768],
       [ 0.05752833,  0.        , -0.        , ..., -0.        ,
        -0.        , -0.        ],
       ...,
       [ 0.        ,  0.        , -0.06137045, ...,  0.        ,
         0.04515614,  0.        ],
       [ 0.05301665, -0.04368319, -0.        , ...,  0.        ,
         0.        , -0.        ],
       [-0.04747194, -0.06624366, -0.0671228 , ..., -0.        ,
        -0.        , -0.        ]], dtype=float32)
 array([-3.57150510e-02,  6.80040289e-03,  1.34250179e-01,  7.76618943e-02,
       -1.67255029e-01, -6.32824451e-02,  1.37839407e-01,  2.19379347e-02,
        5.33994548e-02,  4.62847166e-02,  4.86747362e-02, -3.29937562e-02,
        1.67188063e-01,  2.26487052e-02,  7.78555050e-02,  1.31529912e-01,
       -2.00313819e-03, -2.93426633e-01, -1.06738798e-01,  1.74431399e-01,
       -3.48275341e-02, -1.18928432e-01,  8.07906780e-03,  1.05487453e-02,
        2.50046223e-01, -8.93205181e-02,  5.38088083e-02,  1.76097883e-03,
        3.41249444e-02, -7.55176619e-02,  1.83479711e-02,  6.02004193e-02,
       -1.84500944e-02, -1.19861886e-01, -2.23214049e-02,  1.84392244e-01,
        7.41415992e-02,  4.20600101e-02,  2.75354423e-02, -2.10468933e-01,
       -1.35488585e-01, -1.77571043e-01, -3.92878279e-02, -1.50096953e-01,
       -8.88941810e-02, -7.58016407e-02,  1.76607579e-01, -2.09724531e-01,
       -2.11796597e-01,  1.39701307e-01, -3.90323289e-02,  1.69827673e-03,
        2.05621019e-01, -3.59695405e-02, -4.73262630e-02,  7.07752034e-02,
        1.66752353e-01, -5.86403385e-02,  5.23055792e-02,  1.26263261e-01,
        5.88253997e-02, -9.50737596e-02,  1.86296478e-02,  1.71572134e-01,
        1.32976472e-01, -2.36004844e-01,  2.36163437e-01,  3.51759754e-02,
        1.41887426e-01,  8.68578628e-02, -1.77886665e-01, -1.68604806e-01,
       -2.91334204e-02, -9.25365090e-02,  1.74483389e-01,  1.50943324e-01,
        4.60520424e-02,  5.13425581e-02, -3.48831341e-02,  1.35828629e-01,
        1.36978462e-01, -3.81258130e-02,  1.03959583e-01,  1.42167851e-01,
        2.00307611e-02,  1.87104106e-01, -1.54137298e-01,  8.41405466e-02,
       -6.96482137e-02, -1.66636735e-01,  6.28164783e-02,  3.11360229e-02,
        2.88353898e-02,  1.16269268e-01,  5.73015064e-02, -1.65542692e-01,
       -1.09837376e-01,  1.09246165e-01,  4.94067781e-02,  4.10109013e-02,
       -1.95302039e-01,  8.62857774e-02,  1.29898056e-01, -8.44655931e-02,
        5.82982004e-02, -5.92003996e-03, -1.41189843e-01, -8.29176158e-02,
       -3.37935165e-02,  5.07778339e-02, -8.83223563e-02,  1.62395969e-01,
        2.10619524e-01, -6.84655309e-02,  2.71135062e-01,  2.33870912e-02,
        1.05425201e-01, -1.70059800e-01,  1.59878600e-02, -4.49892022e-02,
        1.02406079e-02, -1.28672406e-01,  6.24346435e-02,  1.20090142e-01,
       -1.33489400e-01,  2.60104090e-01, -1.45699114e-01,  2.89056033e-01,
       -2.00752273e-01, -7.51583353e-02, -8.82750452e-02,  2.81911734e-02,
        9.70842019e-02,  1.09536409e-01,  1.72670856e-01,  1.69845700e-01,
       -1.16053887e-01,  5.56344427e-02,  1.72389895e-02, -1.33040667e-01,
       -1.78664938e-01, -1.40264153e-01,  1.61797982e-02,  8.22431818e-02,
        7.57415518e-02,  8.70737135e-02, -3.50876637e-02, -2.37812728e-01,
       -7.27831051e-02,  1.21104218e-01,  1.20060652e-01,  7.11911544e-02,
        1.20523311e-02,  1.69302419e-01, -1.80324659e-01,  1.19333163e-01,
       -1.02546714e-01,  7.19171539e-02,  2.63270158e-02,  7.00650364e-02,
       -5.38532026e-02, -1.87948257e-01, -1.40597686e-01,  2.73993630e-02,
       -1.91006452e-01, -2.98337489e-01,  6.23689964e-02,  8.52709115e-02,
       -2.86509413e-02, -4.32958119e-02, -7.43949935e-02,  7.40735978e-02,
       -1.26410753e-01, -4.06682491e-02,  5.48439957e-02,  1.60880938e-01,
        2.24190969e-02,  1.43807918e-01, -1.17069922e-01, -6.02141432e-02,
        1.13092817e-01, -2.85270959e-02,  1.26592278e-01,  1.38261482e-01,
       -9.94338691e-02,  1.22587599e-01,  3.39496285e-02, -5.27478270e-02,
        1.71525002e-01, -8.80657055e-04, -1.04656428e-01,  8.62210616e-02,
        1.30370125e-01, -3.33885960e-02, -5.20010106e-02,  4.04375494e-02,
       -8.33441466e-02,  1.29181623e-01,  3.07474345e-01,  6.98248744e-02,
        9.10530146e-03, -3.32405716e-02, -4.11260016e-02,  9.72536579e-02,
       -1.28745079e-01, -4.08162177e-02,  1.51436597e-01, -2.37617493e-02,
       -1.17255993e-01, -5.48740700e-02, -1.47971353e-02, -7.88300782e-02,
        9.34229940e-02, -1.97720602e-01, -1.65979820e-03, -1.04770968e-02,
        6.90797940e-02, -1.40516892e-01, -6.80783167e-02,  3.42356451e-02,
       -1.56094864e-01,  2.37666726e-01, -2.44695976e-01,  7.36036077e-02,
       -3.47738527e-02, -1.59539934e-02, -4.35843952e-02, -7.20251724e-02,
       -2.03202009e-01, -7.37909004e-02, -1.59217268e-01,  2.15456598e-02,
        1.09444596e-01,  4.10986245e-02,  4.18632515e-02,  2.01827716e-02,
        1.43653437e-01, -3.88554707e-02, -6.56557009e-02, -1.52214214e-01,
        8.14957991e-02,  1.76985726e-01, -4.47370782e-02, -3.64623159e-01,
       -9.65115950e-02, -1.14674522e-02,  8.64818413e-03,  4.44812439e-02,
        9.20227543e-02, -1.63052920e-02,  1.60386235e-01,  2.27026254e-01,
       -1.60489693e-01,  1.29300714e-01, -1.03401057e-01,  1.69045720e-02,
        1.81805894e-01,  2.89166689e-01,  4.69767787e-02,  4.12677936e-02,
       -1.06038816e-01, -9.09557864e-02,  1.19475871e-01, -6.57069162e-02,
        1.38101988e-02, -2.07094118e-01,  1.58324629e-01, -1.87691808e-01,
       -1.47529379e-01,  1.84257790e-01, -9.70282406e-02, -5.18955886e-02,
       -2.82799156e-04, -5.44180162e-02, -5.67809306e-02, -6.18163273e-02,
        2.09921524e-02,  2.12651566e-01,  8.41321126e-02,  3.49795818e-02,
       -1.25937954e-01, -1.10895060e-01,  1.09328628e-01, -1.21392898e-01,
        4.69105914e-02,  6.60511153e-03, -2.02389229e-02,  5.98820932e-02,
        2.58304805e-01,  4.28096503e-02,  1.03407778e-01,  1.70046426e-02,
        6.30842671e-02, -1.89543456e-01,  1.21187128e-01, -6.08899817e-03,
       -1.38425469e-01, -3.64430714e-03, -3.03049777e-02,  1.86568707e-01],
      dtype=float32)]FC Layer, 100 (Glorot Init.) Original_Weights[array([[ 0.40855438, -0.12025584, -0.        , ...,  0.10612331,
         0.        , -0.        ],
       [ 0.0763362 , -0.26455542, -0.30231434, ...,  0.        ,
         0.20940909, -0.2954548 ],
       [-0.37726104,  0.22961535, -0.17372711, ..., -0.08327709,
        -0.        ,  0.        ],
       ...,
       [ 0.18843953, -0.        ,  0.        , ...,  0.3851784 ,
         0.02720417,  0.34567663],
       [ 0.03176313, -0.10949995, -0.06656516, ..., -0.        ,
         0.05992004,  0.        ],
       [-0.        ,  0.33741876,  0.11012133, ...,  0.00686829,
        -0.24077538,  0.10645088]], dtype=float32)
 array([ 4.63206973e-03,  1.48401288e-02,  9.43303332e-02, -2.30294149e-02,
        3.41344289e-02,  1.69015393e-01, -4.18034941e-02,  3.39848027e-02,
       -2.01711729e-01, -1.20358221e-01, -3.20780352e-02, -2.78845411e-02,
        2.28811979e-01,  1.19845957e-01,  9.40257596e-05, -1.11279681e-01,
        1.13858506e-01, -7.79457614e-02,  2.39816248e-01,  4.88818176e-02,
        7.13832602e-02,  4.87906262e-02,  2.11865410e-01, -2.43839800e-01,
        1.53064415e-01,  1.58649281e-01, -5.66725805e-02, -1.32771030e-01,
       -9.01999101e-02, -1.22097090e-01,  1.46428898e-01,  1.65754315e-02,
       -1.23099700e-01, -9.83866379e-02,  9.01506841e-02, -3.62748629e-03,
       -1.06476426e-01, -9.44801420e-02, -2.59190947e-02,  6.41252175e-02,
       -1.87208027e-01, -1.35849519e-02, -7.18978196e-02, -3.47980894e-02,
       -3.70563306e-02, -2.34829187e-02,  6.36550784e-02,  1.25074565e-01,
       -9.44831818e-02, -1.14993025e-02, -1.39636695e-01, -7.77202621e-02,
        8.20695087e-02, -2.05185458e-01,  4.58728671e-02,  2.15589404e-01,
       -5.32935001e-02, -1.03083052e-01,  1.15364760e-01,  1.86505094e-02,
        8.94648656e-02,  8.31076205e-02, -1.20218825e-02,  1.74748562e-02,
        1.02175791e-02, -2.88375542e-02, -2.13224906e-02,  2.33862638e-01,
       -9.76569131e-02,  6.76259845e-02, -1.09251263e-02,  3.56944576e-02,
       -1.94005426e-02, -1.49118295e-02, -1.11290403e-01, -9.42210183e-02,
       -2.61250231e-03, -4.68042158e-02, -1.44457176e-01, -8.89930874e-03,
        1.18480191e-01, -1.89132065e-01,  4.41894159e-02,  1.39635339e-01,
        9.80208442e-02, -3.39032114e-02,  1.08064776e-02, -3.25992256e-02,
       -4.62948456e-02,  8.55175704e-02, -1.18478984e-01, -1.35007044e-02,
       -1.39584437e-01,  1.51357606e-01,  4.89140414e-02, -1.44502506e-01,
        1.73038878e-02, -6.91074133e-02, -8.15722123e-02, -3.09038386e-02],
      dtype=float32)]FC Layer, 10 (Softmax) Original_Weights[array([[ 0.1426777 ,  0.53707206, -0.3946095 , -0.09573678, -0.39219514,
        -0.40252855, -0.402867  ,  0.17476489,  0.        ,  0.59674233],
       [ 0.        , -0.        , -0.66283935, -0.42834628,  0.25079364,
         0.8952873 ,  0.4508136 , -0.03284572, -0.4161702 ,  0.2447937 ],
       [-0.07842471, -0.1472357 , -0.5574199 ,  0.        ,  0.19442753,
         0.        , -0.16963953,  0.62179655, -0.28334117,  0.21064667],
       [ 0.2659821 , -0.17816731,  0.7877998 , -0.48808235,  0.2416103 ,
        -0.61122024, -0.28343236,  0.5106918 ,  0.0897867 , -0.15534154],
       [-0.23759441,  0.        , -0.2507438 , -0.43327463, -0.13943505,
        -0.32249868,  0.2302884 ,  0.5485982 , -0.25677308,  0.4431867 ],
       [-0.07787732,  0.341803  ,  0.11430659, -0.        ,  0.27379784,
         0.687577  , -0.74838704, -0.240505  , -0.357513  ,  0.10646733],
       [ 0.        ,  0.47042117, -0.42163917, -0.792336  , -0.17729016,
         0.6557656 ,  0.51552165, -0.24828981,  0.24681303, -0.2260777 ],
       [-0.35171738,  0.37858722,  0.2606008 ,  0.3042248 , -0.43988645,
         0.41137785, -0.32216397, -0.88519084, -0.        , -0.        ],
       [ 0.        , -0.25901815, -0.72501564,  0.57888436,  0.12725975,
         0.21073255,  0.1585015 , -0.56696415,  0.5576707 ,  0.01715449],
       [ 0.41593894,  0.34121534, -0.        ,  0.13813052, -0.45644125,
        -0.14726761,  0.6002757 , -0.44460762,  0.28372908, -0.07266129],
       [-0.1648009 ,  0.37326247,  0.14186704, -0.30333576,  0.        ,
        -0.5762527 , -0.45098057,  0.30900767,  0.1056472 ,  0.11638299],
       [ 0.3972327 , -0.26596498, -0.07499797,  0.14300905, -0.2979062 ,
         0.        ,  0.5095992 , -0.        , -0.07604718,  0.        ],
       [-0.7645329 , -0.        ,  0.        ,  0.3508451 ,  0.28630814,
         0.39620852, -0.14041658,  0.        , -0.45279977, -0.07898482],
       [ 0.09828858, -0.31109247,  0.38475654,  0.69057983,  0.10044005,
         0.13936953, -0.48057273,  0.34077263, -0.41615182, -0.1816225 ],
       [-0.52876866, -0.43232748,  0.60778564,  0.16322191,  0.70955354,
        -0.1254008 ,  0.20449972, -0.2572963 , -0.03566686, -0.49534166],
       [ 0.234891  , -0.5649837 ,  0.34168416,  0.        ,  0.        ,
        -0.37706438, -0.        ,  0.        ,  0.50998384, -0.42936194],
       [ 0.2307421 ,  0.24258198, -0.        , -0.60877126,  0.        ,
        -0.5080463 ,  0.30685598,  0.32303685, -0.25998127,  0.1050148 ],
       [-0.10211181,  0.2094555 , -0.        ,  0.4525904 , -0.734948  ,
        -0.6546333 ,  0.        , -0.5238755 , -0.        ,  0.4502571 ],
       [-0.33938202,  0.        , -0.28929067,  0.        ,  0.27973247,
         0.        , -0.0703131 ,  0.639682  , -0.6994481 , -0.        ],
       [ 0.69404376, -0.40436777, -0.11713413,  0.07821713, -0.        ,
        -0.30664116,  0.5863795 ,  0.42358974, -0.58429545, -0.42059126],
       [-0.44968927,  0.19618472, -0.35353476,  0.38335446, -0.10242993,
        -0.4451384 , -0.27944857,  0.28973907, -0.3872698 , -0.22748516],
       [-0.30128857,  0.44094238, -0.5913928 ,  0.        ,  0.        ,
        -0.13590832,  0.5446642 ,  0.        ,  0.23652107,  0.3074652 ],
       [-0.9110631 ,  0.22347489,  0.7367659 , -0.3134945 , -0.        ,
         0.35260445, -0.08594581,  0.40721405, -0.20549673, -0.44508862],
       [ 0.        , -0.6882475 ,  0.2496312 , -0.17103352,  0.49616176,
        -0.25255117,  0.12720244, -0.18474984, -0.2614475 ,  0.47617602],
       [-0.43692803,  0.4996264 , -0.45155528,  0.04869709,  0.        ,
         0.2976261 , -0.30009308,  0.67038554,  0.34424904, -0.6252496 ],
       [-0.9055464 ,  0.2549165 ,  0.1831193 , -0.21052402,  0.14389445,
         0.17456478, -0.3931857 ,  0.        , -0.3158808 ,  0.5569704 ],
       [-0.13978711,  0.        , -0.19380368, -0.6980448 ,  0.6959677 ,
         0.08998667,  0.        , -0.5828418 , -0.        , -0.        ],
       [ 0.        , -0.52435344, -0.66552883,  0.36489618,  0.44940868,
        -0.        ,  0.        ,  0.15142483,  0.47635224, -0.        ],
       [ 0.46626848, -0.32472768, -0.32259575, -0.47938246,  0.40607837,
        -0.        , -0.28116408, -0.5490419 ,  0.15880543,  0.5216513 ],
       [-0.        , -0.49913627,  0.        ,  0.38594738, -0.23040378,
        -0.43859443,  0.        , -0.        ,  0.4918699 ,  0.        ],
       [-0.23410949,  0.16071595,  0.22775507,  0.        , -0.        ,
        -0.29553473, -0.        ,  0.7096271 , -0.59294146, -0.39213955],
       [-0.47790688, -0.31634426, -0.3483446 , -0.25606295,  0.54945713,
         0.5180835 , -0.40604526, -0.29591718, -0.3722359 ,  0.5953753 ],
       [ 0.3366231 , -0.7485479 , -0.6054166 ,  0.5700156 , -0.25327817,
        -0.        , -0.14865313,  0.2268863 ,  0.26987773, -0.25808835],
       [ 0.01555162, -0.5675124 ,  0.8875034 , -0.17406745,  0.        ,
        -0.2824254 , -0.57447875, -0.3884984 ,  0.48007315,  0.14830682],
       [ 0.266319  ,  0.15931197,  0.18405889, -0.14228867, -0.4812628 ,
        -0.48126653,  0.332746  ,  0.36516452,  0.10690194, -0.5356585 ],
       [ 0.51604956,  0.13753892,  0.        , -0.47591215, -0.        ,
        -0.51057893,  0.7448207 , -0.56226563, -0.48947707,  0.        ],
       [ 0.5484536 , -0.3864103 , -0.23586774, -0.43841526, -0.        ,
         0.        ,  0.7090247 , -0.41995463,  0.34453788, -0.23773523],
       [ 0.630698  , -0.4338284 ,  0.        ,  0.23656231, -0.35057712,
         0.1427242 ,  0.72023034, -0.53244495, -0.33971432,  0.        ],
       [-0.13389096,  0.95292664,  0.4818828 ,  0.15008982, -0.        ,
        -0.38624054, -0.        ,  0.521873  ,  0.21766256, -0.66619134],
       [ 0.        ,  0.762757  , -0.38895497,  0.30184853, -0.        ,
         0.        ,  0.21767434, -0.        , -0.1777724 , -0.2648221 ],
       [ 0.18565671, -0.595373  ,  0.5495292 ,  0.47597688,  0.7236722 ,
        -0.87612045, -0.5279789 ,  0.        ,  0.25324988,  0.14146344],
       [ 0.12528066, -0.        , -0.6181036 , -0.3006001 ,  0.560812  ,
         0.65243113,  0.46219763, -0.        ,  0.36639404, -0.5235408 ],
       [ 0.0421394 , -0.44356132,  0.6515147 , -0.21263824,  0.5822352 ,
        -0.35684973,  0.2616039 , -0.23378384, -0.19088623, -0.05710682],
       [-0.3739739 , -0.1626283 , -0.21429478, -0.52247256, -0.9094187 ,
         0.9244238 ,  0.6650549 , -0.        , -0.15629025,  0.30564824],
       [ 0.48230472, -0.09322981, -0.39959678, -0.        , -0.68229455,
         0.3089614 ,  0.05640653,  0.        ,  0.24865834,  0.61913097],
       [-0.5114119 , -0.58628315, -0.        ,  0.08314068,  0.21187557,
        -0.43507352, -0.6457965 ,  0.5055465 , -0.10053819, -0.        ],
       [ 0.44615173, -0.51054645, -0.500691  , -0.13680719,  0.        ,
         0.        ,  0.        ,  0.        , -0.25237688,  0.45561835],
       [ 0.18224426,  0.23507889,  0.5458741 , -0.7636505 , -0.        ,
        -0.2969346 , -0.14467964,  0.5890993 , -0.44682217, -0.22301887],
       [-0.6128453 ,  0.3400606 ,  0.        ,  0.42732823, -0.        ,
        -0.        , -0.15401353, -0.        ,  0.42041445, -0.5212545 ],
       [-0.27922806,  0.4059028 ,  0.        ,  0.07997591, -0.64239264,
        -0.        ,  0.2980339 ,  0.14970723,  0.47565797, -0.17805666],
       [ 0.36224085, -0.14442219, -0.        , -0.38655922, -0.42046964,
         0.1581338 ,  0.44355032, -0.4176806 ,  0.21487272,  0.        ],
       [ 0.03983506,  0.        ,  0.7145667 ,  0.17498915, -0.583118  ,
        -0.        , -0.3117415 ,  0.        ,  0.47035745, -0.30923268],
       [ 0.14541037,  0.41541964, -0.68487   ,  0.        , -0.        ,
         0.6204217 ,  0.35162967,  0.372622  , -0.4974616 , -0.08616472],
       [-0.        , -0.23005874,  0.3011158 , -0.502571  ,  0.28731263,
        -0.73625296,  0.15094502, -0.7101436 ,  0.4154289 ,  0.20150822],
       [ 0.445466  ,  0.22815016, -0.        , -0.13745789, -0.79511195,
         0.3788443 , -0.66677594,  0.09909421,  0.        ,  0.36317247],
       [ 0.27266294, -0.35283765,  0.        ,  0.06721886, -0.        ,
         0.8708253 ,  0.6470719 , -0.        , -0.13453472, -0.25962538],
       [ 0.        ,  0.5762186 , -0.3951386 , -0.1556672 ,  0.35142988,
        -0.3991901 , -0.        , -0.26706773, -0.        ,  0.21414849],
       [-0.18292063, -0.40456742, -0.42049748, -0.56697196,  0.26464543,
        -0.        ,  0.        , -0.36414814,  0.45991495,  0.10418358],
       [-0.        ,  0.11102279,  0.2311288 , -0.        ,  0.43139344,
         0.34173867, -0.53437537, -0.35806495,  0.14965147, -0.17471714],
       [-0.33956656,  0.44525063,  0.06739798, -0.36412477, -0.22889246,
        -0.16452979,  0.64001876,  0.32927582,  0.24256293, -0.59568447],
       [ 0.36040348, -0.        ,  0.43966436, -0.        , -0.4570639 ,
         0.75919545,  0.19817546, -0.28252482, -0.        , -0.        ],
       [ 0.29520765,  0.06260629, -0.27650288, -0.42868435,  0.39639732,
         0.3774926 , -0.        ,  0.5530018 , -0.13244326, -0.        ],
       [-0.11186611,  0.2293928 ,  0.48004165, -0.35543603, -0.18096457,
         0.28146148,  0.        , -0.53498256,  0.75326884, -0.555492  ],
       [ 0.60602355, -0.49401787,  0.12445256, -0.        ,  0.20853323,
         0.        , -0.38173667,  0.        , -0.24600486,  0.6499447 ],
       [-0.        , -0.6212997 ,  0.46580943, -0.31693026, -0.        ,
         0.23870417,  0.39904755, -0.6236284 , -0.23330875,  0.        ],
       [ 0.27273118,  0.52144337,  0.25827143, -0.5966797 , -0.26450557,
        -0.3303626 ,  0.5798122 , -0.        ,  0.10758849, -0.17739931],
       [-0.46643293, -0.42232326,  0.6873958 , -0.        , -0.2899702 ,
         0.2497777 ,  0.        , -0.37907845, -0.        ,  0.55239654],
       [-0.16250288,  0.3092064 , -0.38299152,  0.        , -0.12319541,
         0.7636505 , -0.3714304 ,  0.35567355, -0.3973103 , -0.27059507],
       [ 0.03904427, -0.3450646 ,  0.20886539, -0.35624334, -0.4672257 ,
        -0.38399905, -0.2809707 , -0.13514063,  0.45106152,  0.6964898 ],
       [ 0.4455277 ,  0.39380932, -0.37513673,  0.2720497 , -0.22984071,
        -0.11134885, -0.35027215,  0.6763811 ,  0.        , -0.649116  ],
       [ 0.        ,  0.3781733 , -0.22545476, -0.39830893, -0.        ,
        -0.28815615,  0.5934446 , -0.2713976 , -0.09356836, -0.26915592],
       [ 0.23835663,  0.40690708, -0.3726422 ,  0.22805475, -0.5088979 ,
         0.68632025, -0.1880218 , -0.6371127 , -0.51436234,  0.        ],
       [ 0.9760898 , -0.23259197,  0.21210228, -0.6913648 , -0.07819623,
        -0.1468141 , -0.47923917,  0.        , -0.18141524,  0.502771  ],
       [ 0.3791726 ,  0.0876051 ,  0.28916523,  0.56625766, -0.0522881 ,
        -0.24987589, -0.65248877,  0.        , -0.32209492, -0.29598624],
       [ 0.2579041 , -0.09623561, -0.4849385 , -0.28076524,  0.48814943,
        -0.513284  ,  0.16758138, -0.57303894,  0.4829015 ,  0.6562208 ],
       [ 0.5335124 , -0.        , -0.2885223 ,  0.09697877, -0.        ,
        -0.44142678,  0.3944726 ,  0.40165898,  0.3713055 , -0.2848622 ],
       [-0.        , -0.21566314, -0.42801166, -0.6520356 ,  0.30782154,
        -0.55029815,  0.37172255,  0.37009546,  0.516076  , -0.        ],
       [ 0.43235657, -0.380814  ,  0.5200167 ,  0.13936901,  0.11228441,
        -0.        , -0.29247165, -0.        , -0.31218964,  0.24891402],
       [-0.44201103, -0.6344619 ,  0.        , -0.        , -0.74289346,
        -0.4056797 , -0.10749863,  0.        ,  0.6013895 ,  0.32450995],
       [ 0.        ,  0.80165714,  0.14192548, -0.1584529 ,  0.41398957,
        -0.3872027 , -0.09389812, -0.        ,  0.33703765, -0.30933374],
       [-0.        ,  0.        ,  0.7785313 , -0.3120625 , -0.09585422,
        -0.46425238,  0.        ,  0.65514046, -0.2619162 , -0.29940024],
       [ 0.        ,  0.3463266 ,  0.4315986 , -0.        , -0.39674872,
        -0.6148527 ,  0.26731238, -0.3731102 ,  0.4963026 ,  0.        ],
       [-0.6662949 ,  0.35380042, -0.36300284,  0.59530514,  0.10671652,
         0.11555609,  0.70864856,  0.        ,  0.04399528, -0.60766196],
       [-0.18654765,  0.2492577 , -0.17984536, -0.29085737,  0.        ,
         0.56168216, -0.5694362 ,  0.58781433, -0.04345366, -0.        ],
       [-0.17810312, -0.2853031 , -0.06577793,  0.71500957, -0.39685005,
         0.47572765,  0.42741656, -0.41697887, -0.12886758, -0.18390372],
       [-0.        , -0.6353743 , -0.37244293,  0.35481542,  0.27069008,
        -0.57665324,  0.12691693,  0.17667685,  0.19871658,  0.19658706],
       [-0.10841744,  0.29046458, -0.        ,  0.5112977 ,  0.        ,
        -0.75462097, -0.4396577 ,  0.271755  , -0.37884918,  0.08284832],
       [ 0.24846278,  0.        ,  0.63811284, -0.6085823 ,  0.4934748 ,
        -0.20609154, -0.55395347,  0.        ,  0.43200615, -0.        ],
       [-0.37834102, -0.5801648 , -0.25143316,  0.40871698,  0.1101815 ,
         0.1302228 , -0.32058242,  0.14670813,  0.        ,  0.39283398],
       [-0.875892  ,  0.2917284 , -0.6707824 ,  0.40959653,  0.        ,
         0.4758261 ,  0.16626804, -0.6130433 ,  0.        ,  0.4067396 ],
       [ 0.35279286,  0.        ,  0.25503463, -0.47205868, -0.32259575,
        -0.        ,  0.        , -0.6991491 ,  0.48558572, -0.25317138],
       [ 0.4707977 , -0.        ,  0.59994715, -0.12409113, -0.18506205,
         0.        , -0.        , -0.        , -0.23644736, -0.51867056],
       [-0.        , -0.58510834, -0.33436206, -0.        , -0.83623046,
        -0.1342594 , -0.27980065,  0.36509877,  0.4328769 ,  0.7282972 ],
       [-0.        , -0.        ,  0.21226025, -0.17122015, -0.        ,
         0.36482114,  0.45728073, -0.29802582, -0.37834495,  0.        ],
       [-0.1135342 , -0.54512554,  0.25651646,  0.40120766, -0.48088926,
        -0.21344607, -0.71124685, -0.26434252, -0.15697905,  0.67437315],
       [ 0.62499213, -0.16255604, -0.        ,  0.2748617 , -0.3340167 ,
        -0.36116022, -0.        ,  0.        ,  0.        ,  0.36438945],
       [-0.2876402 , -0.03729079, -0.28440532,  0.37261552, -0.22159842,
        -0.3668404 , -0.32616955,  0.40787265, -0.28653473, -0.        ],
       [ 0.        ,  0.58440685, -0.        ,  0.2766656 ,  0.43818465,
        -0.4517158 , -0.        , -0.34652033,  0.13946629,  0.        ],
       [ 0.3664518 ,  0.        ,  0.60645545, -0.4365215 ,  0.16070434,
        -0.51783186,  0.50911885, -0.46657944, -0.13430384, -0.18275338],
       [ 0.11497763,  0.14493383, -0.        ,  0.6601652 , -0.        ,
         0.2336419 ,  0.14747874, -0.47129706,  0.        , -0.42449424]],
      dtype=float32)
 array([-0.11244727,  0.29460737,  0.08067954, -0.00570706,  0.03527946,
        0.15995611, -0.01647519,  0.18413174, -0.38170663, -0.06099749],
      dtype=float32)]