FC Layer, 300 (Glorot Init.) Original_Weights[array([[ 0.06812921,  0.        ,  0.        , ..., -0.        ,
         0.        ,  0.        ],
       [ 0.03370968, -0.        , -0.        , ..., -0.04248241,
         0.        , -0.04065768],
       [ 0.05752833,  0.        , -0.03934428, ..., -0.        ,
        -0.        , -0.        ],
       ...,
       [ 0.03569245,  0.        , -0.06137045, ...,  0.        ,
         0.04515614,  0.        ],
       [ 0.05301665, -0.04368319, -0.        , ...,  0.        ,
         0.        , -0.        ],
       [-0.04747194, -0.06624366, -0.0671228 , ..., -0.        ,
        -0.03192266, -0.        ]], dtype=float32)
 array([-0.027253  ,  0.0411906 ,  0.09817251,  0.08261885, -0.10095689,
       -0.01553587,  0.05744909, -0.19072907,  0.19524416, -0.07720348,
       -0.0244207 , -0.05305731,  0.08266142,  0.07395155, -0.01270298,
        0.1202474 ,  0.039829  , -0.05662185,  0.02476422,  0.19699776,
        0.02306177, -0.04449242, -0.065375  , -0.03255468,  0.14019239,
       -0.22320049, -0.00748481,  0.04708866, -0.01382873,  0.01972001,
       -0.01874963,  0.05934545,  0.13363758, -0.2229454 ,  0.07441607,
        0.17360471,  0.09755639,  0.12448113,  0.00188098, -0.12412847,
        0.06200731, -0.00696199, -0.17430553, -0.07206502, -0.18476559,
       -0.19365646,  0.11297515, -0.06440524, -0.18016754,  0.0758108 ,
        0.09830572,  0.0500929 ,  0.15836534, -0.1222991 , -0.05807921,
       -0.03044143,  0.04041511,  0.0173446 ,  0.06006857,  0.00979511,
        0.02429313,  0.06372099,  0.08568169,  0.15131474,  0.131531  ,
       -0.05056299, -0.01227455,  0.06014347,  0.03402932,  0.1066881 ,
       -0.0829654 , -0.10674638, -0.03541971, -0.07888079,  0.2628358 ,
       -0.1430856 ,  0.00747596,  0.08650456, -0.01108784,  0.07375143,
       -0.01862037, -0.11497301,  0.20889217,  0.05952449,  0.04118031,
        0.0970611 ,  0.09827221, -0.05515011,  0.0548437 , -0.05298582,
        0.114889  ,  0.00063148,  0.1044358 ,  0.02896688, -0.02653727,
       -0.01231849, -0.10497949,  0.09622123,  0.18260704,  0.07272691,
       -0.26139536,  0.22858739,  0.2680262 , -0.00668747, -0.03936724,
        0.01884471, -0.12400161, -0.02492964,  0.01128413,  0.08908433,
       -0.13042223,  0.0553999 ,  0.00373108,  0.04872223,  0.16611421,
       -0.21110891, -0.01730012, -0.14595345,  0.05595349,  0.08455946,
       -0.00907584, -0.16081631,  0.03801006, -0.02471302, -0.11823621,
        0.14723364, -0.09160052,  0.15426323, -0.13393205,  0.0635405 ,
       -0.03348008,  0.05774046, -0.03505448, -0.03309077,  0.14138539,
        0.03138166,  0.05390643, -0.0059091 ,  0.15788746, -0.06246484,
       -0.04257229, -0.04237897, -0.16536838,  0.0038368 ,  0.05655255,
        0.09085309, -0.09091838, -0.09754983, -0.00498514,  0.04215456,
        0.04050675,  0.01680435,  0.07538306,  0.01905367, -0.117191  ,
        0.11477187, -0.07531621, -0.23891206, -0.18455707,  0.31463093,
       -0.05108713, -0.10465076, -0.12807956,  0.08637384, -0.21265915,
       -0.08435183,  0.23064421,  0.00697015, -0.0143214 , -0.03510723,
       -0.1555088 , -0.08178747,  0.03511008, -0.06848107, -0.07525105,
        0.10335095,  0.008227  ,  0.13030358, -0.0758339 , -0.03949976,
       -0.0708326 ,  0.12233498,  0.1334457 ,  0.07350972,  0.02420162,
        0.13860485,  0.01724432, -0.040435  ,  0.15708354,  0.05447537,
       -0.00177344,  0.09351119,  0.09399992, -0.07245459,  0.16643664,
       -0.07410027, -0.07084324,  0.10143464,  0.12715374,  0.07343385,
        0.09059788, -0.03929806,  0.17408745,  0.03430399, -0.17515317,
       -0.00334457,  0.13607614, -0.02916835, -0.22015615, -0.03598516,
       -0.07880981,  0.12327298,  0.09239772, -0.11693471, -0.05128856,
       -0.11946503,  0.10010098, -0.05314699,  0.0768649 ,  0.05830904,
       -0.08333894,  0.12943204,  0.00801022,  0.06931482, -0.10946545,
        0.00330144, -0.06744874, -0.06848498, -0.1450851 ,  0.02042465,
       -0.20209076, -0.27261496,  0.04508147, -0.01332004,  0.1776939 ,
        0.14060676,  0.16361293, -0.02309553, -0.14419968, -0.19160812,
        0.10857398,  0.10824247, -0.0574987 , -0.32631448, -0.09162313,
        0.09108691, -0.03620642,  0.05218705,  0.00505516,  0.03958647,
        0.14094318,  0.018047  , -0.09987489, -0.04485669, -0.09212659,
        0.05093596,  0.21092582,  0.26957652,  0.02393152,  0.06894463,
       -0.05948144,  0.10816149, -0.05629585, -0.08260933,  0.12295733,
       -0.05716217,  0.07000536, -0.02072403, -0.11564226,  0.16946143,
       -0.08701273, -0.07587537, -0.00455554,  0.15793493, -0.04513536,
        0.13835508,  0.0559268 ,  0.01785832,  0.0711856 , -0.10480389,
       -0.10797977,  0.00210836, -0.04916335, -0.05072967,  0.09138502,
       -0.03100178,  0.10071142, -0.00465151,  0.2097136 , -0.03134466,
        0.02424156, -0.00611066,  0.11815554, -0.16779913, -0.13301483,
       -0.01074828, -0.10736626,  0.00628093, -0.01251666, -0.09352149],
      dtype=float32)]FC Layer, 100 (Glorot Init.) Original_Weights[array([[ 0.34529877, -0.06946146,  0.27659926, ..., -0.19827877,
        -0.15283355, -0.        ],
       [ 0.05080284, -0.29980454, -0.26707125, ..., -0.        ,
         0.3087519 , -0.2983363 ],
       [-0.12757507, -0.02042263,  0.06243829, ..., -0.11049893,
         0.01703379,  0.        ],
       ...,
       [ 0.07110619,  0.        , -0.        , ...,  0.20445034,
        -0.09755185,  0.10315455],
       [-0.02217722,  0.3250104 ,  0.12528697, ..., -0.        ,
        -0.17212895, -0.28582343],
       [ 0.06209044,  0.56013495,  0.15275739, ...,  0.15413369,
        -0.30358538, -0.05230279]], dtype=float32)
 array([ 6.81822514e-03,  4.36300337e-02,  2.53802568e-01, -9.24845971e-03,
        9.33638513e-02,  1.45440385e-01, -1.33589180e-02,  8.54469687e-02,
       -1.09140195e-01, -1.25827625e-01, -1.30392224e-01, -7.59704271e-05,
        1.50652722e-01,  9.18648019e-02, -3.69936712e-02, -2.06391007e-01,
        4.99434695e-02, -9.78933647e-02,  1.98618263e-01,  7.88661018e-02,
        2.06739437e-02,  5.40925488e-02,  7.89952725e-02, -1.67397141e-01,
        8.11892003e-02,  1.12101793e-01, -8.64797924e-03, -4.43005413e-02,
       -2.43155882e-02, -1.15874678e-01,  1.47820458e-01,  8.80787000e-02,
       -1.00624301e-01, -9.43434909e-02,  3.68315876e-02, -7.87622295e-03,
       -5.94078600e-02, -9.31909606e-02,  1.22851534e-02, -1.31422309e-02,
       -7.20727667e-02, -3.61093953e-02, -7.24749491e-02, -9.51694511e-03,
       -8.36532265e-02, -7.65023939e-03,  9.77555439e-02,  1.86588943e-01,
       -9.00472924e-02,  3.59798335e-02, -1.77352652e-01, -9.25955828e-03,
        1.80533226e-03, -1.36636660e-01,  1.18218936e-01,  3.74536868e-03,
       -2.32363977e-02,  5.06983511e-03,  2.53772102e-02,  7.27402046e-03,
        8.02211538e-02,  1.38723090e-01, -2.75746714e-02,  5.64159676e-02,
        4.81947847e-02, -9.97385830e-02, -1.28836511e-02,  1.70170724e-01,
       -9.50033665e-02,  1.17171392e-01,  1.16906976e-02,  5.41931912e-02,
        3.44395004e-02,  3.68758664e-02, -7.35503361e-02, -9.41989273e-02,
       -6.42615110e-02,  7.82361999e-03, -7.80080631e-02,  6.87725693e-02,
       -2.31512692e-02, -1.60906568e-01,  9.74676609e-02,  2.75319498e-02,
        7.27779642e-02, -1.56694263e-01,  1.16179131e-01, -1.42959952e-02,
       -7.44518638e-02,  9.29230526e-02, -6.07376546e-02, -1.15334487e-03,
       -1.16931215e-01,  1.66445240e-01, -4.09086831e-02, -7.02910963e-03,
        8.20786655e-02, -7.57533461e-02, -9.18381959e-02, -4.07360196e-02],
      dtype=float32)]FC Layer, 10 (Softmax) Original_Weights[array([[ 0.06350918,  0.57207197, -0.425247  , -0.19677788, -0.44638258,
        -0.26422712, -0.43340978,  0.21996099,  0.        ,  0.39655793],
       [ 0.21920632, -0.        , -0.47533134, -0.30788085,  0.36725685,
         0.62139606,  0.18791878, -0.46229964, -0.30460677,  0.46956098],
       [-0.2785787 , -0.16378199, -0.05823765,  0.5031346 ,  0.15242396,
         0.2016171 , -0.4015279 ,  0.5200123 , -0.47397423, -0.01967048],
       [ 0.49385923,  0.0562287 ,  0.588673  , -0.3067151 ,  0.13442522,
        -0.64394355, -0.263918  ,  0.60525346, -0.1053221 , -0.29374176],
       [-0.2938489 , -0.        , -0.4733589 , -0.5195931 , -0.21427856,
        -0.19854859,  0.31551966,  0.35595602, -0.2023001 ,  0.55544084],
       [-0.28965893,  0.5195043 ,  0.19815269, -0.        ,  0.10261519,
         0.41073814, -0.5778628 , -0.31698945, -0.33041832,  0.27724436],
       [ 0.        ,  0.49757093, -0.41290736, -0.49857047, -0.27708548,
         0.4880454 ,  0.3936275 , -0.3176411 ,  0.12272601, -0.10124023],
       [-0.64036334,  0.36186728,  0.42533708,  0.1489441 , -0.3714484 ,
         0.41529593, -0.50418586, -0.5197547 , -0.        , -0.        ],
       [-0.        , -0.16985889, -0.6838391 ,  0.5309489 ,  0.09038395,
         0.20187077,  0.29621294, -0.6668477 ,  0.52366036,  0.10032597],
       [ 0.21139927,  0.46336213, -0.36284274,  0.13569061, -0.21058321,
        -0.3174248 ,  0.7270149 , -0.31593886,  0.33042318, -0.12981908],
       [-0.06548566,  0.1213258 , -0.25612617, -0.4032761 ,  0.08894348,
        -0.3871182 , -0.24361573,  0.466285  ,  0.1376618 ,  0.28103033],
       [ 0.49016157, -0.31850564,  0.09797281,  0.12745777, -0.4663552 ,
         0.        , -0.12556972, -0.        , -0.07992733,  0.2304546 ],
       [-0.57314503,  0.        ,  0.05173053,  0.36712927,  0.28604835,
         0.30475864, -0.2752632 , -0.        , -0.59297645,  0.24630776],
       [ 0.09594671, -0.22254197,  0.49704388,  0.66893864,  0.38788727,
         0.01643122, -0.50174683,  0.18771164, -0.3920675 , -0.32567775],
       [-0.5327625 , -0.47961086,  0.6508797 ,  0.14013104,  0.37384328,
        -0.10900362,  0.2414498 , -0.11772601,  0.06433929, -0.43296832],
       [ 0.28167397, -0.0468671 ,  0.39482668, -0.        , -0.11608782,
        -0.48146313, -0.        , -0.1516689 ,  0.29491735, -0.30044413],
       [ 0.06775482,  0.3956525 , -0.        , -0.28671098, -0.5726239 ,
        -0.42693847,  0.42684364,  0.2617356 , -0.17244923,  0.27844203],
       [-0.10965218,  0.4106824 , -0.20554392,  0.50622386, -0.40080503,
        -0.77235156, -0.3441958 , -0.17066662, -0.07487593,  0.36142758],
       [-0.48485565, -0.1305615 , -0.32939252, -0.05677383,  0.4110687 ,
        -0.1015139 ,  0.11772363,  0.5048261 , -0.57500696,  0.        ],
       [ 0.3479602 , -0.4224459 , -0.06304874,  0.19902283, -0.09177514,
        -0.112148  ,  0.56346613,  0.33232915, -0.69354624, -0.35354236],
       [-0.5043259 ,  0.10581403, -0.42296174,  0.49920377, -0.31111404,
        -0.46943817, -0.22262274,  0.52873087, -0.19710918, -0.3178058 ],
       [-0.31268725,  0.41169983, -0.5418798 ,  0.00886466, -0.        ,
         0.06497182,  0.29719344,  0.11482895,  0.29613355,  0.16161774],
       [-0.79674464,  0.14107184,  0.7701301 , -0.1252748 ,  0.        ,
         0.29986498, -0.18178935,  0.15161562, -0.32654533, -0.44698972],
       [ 0.09588984, -0.74038845,  0.27136835, -0.15990688,  0.43958506,
        -0.27600503,  0.14316157, -0.12868597, -0.17406236,  0.3882429 ],
       [-0.4137724 ,  0.43156555,  0.07363813, -0.28193438, -0.        ,
         0.20293096, -0.33968064,  0.6120742 ,  0.23743254, -0.41040516],
       [-0.5513014 ,  0.09732563,  0.1529351 , -0.21469086,  0.18394645,
        -0.19727369, -0.17053749,  0.06966101, -0.42544883,  0.76666397],
       [ 0.06062477, -0.        ,  0.09606087, -0.3487222 ,  0.5556905 ,
         0.01529676,  0.        , -0.44388142, -0.54345864,  0.15896408],
       [-0.        , -0.37786463, -0.27676448,  0.22035   ,  0.6838187 ,
         0.        , -0.2687196 ,  0.17953628,  0.52984947, -0.3701599 ],
       [ 0.15284699, -0.42764857, -0.25948432, -0.4917295 ,  0.26004195,
         0.2704233 , -0.26593143, -0.10658313,  0.2749852 ,  0.3901257 ],
       [-0.        , -0.79610664, -0.20544222,  0.31217122, -0.26586503,
        -0.18806876, -0.        , -0.        ,  0.72231895,  0.        ],
       [-0.43353733,  0.28308687, -0.0952435 , -0.0371515 ,  0.43543804,
        -0.65708095,  0.        ,  0.47157615, -0.24748833, -0.09713139],
       [-0.44176897, -0.277095  , -0.33748454, -0.14514892,  0.53812546,
         0.40612155, -0.41255516, -0.16219047, -0.40258497,  0.5257415 ],
       [ 0.22561239, -0.4543515 , -0.3716125 ,  0.22793204, -0.393718  ,
         0.08810943, -0.10759722,  0.4501746 ,  0.16102335, -0.15724853],
       [ 0.3105863 , -0.31128025,  0.28387478, -0.26177016, -0.        ,
        -0.22350083, -0.4481424 , -0.5211997 ,  0.32669395,  0.25909042],
       [ 0.6611971 ,  0.13489716,  0.15176734, -0.17139249, -0.3243625 ,
        -0.36187023,  0.2656328 ,  0.3906379 , -0.14108057, -0.5751414 ],
       [ 0.28637156,  0.29252172,  0.5087611 , -0.34454942,  0.        ,
        -0.5718883 ,  0.4703685 , -0.5413636 , -0.45556363,  0.        ],
       [ 0.25316614, -0.43428648, -0.09193847, -0.5372415 , -0.10450828,
         0.46217063,  0.5440352 , -0.31010404,  0.20335491, -0.25756398],
       [ 0.42949012, -0.41469628, -0.06004737,  0.42361784, -0.24183367,
         0.17186634,  0.7811165 , -0.5316557 , -0.4093181 ,  0.        ],
       [ 0.01170765,  0.52958316,  0.49348786,  0.27820766, -0.23358841,
        -0.23391904, -0.14874671,  0.6232534 ,  0.1150214 , -0.3720805 ],
       [ 0.11874937,  0.6474262 , -0.48086876,  0.14779697, -0.07569024,
         0.15278013,  0.23966525, -0.19091834,  0.06982466, -0.24528113],
       [ 0.06650497, -0.59009266,  0.48512194,  0.35836083,  0.26932424,
        -0.5454944 , -0.4160031 ,  0.22361168,  0.28420416,  0.12827872],
       [ 0.15598166,  0.        , -0.4674622 , -0.1716257 ,  0.50405455,
         0.3951696 ,  0.40969184,  0.11180954,  0.3378648 , -0.6617742 ],
       [-0.00413787, -0.28349075,  0.6971264 , -0.24632028,  0.5299739 ,
        -0.23349701,  0.26324913, -0.37318373, -0.08564673, -0.18649714],
       [-0.26591423, -0.41968733, -0.34193248, -0.3781213 , -0.7413966 ,
         0.8469431 ,  0.88436776, -0.16475254, -0.05533356,  0.32011268],
       [ 0.551658  , -0.15402237, -0.21167235, -0.        , -0.5222919 ,
         0.3955237 , -0.2196201 , -0.        ,  0.28301787,  0.42351797],
       [-0.6692471 , -0.40526402,  0.        ,  0.27630982,  0.08442876,
        -0.5108326 , -0.28460526,  0.20189962, -0.12379792,  0.        ],
       [ 0.26384905, -0.47599635, -0.38608   , -0.136174  ,  0.        ,
         0.        , -0.        , -0.19157268, -0.34754482,  0.5970653 ],
       [ 0.37214217,  0.32791227,  0.46086007, -0.6048617 ,  0.        ,
        -0.6111864 ,  0.14323696,  0.6139323 , -0.5955283 , -0.3829601 ],
       [-0.3084147 ,  0.38782558, -0.10257203,  0.52838844, -0.        ,
        -0.38004318, -0.2901568 ,  0.21114348,  0.31278825, -0.47468945],
       [-0.32969722,  0.28323022, -0.        ,  0.3757478 , -0.4276794 ,
         0.22998428,  0.21279396, -0.36254412,  0.3394131 , -0.16705225],
       [ 0.53478956, -0.29098976, -0.        , -0.5220748 , -0.10314036,
        -0.2507379 ,  0.53787297, -0.7822618 ,  0.2747427 , -0.        ],
       [-0.1569341 , -0.        ,  0.4394859 ,  0.33320668, -0.47596642,
        -0.        , -0.11536511,  0.        ,  0.42488572, -0.48529732],
       [ 0.43267363,  0.2944325 , -0.4786006 ,  0.23860869, -0.09262446,
         0.43583253,  0.40433013,  0.11347158, -0.42923945, -0.2421045 ],
       [-0.        , -0.24190247,  0.32573205, -0.47681686,  0.29383352,
        -0.61313605,  0.10100545, -0.76186967,  0.41497537,  0.23559934],
       [ 0.41074178,  0.28455624, -0.        , -0.28469485, -0.35070482,
         0.36435574, -0.7573245 ,  0.3528117 , -0.2606165 ,  0.23982231],
       [ 0.08693749, -0.23309644, -0.        , -0.1631813 ,  0.        ,
         0.46982902,  0.40664017, -0.        ,  0.25993004, -0.47664037],
       [ 0.10940936,  0.43885642, -0.383333  , -0.09733743,  0.38733327,
        -0.4596873 ,  0.        , -0.29261222,  0.        ,  0.27734572],
       [ 0.1279111 , -0.21267232, -0.51344097, -0.7706389 ,  0.20999493,
         0.        , -0.        , -0.23027942,  0.3919818 ,  0.29695538],
       [-0.23077147,  0.2529068 ,  0.2539316 , -0.3000513 ,  0.52205694,
         0.26933536, -0.4779093 , -0.28258246,  0.14416184, -0.08919035],
       [-0.44846988,  0.1581084 ,  0.2659179 , -0.30494028, -0.31241408,
         0.02301336,  0.24406257,  0.24230699,  0.35899773, -0.47706416],
       [ 0.16484858, -0.        ,  0.23014373, -0.        , -0.5146903 ,
         0.679938  ,  0.3682187 , -0.2757142 , -0.        ,  0.        ],
       [ 0.55398697,  0.29567087, -0.2759899 , -0.6758521 ,  0.41792446,
         0.33448946,  0.        ,  0.583431  , -0.2711014 , -0.07083587],
       [-0.08310514,  0.22300677,  0.60565877, -0.2428556 , -0.3071038 ,
         0.19644745, -0.        , -0.47767192,  0.57395667, -0.42750484],
       [ 0.23607862, -0.4183821 ,  0.43119773,  0.        , -0.05144873,
         0.40362015, -0.6342395 ,  0.4289573 , -0.23628062,  0.15340261],
       [ 0.        , -0.4441608 ,  0.4166329 , -0.26797712,  0.        ,
         0.2504862 ,  0.2951063 , -0.56406915, -0.15754266, -0.12193715],
       [ 0.3180527 ,  0.19994664,  0.19071981, -0.3737666 , -0.3346133 ,
        -0.19431682,  0.63329554, -0.09238639,  0.29628128, -0.29740843],
       [-0.25411913, -0.43735972,  0.52649605, -0.        , -0.49589673,
         0.16365579, -0.        , -0.42854458,  0.10868002,  0.3902456 ],
       [-0.22423911,  0.291422  , -0.6064557 , -0.06261054, -0.26726666,
         0.6889141 , -0.31088573,  0.26197603, -0.09459604, -0.06985764],
       [-0.11021174, -0.4218775 , -0.07845367, -0.21809381, -0.44515893,
        -0.26197442, -0.29811147,  0.05688153,  0.48682985,  0.6652063 ],
       [ 0.17024113,  0.6123243 , -0.2621731 ,  0.24823017, -0.65646744,
         0.04236602, -0.36146355,  0.68845946,  0.        , -0.44388998],
       [ 0.25394064,  0.5721043 , -0.2769011 , -0.45865294,  0.11774974,
        -0.5316133 ,  0.4368575 , -0.15362063, -0.312877  , -0.16001366],
       [ 0.3833312 ,  0.41670766, -0.37193656,  0.29892385, -0.26855776,
         0.62265515, -0.34782135, -0.44075674, -0.5985779 ,  0.        ],
       [ 0.95972747, -0.2857728 ,  0.37984538, -0.651688  ,  0.0812079 ,
        -0.10106394, -0.43684852, -0.        , -0.27752548,  0.19769956],
       [ 0.36134613,  0.15411624,  0.3796408 ,  0.5074579 , -0.38714942,
        -0.40610254, -0.72191536, -0.        , -0.3042611 , -0.14858168],
       [ 0.46188283, -0.25401396, -0.39459816, -0.21120895,  0.3248232 ,
        -0.41728055,  0.2107425 , -0.5728451 ,  0.42401174,  0.64224136],
       [ 0.69291466, -0.30948156, -0.14111112,  0.3651462 , -0.        ,
        -0.4329873 ,  0.9491173 ,  0.24881956,  0.1041344 , -0.5429889 ],
       [-0.        , -0.21142554, -0.321686  , -0.49715865,  0.21065271,
        -0.3604568 ,  0.24294153,  0.3519026 ,  0.51385957,  0.        ],
       [ 0.5847429 , -0.21525447,  0.5709583 ,  0.17147055,  0.07215068,
        -0.        , -0.2551967 ,  0.        , -0.5518554 ,  0.2167932 ],
       [-0.2936284 , -0.4793869 , -0.        , -0.        , -0.509358  ,
        -0.17468464, -0.6269433 , -0.18983057,  0.53635454,  0.36131135],
       [ 0.0586413 ,  0.54760814,  0.15900528, -0.4026728 ,  0.14462613,
        -0.7227738 ,  0.3059847 , -0.        ,  0.5535119 , -0.30909047],
       [ 0.23251918, -0.22966816,  0.62867475, -0.571303  ,  0.13014865,
        -0.6251967 , -0.12561892,  0.78409064,  0.17268243, -0.31304845],
       [ 0.        ,  0.18557605,  0.27326405, -0.3000571 , -0.32376042,
        -0.4792224 ,  0.2137289 , -0.5162809 ,  0.7067439 ,  0.18302839],
       [-0.5709974 ,  0.41100624, -0.4593995 ,  0.33726916, -0.11732329,
         0.25209096,  0.62383735,  0.28287604,  0.11747836, -0.4112018 ],
       [-0.36963776,  0.44649   , -0.26228276, -0.5096309 ,  0.2598416 ,
         0.5830429 , -0.41655084,  0.3213061 , -0.11857861,  0.        ],
       [ 0.29254246, -0.27920666, -0.6005065 ,  0.33232784, -0.24437074,
         0.43183932,  0.51031244,  0.37711015, -0.2792352 , -0.18328792],
       [ 0.1343666 , -0.5970224 , -0.43557122,  0.36643216,  0.21854904,
        -0.43963438,  0.18199128, -0.08748387,  0.21665871,  0.24074902],
       [-0.2635917 ,  0.29584   , -0.17495663,  0.52963203,  0.        ,
        -0.4519953 , -0.13242471,  0.44075778, -0.5164828 , -0.19686954],
       [ 0.13955767, -0.        ,  0.6150625 , -0.4845375 ,  0.3090999 ,
        -0.5474792 , -0.39881855,  0.08959716,  0.33832484,  0.13796958],
       [-0.3717895 , -0.50740653, -0.43311712,  0.3438574 ,  0.24258007,
         0.08570608, -0.2801896 ,  0.37685364,  0.        ,  0.41314808],
       [-0.6387654 ,  0.34186512, -0.67234325,  0.22009641, -0.        ,
         0.4605969 , -0.14959681, -0.57714784, -0.        ,  0.39616466],
       [ 0.08939199,  0.        ,  0.24036844, -0.28470063, -0.25506604,
         0.        , -0.        , -0.7948508 ,  0.45997357, -0.28085494],
       [ 0.36204687,  0.2199261 ,  0.51011133, -0.30207032, -0.10706334,
        -0.        ,  0.1800906 ,  0.        , -0.16849856, -0.49891746],
       [-0.0958644 , -0.3886639 , -0.29768234,  0.        , -0.67854196,
         0.19186813, -0.5005861 ,  0.38650256,  0.39822787,  0.6407668 ],
       [ 0.05541146,  0.        ,  0.12967621, -0.25807962, -0.14784153,
         0.6640473 ,  0.22475418, -0.06395856, -0.49358344,  0.        ],
       [ 0.20405455, -0.4579535 ,  0.11436198,  0.3274028 , -0.3884593 ,
        -0.1736569 , -0.3004152 , -0.18859503, -0.20858163,  0.37826714],
       [ 0.45361787,  0.5318231 ,  0.43251887,  0.28924757, -0.32892498,
        -0.5027212 ,  0.        , -0.        , -0.32808203,  0.264513  ],
       [-0.4643479 , -0.31095982, -0.67367125,  0.38067684, -0.22855173,
         0.12908849, -0.2482157 ,  0.6062066 , -0.18067877, -0.15367164],
       [ 0.        ,  0.6863699 , -0.11045463,  0.00470842,  0.8611785 ,
        -0.37294376, -0.1510175 , -0.4179433 ,  0.06380192, -0.        ],
       [ 0.2542879 , -0.13936526,  0.6938968 , -0.43447593, -0.16187118,
        -0.2851982 ,  0.34871954, -0.56121916,  0.11918657, -0.08416707],
       [ 0.1973218 ,  0.13325001,  0.09948147,  0.453991  , -0.17543186,
         0.2181516 ,  0.17401236, -0.5416898 , -0.        , -0.32908332]],
      dtype=float32)
 array([-0.20152488,  0.28237206,  0.09422918, -0.05617358,  0.00565832,
        0.10961225, -0.10556626,  0.24357764, -0.37593806,  0.00203645],
      dtype=float32)]