FC Layer, 300 (Glorot Init.) Original_Weights[array([[ 0.06812921,  0.        ,  0.        , ..., -0.        ,
         0.        ,  0.        ],
       [ 0.        , -0.        , -0.        , ..., -0.04248241,
         0.        , -0.        ],
       [ 0.05752833,  0.        , -0.        , ..., -0.        ,
        -0.        , -0.        ],
       ...,
       [ 0.        ,  0.        , -0.06137045, ...,  0.        ,
         0.04515614,  0.        ],
       [ 0.05301665, -0.04368319, -0.        , ...,  0.        ,
         0.        , -0.        ],
       [-0.04747194, -0.06624366, -0.0671228 , ..., -0.        ,
        -0.        , -0.        ]], dtype=float32)
 array([ 2.46108081e-02,  3.71321775e-02,  1.02221325e-01,  1.08053379e-01,
       -4.67136987e-02, -7.57350102e-02,  1.15571015e-01,  5.31139113e-02,
        1.91834420e-02,  1.01395391e-01,  1.61630902e-02, -5.39151020e-02,
        4.56461832e-02,  1.06118605e-01,  4.58948240e-02,  4.22556736e-02,
        1.50591463e-01, -1.47328913e-01, -3.71777639e-02,  1.36779174e-01,
        1.78109389e-02, -8.33670348e-02, -1.82533881e-03, -1.72880641e-03,
        1.87677562e-01, -5.17603308e-02,  2.97493413e-02,  1.86616704e-02,
        2.73378156e-02,  1.55715004e-01,  1.65266765e-03,  3.58612556e-03,
        9.79370251e-02, -8.63440111e-02, -3.93627658e-02,  7.92317092e-02,
        8.94309059e-02,  7.18495669e-03,  2.49272976e-02, -1.72305942e-01,
       -4.01754491e-02, -4.26354706e-02, -6.56923577e-02, -1.73361860e-02,
       -5.00827096e-02,  4.12315056e-02,  7.42522702e-02, -3.12137920e-02,
       -1.56101122e-01, -4.56044078e-02, -5.58261313e-02, -2.38570273e-02,
        1.05330378e-01,  3.94141413e-02, -7.66571313e-02,  1.71786603e-02,
        8.63176882e-02, -5.13271391e-02,  1.87878814e-02,  1.01413369e-01,
        3.06919739e-02, -2.97624338e-02, -1.49072453e-01, -1.80021543e-02,
        9.54311788e-02, -9.21114832e-02,  1.90252379e-01,  2.77599413e-02,
        7.83071369e-02,  8.02423432e-02, -1.72645092e-01, -8.87081549e-02,
        1.02637559e-01,  6.61477447e-02,  1.67440012e-01,  2.97836121e-03,
        1.23807099e-02, -9.89130512e-02, -4.33361391e-03, -9.49914102e-03,
        3.36193033e-02,  2.61160936e-02,  8.85807052e-02,  6.88022897e-02,
        4.84665856e-02,  1.36722833e-01,  3.20112556e-02, -8.73807445e-02,
       -8.72773007e-02, -1.33443058e-01,  7.08451644e-02,  2.06258912e-02,
        4.55067260e-03,  1.25210881e-01,  5.20139374e-02, -6.35720566e-02,
       -6.59569874e-02,  1.52766570e-01,  6.33861795e-02,  7.33573139e-02,
       -1.07393116e-01,  7.62687773e-02, -4.82430197e-02, -1.15869351e-01,
        4.26888280e-02,  5.20975441e-02, -1.11721279e-02, -1.35136228e-02,
       -5.92984632e-02,  4.32321467e-02, -3.46355587e-02,  1.37383835e-02,
        2.04443820e-02,  2.56534014e-02,  1.04963362e-01,  1.56489946e-02,
       -6.33305162e-02, -5.60880974e-02,  6.71902746e-02, -1.78796872e-02,
        5.46659715e-02, -1.85747802e-01,  6.13636523e-03,  4.51546945e-02,
       -8.54606926e-02,  9.10628005e-05, -4.38812003e-02,  9.31293741e-02,
       -9.88342315e-02,  3.73426192e-02, -2.19457463e-04,  5.18381363e-03,
       -5.89477867e-02,  6.71753436e-02,  3.99902835e-02,  3.12587917e-02,
       -2.79300399e-02,  9.86313298e-02, -6.01431169e-03, -1.41377654e-03,
       -5.84089644e-02,  3.36703025e-02, -3.01426705e-02,  1.05370030e-01,
        1.01810455e-01,  9.06824693e-02, -6.82880357e-02, -8.92540589e-02,
       -3.56276967e-02,  1.87494420e-02, -7.21141994e-02, -1.16802193e-02,
       -1.12223905e-02,  5.70378713e-02, -7.13565797e-02,  6.10261969e-02,
       -7.39158764e-02,  7.86457211e-02, -5.83205372e-02,  5.93358800e-02,
       -1.18855737e-01, -1.39715403e-01, -7.57454634e-02,  3.29157636e-02,
       -9.19400379e-02, -1.70847878e-01, -1.76114812e-02,  1.24468738e-02,
       -1.43627226e-02, -1.99527312e-02, -1.14957079e-01,  9.45128053e-02,
        4.07887530e-03, -7.92874545e-02,  1.10549599e-01,  8.59167650e-02,
        2.05073059e-02,  3.38219814e-02,  1.71716791e-02, -7.20030293e-02,
        9.94948894e-02,  7.43300617e-02, -7.91611616e-03,  3.12746540e-02,
       -9.94492397e-02,  1.16415963e-01,  3.60642709e-02, -5.81141077e-02,
        9.27790403e-02, -9.96638313e-02, -1.20380133e-01, -1.45125929e-02,
        1.41699433e-01,  1.34972394e-01, -4.95531000e-02,  8.00506920e-02,
       -7.73360655e-02,  1.49012357e-01,  1.52841687e-01,  9.92792696e-02,
        4.44221161e-02,  2.67179124e-02, -1.44071886e-02, -4.49785683e-03,
       -1.12110265e-01,  1.73832178e-02,  6.29706755e-02,  4.20377105e-02,
       -3.06312013e-02,  1.99065711e-02, -7.69536383e-03,  2.16576979e-01,
        1.08020365e-01, -3.23386639e-02,  3.83942835e-02, -5.89650348e-02,
       -3.53475986e-03, -8.35753977e-03, -5.06293885e-02, -2.79299170e-02,
       -7.50622824e-02,  1.93053141e-01, -5.37596643e-02,  4.49706465e-02,
       -1.25995830e-01, -6.22590408e-02, -4.38291244e-02, -8.66471604e-03,
       -7.97343105e-02,  5.24806865e-02, -1.48793519e-01, -1.24588115e-02,
       -2.63238586e-02,  5.85078858e-02,  8.91153887e-03,  3.62913311e-02,
        9.78082195e-02,  4.03324113e-04, -6.72631562e-02, -5.50030433e-02,
       -1.18134925e-02,  1.10229492e-01, -1.19458310e-01, -1.43254131e-01,
       -4.34270799e-02,  4.98937517e-02,  1.71181068e-01,  4.44417149e-02,
       -1.98201798e-02,  6.10678121e-02,  7.74538890e-02,  8.52810070e-02,
       -2.00915948e-01,  6.27868846e-02, -3.91605608e-02,  1.05579719e-02,
        1.63344070e-01,  1.77047208e-01, -5.19459620e-02, -7.24910423e-02,
       -8.26330110e-02, -6.12974241e-02,  1.55187678e-02, -1.00940511e-01,
        5.72153404e-02, -1.65460482e-01,  2.17689341e-03, -6.43549562e-02,
       -7.99470767e-02,  2.11647063e-01, -8.03115219e-02, -4.86433841e-02,
        8.93311724e-02, -1.01297699e-01, -7.28764897e-03,  2.82934811e-02,
        6.05315901e-02,  7.73636550e-02,  3.73108387e-02, -4.48158309e-02,
       -1.87088959e-02, -9.22723413e-02,  1.71212599e-01, -6.41956404e-02,
        1.28893092e-01,  8.85123201e-03,  9.73426178e-03, -4.51985793e-03,
        1.08044021e-01,  2.61631366e-02, -1.12414889e-01,  9.97612402e-02,
        9.62862819e-02, -3.55386292e-05,  3.84977385e-02,  2.75350679e-02,
       -6.36785775e-02,  9.81163699e-04, -4.08049487e-02, -2.37702262e-02],
      dtype=float32)]FC Layer, 100 (Glorot Init.) Original_Weights[array([[ 0.18153971, -0.21163994,  0.        , ..., -0.        ,
         0.        ,  0.        ],
       [ 0.        , -0.15028909, -0.17163695, ...,  0.        ,
         0.10177875, -0.36303416],
       [-0.17909695,  0.09079649, -0.02932964, ..., -0.        ,
        -0.        , -0.        ],
       ...,
       [ 0.22705542,  0.        ,  0.        , ...,  0.2965578 ,
         0.        ,  0.01197481],
       [ 0.19530821,  0.1748725 , -0.2784435 , ..., -0.        ,
        -0.        ,  0.        ],
       [-0.        ,  0.08378717,  0.15760821, ...,  0.0019437 ,
        -0.        ,  0.        ]], dtype=float32)
 array([-0.06214533,  0.0832259 ,  0.07754236, -0.06607889,  0.01734195,
        0.11411098, -0.05150093,  0.09420386, -0.16176471, -0.1100213 ,
        0.00829907, -0.0863048 ,  0.17023323,  0.07760936,  0.0027765 ,
        0.01813519, -0.00390076, -0.0758044 ,  0.18655008,  0.05977468,
        0.06714503,  0.05339186,  0.11773508, -0.12718622,  0.07466424,
        0.14518592, -0.07562739, -0.1142561 , -0.13613984, -0.15110761,
        0.16948336,  0.0674427 , -0.10163531, -0.09850053,  0.09815013,
       -0.06068598, -0.07113291, -0.07637578, -0.04441175,  0.05204179,
       -0.04423958, -0.04235651, -0.10892126,  0.07356026, -0.03702647,
       -0.02227572,  0.00904523,  0.10195522, -0.09328341,  0.00246741,
       -0.04345187,  0.00381502,  0.09390852, -0.13195214,  0.07711001,
        0.13152243, -0.11055382, -0.06938504,  0.02584406,  0.00464753,
        0.06988598,  0.11341174,  0.00803078,  0.01622132,  0.01296405,
       -0.02718486,  0.06317846,  0.15717092, -0.0736401 ,  0.08037152,
       -0.02540692,  0.06781013, -0.00938103,  0.06117915, -0.04588822,
       -0.13073286, -0.08777761,  0.00702911, -0.13675441, -0.04352143,
        0.06632277, -0.09414359,  0.07472587,  0.07280329,  0.12494402,
       -0.16347262, -0.0153055 , -0.08616108,  0.04639821,  0.13080311,
       -0.06621678, -0.02700787, -0.08853679,  0.1469574 ,  0.06375822,
       -0.08483058,  0.04154156, -0.03112348,  0.01560333, -0.05611658],
      dtype=float32)]FC Layer, 10 (Softmax) Original_Weights[array([[ 0.36590108,  0.18017556, -0.3742727 ,  0.        , -0.4609684 ,
        -0.22169505, -0.30437967,  0.15880504, -0.        ,  0.33427012],
       [-0.        , -0.        , -0.45203224, -0.35501498,  0.33034578,
         0.51764417,  0.40516067, -0.        , -0.32266498,  0.23512684],
       [-0.        ,  0.09961867, -0.40067363,  0.        ,  0.40197188,
        -0.        , -0.17146175,  0.42302522, -0.4743451 ,  0.2652129 ],
       [ 0.4499033 , -0.29183784,  0.5474354 , -0.47627503,  0.        ,
        -0.5033234 , -0.15862872,  0.453802  ,  0.08937005, -0.10737032],
       [ 0.        , -0.        , -0.29223853, -0.57256776,  0.08206335,
        -0.15527424,  0.        ,  0.34414867, -0.21422027,  0.36180347],
       [ 0.        ,  0.5281082 ,  0.03150928, -0.        ,  0.5606408 ,
         0.25140822, -0.46874276, -0.2428828 , -0.3245487 ,  0.14370583],
       [-0.        ,  0.2716676 , -0.30917215, -0.6236564 , -0.        ,
         0.5379831 ,  0.16865136, -0.37611315,  0.15718824,  0.        ],
       [-0.45804954,  0.37981197,  0.25032726,  0.13286167, -0.14475094,
         0.32790804, -0.3630909 , -0.6028266 ,  0.        , -0.        ],
       [ 0.        , -0.20872769, -0.5142703 ,  0.5112007 ,  0.0827093 ,
         0.0150401 ,  0.37600625, -0.44035974,  0.6462031 , -0.09842014],
       [ 0.49511218,  0.40859205,  0.        ,  0.19746092,  0.        ,
        -0.19282277,  0.45142153, -0.2010095 , -0.        , -0.2103246 ],
       [-0.2687827 ,  0.4268943 ,  0.2512047 , -0.17264731,  0.        ,
        -0.507409  , -0.52225745,  0.17286721,  0.        , -0.        ],
       [ 0.        , -0.40250772, -0.        , -0.08297629, -0.3165967 ,
         0.        ,  0.12302533, -0.        ,  0.41281852,  0.        ],
       [-0.58987   , -0.        , -0.        ,  0.4799332 ,  0.11557723,
         0.49360237, -0.19261166, -0.        , -0.6246594 , -0.        ],
       [ 0.15039496, -0.26211843,  0.50279385,  0.61130106,  0.11439615,
        -0.        , -0.25628936,  0.30545518, -0.535094  , -0.08061759],
       [-0.49435598, -0.21512063,  0.48334804, -0.        ,  0.45248955,
         0.        ,  0.37096092, -0.05203062,  0.        , -0.5058408 ],
       [ 0.00101382, -0.3305618 ,  0.40712452,  0.        ,  0.        ,
        -0.45566073, -0.        , -0.        ,  0.        , -0.00833296],
       [-0.        ,  0.13999628, -0.        , -0.43324593,  0.        ,
        -0.536812  ,  0.09341813,  0.16078326, -0.        ,  0.28684893],
       [ 0.        ,  0.33937085, -0.        ,  0.37914264, -0.61151516,
        -0.5944324 ,  0.        , -0.28412136,  0.        ,  0.39899567],
       [-0.43898684,  0.        , -0.28403673,  0.        ,  0.2551924 ,
        -0.        ,  0.21079986,  0.45433673, -0.6154451 , -0.        ],
       [ 0.43790507, -0.23188482, -0.12126526, -0.11943206,  0.        ,
        -0.3126654 ,  0.61793166,  0.5229822 , -0.4690655 , -0.267902  ],
       [-0.36158183, -0.        , -0.351111  ,  0.40537483, -0.16167822,
        -0.37754732, -0.21398547,  0.34976253, -0.22517894, -0.34527713],
       [-0.25383052,  0.4229567 , -0.59113693, -0.        ,  0.        ,
         0.        ,  0.48121443, -0.        , -0.        ,  0.16486114],
       [-0.5397261 ,  0.30559728,  0.5830251 , -0.3365832 , -0.        ,
         0.24947797, -0.2261718 ,  0.31282875, -0.178225  , -0.3465091 ],
       [-0.        , -0.57429534,  0.22985443,  0.        ,  0.46069023,
        -0.21478136,  0.09829874, -0.1784448 , -0.23284078,  0.27266845],
       [-0.28131962,  0.36890894, -0.26574406, -0.1260889 , -0.        ,
         0.32702228, -0.28899232,  0.62027234,  0.15815459, -0.40641972],
       [-0.7291143 ,  0.34864786, -0.        , -0.11515942,  0.        ,
         0.23972365, -0.49857908, -0.        , -0.31233627,  0.53031725],
       [ 0.        ,  0.        , -0.07016843, -0.34621063,  0.3571291 ,
         0.24222557, -0.        , -0.637633  , -0.        ,  0.        ],
       [-0.        , -0.39641064, -0.2660488 ,  0.412587  ,  0.15468547,
         0.        , -0.        ,  0.29284796,  0.5340079 , -0.        ],
       [ 0.26734257, -0.35606557, -0.29512307, -0.4456335 ,  0.36935815,
        -0.        , -0.25328252, -0.32124463,  0.2580693 ,  0.39333183],
       [ 0.        , -0.52689147, -0.        ,  0.25665805, -0.18381698,
        -0.35393485, -0.        , -0.        ,  0.55396366,  0.        ],
       [-0.15757132,  0.20198812, -0.00751415,  0.        ,  0.        ,
        -0.2541619 , -0.        ,  0.6906167 , -0.44790137, -0.34213752],
       [-0.5492075 , -0.        , -0.23813792, -0.40868825,  0.5238559 ,
         0.1808248 , -0.28985244, -0.27247217, -0.32936794,  0.70851123],
       [ 0.26535282, -0.6191714 , -0.5136229 ,  0.3990332 , -0.        ,
         0.        , -0.20782238,  0.20123422,  0.20049573, -0.        ],
       [ 0.07716672, -0.5219713 ,  0.4408591 , -0.17560071, -0.        ,
        -0.3830621 , -0.3616151 , -0.36083764,  0.45685977,  0.25109306],
       [ 0.30598754,  0.22492364,  0.07701845, -0.2426484 , -0.1779981 ,
        -0.46298844,  0.31482384,  0.3727715 , -0.29531124, -0.312919  ],
       [ 0.2871341 , -0.        , -0.        , -0.27595553,  0.        ,
        -0.4947635 ,  0.53012335, -0.3240754 , -0.46251616,  0.        ],
       [ 0.22403592, -0.30393815, -0.35191602, -0.4180026 ,  0.        ,
         0.        ,  0.395275  , -0.12580559,  0.24027188, -0.365683  ],
       [ 0.3877483 , -0.57034045,  0.        ,  0.2824805 , -0.20981352,
         0.        ,  0.53949887, -0.46606207, -0.26689932,  0.        ],
       [-0.11231469,  0.596462  ,  0.36621118,  0.07470348, -0.        ,
        -0.18846345,  0.        ,  0.45911714,  0.26492998, -0.44947034],
       [-0.        ,  0.62838537, -0.36400375,  0.26465553, -0.        ,
        -0.        ,  0.19784474, -0.        , -0.05866205, -0.13868184],
       [ 0.22534935, -0.32479137,  0.4952304 ,  0.25241992,  0.32524747,
        -0.3828396 , -0.6240977 ,  0.        , -0.        ,  0.14835784],
       [ 0.29118025, -0.        , -0.5932452 , -0.17742813,  0.414083  ,
         0.43688303,  0.29684165,  0.        ,  0.2727832 , -0.42603675],
       [ 0.        , -0.32841703,  0.49978113, -0.15335247,  0.4892686 ,
        -0.31500682,  0.19767532, -0.32066953, -0.12259588,  0.        ],
       [-0.2514459 , -0.20606719,  0.        , -0.28689554, -0.62738156,
         0.5145572 ,  0.32369167,  0.        , -0.24479944,  0.44046244],
       [ 0.4514984 , -0.16265123, -0.33322954,  0.        , -0.6837366 ,
         0.2336787 , -0.        ,  0.        ,  0.13817714,  0.61144686],
       [-0.45445922, -0.4458939 ,  0.        ,  0.        ,  0.        ,
        -0.44817853, -0.28360635,  0.31726277, -0.        ,  0.        ],
       [ 0.33272398, -0.1329158 , -0.2601501 , -0.32622555,  0.        ,
         0.        , -0.        , -0.        , -0.33796775,  0.44282794],
       [ 0.21927314, -0.        ,  0.5920835 , -0.43211266,  0.        ,
        -0.41512617, -0.18371622,  0.62408286, -0.5813025 , -0.22826783],
       [-0.5098042 ,  0.40434042,  0.        ,  0.29316476, -0.        ,
        -0.        , -0.        , -0.        ,  0.52061063, -0.5363263 ],
       [-0.15010194,  0.41484135, -0.        ,  0.13240683, -0.5775958 ,
         0.        ,  0.20411962,  0.19731449,  0.2940553 , -0.23825346],
       [ 0.2345648 , -0.        ,  0.        , -0.35262737, -0.26911986,
         0.01666823,  0.4277151 , -0.5124597 ,  0.06618113,  0.        ],
       [ 0.04297026,  0.        ,  0.6641905 ,  0.3925524 , -0.4418863 ,
        -0.        , -0.31016558,  0.        ,  0.46980214, -0.427232  ],
       [ 0.24301048,  0.39320767, -0.58159643, -0.        , -0.        ,
         0.54865503,  0.2339449 ,  0.24034765, -0.4091821 ,  0.        ],
       [ 0.        , -0.23173635,  0.35637486, -0.49015614,  0.1952686 ,
        -0.53999937,  0.05038395, -0.41963333,  0.30053672,  0.1673521 ],
       [ 0.41366377,  0.41503125,  0.        , -0.18358536, -0.61715657,
         0.3824246 , -0.4294423 ,  0.        , -0.        ,  0.23380335],
       [ 0.17480937, -0.27243116,  0.        , -0.        , -0.        ,
         0.7581431 ,  0.40594703,  0.        , -0.        ,  0.        ],
       [-0.        ,  0.42865738, -0.46954852,  0.02559373,  0.35312632,
        -0.35362706,  0.        , -0.35809097, -0.        ,  0.29905784],
       [-0.21994473, -0.22823958, -0.37664607, -0.5544393 ,  0.19770148,
         0.        , -0.        , -0.3965127 ,  0.28963226,  0.20115909],
       [ 0.        ,  0.08320915,  0.33564776, -0.        ,  0.35056213,
         0.45565653, -0.53543925, -0.43635008,  0.15148675,  0.        ],
       [-0.3183939 ,  0.23677422,  0.17846745, -0.14824516, -0.25830942,
        -0.        ,  0.23425913,  0.23460491,  0.32847175, -0.56854266],
       [ 0.27379835, -0.        ,  0.237658  ,  0.        , -0.39243704,
         0.53863597,  0.329734  , -0.25555274, -0.        ,  0.        ],
       [-0.        ,  0.        , -0.30189294, -0.139127  ,  0.3563889 ,
         0.37168902,  0.        ,  0.42226595, -0.18338105, -0.        ],
       [-0.09318946,  0.18957002,  0.526067  , -0.28597578, -0.22635826,
         0.32285193, -0.        , -0.3928526 ,  0.43020812, -0.4797681 ],
       [ 0.59091914, -0.34513637,  0.16327475,  0.        ,  0.28874278,
         0.        , -0.45793793,  0.        , -0.41016376,  0.35474333],
       [-0.        , -0.561887  ,  0.49446794, -0.20389627,  0.        ,
         0.1178868 ,  0.28492802, -0.5137908 , -0.3137789 ,  0.        ],
       [ 0.37991777,  0.40446946,  0.2524522 , -0.60498464, -0.25476316,
        -0.31722015,  0.49537268,  0.        ,  0.1521482 , -0.15296367],
       [-0.36567616, -0.51699364,  0.6074556 , -0.        , -0.46647856,
         0.19950438, -0.        , -0.3047517 ,  0.        ,  0.5076504 ],
       [-0.        ,  0.42528206, -0.22439648, -0.        , -0.        ,
         0.44519386, -0.30070606,  0.32025117, -0.4145423 , -0.30500954],
       [ 0.05490962, -0.16144398,  0.1803983 , -0.37914217, -0.44531453,
        -0.36812353, -0.3851955 ,  0.        ,  0.3827509 ,  0.67464113],
       [ 0.3199699 ,  0.4417662 , -0.3101349 ,  0.26574633, -0.28543368,
        -0.17825693, -0.1786772 ,  0.5326883 ,  0.        , -0.44675383],
       [-0.        ,  0.31092113, -0.30310372, -0.40121734,  0.        ,
        -0.33689445,  0.5648935 , -0.290011  , -0.15102698,  0.01791742],
       [ 0.2549074 ,  0.        , -0.26347134,  0.34464216, -0.49284974,
         0.6407618 , -0.2520413 , -0.37149385, -0.5139323 , -0.        ],
       [ 0.71313804, -0.15695365,  0.22329162, -0.36609933, -0.13252802,
         0.        , -0.34194532,  0.        , -0.2888927 ,  0.19394386],
       [ 0.35883456,  0.22707202,  0.3702808 ,  0.5601804 , -0.3249634 ,
        -0.26668426, -0.6413367 ,  0.        , -0.42909598, -0.18933508],
       [ 0.34188458, -0.20761412, -0.48600262, -0.        ,  0.29573098,
        -0.40662724,  0.20669085, -0.3655433 ,  0.3258704 ,  0.530303  ],
       [ 0.63080686, -0.        , -0.40185678,  0.16195475,  0.        ,
        -0.27585438,  0.7364437 ,  0.2318757 ,  0.18392947, -0.25820163],
       [ 0.        , -0.28148216, -0.38667142, -0.545503  ,  0.25221547,
        -0.46993116,  0.3173299 ,  0.44850942,  0.5510886 , -0.        ],
       [ 0.47631702, -0.20353287,  0.36458966,  0.22411564, -0.        ,
         0.        , -0.36725956,  0.        , -0.321932  ,  0.16168799],
       [-0.12010311, -0.48200932,  0.        , -0.        , -0.6604106 ,
        -0.19491115, -0.29623103, -0.        ,  0.5374048 ,  0.23304172],
       [ 0.        ,  0.6989147 ,  0.05762468,  0.        ,  0.57481253,
        -0.49366927, -0.        , -0.        ,  0.2432554 , -0.38339564],
       [-0.        , -0.        ,  0.39619416, -0.22792041, -0.12504967,
        -0.4666841 ,  0.        ,  0.41570225,  0.08063444, -0.19270234],
       [ 0.        ,  0.30311838,  0.09281375,  0.        , -0.5588875 ,
        -0.39156798,  0.24202636, -0.6024534 ,  0.35624737, -0.        ],
       [-0.41094854,  0.32407242, -0.3955141 ,  0.658925  , -0.        ,
         0.24857742,  0.46852115,  0.        ,  0.        , -0.45414084],
       [ 0.        ,  0.28482324, -0.21051669, -0.43115515, -0.        ,
         0.5786823 , -0.31509814,  0.34230098, -0.07158453, -0.        ],
       [ 0.        , -0.26857847, -0.21819417,  0.46974888, -0.28672624,
         0.3533302 ,  0.46576965, -0.04181356, -0.10542227, -0.2454009 ],
       [ 0.        , -0.56304884, -0.38121316,  0.1412838 ,  0.28033668,
        -0.44666907, -0.        ,  0.29716048,  0.28034145, -0.        ],
       [-0.18985991,  0.34493223,  0.        ,  0.3628773 ,  0.        ,
        -0.6786566 , -0.24148095, -0.        , -0.20610607,  0.11753429],
       [ 0.        ,  0.        ,  0.33224434, -0.36672333,  0.4783948 ,
        -0.3172488 , -0.41304678, -0.        ,  0.39839658,  0.        ],
       [-0.24686965, -0.5537697 , -0.3251679 ,  0.35030243, -0.        ,
         0.3414259 , -0.23920643,  0.38685992,  0.        ,  0.23517208],
       [-0.48197857,  0.09838011, -0.42465022,  0.2849832 ,  0.        ,
         0.5812285 , -0.        , -0.5339237 , -0.        ,  0.38722548],
       [ 0.2991622 ,  0.        ,  0.19097222, -0.38031793, -0.35786852,
        -0.        , -0.        , -0.5952997 ,  0.52675843, -0.28954986],
       [ 0.4396852 ,  0.        ,  0.49618348, -0.22009298, -0.        ,
        -0.        ,  0.        ,  0.        , -0.05346052, -0.5400656 ],
       [ 0.        , -0.5082566 , -0.345287  , -0.        , -0.7198306 ,
         0.        , -0.2972433 ,  0.3381124 ,  0.39154345,  0.6342604 ],
       [-0.        , -0.        ,  0.38651198, -0.24826972, -0.        ,
         0.32155448,  0.17950667, -0.2661255 , -0.14101663,  0.        ],
       [-0.1199858 , -0.        ,  0.23685156,  0.32574195, -0.38254017,
        -0.19968662, -0.75856316, -0.23490448, -0.23680894,  0.5130869 ],
       [ 0.49004847,  0.31507596,  0.        ,  0.45453283, -0.3323356 ,
        -0.3295996 ,  0.        ,  0.        , -0.        ,  0.43253496],
       [-0.39290375, -0.10290463, -0.45280105,  0.4100809 , -0.09385215,
         0.04128025, -0.33862355,  0.3933102 , -0.23114625, -0.        ],
       [-0.        ,  0.71740997,  0.        ,  0.14173709,  0.46092945,
        -0.28160232,  0.        , -0.3940148 , -0.        ,  0.        ],
       [ 0.08719765, -0.        ,  0.60973376, -0.1889808 ,  0.1011286 ,
        -0.33453253,  0.30317223, -0.33230796, -0.1954737 , -0.34812903],
       [-0.01658511,  0.        , -0.        ,  0.5449192 , -0.        ,
         0.        ,  0.16127373, -0.61427915,  0.        , -0.26082665]],
      dtype=float32)
 array([-0.14507176,  0.2278973 ,  0.10368687, -0.01098618, -0.0378565 ,
        0.13547   , -0.01016216,  0.17597246, -0.3178939 , -0.0450688 ],
      dtype=float32)]