FC Layer, 300 (Glorot Init.) Original_Weights[array([[ 0.06812921,  0.        ,  0.        , ..., -0.        ,
         0.        ,  0.        ],
       [ 0.        , -0.        , -0.        , ..., -0.        ,
         0.        , -0.        ],
       [ 0.        ,  0.        , -0.        , ..., -0.        ,
        -0.        , -0.        ],
       ...,
       [ 0.        ,  0.        , -0.        , ...,  0.        ,
         0.        ,  0.        ],
       [ 0.        , -0.        , -0.        , ...,  0.        ,
         0.        , -0.        ],
       [-0.        , -0.        , -0.        , ..., -0.        ,
        -0.        , -0.        ]], dtype=float32)
 array([ 0.03783331,  0.04270209,  0.06662131,  0.12271827, -0.07167891,
       -0.10089958,  0.11851183,  0.09637686, -0.00313737,  0.15939501,
       -0.01056672, -0.02911823,  0.05394553,  0.05428826,  0.05152924,
        0.01308412,  0.09095141, -0.12608375, -0.02529855,  0.17915985,
       -0.00085914, -0.06156301, -0.05047971, -0.03787015,  0.17437   ,
       -0.0262061 , -0.12205542,  0.02414706,  0.01248096,  0.12443262,
        0.00311568, -0.03210866,  0.01640475, -0.0395692 , -0.05683821,
        0.090872  ,  0.01932676, -0.03930628,  0.07584266, -0.10398628,
       -0.01868552, -0.0354699 , -0.08453061, -0.01098752,  0.01261314,
        0.00437941,  0.03657151, -0.06420064, -0.09364171,  0.03903153,
       -0.12200711, -0.11240355,  0.02929497,  0.02179704, -0.08000692,
        0.08963561,  0.10969865, -0.06019924,  0.05989105,  0.10829466,
       -0.04450666, -0.02416622, -0.0962404 ,  0.08494823,  0.05247343,
       -0.0347491 ,  0.19933626,  0.02521321,  0.06145114,  0.07706129,
       -0.15019774, -0.02977265,  0.07382473, -0.03234402,  0.07575029,
        0.02452139, -0.02846265, -0.10370926,  0.01459996,  0.05175527,
        0.00645523,  0.0072542 ,  0.1705024 ,  0.02689566, -0.01609886,
        0.12655598,  0.11967201, -0.11356556, -0.03878621, -0.11706698,
        0.07588373, -0.01713855, -0.02034778,  0.07822789,  0.06654713,
       -0.08451106, -0.08550062,  0.14336368,  0.0126223 ,  0.10053897,
       -0.1022409 , -0.00026204, -0.03189418, -0.11230887,  0.03269517,
       -0.00103317, -0.06761276,  0.01072192, -0.05232754,  0.04789572,
       -0.02050136, -0.00979565,  0.02204469,  0.02613481,  0.09920195,
        0.06319353, -0.09087385,  0.00771108,  0.02184767,  0.03510747,
        0.04940241, -0.10200755, -0.03083647,  0.10161977, -0.00505452,
        0.12223735, -0.03381544,  0.1082598 , -0.15068373, -0.00408571,
        0.00558515, -0.01142522, -0.00043927,  0.05310246,  0.07940263,
        0.0444155 , -0.04411089,  0.07511147, -0.00533432,  0.0109918 ,
       -0.01673189,  0.01008758, -0.08061637,  0.06637081,  0.04919894,
        0.05600483, -0.09467052, -0.05959017, -0.00144439,  0.03723207,
       -0.01477977,  0.0203335 ,  0.06360253,  0.1576802 , -0.12156756,
        0.10947712, -0.01034539,  0.08793253, -0.0271283 ,  0.08396687,
       -0.09771591, -0.12756473, -0.04545422,  0.04812818, -0.10429824,
       -0.16072951, -0.02280272,  0.01819154, -0.03273255,  0.02041058,
       -0.08699515,  0.09324673, -0.01626163, -0.06585367,  0.10776205,
        0.09384343, -0.01489638, -0.00274697,  0.011116  , -0.01242752,
        0.17110084,  0.05805567, -0.00343818,  0.04747362,  0.00516065,
        0.06786954,  0.07699512, -0.07360786,  0.10274079, -0.03556602,
        0.00923218, -0.01193656,  0.16612391,  0.0529028 , -0.01346445,
        0.02152902, -0.05715871,  0.06776925,  0.23117305,  0.05491827,
        0.01736714, -0.01645638, -0.04734488,  0.025923  , -0.09101707,
        0.07348138,  0.08912012,  0.19163245, -0.09972676, -0.01841469,
       -0.02092785,  0.15901193,  0.05730028, -0.01762561, -0.08205382,
        0.01671351,  0.07816225,  0.02630516,  0.00501882, -0.07210063,
       -0.02958307,  0.16679054, -0.04691632,  0.05966762, -0.06053427,
       -0.0446132 , -0.00848688, -0.01953332, -0.08283223,  0.05454051,
       -0.09342998, -0.01457494, -0.01337708,  0.03297841,  0.0748902 ,
       -0.06274053,  0.09939082, -0.05054914, -0.02988295,  0.11513366,
       -0.02903923,  0.06836155, -0.0307078 , -0.16072135, -0.03649092,
        0.08406024,  0.20586714, -0.0401374 , -0.0332293 ,  0.05430439,
        0.14474559,  0.03765691, -0.16523783,  0.00886836,  0.00309675,
        0.02771256,  0.16563873,  0.11513781,  0.05237842, -0.06409591,
       -0.07870213, -0.02494979,  0.0011564 , -0.08282011,  0.01647106,
       -0.09055076,  0.01528568, -0.03505586, -0.09889032,  0.12718499,
       -0.14133525, -0.06872765,  0.08721528, -0.11126515,  0.01691307,
       -0.01751852, -0.02658543,  0.01610347,  0.02019166, -0.05363594,
       -0.0322183 , -0.04753969,  0.12657872, -0.0380095 ,  0.11089222,
       -0.05603153,  0.00831492, -0.00765102,  0.20133518,  0.03778119,
       -0.08756469,  0.09818928,  0.06239395, -0.06034254,  0.11700492,
        0.08315577, -0.0923291 , -0.05657716, -0.04066123,  0.02702201],
      dtype=float32)]FC Layer, 100 (Glorot Init.) Original_Weights[array([[ 0.24383335, -0.20164993,  0.        , ...,  0.        ,
        -0.        ,  0.        ],
       [ 0.        , -0.20039433, -0.1452477 , ...,  0.        ,
         0.11099494, -0.42057157],
       [ 0.        ,  0.2286128 , -0.        , ..., -0.        ,
         0.        , -0.        ],
       ...,
       [ 0.21445145, -0.        , -0.        , ...,  0.30783686,
        -0.        ,  0.        ],
       [ 0.15851946,  0.19157128, -0.21055435, ..., -0.        ,
         0.        , -0.        ],
       [ 0.        ,  0.        ,  0.21530418, ...,  0.        ,
        -0.        ,  0.        ]], dtype=float32)
 array([-0.05624015,  0.05441128,  0.13780965, -0.0371466 ,  0.06147334,
        0.13859898,  0.03803256,  0.07974841, -0.2037882 , -0.0545317 ,
        0.0284535 , -0.11136218,  0.18093757,  0.06128336,  0.00608351,
       -0.0107746 , -0.00868566, -0.02735506,  0.18839175,  0.04176984,
        0.08127847,  0.0706865 ,  0.13239066, -0.10447859,  0.09039121,
        0.13491586, -0.08389603, -0.09704185, -0.12783198, -0.1368116 ,
        0.15591629,  0.023431  , -0.11591738, -0.13439979,  0.06804248,
       -0.09119439, -0.08315343, -0.11861974, -0.02789575,  0.02718853,
       -0.08475622, -0.01187768, -0.11299609,  0.02319787, -0.02191901,
       -0.11052687,  0.03042123,  0.1478572 , -0.02534124,  0.03219628,
       -0.04185589, -0.02033852,  0.0936471 , -0.10713079,  0.13367626,
        0.07943941, -0.07871836, -0.05554086,  0.04248479,  0.04205113,
        0.04897903,  0.06578322,  0.00479147, -0.02101208, -0.04035165,
       -0.02784104, -0.01965396,  0.21197417, -0.08777488,  0.06364717,
       -0.0708884 ,  0.03027555,  0.07055686, -0.00901511, -0.08128855,
       -0.08183122, -0.03980919,  0.00471453, -0.13295855,  0.00775597,
        0.08207648, -0.10257363,  0.07044106,  0.0330768 , -0.00220827,
       -0.14265998,  0.00404373, -0.02779623, -0.01251974,  0.02546996,
       -0.04566666, -0.04154868, -0.108827  ,  0.14104268,  0.06327196,
       -0.06490824,  0.06389452,  0.03948865, -0.0612966 , -0.10634474],
      dtype=float32)]FC Layer, 10 (Softmax) Original_Weights[array([[ 0.40315762, -0.        , -0.40888968, -0.        , -0.64357644,
        -0.        , -0.4255838 ,  0.        ,  0.        ,  0.558468  ],
       [ 0.        , -0.        , -0.4924472 , -0.42238772,  0.36082166,
         0.6268779 ,  0.36803192,  0.        , -0.32334718,  0.3638463 ],
       [-0.        ,  0.        ,  0.        ,  0.        ,  0.32848617,
        -0.        , -0.30770564,  0.58498734, -0.4887688 ,  0.        ],
       [ 0.        , -0.31283137,  0.7103728 , -0.39997545, -0.        ,
        -0.56163466,  0.        ,  0.46191415,  0.        , -0.        ],
       [ 0.        , -0.        , -0.25077203, -0.62289655, -0.        ,
        -0.        ,  0.        ,  0.36836365, -0.27593553,  0.5454962 ],
       [ 0.        ,  0.523458  , -0.        , -0.        ,  0.25168395,
         0.47945908, -0.59553397, -0.        , -0.26513815, -0.        ],
       [-0.        ,  0.2542508 , -0.4063337 , -0.72963595, -0.        ,
         0.46818376,  0.34424868, -0.44823572, -0.        ,  0.        ],
       [-0.49397528,  0.34325165,  0.23701452, -0.        ,  0.        ,
         0.        , -0.38568217, -0.5704006 , -0.        ,  0.        ],
       [ 0.        , -0.35182557, -0.6637793 ,  0.61160684, -0.        ,
         0.        ,  0.39360595, -0.52892506,  0.58090574, -0.        ],
       [ 0.577464  ,  0.5584822 , -0.        ,  0.        ,  0.        ,
        -0.329957  ,  0.5561914 ,  0.        ,  0.        ,  0.        ],
       [ 0.        ,  0.40199742, -0.        , -0.        ,  0.        ,
        -0.58346075, -0.57895094, -0.        , -0.        , -0.        ],
       [ 0.        , -0.43638474, -0.        , -0.        , -0.29562306,
        -0.        ,  0.        ,  0.        ,  0.6192786 , -0.        ],
       [-0.5645926 ,  0.        , -0.        ,  0.450483  , -0.        ,
         0.64024574, -0.        , -0.        , -0.7327872 , -0.        ],
       [-0.        , -0.1291783 ,  0.5151588 ,  0.66005766,  0.        ,
        -0.        , -0.45431095,  0.36358583, -0.5702852 ,  0.        ],
       [-0.4014452 , -0.36402833,  0.5953553 ,  0.        ,  0.58929694,
        -0.        ,  0.        ,  0.        ,  0.        , -0.43036148],
       [ 0.        , -0.4499334 ,  0.38503534, -0.        , -0.        ,
        -0.653163  ,  0.        ,  0.        , -0.        , -0.        ],
       [ 0.        ,  0.        , -0.        , -0.5352439 , -0.        ,
        -0.5194507 ,  0.        , -0.        , -0.        ,  0.45729277],
       [-0.        ,  0.3054081 , -0.        ,  0.33993483, -0.7543199 ,
        -0.5179404 , -0.        , -0.30361167, -0.        ,  0.51026064],
       [-0.423077  , -0.        , -0.26344615,  0.        ,  0.29657984,
        -0.        ,  0.29596   ,  0.4209843 , -0.6912657 ,  0.        ],
       [ 0.5279591 , -0.2672141 ,  0.        ,  0.        , -0.        ,
        -0.28138667,  0.5136964 ,  0.45974693, -0.4674475 , -0.        ],
       [-0.49927375,  0.        , -0.40913063,  0.38123047,  0.        ,
        -0.        , -0.        ,  0.31064042, -0.        , -0.21071589],
       [ 0.        ,  0.49450716, -0.54001486, -0.        , -0.        ,
         0.        ,  0.6806328 , -0.        , -0.        ,  0.2222626 ],
       [-0.72835743,  0.34937918,  0.62795997, -0.340636  ,  0.        ,
         0.31493676, -0.        ,  0.3712795 , -0.2409632 , -0.4111239 ],
       [-0.        , -0.64732087,  0.        ,  0.        ,  0.44558278,
         0.        ,  0.        ,  0.        ,  0.        ,  0.43571293],
       [-0.        ,  0.4106521 , -0.31837633, -0.        ,  0.        ,
         0.29983854, -0.22116621,  0.5943682 , -0.        , -0.47738895],
       [-0.8056803 ,  0.29391715,  0.        , -0.        ,  0.        ,
         0.29097742, -0.59920424, -0.        , -0.40496725,  0.5671402 ],
       [ 0.        ,  0.        , -0.        , -0.40209192,  0.5926083 ,
         0.        , -0.        , -0.6854492 , -0.        , -0.        ],
       [ 0.        , -0.53427243, -0.3556507 ,  0.4848306 , -0.        ,
         0.        , -0.        ,  0.2768796 ,  0.555491  , -0.        ],
       [ 0.3378454 , -0.39899153, -0.43896177, -0.54317915,  0.48794913,
         0.        , -0.31626022,  0.        ,  0.35559246,  0.44548   ],
       [ 0.        , -0.5818198 , -0.        ,  0.39884526, -0.        ,
        -0.28523204,  0.        ,  0.        ,  0.58547753, -0.        ],
       [ 0.        , -0.        ,  0.        , -0.        , -0.        ,
        -0.        ,  0.        ,  0.75382537, -0.54410195, -0.40753806],
       [-0.47463349, -0.        ,  0.        , -0.46155494,  0.6199821 ,
        -0.        , -0.28581133, -0.30159014, -0.36735287,  0.710671  ],
       [ 0.25484827, -0.659092  , -0.6330713 ,  0.46126896, -0.        ,
        -0.        , -0.35714066,  0.25854522,  0.32013264, -0.        ],
       [ 0.        , -0.5402456 ,  0.3822741 , -0.        ,  0.        ,
        -0.5466209 , -0.292896  , -0.31054398,  0.48174328, -0.        ],
       [ 0.471733  ,  0.28969836, -0.        ,  0.        , -0.        ,
        -0.5298353 ,  0.28905657,  0.25902167, -0.4161379 , -0.3481944 ],
       [ 0.36072376, -0.        ,  0.        ,  0.        , -0.        ,
        -0.4915783 ,  0.52636683, -0.4348561 , -0.39931738, -0.        ],
       [ 0.47380617, -0.25749594, -0.44490665, -0.5189887 , -0.        ,
         0.        ,  0.48607418,  0.        ,  0.27452782, -0.37562656],
       [ 0.4238116 , -0.44202474, -0.        ,  0.3426821 ,  0.        ,
        -0.        ,  0.5548856 , -0.4594147 , -0.29917654, -0.        ],
       [-0.        ,  0.5399099 ,  0.49777573, -0.        ,  0.        ,
        -0.        , -0.        ,  0.47178087,  0.33219898, -0.49889857],
       [-0.        ,  0.6981943 , -0.536489  ,  0.3687698 ,  0.        ,
        -0.        , -0.        , -0.        , -0.        ,  0.        ],
       [ 0.28138933, -0.45425868,  0.47967106,  0.31570062,  0.37006295,
        -0.50781995, -0.7481961 , -0.        , -0.        , -0.        ],
       [ 0.30495065, -0.        , -0.510329  ,  0.        ,  0.44365996,
         0.45443976,  0.22683808,  0.        ,  0.        , -0.43063334],
       [ 0.        , -0.31266952,  0.483905  ,  0.        ,  0.6001376 ,
        -0.3088141 , -0.        , -0.38102007,  0.        ,  0.        ],
       [-0.        , -0.        ,  0.        , -0.23962846, -0.6770694 ,
         0.41964224,  0.28767982, -0.        , -0.30352193,  0.7203768 ],
       [ 0.5030748 ,  0.        , -0.28864816, -0.        , -0.75072527,
         0.24334556,  0.        ,  0.        , -0.        ,  0.641363  ],
       [-0.49669576, -0.54336786,  0.        ,  0.        , -0.        ,
        -0.49364522,  0.        ,  0.3562713 ,  0.        ,  0.        ],
       [ 0.42018163, -0.        , -0.3728611 , -0.406417  , -0.        ,
         0.        ,  0.        ,  0.        , -0.32640997,  0.5840006 ],
       [ 0.        , -0.        ,  0.68136734, -0.50167453, -0.        ,
        -0.3997081 , -0.2037842 ,  0.6633501 , -0.4995381 , -0.        ],
       [-0.56287366,  0.41270247, -0.        , -0.        ,  0.        ,
        -0.        , -0.        , -0.        ,  0.4611334 , -0.602242  ],
       [-0.2515671 ,  0.34116012, -0.        ,  0.        , -0.5737309 ,
         0.        ,  0.26014358, -0.        ,  0.36689404, -0.        ],
       [ 0.        , -0.        , -0.        , -0.42021847,  0.        ,
         0.        ,  0.34272724, -0.59714675, -0.        ,  0.        ],
       [-0.        , -0.        ,  0.60779953,  0.35804087, -0.4900199 ,
        -0.        , -0.37826774,  0.        ,  0.47573876, -0.390665  ],
       [-0.        ,  0.37019566, -0.5677659 ,  0.        ,  0.        ,
         0.5294087 ,  0.35938522,  0.        , -0.41248822,  0.        ],
       [ 0.        ,  0.        ,  0.45848542, -0.4155161 ,  0.22975387,
        -0.5059317 ,  0.        , -0.54604864, -0.        ,  0.        ],
       [ 0.32398263,  0.28751525,  0.        ,  0.        , -0.6088286 ,
         0.31667677, -0.48343363, -0.        , -0.        ,  0.2892012 ],
       [ 0.        , -0.30677748,  0.        ,  0.        ,  0.        ,
         0.8876072 ,  0.45345563,  0.        ,  0.        , -0.        ],
       [-0.        ,  0.44672135, -0.42805362, -0.        ,  0.49454993,
        -0.34865126, -0.        , -0.36862656, -0.        ,  0.36278406],
       [-0.32238173, -0.52169096, -0.34174618, -0.7049844 , -0.        ,
         0.        ,  0.        , -0.46700642,  0.3570081 , -0.        ],
       [ 0.        , -0.        ,  0.24913761,  0.        ,  0.41638404,
         0.4907266 , -0.5594629 , -0.47463104, -0.        , -0.        ],
       [-0.29234186,  0.34221762,  0.        , -0.        , -0.28750446,
        -0.        ,  0.28696483,  0.22996853,  0.21952572, -0.5449192 ],
       [ 0.32303455, -0.        ,  0.        , -0.        , -0.56691045,
         0.86135966,  0.42837995,  0.        ,  0.        ,  0.        ],
       [-0.        ,  0.        , -0.3059935 , -0.        ,  0.47636226,
         0.36686853,  0.        ,  0.43743715, -0.        , -0.        ],
       [ 0.        , -0.        ,  0.56226176, -0.2960395 , -0.25155923,
         0.33146346,  0.        , -0.3801167 ,  0.5485712 , -0.6916916 ],
       [ 0.5940997 , -0.41876748,  0.        , -0.        ,  0.3534597 ,
        -0.        , -0.52060556,  0.        , -0.32389727,  0.46271086],
       [ 0.        , -0.41080746,  0.7257078 , -0.        , -0.        ,
         0.        ,  0.28008816, -0.5461993 , -0.4419952 , -0.        ],
       [ 0.4644896 ,  0.363401  ,  0.        , -0.49424458, -0.38211763,
        -0.3220076 ,  0.60211754, -0.        ,  0.3343591 , -0.26175427],
       [-0.3432528 , -0.41726774,  0.59811765, -0.        , -0.5102195 ,
         0.23496225,  0.        , -0.41638276, -0.        ,  0.5318486 ],
       [-0.        ,  0.4281208 ,  0.        ,  0.        ,  0.        ,
         0.4600102 , -0.        ,  0.45440787, -0.31117836, -0.41230986],
       [ 0.        ,  0.        , -0.        , -0.4727692 , -0.48116854,
        -0.48332283, -0.42273188, -0.        ,  0.46075243,  0.7018758 ],
       [ 0.2953098 ,  0.2904459 , -0.3202758 ,  0.29827124, -0.3086479 ,
        -0.        , -0.        ,  0.7027414 , -0.        , -0.37734902],
       [ 0.        ,  0.35536304, -0.38951772, -0.3965764 , -0.        ,
        -0.41458485,  0.74499756, -0.30878147, -0.        ,  0.        ],
       [ 0.31411445,  0.        , -0.33149135,  0.33397317, -0.4275523 ,
         0.67038167, -0.        , -0.46922258, -0.51571625,  0.        ],
       [ 0.8108202 , -0.        ,  0.2489742 , -0.42929587,  0.        ,
        -0.        , -0.438428  ,  0.        , -0.3109012 ,  0.        ],
       [ 0.5297339 ,  0.        ,  0.36846647,  0.58926225,  0.        ,
        -0.50009257, -0.6177819 , -0.        , -0.50870585, -0.25958672],
       [ 0.44661054,  0.        , -0.4858535 , -0.        ,  0.45658535,
        -0.39833933,  0.        , -0.4962814 ,  0.489479  ,  0.51898754],
       [ 0.6280696 , -0.        , -0.5261484 ,  0.        , -0.        ,
        -0.33939028,  0.7100027 ,  0.27889788,  0.        , -0.3489755 ],
       [ 0.        ,  0.        , -0.5433578 , -0.642815  ,  0.29556558,
        -0.37896875,  0.33015868,  0.48371968,  0.50010633, -0.        ],
       [ 0.6356881 , -0.        ,  0.531706  ,  0.        ,  0.        ,
        -0.        , -0.3939881 ,  0.        , -0.4133141 ,  0.        ],
       [ 0.        , -0.69737595, -0.        , -0.        , -0.689003  ,
        -0.        , -0.32453725, -0.        ,  0.53415763,  0.3710597 ],
       [ 0.        ,  0.58413774, -0.        , -0.        ,  0.7757169 ,
        -0.53541964,  0.        , -0.        , -0.        , -0.29170704],
       [-0.        ,  0.        ,  0.21844016, -0.        , -0.        ,
        -0.5187252 ,  0.        ,  0.5901782 , -0.        ,  0.        ],
       [ 0.        ,  0.3427485 , -0.        , -0.        , -0.49474072,
        -0.5281552 ,  0.        , -0.49778998,  0.5257205 ,  0.        ],
       [-0.7345564 ,  0.2887213 , -0.34991068,  0.75829494, -0.        ,
         0.30963218,  0.49016845, -0.        , -0.        , -0.58669347],
       [-0.        ,  0.33679828,  0.        , -0.45452666,  0.        ,
         0.54648256, -0.4534014 ,  0.37677467, -0.        ,  0.        ],
       [ 0.        , -0.2943814 , -0.280222  ,  0.6344578 , -0.        ,
         0.41990998,  0.49966303,  0.        ,  0.        , -0.        ],
       [ 0.        , -0.49694526, -0.46917057, -0.        ,  0.40150762,
        -0.5531206 ,  0.        ,  0.32170218,  0.2760339 , -0.        ],
       [-0.        ,  0.35893407, -0.        ,  0.5609582 ,  0.        ,
        -0.67393064, -0.23923264, -0.        , -0.38183317,  0.        ],
       [ 0.        ,  0.        ,  0.41023254, -0.5272228 ,  0.41870785,
        -0.2845703 , -0.298919  , -0.        ,  0.39155605, -0.        ],
       [-0.43043908, -0.6184081 , -0.        ,  0.4201058 ,  0.        ,
         0.27650073, -0.40181032,  0.37451088,  0.        ,  0.30559477],
       [-0.45826334,  0.        , -0.505086  ,  0.2844983 ,  0.        ,
         0.46262482, -0.        , -0.71728474, -0.        ,  0.49436855],
       [ 0.38249356, -0.        ,  0.265501  , -0.37285742, -0.36233217,
         0.        ,  0.        , -0.6539407 ,  0.5372864 , -0.4139383 ],
       [ 0.4268812 ,  0.        ,  0.64279115, -0.2517371 ,  0.        ,
        -0.        , -0.        , -0.        , -0.        , -0.47875336],
       [ 0.        , -0.53702384, -0.35573   , -0.        , -0.7067131 ,
        -0.        , -0.33053452,  0.37336412,  0.39456367,  0.6320374 ],
       [ 0.        , -0.        ,  0.64228094,  0.        ,  0.        ,
         0.48029128, -0.        , -0.4147176 ,  0.        , -0.        ],
       [ 0.        , -0.        ,  0.30587763,  0.4205857 , -0.38676125,
         0.        , -0.64366704, -0.23247069, -0.26546952,  0.4484092 ],
       [ 0.6156235 , -0.        , -0.        ,  0.44051778, -0.55218273,
        -0.36602035,  0.        , -0.        ,  0.        ,  0.56944054],
       [-0.5621013 ,  0.        , -0.56862605,  0.40468785,  0.        ,
        -0.        , -0.47757187,  0.41826916, -0.        , -0.        ],
       [-0.        ,  0.80494803,  0.        ,  0.        ,  0.43328276,
        -0.41837293, -0.        , -0.4188029 ,  0.        , -0.        ],
       [ 0.        , -0.        ,  0.64403963,  0.        , -0.        ,
        -0.28136235,  0.3509472 , -0.39153904,  0.        , -0.39132282],
       [ 0.        , -0.        , -0.        ,  0.7079577 ,  0.        ,
         0.        , -0.        , -0.5795066 ,  0.        ,  0.        ]],
      dtype=float32)
 array([-0.07263172,  0.17631717,  0.09103999, -0.04875622,  0.00626093,
        0.11868055, -0.04010418,  0.14783591, -0.27371982, -0.06112611],
      dtype=float32)]